{
    "info": {
        "ai": {
            "config": {
                "hiddenLayers": [
                    128,
                    128
                ],
                "activation": "sigmoid"
            },
            "training": {
                "iterations": 2000,
                "errorThresh": 0.1,
                "learningRate": 0.01,
                "momentum": 0.1
            }
        },
        "id": "8494f49b5af73411e56fbc843b3caf4f",
        "dimension": [
            16,
            16
        ],
        "channel": "red",
        "colorspace": "b-w",
        "blackWhite": true
    },
    "data": {
        "sizes": [
            256,
            128,
            128,
            10
        ],
        "layers": [
            {
                "0": {},
                "1": {},
                "2": {},
                "3": {},
                "4": {},
                "5": {},
                "6": {},
                "7": {},
                "8": {},
                "9": {},
                "10": {},
                "11": {},
                "12": {},
                "13": {},
                "14": {},
                "15": {},
                "16": {},
                "17": {},
                "18": {},
                "19": {},
                "20": {},
                "21": {},
                "22": {},
                "23": {},
                "24": {},
                "25": {},
                "26": {},
                "27": {},
                "28": {},
                "29": {},
                "30": {},
                "31": {},
                "32": {},
                "33": {},
                "34": {},
                "35": {},
                "36": {},
                "37": {},
                "38": {},
                "39": {},
                "40": {},
                "41": {},
                "42": {},
                "43": {},
                "44": {},
                "45": {},
                "46": {},
                "47": {},
                "48": {},
                "49": {},
                "50": {},
                "51": {},
                "52": {},
                "53": {},
                "54": {},
                "55": {},
                "56": {},
                "57": {},
                "58": {},
                "59": {},
                "60": {},
                "61": {},
                "62": {},
                "63": {},
                "64": {},
                "65": {},
                "66": {},
                "67": {},
                "68": {},
                "69": {},
                "70": {},
                "71": {},
                "72": {},
                "73": {},
                "74": {},
                "75": {},
                "76": {},
                "77": {},
                "78": {},
                "79": {},
                "80": {},
                "81": {},
                "82": {},
                "83": {},
                "84": {},
                "85": {},
                "86": {},
                "87": {},
                "88": {},
                "89": {},
                "90": {},
                "91": {},
                "92": {},
                "93": {},
                "94": {},
                "95": {},
                "96": {},
                "97": {},
                "98": {},
                "99": {},
                "100": {},
                "101": {},
                "102": {},
                "103": {},
                "104": {},
                "105": {},
                "106": {},
                "107": {},
                "108": {},
                "109": {},
                "110": {},
                "111": {},
                "112": {},
                "113": {},
                "114": {},
                "115": {},
                "116": {},
                "117": {},
                "118": {},
                "119": {},
                "120": {},
                "121": {},
                "122": {},
                "123": {},
                "124": {},
                "125": {},
                "126": {},
                "127": {},
                "128": {},
                "129": {},
                "130": {},
                "131": {},
                "132": {},
                "133": {},
                "134": {},
                "135": {},
                "136": {},
                "137": {},
                "138": {},
                "139": {},
                "140": {},
                "141": {},
                "142": {},
                "143": {},
                "144": {},
                "145": {},
                "146": {},
                "147": {},
                "148": {},
                "149": {},
                "150": {},
                "151": {},
                "152": {},
                "153": {},
                "154": {},
                "155": {},
                "156": {},
                "157": {},
                "158": {},
                "159": {},
                "160": {},
                "161": {},
                "162": {},
                "163": {},
                "164": {},
                "165": {},
                "166": {},
                "167": {},
                "168": {},
                "169": {},
                "170": {},
                "171": {},
                "172": {},
                "173": {},
                "174": {},
                "175": {},
                "176": {},
                "177": {},
                "178": {},
                "179": {},
                "180": {},
                "181": {},
                "182": {},
                "183": {},
                "184": {},
                "185": {},
                "186": {},
                "187": {},
                "188": {},
                "189": {},
                "190": {},
                "191": {},
                "192": {},
                "193": {},
                "194": {},
                "195": {},
                "196": {},
                "197": {},
                "198": {},
                "199": {},
                "200": {},
                "201": {},
                "202": {},
                "203": {},
                "204": {},
                "205": {},
                "206": {},
                "207": {},
                "208": {},
                "209": {},
                "210": {},
                "211": {},
                "212": {},
                "213": {},
                "214": {},
                "215": {},
                "216": {},
                "217": {},
                "218": {},
                "219": {},
                "220": {},
                "221": {},
                "222": {},
                "223": {},
                "224": {},
                "225": {},
                "226": {},
                "227": {},
                "228": {},
                "229": {},
                "230": {},
                "231": {},
                "232": {},
                "233": {},
                "234": {},
                "235": {},
                "236": {},
                "237": {},
                "238": {},
                "239": {},
                "240": {},
                "241": {},
                "242": {},
                "243": {},
                "244": {},
                "245": {},
                "246": {},
                "247": {},
                "248": {},
                "249": {},
                "250": {},
                "251": {},
                "252": {},
                "253": {},
                "254": {},
                "255": {}
            },
            {
                "0": {
                    "bias": -0.04280858114361763,
                    "weights": {
                        "0": -0.03508339822292328,
                        "1": -0.1879473626613617,
                        "2": 0.09088129550218582,
                        "3": 0.10933013260364532,
                        "4": -0.14427891373634338,
                        "5": -0.06408307701349258,
                        "6": 0.09355827420949936,
                        "7": 0.10195157676935196,
                        "8": 0.1664331704378128,
                        "9": -0.10753661394119263,
                        "10": -0.08364330977201462,
                        "11": 0.04740144684910774,
                        "12": 0.17523685097694397,
                        "13": -0.11131254583597183,
                        "14": 0.007803121116012335,
                        "15": -0.06681479513645172,
                        "16": 0.08964221179485321,
                        "17": -0.13079768419265747,
                        "18": 0.009659925475716591,
                        "19": -0.11140795797109604,
                        "20": -0.10315980017185211,
                        "21": 0.06975050270557404,
                        "22": 0.15813052654266357,
                        "23": 0.17859627306461334,
                        "24": 0.06521179527044296,
                        "25": -0.05645822733640671,
                        "26": 0.10346896946430206,
                        "27": 0.1146818995475769,
                        "28": -0.187815859913826,
                        "29": -0.027191640809178352,
                        "30": -0.19448351860046387,
                        "31": -0.12757301330566406,
                        "32": 0.11402909457683563,
                        "33": 0.1702651083469391,
                        "34": 0.042678628116846085,
                        "35": 0.16325663030147552,
                        "36": -0.014340595342218876,
                        "37": -0.09007639437913895,
                        "38": -0.18953688442707062,
                        "39": -0.1338924914598465,
                        "40": -0.04063164442777634,
                        "41": -0.15338446199893951,
                        "42": 0.1652720421552658,
                        "43": 0.10870704799890518,
                        "44": 0.17059120535850525,
                        "45": -0.00024641628260724247,
                        "46": 0.1790231317281723,
                        "47": 0.00623547425493598,
                        "48": -0.14611682295799255,
                        "49": -0.04468219727277756,
                        "50": 0.1869630366563797,
                        "51": 0.133731871843338,
                        "52": -0.029669558629393578,
                        "53": 0.11095381528139114,
                        "54": 0.05158766359090805,
                        "55": -0.11276065558195114,
                        "56": -0.11683681607246399,
                        "57": -0.11426648497581482,
                        "58": 0.20043213665485382,
                        "59": -0.05781115964055061,
                        "60": 0.1571958065032959,
                        "61": 0.12253445386886597,
                        "62": 0.18832340836524963,
                        "63": -0.03915749117732048,
                        "64": 0.005293955560773611,
                        "65": 0.14168629050254822,
                        "66": -0.05319863557815552,
                        "67": -0.18582966923713684,
                        "68": -0.16160380840301514,
                        "69": 0.17944419384002686,
                        "70": 0.19754087924957275,
                        "71": 0.026185190305113792,
                        "72": -0.17678408324718475,
                        "73": -0.03874378278851509,
                        "74": 0.07083041220903397,
                        "75": 0.05272201821208,
                        "76": -0.17590831220149994,
                        "77": -0.027593441307544708,
                        "78": 0.10992611199617386,
                        "79": 0.13155709207057953,
                        "80": 0.07663785666227341,
                        "81": -0.1331779807806015,
                        "82": 0.1425258070230484,
                        "83": -0.1770494133234024,
                        "84": 0.04017047584056854,
                        "85": -0.09308268129825592,
                        "86": 0.1982070803642273,
                        "87": 0.034732576459646225,
                        "88": -0.0506463460624218,
                        "89": 0.1719980537891388,
                        "90": 0.039307303726673126,
                        "91": -0.13766703009605408,
                        "92": 0.17209161818027496,
                        "93": 0.1765371561050415,
                        "94": -0.18532317876815796,
                        "95": -0.14977605640888214,
                        "96": 0.16767606139183044,
                        "97": -0.15149715542793274,
                        "98": 0.04382697120308876,
                        "99": 0.14438511431217194,
                        "100": 0.155756875872612,
                        "101": 0.042294807732105255,
                        "102": 0.09080565720796585,
                        "103": -0.08903635293245316,
                        "104": 0.08361843973398209,
                        "105": -0.11934762448072433,
                        "106": -0.03489486500620842,
                        "107": -0.11588994413614273,
                        "108": 0.18384109437465668,
                        "109": -0.12299732118844986,
                        "110": 0.09118533879518509,
                        "111": 0.12549087405204773,
                        "112": 0.1280086785554886,
                        "113": -0.16586950421333313,
                        "114": 0.14507906138896942,
                        "115": 0.05534515529870987,
                        "116": 0.14105042815208435,
                        "117": 0.07544290274381638,
                        "118": 0.08752719312906265,
                        "119": -0.17191079258918762,
                        "120": -0.0042212894186377525,
                        "121": 0.15318205952644348,
                        "122": 0.15093368291854858,
                        "123": -0.06696411967277527,
                        "124": -0.10349828004837036,
                        "125": -0.19101694226264954,
                        "126": -0.0223524309694767,
                        "127": -0.17337538301944733,
                        "128": -0.12172049283981323,
                        "129": 0.0861896425485611,
                        "130": -0.061439353972673416,
                        "131": 0.09872782230377197,
                        "132": 0.03542536124587059,
                        "133": -0.03745267167687416,
                        "134": 0.1972559690475464,
                        "135": 0.04015997797250748,
                        "136": -0.1485978364944458,
                        "137": -0.17988145351409912,
                        "138": 0.1893477588891983,
                        "139": -0.03462163358926773,
                        "140": 0.13754701614379883,
                        "141": 0.17116568982601166,
                        "142": 0.18152737617492676,
                        "143": 0.09910760074853897,
                        "144": 0.0958334431052208,
                        "145": -0.034484051167964935,
                        "146": 0.1828259974718094,
                        "147": -0.15159115195274353,
                        "148": -0.11719431728124619,
                        "149": -0.1746600866317749,
                        "150": 0.15171954035758972,
                        "151": -0.16262082755565643,
                        "152": 0.192284494638443,
                        "153": 0.1541707068681717,
                        "154": -0.09829597920179367,
                        "155": -0.11073660105466843,
                        "156": -0.09725462645292282,
                        "157": 0.034067098051309586,
                        "158": -0.1411570906639099,
                        "159": -0.19200000166893005,
                        "160": 0.0438898466527462,
                        "161": 0.09543175250291824,
                        "162": -0.026768965646624565,
                        "163": -0.11489077657461166,
                        "164": 0.17906410992145538,
                        "165": 0.18688486516475677,
                        "166": -0.18271906673908234,
                        "167": -0.006297604646533728,
                        "168": -0.07633975893259048,
                        "169": 0.19960814714431763,
                        "170": -0.09148507565259933,
                        "171": -0.14686225354671478,
                        "172": -0.11465932428836823,
                        "173": -0.1633433848619461,
                        "174": 0.06039894372224808,
                        "175": -0.09041943401098251,
                        "176": 0.1537015587091446,
                        "177": 0.05435538664460182,
                        "178": -0.09271622449159622,
                        "179": -0.10464511811733246,
                        "180": 0.08351856470108032,
                        "181": -0.04253324493765831,
                        "182": 0.11578290909528732,
                        "183": -0.1641501933336258,
                        "184": 0.0753258764743805,
                        "185": 0.04655620455741882,
                        "186": 0.14042486250400543,
                        "187": 0.14652414619922638,
                        "188": -0.10268983989953995,
                        "189": 0.08548960089683533,
                        "190": -0.1404072344303131,
                        "191": 0.06804592907428741,
                        "192": 0.18142975866794586,
                        "193": -0.12326784431934357,
                        "194": -0.01494971290230751,
                        "195": -0.017293212935328484,
                        "196": -0.09811411052942276,
                        "197": -0.09397052228450775,
                        "198": 0.13609027862548828,
                        "199": -0.03857310861349106,
                        "200": -0.07473896443843842,
                        "201": 0.08803694695234299,
                        "202": 0.14032970368862152,
                        "203": -0.04164072126150131,
                        "204": -0.19757819175720215,
                        "205": 0.06187857314944267,
                        "206": -0.14653131365776062,
                        "207": -0.11144820600748062,
                        "208": 0.009951851330697536,
                        "209": 0.05393291637301445,
                        "210": -0.17292766273021698,
                        "211": -0.14514556527137756,
                        "212": -0.13879802823066711,
                        "213": -0.10826987773180008,
                        "214": 0.0006247822311706841,
                        "215": 0.06596040725708008,
                        "216": -0.10277212411165237,
                        "217": 0.1358599066734314,
                        "218": 0.011721150018274784,
                        "219": 0.10351239144802094,
                        "220": -0.11852586269378662,
                        "221": 0.0543447881937027,
                        "222": -0.03472113981842995,
                        "223": 0.07490000128746033,
                        "224": -0.009766602888703346,
                        "225": -0.09550417959690094,
                        "226": 0.05904891714453697,
                        "227": 0.06188462674617767,
                        "228": 0.05812735855579376,
                        "229": 0.051978759467601776,
                        "230": 0.10594171285629272,
                        "231": 0.1542995274066925,
                        "232": -0.06543795019388199,
                        "233": 0.05708342790603638,
                        "234": 0.17109882831573486,
                        "235": 0.09319325536489487,
                        "236": -0.12047254294157028,
                        "237": 0.03559347987174988,
                        "238": 0.06592030823230743,
                        "239": 0.07077090442180634,
                        "240": -0.19442228972911835,
                        "241": 0.19105999171733856,
                        "242": -0.027190137654542923,
                        "243": 0.11207766085863113,
                        "244": 0.055228594690561295,
                        "245": -0.1612047255039215,
                        "246": 0.12212593853473663,
                        "247": 0.19168910384178162,
                        "248": 0.1755019575357437,
                        "249": 0.1336660385131836,
                        "250": -0.0388094037771225,
                        "251": 0.02188980020582676,
                        "252": -0.13000118732452393,
                        "253": 0.17378613352775574,
                        "254": 0.13363909721374512,
                        "255": 0.18084363639354706
                    }
                },
                "1": {
                    "bias": -0.17151525616645813,
                    "weights": {
                        "0": -0.052022021263837814,
                        "1": 0.007131226826459169,
                        "2": 0.040419887751340866,
                        "3": 0.08769627660512924,
                        "4": 0.08231232315301895,
                        "5": 0.1644926369190216,
                        "6": 0.13242408633232117,
                        "7": -0.08881824463605881,
                        "8": -0.06977155804634094,
                        "9": 0.06632397323846817,
                        "10": 0.0400177538394928,
                        "11": -0.10171250998973846,
                        "12": 0.1429438441991806,
                        "13": -0.05760964751243591,
                        "14": -0.09010002762079239,
                        "15": -0.09345018118619919,
                        "16": -0.13568229973316193,
                        "17": 0.18466797471046448,
                        "18": 0.06365174800157547,
                        "19": -0.16799898445606232,
                        "20": 0.06734423339366913,
                        "21": -0.026182927191257477,
                        "22": -0.005031950306147337,
                        "23": -0.12603797018527985,
                        "24": 0.0906292051076889,
                        "25": -0.1655007153749466,
                        "26": 0.18492798507213593,
                        "27": -0.05782235786318779,
                        "28": -0.146469846367836,
                        "29": -0.14322638511657715,
                        "30": -0.09212758392095566,
                        "31": -0.08952274173498154,
                        "32": -0.18231283128261566,
                        "33": 0.10528484731912613,
                        "34": 0.06840389221906662,
                        "35": -0.0914430171251297,
                        "36": -0.10986362397670746,
                        "37": -0.02722540870308876,
                        "38": -0.11093314737081528,
                        "39": -0.08645369857549667,
                        "40": 0.19781319797039032,
                        "41": 0.1733611673116684,
                        "42": 0.08543501794338226,
                        "43": -0.1314215511083603,
                        "44": 0.11004945635795593,
                        "45": -0.09207481890916824,
                        "46": -0.06230095401406288,
                        "47": -0.17496031522750854,
                        "48": 0.08227980136871338,
                        "49": -0.09543301910161972,
                        "50": 0.06058425083756447,
                        "51": 0.006866422947496176,
                        "52": -0.16655516624450684,
                        "53": 0.17729781568050385,
                        "54": 0.03693823143839836,
                        "55": -0.1876855343580246,
                        "56": 0.14956003427505493,
                        "57": -0.12190213054418564,
                        "58": -0.13963627815246582,
                        "59": -0.12448320537805557,
                        "60": 0.03985150530934334,
                        "61": -0.07013209909200668,
                        "62": -0.10033351927995682,
                        "63": 0.06333111971616745,
                        "64": -0.11977249383926392,
                        "65": 0.19043317437171936,
                        "66": 0.14952515065670013,
                        "67": 0.17424531280994415,
                        "68": -0.14279328286647797,
                        "69": 0.07777056843042374,
                        "70": -0.175532728433609,
                        "71": -0.07246846705675125,
                        "72": -0.022967999801039696,
                        "73": 0.012844335287809372,
                        "74": 0.06350407749414444,
                        "75": 0.016750534996390343,
                        "76": 0.013461573049426079,
                        "77": 0.12634694576263428,
                        "78": -0.19708627462387085,
                        "79": 0.12408441305160522,
                        "80": 0.15445517003536224,
                        "81": -0.12752953171730042,
                        "82": -0.10930848866701126,
                        "83": -0.17649711668491364,
                        "84": 0.05194861441850662,
                        "85": -0.10205193608999252,
                        "86": -0.10290531069040298,
                        "87": -0.16609719395637512,
                        "88": -0.07067002356052399,
                        "89": 0.17145246267318726,
                        "90": -0.11086037009954453,
                        "91": 0.1989530473947525,
                        "92": 0.18530836701393127,
                        "93": 0.1257392317056656,
                        "94": 0.14222295582294464,
                        "95": -0.1192060112953186,
                        "96": -0.05373235046863556,
                        "97": 0.17716000974178314,
                        "98": 0.014397154562175274,
                        "99": 0.013568556867539883,
                        "100": 0.026327533647418022,
                        "101": -0.1307458132505417,
                        "102": -0.03661028668284416,
                        "103": 0.083599753677845,
                        "104": 0.033764954656362534,
                        "105": 0.1909129023551941,
                        "106": -0.19492149353027344,
                        "107": 0.13717183470726013,
                        "108": -0.14118723571300507,
                        "109": -0.05403013527393341,
                        "110": 0.17880196869373322,
                        "111": 0.1689138412475586,
                        "112": 0.15832433104515076,
                        "113": -0.15078839659690857,
                        "114": -0.0549108050763607,
                        "115": -0.11406992375850677,
                        "116": -0.1027243360877037,
                        "117": 0.11870701611042023,
                        "118": 0.09745863825082779,
                        "119": -0.04817325249314308,
                        "120": -0.002886903705075383,
                        "121": -0.12760433554649353,
                        "122": 0.04308734089136124,
                        "123": 0.14610132575035095,
                        "124": -0.16029639542102814,
                        "125": -0.08010748773813248,
                        "126": -0.024730775505304337,
                        "127": 0.15450094640254974,
                        "128": 0.05445774272084236,
                        "129": -0.08178924769163132,
                        "130": -0.16425436735153198,
                        "131": 0.1480950266122818,
                        "132": 0.13143041729927063,
                        "133": -0.035156700760126114,
                        "134": -0.022726159542798996,
                        "135": -0.11568185687065125,
                        "136": 0.04040926694869995,
                        "137": 0.12715446949005127,
                        "138": 0.006617941427975893,
                        "139": 0.05160684138536453,
                        "140": 0.09775002300739288,
                        "141": -0.014332779683172703,
                        "142": 0.10676776617765427,
                        "143": -0.17256565392017365,
                        "144": -0.02617829665541649,
                        "145": -0.05812430381774902,
                        "146": 0.19262927770614624,
                        "147": 0.09682939946651459,
                        "148": 0.09930338710546494,
                        "149": 0.1242583766579628,
                        "150": -0.021298723295331,
                        "151": 0.028695713728666306,
                        "152": -0.09985930472612381,
                        "153": -0.17020100355148315,
                        "154": 0.06917154043912888,
                        "155": 0.17966026067733765,
                        "156": 0.17728592455387115,
                        "157": 0.17706452310085297,
                        "158": 0.02088296413421631,
                        "159": -0.09840431809425354,
                        "160": -0.19552911818027496,
                        "161": 0.18690365552902222,
                        "162": -0.14068672060966492,
                        "163": -0.17205631732940674,
                        "164": 0.07303730398416519,
                        "165": -0.12846781313419342,
                        "166": -0.1843239963054657,
                        "167": -0.19251856207847595,
                        "168": 0.19516830146312714,
                        "169": -0.06573781371116638,
                        "170": -0.10499422997236252,
                        "171": -0.1147509440779686,
                        "172": 0.1009075865149498,
                        "173": -0.092601478099823,
                        "174": -0.051111336797475815,
                        "175": 0.008103940635919571,
                        "176": -0.15122084319591522,
                        "177": 0.008677302859723568,
                        "178": 0.03870029374957085,
                        "179": -0.14188817143440247,
                        "180": 0.03600281849503517,
                        "181": -0.04690171405673027,
                        "182": 0.12477359920740128,
                        "183": 0.07927139103412628,
                        "184": -0.19398677349090576,
                        "185": 0.13136368989944458,
                        "186": -0.07655832171440125,
                        "187": -0.05487027391791344,
                        "188": 0.14619113504886627,
                        "189": 0.044688355177640915,
                        "190": 0.09194669872522354,
                        "191": -0.14947670698165894,
                        "192": 0.15550602972507477,
                        "193": 0.15054358541965485,
                        "194": -0.13975906372070312,
                        "195": 0.00023512916231993586,
                        "196": -0.06332343071699142,
                        "197": 0.08283036947250366,
                        "198": -0.14478881657123566,
                        "199": 0.07142723351716995,
                        "200": 0.03783860057592392,
                        "201": -0.10547316074371338,
                        "202": -0.05348486080765724,
                        "203": -0.19546954333782196,
                        "204": -0.09913141280412674,
                        "205": -0.08064354956150055,
                        "206": -0.13916733860969543,
                        "207": -0.17021873593330383,
                        "208": -0.03902377560734749,
                        "209": 0.17599421739578247,
                        "210": 0.08297963440418243,
                        "211": -0.012959565035998821,
                        "212": -0.14006111025810242,
                        "213": 0.1351792812347412,
                        "214": 0.16847571730613708,
                        "215": -0.14241237938404083,
                        "216": -0.14929233491420746,
                        "217": -0.14389269053936005,
                        "218": -0.10203603655099869,
                        "219": 0.0681065171957016,
                        "220": -0.15907172858715057,
                        "221": 0.03956300765275955,
                        "222": 0.0218935739248991,
                        "223": -0.0984492301940918,
                        "224": -0.14770549535751343,
                        "225": 0.12634287774562836,
                        "226": -0.004396843258291483,
                        "227": -0.0849093347787857,
                        "228": 0.0672769770026207,
                        "229": -0.014806118793785572,
                        "230": 0.00949842482805252,
                        "231": -0.01653294265270233,
                        "232": 0.09722822904586792,
                        "233": 0.1798735111951828,
                        "234": -0.18865156173706055,
                        "235": 0.07258961349725723,
                        "236": -0.09636636823415756,
                        "237": 0.18185344338417053,
                        "238": 0.10075521469116211,
                        "239": -0.1795760542154312,
                        "240": 0.04991905763745308,
                        "241": 0.02913500927388668,
                        "242": -0.033139511942863464,
                        "243": 0.10614033043384552,
                        "244": 0.11118223518133163,
                        "245": 0.09247036278247833,
                        "246": -0.03855127841234207,
                        "247": -0.12280028313398361,
                        "248": 0.19460667669773102,
                        "249": -0.19072620570659637,
                        "250": 0.13675422966480255,
                        "251": -0.1995168924331665,
                        "252": -0.061642345041036606,
                        "253": 0.010257072746753693,
                        "254": -0.1841660737991333,
                        "255": 0.17811189591884613
                    }
                },
                "2": {
                    "bias": -0.013653679750859737,
                    "weights": {
                        "0": -0.06693615019321442,
                        "1": 0.196581169962883,
                        "2": -0.11484833806753159,
                        "3": 0.17162075638771057,
                        "4": 0.1831498146057129,
                        "5": 0.10838346928358078,
                        "6": -0.06540535390377045,
                        "7": -0.08665742725133896,
                        "8": -0.15602745115756989,
                        "9": 0.09105304628610611,
                        "10": 0.06350449472665787,
                        "11": 0.1497727334499359,
                        "12": 0.006544815842062235,
                        "13": 0.14135202765464783,
                        "14": -0.043970514088869095,
                        "15": -0.07512450218200684,
                        "16": 0.06944484263658524,
                        "17": 0.012384672649204731,
                        "18": -0.0848819836974144,
                        "19": -0.044340211898088455,
                        "20": 0.08765559643507004,
                        "21": -0.1553550809621811,
                        "22": -0.06579343974590302,
                        "23": -0.15169930458068848,
                        "24": -0.13531376421451569,
                        "25": -0.04243965819478035,
                        "26": 0.14959049224853516,
                        "27": 0.06342045962810516,
                        "28": -0.08357647061347961,
                        "29": 0.11042541265487671,
                        "30": 0.18385952711105347,
                        "31": 0.12004328519105911,
                        "32": -0.1954372078180313,
                        "33": 0.023694952949881554,
                        "34": -0.06752681732177734,
                        "35": 0.06017129868268967,
                        "36": -0.0974733904004097,
                        "37": 0.10039056837558746,
                        "38": 0.043886903673410416,
                        "39": 0.010016316547989845,
                        "40": 0.15976665914058685,
                        "41": 0.1740153282880783,
                        "42": -0.17656245827674866,
                        "43": -0.054015498608350754,
                        "44": 0.14800700545310974,
                        "45": 0.149866983294487,
                        "46": 0.15308859944343567,
                        "47": 0.05967627838253975,
                        "48": -0.1932791769504547,
                        "49": -0.08950839936733246,
                        "50": -0.020987000316381454,
                        "51": 0.030746502801775932,
                        "52": -0.09121015667915344,
                        "53": 0.12012749910354614,
                        "54": -0.03648487478494644,
                        "55": 0.0333227664232254,
                        "56": 0.03886517137289047,
                        "57": 0.1310773640871048,
                        "58": 0.12825340032577515,
                        "59": -0.0013667334569618106,
                        "60": 0.02599352039396763,
                        "61": 0.10661691427230835,
                        "62": 0.05121554061770439,
                        "63": -0.016260715201497078,
                        "64": 0.16259212791919708,
                        "65": -0.10588549822568893,
                        "66": -0.08663085103034973,
                        "67": 0.11436206847429276,
                        "68": -0.08007272332906723,
                        "69": -0.06967952102422714,
                        "70": 0.12426496297121048,
                        "71": -0.16034892201423645,
                        "72": -0.15604303777217865,
                        "73": -0.016312452033162117,
                        "74": 0.021703539416193962,
                        "75": 0.08445990085601807,
                        "76": 0.006356976460665464,
                        "77": -0.18428179621696472,
                        "78": 0.09401426464319229,
                        "79": -0.11389820277690887,
                        "80": 0.042791057378053665,
                        "81": -0.19542288780212402,
                        "82": -0.004370090086013079,
                        "83": 0.011748098768293858,
                        "84": 0.05433259531855583,
                        "85": -0.00702284462749958,
                        "86": -0.1278381198644638,
                        "87": -0.08358711004257202,
                        "88": 0.024482209235429764,
                        "89": 0.13030417263507843,
                        "90": 0.012966095469892025,
                        "91": -0.1285133957862854,
                        "92": 0.11994655430316925,
                        "93": 0.0046243187971413136,
                        "94": -0.06590225547552109,
                        "95": -0.006934510078281164,
                        "96": -0.1254495531320572,
                        "97": -0.0012855012901127338,
                        "98": -0.16916124522686005,
                        "99": 0.11060308665037155,
                        "100": -0.13725635409355164,
                        "101": 0.1534644216299057,
                        "102": 0.1384650617837906,
                        "103": -0.17160174250602722,
                        "104": 0.1681244671344757,
                        "105": -0.13804960250854492,
                        "106": -0.13134172558784485,
                        "107": 0.021807469427585602,
                        "108": 0.0068054357543587685,
                        "109": 0.15886040031909943,
                        "110": 0.0009273368632420897,
                        "111": 0.1133590117096901,
                        "112": -0.05732116848230362,
                        "113": 0.07419311255216599,
                        "114": -0.17325250804424286,
                        "115": 0.08910389989614487,
                        "116": 0.12072248756885529,
                        "117": 0.15882523357868195,
                        "118": -0.06258917599916458,
                        "119": -0.09478850662708282,
                        "120": 0.02588680200278759,
                        "121": 0.1953497678041458,
                        "122": -0.01211727224290371,
                        "123": 0.022898631170392036,
                        "124": 0.18830609321594238,
                        "125": 0.07449247688055038,
                        "126": 0.1101812869310379,
                        "127": 0.052332065999507904,
                        "128": 0.10035034269094467,
                        "129": 0.17492100596427917,
                        "130": 0.16013117134571075,
                        "131": -0.004324543755501509,
                        "132": 0.19510571658611298,
                        "133": -0.14030300080776215,
                        "134": 0.10101690143346786,
                        "135": -0.14329400658607483,
                        "136": -0.14031092822551727,
                        "137": -0.11193744838237762,
                        "138": -0.1518624722957611,
                        "139": 0.059721820056438446,
                        "140": -0.04416360706090927,
                        "141": -0.01685669831931591,
                        "142": -0.11867310851812363,
                        "143": 0.06526964157819748,
                        "144": 0.0029759991448372602,
                        "145": -0.15082815289497375,
                        "146": -0.10270697623491287,
                        "147": -0.02800397202372551,
                        "148": -0.13917949795722961,
                        "149": 0.09947679191827774,
                        "150": 0.03802071884274483,
                        "151": -0.15967877209186554,
                        "152": -0.020150113850831985,
                        "153": -0.07684563100337982,
                        "154": 0.13835352659225464,
                        "155": -0.06207895278930664,
                        "156": -0.11747230589389801,
                        "157": -0.02331569604575634,
                        "158": -0.10823224484920502,
                        "159": 0.10850923508405685,
                        "160": -0.11014006286859512,
                        "161": -0.12509895861148834,
                        "162": -0.19281435012817383,
                        "163": -0.16691064834594727,
                        "164": -0.17707505822181702,
                        "165": 0.07006804645061493,
                        "166": 0.1437741070985794,
                        "167": 0.19344280660152435,
                        "168": -0.042704664170742035,
                        "169": 0.14320141077041626,
                        "170": -0.026293069124221802,
                        "171": 0.0013455188600346446,
                        "172": 0.10642476379871368,
                        "173": 0.027012543752789497,
                        "174": -0.19236162304878235,
                        "175": 0.11155439913272858,
                        "176": 0.07399016618728638,
                        "177": -0.1635538786649704,
                        "178": -0.18189877271652222,
                        "179": -0.010010076686739922,
                        "180": -0.11476936936378479,
                        "181": -0.10617765039205551,
                        "182": -0.022451508790254593,
                        "183": 0.1745459884405136,
                        "184": -0.15814971923828125,
                        "185": 0.1461203694343567,
                        "186": -0.18750841915607452,
                        "187": 0.006130355875939131,
                        "188": 0.11458627879619598,
                        "189": -0.019602756947278976,
                        "190": -0.13755358755588531,
                        "191": 0.19624847173690796,
                        "192": 0.02912706322968006,
                        "193": 0.058086372911930084,
                        "194": -0.1301879733800888,
                        "195": 0.12539133429527283,
                        "196": -0.11168587952852249,
                        "197": -0.13545726239681244,
                        "198": -0.029151268303394318,
                        "199": 0.10274159163236618,
                        "200": -0.1378181129693985,
                        "201": 0.18134501576423645,
                        "202": 0.050356630235910416,
                        "203": -0.16281621158123016,
                        "204": -0.026568757370114326,
                        "205": 0.15040795505046844,
                        "206": 0.02465972863137722,
                        "207": 0.12094184756278992,
                        "208": -0.058256328105926514,
                        "209": 0.09834752231836319,
                        "210": -0.03398951143026352,
                        "211": -0.14282667636871338,
                        "212": 0.17666229605674744,
                        "213": -0.02489713579416275,
                        "214": 0.045982636511325836,
                        "215": 0.18155577778816223,
                        "216": -0.04374310001730919,
                        "217": 0.17837803065776825,
                        "218": -0.016950732097029686,
                        "219": -0.05776873230934143,
                        "220": -0.06209490820765495,
                        "221": 0.13951286673545837,
                        "222": -0.04149452596902847,
                        "223": 0.14155884087085724,
                        "224": 0.056971773505210876,
                        "225": -0.186289444565773,
                        "226": -0.08113668859004974,
                        "227": -0.05849754437804222,
                        "228": -0.062429316341876984,
                        "229": -0.199207603931427,
                        "230": -0.1749834567308426,
                        "231": 0.05714481323957443,
                        "232": -0.12755495309829712,
                        "233": 0.14183244109153748,
                        "234": 0.02765517123043537,
                        "235": 0.03868788480758667,
                        "236": 0.0485517680644989,
                        "237": -0.10817226022481918,
                        "238": 0.19520972669124603,
                        "239": 0.17307032644748688,
                        "240": -0.15306590497493744,
                        "241": -0.16804587841033936,
                        "242": 0.18862104415893555,
                        "243": -0.1684848815202713,
                        "244": -0.16329245269298553,
                        "245": 0.05638432875275612,
                        "246": -0.006472847890108824,
                        "247": 0.15416231751441956,
                        "248": -0.12134325504302979,
                        "249": 0.013862388208508492,
                        "250": -0.10610915720462799,
                        "251": -0.13246425986289978,
                        "252": -0.06363829970359802,
                        "253": -0.1006007120013237,
                        "254": 0.1229892298579216,
                        "255": 0.05639159306883812
                    }
                },
                "3": {
                    "bias": -0.15159271657466888,
                    "weights": {
                        "0": -0.12655290961265564,
                        "1": 0.09293334931135178,
                        "2": 0.1265082210302353,
                        "3": -0.16431640088558197,
                        "4": 0.09956896305084229,
                        "5": 0.06745459139347076,
                        "6": 0.04164889454841614,
                        "7": 0.17398735880851746,
                        "8": 0.018030090257525444,
                        "9": 0.12664324045181274,
                        "10": -0.015033184550702572,
                        "11": -0.040339332073926926,
                        "12": -0.060973361134529114,
                        "13": -0.0933830514550209,
                        "14": 0.010265976190567017,
                        "15": -0.10352519899606705,
                        "16": 0.1755409985780716,
                        "17": 0.15246789157390594,
                        "18": 0.1043538823723793,
                        "19": -0.07498754560947418,
                        "20": -0.11159591376781464,
                        "21": 0.004874160047620535,
                        "22": 0.06413433700799942,
                        "23": -0.09972026199102402,
                        "24": -0.07399429380893707,
                        "25": 0.06372400373220444,
                        "26": 0.1926412582397461,
                        "27": -0.16732802987098694,
                        "28": 0.10587441921234131,
                        "29": -0.16608859598636627,
                        "30": 0.1078554019331932,
                        "31": -0.024020923301577568,
                        "32": 0.10507655888795853,
                        "33": 0.16111160814762115,
                        "34": 0.16264408826828003,
                        "35": -0.10795222967863083,
                        "36": 0.07034064084291458,
                        "37": 0.1358804851770401,
                        "38": -0.02197164297103882,
                        "39": 0.17366376519203186,
                        "40": -0.12724485993385315,
                        "41": -0.12336119264364243,
                        "42": -0.12406059354543686,
                        "43": -0.05578663572669029,
                        "44": -0.06833980232477188,
                        "45": -0.16086435317993164,
                        "46": 0.04239385575056076,
                        "47": 0.005027031525969505,
                        "48": 0.11245506256818771,
                        "49": -0.04255232587456703,
                        "50": 0.021403873339295387,
                        "51": -0.004305256996303797,
                        "52": -0.12093111872673035,
                        "53": -0.06073375791311264,
                        "54": -0.05931229516863823,
                        "55": 0.03210923820734024,
                        "56": 0.11767252534627914,
                        "57": 0.10737456381320953,
                        "58": -0.03251579403877258,
                        "59": 0.009689943864941597,
                        "60": -0.16683714091777802,
                        "61": 0.10893101245164871,
                        "62": -0.03187728673219681,
                        "63": -0.13526543974876404,
                        "64": -0.03590281680226326,
                        "65": -0.1993933767080307,
                        "66": -0.019465284422039986,
                        "67": -0.04646321013569832,
                        "68": 0.058542363345623016,
                        "69": -0.047563523054122925,
                        "70": 0.016277289018034935,
                        "71": 0.09598822891712189,
                        "72": 0.013352176174521446,
                        "73": 0.1115044355392456,
                        "74": 0.11791976541280746,
                        "75": -0.11741627007722855,
                        "76": -0.1799764335155487,
                        "77": 0.12657380104064941,
                        "78": -0.017055992037057877,
                        "79": 0.19776751101016998,
                        "80": 0.03204340860247612,
                        "81": 0.018436910584568977,
                        "82": -0.010545414872467518,
                        "83": 0.12195706367492676,
                        "84": 0.12199807912111282,
                        "85": -0.03450700640678406,
                        "86": -0.1636803150177002,
                        "87": -0.06615473330020905,
                        "88": -0.021824046969413757,
                        "89": 0.006317438557744026,
                        "90": -0.18593047559261322,
                        "91": -0.14326007664203644,
                        "92": 0.09595827013254166,
                        "93": 0.08159460872411728,
                        "94": 0.026810646057128906,
                        "95": 0.03901943564414978,
                        "96": 0.13980871438980103,
                        "97": -0.03162774071097374,
                        "98": -0.03842867538332939,
                        "99": 0.10234493762254715,
                        "100": -0.0880621150135994,
                        "101": 0.02213837206363678,
                        "102": -0.06979470700025558,
                        "103": -0.07038938999176025,
                        "104": -0.1757354587316513,
                        "105": -0.04660587012767792,
                        "106": 0.03487788885831833,
                        "107": 0.004846184514462948,
                        "108": 0.17106646299362183,
                        "109": -0.11865882575511932,
                        "110": 0.12738771736621857,
                        "111": -0.12241283059120178,
                        "112": -0.036043860018253326,
                        "113": 0.05855245888233185,
                        "114": 0.09833166748285294,
                        "115": -0.07165659964084625,
                        "116": 0.10731762647628784,
                        "117": 0.19517648220062256,
                        "118": 0.13523313403129578,
                        "119": 0.04626869410276413,
                        "120": -0.18611207604408264,
                        "121": -0.11581232398748398,
                        "122": -0.11470252275466919,
                        "123": 0.07785043120384216,
                        "124": 0.14648576080799103,
                        "125": 0.1616540402173996,
                        "126": -0.08504841476678848,
                        "127": -0.19094811379909515,
                        "128": -0.020280878990888596,
                        "129": 0.14466015994548798,
                        "130": -0.18306131660938263,
                        "131": 0.10420435667037964,
                        "132": 0.010598311200737953,
                        "133": 0.15536081790924072,
                        "134": 0.11277836561203003,
                        "135": 0.005447457078844309,
                        "136": 0.1471252590417862,
                        "137": 0.02060844376683235,
                        "138": 0.13243940472602844,
                        "139": 0.17366449534893036,
                        "140": 0.031658925116062164,
                        "141": -0.08491680771112442,
                        "142": 0.08854574710130692,
                        "143": -0.08220649510622025,
                        "144": -0.14239081740379333,
                        "145": 0.13532136380672455,
                        "146": 0.006946568842977285,
                        "147": 0.0336085744202137,
                        "148": 0.08251761645078659,
                        "149": 0.02055329456925392,
                        "150": 0.18886534869670868,
                        "151": 0.06440525501966476,
                        "152": -0.04746399074792862,
                        "153": 0.04675593599677086,
                        "154": 0.13817016780376434,
                        "155": 0.06507100909948349,
                        "156": -0.02251797914505005,
                        "157": 0.08582174777984619,
                        "158": 0.021219419315457344,
                        "159": -0.11213469505310059,
                        "160": 0.019538037478923798,
                        "161": -0.006401188671588898,
                        "162": 0.08213941752910614,
                        "163": 0.14932386577129364,
                        "164": -0.015777388587594032,
                        "165": -0.02289624512195587,
                        "166": 0.09062518179416656,
                        "167": -0.02015904150903225,
                        "168": -0.09277308732271194,
                        "169": 0.14159958064556122,
                        "170": -0.04987699165940285,
                        "171": 0.19845733046531677,
                        "172": 0.05068441480398178,
                        "173": 0.12060149013996124,
                        "174": -0.0889463946223259,
                        "175": 0.12395387887954712,
                        "176": 0.012759433127939701,
                        "177": 0.19847197830677032,
                        "178": -0.11629874259233475,
                        "179": -0.06345660984516144,
                        "180": 0.046850208193063736,
                        "181": 0.06561242789030075,
                        "182": -0.12928225100040436,
                        "183": -0.14637483656406403,
                        "184": 0.08742866665124893,
                        "185": -0.13459421694278717,
                        "186": 0.15048286318778992,
                        "187": -0.022595036774873734,
                        "188": -0.17369456589221954,
                        "189": -0.1772725135087967,
                        "190": 0.11458601802587509,
                        "191": -0.09185480326414108,
                        "192": -0.11843220144510269,
                        "193": -0.12788908183574677,
                        "194": -0.13223466277122498,
                        "195": -0.1347416192293167,
                        "196": -0.0546402782201767,
                        "197": -0.17200148105621338,
                        "198": 0.12259041517972946,
                        "199": -0.1301211714744568,
                        "200": -0.1603565216064453,
                        "201": -0.08236859738826752,
                        "202": 0.12664265930652618,
                        "203": -0.0950411707162857,
                        "204": 0.021069800481200218,
                        "205": 0.11757484823465347,
                        "206": -0.1052175760269165,
                        "207": -0.15235774219036102,
                        "208": 0.008841129019856453,
                        "209": 0.05054227262735367,
                        "210": 0.025797415524721146,
                        "211": 0.18565882742404938,
                        "212": -0.15117338299751282,
                        "213": 0.046569664031267166,
                        "214": -0.1140265166759491,
                        "215": -0.03239276260137558,
                        "216": -0.12417273223400116,
                        "217": 0.19054877758026123,
                        "218": 0.027632078155875206,
                        "219": 0.12470800429582596,
                        "220": -0.0725872814655304,
                        "221": 0.1268032342195511,
                        "222": 0.02141997218132019,
                        "223": -0.17997990548610687,
                        "224": -0.09422355145215988,
                        "225": 0.16022831201553345,
                        "226": 0.09839466959238052,
                        "227": 0.0547005794942379,
                        "228": -0.08026852458715439,
                        "229": -0.1285693645477295,
                        "230": -0.09098625928163528,
                        "231": -0.08756934851408005,
                        "232": -0.07797098904848099,
                        "233": 0.01255036424845457,
                        "234": 0.04132412001490593,
                        "235": -0.16588090360164642,
                        "236": 0.01844586618244648,
                        "237": 0.03923900052905083,
                        "238": -0.10936804115772247,
                        "239": 0.1293797791004181,
                        "240": 0.13531780242919922,
                        "241": 0.08390616625547409,
                        "242": -0.07800441235303879,
                        "243": 0.11621857434511185,
                        "244": -0.11482842266559601,
                        "245": -0.12274304777383804,
                        "246": 0.08327589929103851,
                        "247": -0.13216550648212433,
                        "248": 0.007480530068278313,
                        "249": 0.020699959248304367,
                        "250": 0.10547153651714325,
                        "251": -0.09781305491924286,
                        "252": -0.08753456175327301,
                        "253": -0.00037686029099859297,
                        "254": 0.07771879434585571,
                        "255": -0.2019641250371933
                    }
                },
                "4": {
                    "bias": 0.08216632157564163,
                    "weights": {
                        "0": 0.19048535823822021,
                        "1": -0.11004147678613663,
                        "2": -0.05910325050354004,
                        "3": 0.17610560357570648,
                        "4": -0.17962433397769928,
                        "5": -0.05979453772306442,
                        "6": -0.14832496643066406,
                        "7": 0.12005046010017395,
                        "8": 0.14705891907215118,
                        "9": 0.015243640169501305,
                        "10": 0.10021364688873291,
                        "11": 0.0739687979221344,
                        "12": 0.02095119282603264,
                        "13": -0.1708371490240097,
                        "14": -0.19554996490478516,
                        "15": -0.08640534430742264,
                        "16": 0.06960900872945786,
                        "17": -0.10787655413150787,
                        "18": -0.040684595704078674,
                        "19": -0.19062581658363342,
                        "20": -0.08144120872020721,
                        "21": 0.035939376801252365,
                        "22": -0.13114088773727417,
                        "23": -0.15546870231628418,
                        "24": 0.10061072558164597,
                        "25": 0.1492464393377304,
                        "26": 0.012312043458223343,
                        "27": 0.017917007207870483,
                        "28": 0.15661011636257172,
                        "29": -0.17084382474422455,
                        "30": 0.04009475186467171,
                        "31": -0.022326651960611343,
                        "32": -0.15416404604911804,
                        "33": -0.10815352201461792,
                        "34": -0.14320723712444305,
                        "35": 0.17890594899654388,
                        "36": -0.04319017007946968,
                        "37": -0.08705703169107437,
                        "38": 0.1458592563867569,
                        "39": 0.03368346020579338,
                        "40": 0.19332045316696167,
                        "41": -0.08175712078809738,
                        "42": 0.14054305851459503,
                        "43": -0.003312513465061784,
                        "44": 0.07021807879209518,
                        "45": -0.05721019580960274,
                        "46": 0.09677082300186157,
                        "47": 0.1272452175617218,
                        "48": -0.06703256815671921,
                        "49": -0.19284169375896454,
                        "50": -0.0845031887292862,
                        "51": 0.060181569308042526,
                        "52": 0.03365987539291382,
                        "53": -0.08032514899969101,
                        "54": 0.15479454398155212,
                        "55": -0.12558963894844055,
                        "56": 0.023449765518307686,
                        "57": -0.03681642562150955,
                        "58": -0.10454148054122925,
                        "59": 0.08079265803098679,
                        "60": -0.007695117499679327,
                        "61": -0.19995975494384766,
                        "62": -0.03022920899093151,
                        "63": 0.007891430519521236,
                        "64": 0.023494424298405647,
                        "65": 0.13914597034454346,
                        "66": 0.0401705726981163,
                        "67": 0.14126865565776825,
                        "68": 0.07187198847532272,
                        "69": 0.08895567059516907,
                        "70": -0.16616877913475037,
                        "71": -0.06107879802584648,
                        "72": -0.13943791389465332,
                        "73": -0.04165022075176239,
                        "74": -0.01343628391623497,
                        "75": -0.18368865549564362,
                        "76": -0.14988139271736145,
                        "77": -0.16493062674999237,
                        "78": 0.14048101007938385,
                        "79": 0.1364833563566208,
                        "80": 0.009866692125797272,
                        "81": 0.18731743097305298,
                        "82": -0.04389522969722748,
                        "83": 0.0820605680346489,
                        "84": -0.11263727396726608,
                        "85": -0.17293982207775116,
                        "86": 0.13717004656791687,
                        "87": 0.09295150637626648,
                        "88": 0.13538533449172974,
                        "89": -0.11498059332370758,
                        "90": 0.1761493682861328,
                        "91": -0.14886635541915894,
                        "92": 0.15388885140419006,
                        "93": -0.19253523647785187,
                        "94": 0.14317747950553894,
                        "95": 0.05325517803430557,
                        "96": -0.00424437178298831,
                        "97": 0.06695582717657089,
                        "98": 0.07104077190160751,
                        "99": -0.18999645113945007,
                        "100": 0.1561433970928192,
                        "101": 0.19028393924236298,
                        "102": -0.02340397797524929,
                        "103": -0.018320485949516296,
                        "104": -0.13558189570903778,
                        "105": 0.056616272777318954,
                        "106": -0.1687236726284027,
                        "107": 0.09052018821239471,
                        "108": 0.05349869281053543,
                        "109": -0.011327050626277924,
                        "110": -0.1083209365606308,
                        "111": 0.007829134352505207,
                        "112": -0.1721445620059967,
                        "113": -0.08006283640861511,
                        "114": 0.1239129975438118,
                        "115": -0.019876882433891296,
                        "116": -0.14851629734039307,
                        "117": 0.14157499372959137,
                        "118": 0.08553526550531387,
                        "119": -0.133576899766922,
                        "120": -0.17279218137264252,
                        "121": 0.09652794152498245,
                        "122": 0.06510312110185623,
                        "123": -0.1684797704219818,
                        "124": -0.18313027918338776,
                        "125": -0.1096598282456398,
                        "126": -0.08273433148860931,
                        "127": -0.018148891627788544,
                        "128": -0.14539262652397156,
                        "129": 0.10264211893081665,
                        "130": -0.16491281986236572,
                        "131": 0.16859468817710876,
                        "132": 0.013908022083342075,
                        "133": 0.09076398611068726,
                        "134": -0.14109677076339722,
                        "135": 0.1302247941493988,
                        "136": -0.17296336591243744,
                        "137": -0.1481635719537735,
                        "138": 0.15090709924697876,
                        "139": 0.031380653381347656,
                        "140": -0.19300389289855957,
                        "141": -0.10431689769029617,
                        "142": 0.13816499710083008,
                        "143": 0.12494032829999924,
                        "144": -0.06854719668626785,
                        "145": 0.11477010697126389,
                        "146": 0.15683846175670624,
                        "147": -0.0434332937002182,
                        "148": -0.12654830515384674,
                        "149": 0.10118184238672256,
                        "150": -0.17514999210834503,
                        "151": 0.1425657421350479,
                        "152": 0.0029988051392138004,
                        "153": -0.07220563292503357,
                        "154": -0.11760404706001282,
                        "155": 0.15924695134162903,
                        "156": 0.16661259531974792,
                        "157": 0.1800461709499359,
                        "158": -0.03731664642691612,
                        "159": -0.1066008135676384,
                        "160": -0.07645156234502792,
                        "161": 0.004891826771199703,
                        "162": -0.18493852019309998,
                        "163": -0.14478185772895813,
                        "164": 0.05648602172732353,
                        "165": -0.19985508918762207,
                        "166": 0.16212882101535797,
                        "167": 0.010168423876166344,
                        "168": -0.026117170229554176,
                        "169": 0.16864995658397675,
                        "170": 0.08478880673646927,
                        "171": -0.15800462663173676,
                        "172": 0.029770487919449806,
                        "173": 0.18643836677074432,
                        "174": 0.01266063004732132,
                        "175": -0.19645822048187256,
                        "176": -0.0663086399435997,
                        "177": -0.13668598234653473,
                        "178": 0.19856618344783783,
                        "179": -0.1897735446691513,
                        "180": 0.12559539079666138,
                        "181": -0.05285041034221649,
                        "182": 0.10403718054294586,
                        "183": 0.173588365316391,
                        "184": -0.04608413204550743,
                        "185": -0.08959323912858963,
                        "186": -0.06874740123748779,
                        "187": 0.01696603000164032,
                        "188": 0.03358080983161926,
                        "189": 0.18325671553611755,
                        "190": 0.0040231551975011826,
                        "191": -0.009181538596749306,
                        "192": -0.10663629323244095,
                        "193": -0.16352589428424835,
                        "194": 0.013231669552624226,
                        "195": -0.15267954766750336,
                        "196": -0.12636922299861908,
                        "197": -0.0031324862502515316,
                        "198": -0.13703906536102295,
                        "199": 0.08782590180635452,
                        "200": 0.17953462898731232,
                        "201": -0.06365930289030075,
                        "202": 0.14118775725364685,
                        "203": -0.022233689203858376,
                        "204": 0.15215280652046204,
                        "205": -0.016141271218657494,
                        "206": -0.1362648755311966,
                        "207": 0.12312797456979752,
                        "208": 0.09279004484415054,
                        "209": 0.04773137718439102,
                        "210": -0.042284343391656876,
                        "211": 0.04801589623093605,
                        "212": -0.06982193142175674,
                        "213": -0.06823845952749252,
                        "214": -0.05436224117875099,
                        "215": -0.0855841264128685,
                        "216": -0.06438277661800385,
                        "217": -0.02422991953790188,
                        "218": -0.07805085927248001,
                        "219": 0.11890072375535965,
                        "220": 0.1568933129310608,
                        "221": -0.15280434489250183,
                        "222": 0.15782102942466736,
                        "223": -0.023450274020433426,
                        "224": 0.0342705175280571,
                        "225": 0.1896234005689621,
                        "226": -0.19592417776584625,
                        "227": 0.1479826718568802,
                        "228": -0.11683472245931625,
                        "229": -0.09217352420091629,
                        "230": 0.04260745272040367,
                        "231": 0.15001343190670013,
                        "232": 0.10976549237966537,
                        "233": 0.14912955462932587,
                        "234": -0.05430521443486214,
                        "235": 0.05628649890422821,
                        "236": -0.027095351368188858,
                        "237": 0.1562613695859909,
                        "238": -0.0017988178879022598,
                        "239": 0.17142562568187714,
                        "240": 0.1694609671831131,
                        "241": 0.014244653284549713,
                        "242": -0.08113264292478561,
                        "243": 0.020278237760066986,
                        "244": 0.11493287980556488,
                        "245": -0.09566827863454819,
                        "246": -0.06260647624731064,
                        "247": -0.17889365553855896,
                        "248": -0.18959230184555054,
                        "249": -0.18074913322925568,
                        "250": 0.14485597610473633,
                        "251": -0.04653824865818024,
                        "252": 0.09570209681987762,
                        "253": -0.10255752503871918,
                        "254": 0.16798825562000275,
                        "255": 0.053141411393880844
                    }
                },
                "5": {
                    "bias": 0.005633893888443708,
                    "weights": {
                        "0": -0.0876777172088623,
                        "1": 0.019597666338086128,
                        "2": -0.19246146082878113,
                        "3": -0.13662934303283691,
                        "4": -0.019899412989616394,
                        "5": -0.02175992541015148,
                        "6": 0.056822653859853745,
                        "7": 0.019613629207015038,
                        "8": 0.0808340311050415,
                        "9": -0.09169577062129974,
                        "10": 0.17811323702335358,
                        "11": -0.08148128539323807,
                        "12": 0.1740882396697998,
                        "13": 0.012392100878059864,
                        "14": -0.12881051003932953,
                        "15": 0.13504658639431,
                        "16": 0.08879466354846954,
                        "17": 0.19208669662475586,
                        "18": 0.07149763405323029,
                        "19": 0.11536116153001785,
                        "20": -0.06583331525325775,
                        "21": -0.05245402827858925,
                        "22": 0.18934176862239838,
                        "23": -0.18268968164920807,
                        "24": 0.18502752482891083,
                        "25": 0.15470033884048462,
                        "26": -0.04006598889827728,
                        "27": 0.1341487467288971,
                        "28": -0.004511409904807806,
                        "29": -0.11859852820634842,
                        "30": -0.06937697529792786,
                        "31": 0.020776420831680298,
                        "32": 0.08503599464893341,
                        "33": -0.054232947528362274,
                        "34": 0.19524982571601868,
                        "35": 0.06748801469802856,
                        "36": -0.14686688780784607,
                        "37": 0.16112607717514038,
                        "38": 0.0737733393907547,
                        "39": -0.13239702582359314,
                        "40": 0.18616622686386108,
                        "41": 0.19491519033908844,
                        "42": -0.14187678694725037,
                        "43": -0.19378754496574402,
                        "44": 0.033204179257154465,
                        "45": 0.023994993418455124,
                        "46": -0.11117900162935257,
                        "47": 0.06203439459204674,
                        "48": -0.09791595488786697,
                        "49": -0.03161246329545975,
                        "50": 0.15813615918159485,
                        "51": -0.015181236900389194,
                        "52": 0.05929356813430786,
                        "53": -0.15035754442214966,
                        "54": -0.18312004208564758,
                        "55": -0.08391626179218292,
                        "56": -0.024305865168571472,
                        "57": -0.03282351419329643,
                        "58": 0.08979792892932892,
                        "59": 0.06479242444038391,
                        "60": -0.1499573290348053,
                        "61": -0.01596011035144329,
                        "62": -0.12500028312206268,
                        "63": -0.13599149882793427,
                        "64": 0.11580697447061539,
                        "65": -0.02178063429892063,
                        "66": -0.0708513855934143,
                        "67": 0.04520502686500549,
                        "68": 0.07890599220991135,
                        "69": -0.05886119231581688,
                        "70": -0.04317060485482216,
                        "71": -0.1037890687584877,
                        "72": -0.1008475050330162,
                        "73": 0.010099801234900951,
                        "74": -0.14204363524913788,
                        "75": 0.04619085043668747,
                        "76": 0.1808699369430542,
                        "77": -0.033772848546504974,
                        "78": 0.06811607629060745,
                        "79": -0.13518621027469635,
                        "80": -0.18051384389400482,
                        "81": 0.02467307820916176,
                        "82": 0.15116693079471588,
                        "83": -0.054670412093400955,
                        "84": -0.1857852041721344,
                        "85": 0.07315592467784882,
                        "86": -0.046250127255916595,
                        "87": 0.1911717653274536,
                        "88": -0.05207537114620209,
                        "89": -0.1478453129529953,
                        "90": -0.1926485151052475,
                        "91": -0.060678672045469284,
                        "92": -0.16942398250102997,
                        "93": -0.05104859918355942,
                        "94": 0.029382603242993355,
                        "95": -0.10542212426662445,
                        "96": 0.07011211663484573,
                        "97": 0.026379942893981934,
                        "98": 0.16599974036216736,
                        "99": -0.19089385867118835,
                        "100": 0.16288796067237854,
                        "101": 0.18463857471942902,
                        "102": -0.011744245886802673,
                        "103": 0.16937868297100067,
                        "104": -0.011960817500948906,
                        "105": -0.19585485756397247,
                        "106": -0.16066892445087433,
                        "107": 0.17824988067150116,
                        "108": -0.12410323321819305,
                        "109": -0.06788688898086548,
                        "110": -0.027966301888227463,
                        "111": 0.07288741320371628,
                        "112": -0.00862035807222128,
                        "113": -0.04826715961098671,
                        "114": 0.02215470001101494,
                        "115": -0.19391973316669464,
                        "116": -0.0760241225361824,
                        "117": -0.026041744276881218,
                        "118": -0.07517965137958527,
                        "119": 0.1271655261516571,
                        "120": 0.13848556578159332,
                        "121": -0.04809588938951492,
                        "122": -0.05055874586105347,
                        "123": 0.18277660012245178,
                        "124": -0.09181798994541168,
                        "125": 0.1740521490573883,
                        "126": -0.05004139244556427,
                        "127": -0.12147974967956543,
                        "128": 0.06875000894069672,
                        "129": 0.04467704892158508,
                        "130": 0.14938302338123322,
                        "131": -0.002306261332705617,
                        "132": 0.04303446412086487,
                        "133": -0.015637623146176338,
                        "134": -0.049684423953294754,
                        "135": 0.05405327305197716,
                        "136": 0.052699945867061615,
                        "137": -0.06321252137422562,
                        "138": -0.12337247282266617,
                        "139": -0.1789327710866928,
                        "140": 0.10921100527048111,
                        "141": -0.044336333870887756,
                        "142": 0.05774906650185585,
                        "143": 0.17416991293430328,
                        "144": 0.14066877961158752,
                        "145": 0.20264463126659393,
                        "146": -0.11630593985319138,
                        "147": -0.1743040382862091,
                        "148": -0.008362888358533382,
                        "149": -0.10819541662931442,
                        "150": -0.10403100401163101,
                        "151": 0.18477946519851685,
                        "152": 0.03996460139751434,
                        "153": 0.17946851253509521,
                        "154": -0.12578076124191284,
                        "155": 0.0939791202545166,
                        "156": 0.18291082978248596,
                        "157": -0.11065669357776642,
                        "158": 0.006226908415555954,
                        "159": -0.13899587094783783,
                        "160": -0.13118872046470642,
                        "161": -0.007509684655815363,
                        "162": -0.1741282343864441,
                        "163": -0.08585411310195923,
                        "164": 0.1608256995677948,
                        "165": 0.13817210495471954,
                        "166": -0.19466803967952728,
                        "167": -0.16655325889587402,
                        "168": -0.1955549567937851,
                        "169": 0.15124723315238953,
                        "170": 0.16243647038936615,
                        "171": 0.12775275111198425,
                        "172": 0.0982571542263031,
                        "173": -0.0014681792818009853,
                        "174": 0.148576557636261,
                        "175": -0.07262976467609406,
                        "176": -0.09974052011966705,
                        "177": 0.11203904449939728,
                        "178": 0.12915757298469543,
                        "179": 0.1685428023338318,
                        "180": -0.07476843148469925,
                        "181": -0.081416554749012,
                        "182": -0.018923195078969002,
                        "183": 0.044711846858263016,
                        "184": 0.08972510695457458,
                        "185": 0.0028847630601376295,
                        "186": -0.10905306786298752,
                        "187": -0.18807438015937805,
                        "188": 0.10294732451438904,
                        "189": -0.12062946707010269,
                        "190": 0.13433586061000824,
                        "191": 0.06221618130803108,
                        "192": 0.15316398441791534,
                        "193": 0.07384198158979416,
                        "194": 0.058911800384521484,
                        "195": -0.19254116714000702,
                        "196": 0.18091434240341187,
                        "197": 0.09051776677370071,
                        "198": 0.08641863614320755,
                        "199": -0.016242993995547295,
                        "200": -0.08484414964914322,
                        "201": 0.13782690465450287,
                        "202": -0.019543999806046486,
                        "203": -0.1541547328233719,
                        "204": -0.06342989206314087,
                        "205": 0.0676855519413948,
                        "206": -0.005930645857006311,
                        "207": -0.10396858304738998,
                        "208": 0.12138590216636658,
                        "209": 0.04491173475980759,
                        "210": -0.1552441418170929,
                        "211": 0.0693889632821083,
                        "212": 0.13109947741031647,
                        "213": -0.14379604160785675,
                        "214": -0.05996524542570114,
                        "215": 0.08628992736339569,
                        "216": 0.08433473855257034,
                        "217": 0.11382734775543213,
                        "218": 0.011970365419983864,
                        "219": 0.0969252958893776,
                        "220": 0.09115106612443924,
                        "221": 0.07861412316560745,
                        "222": 0.07938557863235474,
                        "223": 0.04830416291952133,
                        "224": 0.06828391551971436,
                        "225": -0.1534125804901123,
                        "226": -0.06056682765483856,
                        "227": -0.19243744015693665,
                        "228": 0.11673422902822495,
                        "229": 0.13323454558849335,
                        "230": 0.11674392223358154,
                        "231": 0.008735678158700466,
                        "232": -0.15936461091041565,
                        "233": 0.11512605100870132,
                        "234": 0.016950979828834534,
                        "235": -0.007979661226272583,
                        "236": -0.11216689646244049,
                        "237": 0.08261771500110626,
                        "238": -0.04563382640480995,
                        "239": -0.1934388428926468,
                        "240": -0.0753077045083046,
                        "241": 0.0833222046494484,
                        "242": 0.054337311536073685,
                        "243": 0.18180309236049652,
                        "244": -0.11882763355970383,
                        "245": -0.09745576232671738,
                        "246": 0.11930878460407257,
                        "247": 0.05537017062306404,
                        "248": 0.145252987742424,
                        "249": 0.13932596147060394,
                        "250": 0.014361714012920856,
                        "251": -0.19361267983913422,
                        "252": -0.07989872992038727,
                        "253": 0.09925378859043121,
                        "254": -0.10928535461425781,
                        "255": 0.06379061192274094
                    }
                },
                "6": {
                    "bias": -0.11460421979427338,
                    "weights": {
                        "0": -0.050040457397699356,
                        "1": 0.13752174377441406,
                        "2": -0.0016292567597702146,
                        "3": -0.14507897198200226,
                        "4": -0.15781553089618683,
                        "5": -0.14156249165534973,
                        "6": -0.019052309915423393,
                        "7": -0.03601870685815811,
                        "8": -0.1393137127161026,
                        "9": -0.1395551860332489,
                        "10": -0.0870724767446518,
                        "11": -0.10372868925333023,
                        "12": -0.15805377066135406,
                        "13": -0.1918194741010666,
                        "14": 0.13554780185222626,
                        "15": -0.1133643314242363,
                        "16": -0.09556201100349426,
                        "17": 0.04771539568901062,
                        "18": 0.06559262424707413,
                        "19": -0.024515844881534576,
                        "20": 0.037595827132463455,
                        "21": -0.1871432214975357,
                        "22": -0.10437195003032684,
                        "23": -0.14759783446788788,
                        "24": -0.11866462975740433,
                        "25": 0.07127556949853897,
                        "26": 0.053069211542606354,
                        "27": 0.18206200003623962,
                        "28": 0.05258074775338173,
                        "29": 0.08387307822704315,
                        "30": 0.05779080465435982,
                        "31": 0.010022099129855633,
                        "32": -0.024348899722099304,
                        "33": -0.11918032169342041,
                        "34": 0.1383042186498642,
                        "35": -0.005536033771932125,
                        "36": 0.018106942996382713,
                        "37": 0.0104522705078125,
                        "38": -0.011406218633055687,
                        "39": -0.09603308886289597,
                        "40": 0.13050170242786407,
                        "41": -0.19497308135032654,
                        "42": 0.12593217194080353,
                        "43": -0.07166033238172531,
                        "44": 0.009615563787519932,
                        "45": -0.06382735818624496,
                        "46": 0.04238142445683479,
                        "47": 0.05974412336945534,
                        "48": 0.03100564144551754,
                        "49": -0.1406392753124237,
                        "50": -0.07800924777984619,
                        "51": 0.17666687071323395,
                        "52": -0.16981877386569977,
                        "53": 0.012882797047495842,
                        "54": -0.06429819762706757,
                        "55": -0.12579770386219025,
                        "56": -0.07788876444101334,
                        "57": -0.12263999879360199,
                        "58": -0.11612529307603836,
                        "59": -0.09200844913721085,
                        "60": -0.1464897245168686,
                        "61": 0.010228168219327927,
                        "62": -0.0348525308072567,
                        "63": -0.10617155581712723,
                        "64": -0.08787674456834793,
                        "65": -0.07224392145872116,
                        "66": 0.12900762259960175,
                        "67": -0.1976558119058609,
                        "68": -0.03080914542078972,
                        "69": -0.06547383219003677,
                        "70": -0.10548987239599228,
                        "71": -0.16807283461093903,
                        "72": -0.04459799453616142,
                        "73": -0.16841931641101837,
                        "74": -0.0992768332362175,
                        "75": -0.1875290423631668,
                        "76": -0.01099421363323927,
                        "77": 0.12048785388469696,
                        "78": -0.024138815701007843,
                        "79": -0.17707130312919617,
                        "80": 0.19845451414585114,
                        "81": -0.14820857346057892,
                        "82": -0.04642559587955475,
                        "83": 0.13827599585056305,
                        "84": -0.1709757000207901,
                        "85": -0.00743274949491024,
                        "86": 0.039152394980192184,
                        "87": 0.033877842128276825,
                        "88": 0.005799754988402128,
                        "89": -0.17646414041519165,
                        "90": 0.047558367252349854,
                        "91": -0.10577534139156342,
                        "92": -0.05924537405371666,
                        "93": 0.15337319672107697,
                        "94": -0.1946014165878296,
                        "95": -0.1030825600028038,
                        "96": -0.174641415476799,
                        "97": -0.0011000200174748898,
                        "98": 0.1641596555709839,
                        "99": -0.15016230940818787,
                        "100": -0.04982886090874672,
                        "101": -0.19735978543758392,
                        "102": -0.17175747454166412,
                        "103": 0.030863281339406967,
                        "104": 0.11203408986330032,
                        "105": -0.17494529485702515,
                        "106": -0.10420545935630798,
                        "107": 0.14959248900413513,
                        "108": -0.13752853870391846,
                        "109": 0.019286077469587326,
                        "110": -0.03049781732261181,
                        "111": -0.1974666565656662,
                        "112": -0.107246994972229,
                        "113": 0.153206929564476,
                        "114": 0.00561504065990448,
                        "115": 0.18011055886745453,
                        "116": 0.049364086240530014,
                        "117": 0.0354544073343277,
                        "118": 0.08680753409862518,
                        "119": -0.10926388949155807,
                        "120": 0.15676982700824738,
                        "121": 0.15473957359790802,
                        "122": -0.007297232281416655,
                        "123": 0.08774285763502121,
                        "124": -0.008476619608700275,
                        "125": 0.012611858546733856,
                        "126": -0.04938850924372673,
                        "127": -0.16704979538917542,
                        "128": 0.06259357184171677,
                        "129": 0.17179639637470245,
                        "130": -0.12362676113843918,
                        "131": 0.024752743542194366,
                        "132": 0.17200320959091187,
                        "133": 0.16295021772384644,
                        "134": -0.1398373544216156,
                        "135": -0.05156448483467102,
                        "136": -0.09147901833057404,
                        "137": -0.05526817589998245,
                        "138": 0.007331010885536671,
                        "139": -0.0448402501642704,
                        "140": 0.05804293230175972,
                        "141": 0.1794198900461197,
                        "142": 0.03883522003889084,
                        "143": 0.013227921910583973,
                        "144": -0.09724696725606918,
                        "145": 0.18462468683719635,
                        "146": -0.050876449793577194,
                        "147": 0.01794530265033245,
                        "148": 0.044851917773485184,
                        "149": -0.05611454322934151,
                        "150": 0.01143674273043871,
                        "151": 0.08659561723470688,
                        "152": -0.19182276725769043,
                        "153": -0.07493506371974945,
                        "154": -0.041785042732954025,
                        "155": 0.12185759842395782,
                        "156": -0.1788184940814972,
                        "157": -0.00019006944785360247,
                        "158": 0.18331465125083923,
                        "159": 0.008270787075161934,
                        "160": -0.1105695366859436,
                        "161": 0.16898870468139648,
                        "162": 0.000708830717485398,
                        "163": 0.015640422701835632,
                        "164": -0.01598978042602539,
                        "165": 0.06527695059776306,
                        "166": -0.12619435787200928,
                        "167": 0.014464621432125568,
                        "168": -0.17789751291275024,
                        "169": -0.012354775331914425,
                        "170": 0.09332431107759476,
                        "171": -0.005136794410645962,
                        "172": 0.07859622687101364,
                        "173": 0.1200336292386055,
                        "174": -0.17867296934127808,
                        "175": -0.14186933636665344,
                        "176": -0.14172577857971191,
                        "177": 0.04885772243142128,
                        "178": 0.1271674782037735,
                        "179": -0.006530653685331345,
                        "180": -0.18937459588050842,
                        "181": 0.04523609206080437,
                        "182": -0.0029689965303987265,
                        "183": 0.10785912722349167,
                        "184": -0.06720446050167084,
                        "185": -0.16858842968940735,
                        "186": 0.010745986364781857,
                        "187": 0.07749747484922409,
                        "188": 0.17226147651672363,
                        "189": -0.19269107282161713,
                        "190": 0.030799178406596184,
                        "191": 0.028454825282096863,
                        "192": 0.047337327152490616,
                        "193": -0.13527391850948334,
                        "194": 0.14659158885478973,
                        "195": 0.023524435237050056,
                        "196": -0.0910729318857193,
                        "197": -0.00035123969428241253,
                        "198": 0.10949535667896271,
                        "199": 0.0027968545909971,
                        "200": 0.1566888689994812,
                        "201": 0.007035764865577221,
                        "202": -0.17405135929584503,
                        "203": -0.17489074170589447,
                        "204": -0.15619903802871704,
                        "205": -0.14091233909130096,
                        "206": 0.08119069039821625,
                        "207": -0.044616710394620895,
                        "208": 0.013597632758319378,
                        "209": -0.07933764904737473,
                        "210": 0.07617521286010742,
                        "211": 0.1384575515985489,
                        "212": 0.16211460530757904,
                        "213": -0.080774687230587,
                        "214": -0.13699795305728912,
                        "215": 0.04396972432732582,
                        "216": 0.19044867157936096,
                        "217": 0.0865827202796936,
                        "218": -0.12638916075229645,
