{
    "info": {
        "ai": {
            "config": {
                "hiddenLayers": [
                    128,
                    128
                ],
                "activation": "tanh"
            },
            "training": {
                "iterations": 500,
                "errorThresh": 0.001,
                "learningRate": 0.3,
                "momentum": 0.1
            }
        },
        "id": "89f8e8cb8bbb4e4062c1dfb19101c8fb",
        "dimension": [
            16,
            16
        ],
        "channel": "red",
        "colorspace": "b-w",
        "blackWhite": true
    },
    "data": {
        "sizes": [
            256,
            128,
            128,
            10
        ],
        "layers": [
            {
                "0": {},
                "1": {},
                "2": {},
                "3": {},
                "4": {},
                "5": {},
                "6": {},
                "7": {},
                "8": {},
                "9": {},
                "10": {},
                "11": {},
                "12": {},
                "13": {},
                "14": {},
                "15": {},
                "16": {},
                "17": {},
                "18": {},
                "19": {},
                "20": {},
                "21": {},
                "22": {},
                "23": {},
                "24": {},
                "25": {},
                "26": {},
                "27": {},
                "28": {},
                "29": {},
                "30": {},
                "31": {},
                "32": {},
                "33": {},
                "34": {},
                "35": {},
                "36": {},
                "37": {},
                "38": {},
                "39": {},
                "40": {},
                "41": {},
                "42": {},
                "43": {},
                "44": {},
                "45": {},
                "46": {},
                "47": {},
                "48": {},
                "49": {},
                "50": {},
                "51": {},
                "52": {},
                "53": {},
                "54": {},
                "55": {},
                "56": {},
                "57": {},
                "58": {},
                "59": {},
                "60": {},
                "61": {},
                "62": {},
                "63": {},
                "64": {},
                "65": {},
                "66": {},
                "67": {},
                "68": {},
                "69": {},
                "70": {},
                "71": {},
                "72": {},
                "73": {},
                "74": {},
                "75": {},
                "76": {},
                "77": {},
                "78": {},
                "79": {},
                "80": {},
                "81": {},
                "82": {},
                "83": {},
                "84": {},
                "85": {},
                "86": {},
                "87": {},
                "88": {},
                "89": {},
                "90": {},
                "91": {},
                "92": {},
                "93": {},
                "94": {},
                "95": {},
                "96": {},
                "97": {},
                "98": {},
                "99": {},
                "100": {},
                "101": {},
                "102": {},
                "103": {},
                "104": {},
                "105": {},
                "106": {},
                "107": {},
                "108": {},
                "109": {},
                "110": {},
                "111": {},
                "112": {},
                "113": {},
                "114": {},
                "115": {},
                "116": {},
                "117": {},
                "118": {},
                "119": {},
                "120": {},
                "121": {},
                "122": {},
                "123": {},
                "124": {},
                "125": {},
                "126": {},
                "127": {},
                "128": {},
                "129": {},
                "130": {},
                "131": {},
                "132": {},
                "133": {},
                "134": {},
                "135": {},
                "136": {},
                "137": {},
                "138": {},
                "139": {},
                "140": {},
                "141": {},
                "142": {},
                "143": {},
                "144": {},
                "145": {},
                "146": {},
                "147": {},
                "148": {},
                "149": {},
                "150": {},
                "151": {},
                "152": {},
                "153": {},
                "154": {},
                "155": {},
                "156": {},
                "157": {},
                "158": {},
                "159": {},
                "160": {},
                "161": {},
                "162": {},
                "163": {},
                "164": {},
                "165": {},
                "166": {},
                "167": {},
                "168": {},
                "169": {},
                "170": {},
                "171": {},
                "172": {},
                "173": {},
                "174": {},
                "175": {},
                "176": {},
                "177": {},
                "178": {},
                "179": {},
                "180": {},
                "181": {},
                "182": {},
                "183": {},
                "184": {},
                "185": {},
                "186": {},
                "187": {},
                "188": {},
                "189": {},
                "190": {},
                "191": {},
                "192": {},
                "193": {},
                "194": {},
                "195": {},
                "196": {},
                "197": {},
                "198": {},
                "199": {},
                "200": {},
                "201": {},
                "202": {},
                "203": {},
                "204": {},
                "205": {},
                "206": {},
                "207": {},
                "208": {},
                "209": {},
                "210": {},
                "211": {},
                "212": {},
                "213": {},
                "214": {},
                "215": {},
                "216": {},
                "217": {},
                "218": {},
                "219": {},
                "220": {},
                "221": {},
                "222": {},
                "223": {},
                "224": {},
                "225": {},
                "226": {},
                "227": {},
                "228": {},
                "229": {},
                "230": {},
                "231": {},
                "232": {},
                "233": {},
                "234": {},
                "235": {},
                "236": {},
                "237": {},
                "238": {},
                "239": {},
                "240": {},
                "241": {},
                "242": {},
                "243": {},
                "244": {},
                "245": {},
                "246": {},
                "247": {},
                "248": {},
                "249": {},
                "250": {},
                "251": {},
                "252": {},
                "253": {},
                "254": {},
                "255": {}
            },
            {
                "0": {
                    "bias": 0.07820285111665726,
                    "weights": {
                        "0": -0.20099523663520813,
                        "1": -0.15239408612251282,
                        "2": 0.08905500173568726,
                        "3": -0.15356023609638214,
                        "4": 0.1874241977930069,
                        "5": 0.08745978772640228,
                        "6": -0.034023988991975784,
                        "7": -0.02780582383275032,
                        "8": 0.06618155539035797,
                        "9": -0.062078893184661865,
                        "10": -0.14449191093444824,
                        "11": -0.07202398031949997,
                        "12": 0.1362350583076477,
                        "13": -0.18711920082569122,
                        "14": -0.19533580541610718,
                        "15": -0.19952811300754547,
                        "16": -0.050637029111385345,
                        "17": 0.1937948316335678,
                        "18": -0.029841575771570206,
                        "19": -0.1762072741985321,
                        "20": -0.10698480904102325,
                        "21": -0.08567914366722107,
                        "22": 0.030142849311232567,
                        "23": -0.07352109998464584,
                        "24": 0.16098356246948242,
                        "25": 0.07443966716527939,
                        "26": -0.10386909544467926,
                        "27": 0.022083871066570282,
                        "28": -0.07425881922245026,
                        "29": -0.18084195256233215,
                        "30": 0.07885921746492386,
                        "31": 0.08893019706010818,
                        "32": -0.19482307136058807,
                        "33": 0.08408282697200775,
                        "34": -0.03334546834230423,
                        "35": 0.04422140493988991,
                        "36": 0.11320171505212784,
                        "37": -0.07854685932397842,
                        "38": 0.14152806997299194,
                        "39": -0.08581598103046417,
                        "40": -0.010163593105971813,
                        "41": -0.17370374500751495,
                        "42": 0.1460653692483902,
                        "43": -0.06359416246414185,
                        "44": -0.0414745919406414,
                        "45": -0.19127684831619263,
                        "46": 0.02224806696176529,
                        "47": 0.03632020205259323,
                        "48": 0.0460260733962059,
                        "49": 0.011010111309587955,
                        "50": -0.09124107658863068,
                        "51": -0.030676444992423058,
                        "52": 0.023588217794895172,
                        "53": -0.1988370269536972,
                        "54": -0.1787048876285553,
                        "55": 0.07074553519487381,
                        "56": 0.07416164129972458,
                        "57": 0.1043684333562851,
                        "58": 0.06600609421730042,
                        "59": 0.12766778469085693,
                        "60": -0.00871866662055254,
                        "61": -0.09749826043844223,
                        "62": -0.04624870792031288,
                        "63": -0.10162130743265152,
                        "64": -0.029392728582024574,
                        "65": -0.1407787948846817,
                        "66": 0.062207892537117004,
                        "67": -0.13769157230854034,
                        "68": -0.17302019894123077,
                        "69": -0.1957971751689911,
                        "70": 0.12506818771362305,
                        "71": -0.15876047313213348,
                        "72": -0.10515964776277542,
                        "73": 0.03393616899847984,
                        "74": -0.1011228933930397,
                        "75": 0.11378674954175949,
                        "76": -0.03220304101705551,
                        "77": 0.0005709624965675175,
                        "78": -0.1548909842967987,
                        "79": 0.023157265037298203,
                        "80": -0.014899717643857002,
                        "81": -0.17202486097812653,
                        "82": 0.11225495487451553,
                        "83": 0.14900097250938416,
                        "84": 0.06703326106071472,
                        "85": -0.2507301867008209,
                        "86": -0.20790739357471466,
                        "87": -0.05839834734797478,
                        "88": -0.022872911766171455,
                        "89": 0.008807805366814137,
                        "90": -0.16195429861545563,
                        "91": 0.13996554911136627,
                        "92": -0.07768888026475906,
                        "93": 0.17374500632286072,
                        "94": -0.11782543361186981,
                        "95": 0.09312640130519867,
                        "96": 0.1394679993391037,
                        "97": 0.025537068024277687,
                        "98": -0.07083575427532196,
                        "99": -0.15972447395324707,
                        "100": 0.12474778294563293,
                        "101": -0.14349980652332306,
                        "102": -0.19079658389091492,
                        "103": -0.07545062899589539,
                        "104": -0.05577775090932846,
                        "105": -0.1932118535041809,
                        "106": 0.07390205562114716,
                        "107": -0.1317528337240219,
                        "108": -0.033743277192115784,
                        "109": -0.13897179067134857,
                        "110": -0.09274420887231827,
                        "111": 0.10059874504804611,
                        "112": -0.14995035529136658,
                        "113": -0.12930451333522797,
                        "114": 0.002856464358046651,
                        "115": 0.10246726125478745,
                        "116": -0.036748386919498444,
                        "117": 0.0883660763502121,
                        "118": 0.030326297506690025,
                        "119": 0.10436441749334335,
                        "120": 0.13646957278251648,
                        "121": -0.15997904539108276,
                        "122": -0.12644068896770477,
                        "123": -0.16495634615421295,
                        "124": -0.0795765221118927,
                        "125": -0.11449668556451797,
                        "126": 0.05259168520569801,
                        "127": -0.17180967330932617,
                        "128": -0.0802832841873169,
                        "129": -0.01072845607995987,
                        "130": 0.14221948385238647,
                        "131": -0.07243384420871735,
                        "132": -0.18171541392803192,
                        "133": 0.01992110349237919,
                        "134": 0.1669040322303772,
                        "135": -0.17380951344966888,
                        "136": -0.05207362025976181,
                        "137": -0.15465931594371796,
                        "138": -0.16737784445285797,
                        "139": 0.1306673288345337,
                        "140": 0.023317662999033928,
                        "141": -0.15530619025230408,
                        "142": -0.17832793295383453,
                        "143": 0.06087322533130646,
                        "144": -0.21151460707187653,
                        "145": -0.09852736443281174,
                        "146": 0.005834076087921858,
                        "147": -0.009457078762352467,
                        "148": 0.08809676766395569,
                        "149": 0.07374279946088791,
                        "150": -0.14622274041175842,
                        "151": -0.2119976431131363,
                        "152": -0.18521910905838013,
                        "153": 0.05119229480624199,
                        "154": -0.11718780547380447,
                        "155": -0.01930650882422924,
                        "156": 0.005841578356921673,
                        "157": 0.08301743865013123,
                        "158": -0.15381984412670135,
                        "159": -0.24646808207035065,
                        "160": -0.22096192836761475,
                        "161": -0.1900579035282135,
                        "162": 0.10965433716773987,
                        "163": 0.0010688103502616286,
                        "164": -0.23639214038848877,
                        "165": -0.012810981832444668,
                        "166": -0.09674360603094101,
                        "167": -0.2214912325143814,
                        "168": 0.09691984206438065,
                        "169": 0.0058695729821920395,
                        "170": -0.1762225478887558,
                        "171": -0.11218291521072388,
                        "172": 0.06498739868402481,
                        "173": 0.10102695971727371,
                        "174": -0.1590125560760498,
                        "175": 0.03699995577335358,
                        "176": 0.05615096911787987,
                        "177": -0.21638819575309753,
                        "178": 0.13668054342269897,
                        "179": 0.09377319365739822,
                        "180": -0.1889537274837494,
                        "181": 0.05516728758811951,
                        "182": 0.0022409840021282434,
                        "183": 0.004311635624617338,
                        "184": -0.24396373331546783,
                        "185": 0.14266791939735413,
                        "186": -0.14421424269676208,
                        "187": 0.11274382472038269,
                        "188": -0.04289348050951958,
                        "189": -0.1516830325126648,
                        "190": -0.17380788922309875,
                        "191": -0.14362643659114838,
                        "192": 0.10691338032484055,
                        "193": -0.0333389937877655,
                        "194": 0.0014795310562476516,
                        "195": 0.09193948656320572,
                        "196": -0.1345667541027069,
                        "197": 0.11803346872329712,
                        "198": 0.09296830743551254,
                        "199": -0.12063995748758316,
                        "200": -0.20923006534576416,
                        "201": -0.20749115943908691,
                        "202": -0.1403157263994217,
                        "203": 0.1778077781200409,
                        "204": 0.007169474381953478,
                        "205": 0.11423405259847641,
                        "206": -0.13254079222679138,
                        "207": 0.055051177740097046,
                        "208": -0.07674442231655121,
                        "209": -0.14957189559936523,
                        "210": 0.05411381274461746,
                        "211": 0.06327975541353226,
                        "212": 0.12590184807777405,
                        "213": 0.06841576099395752,
                        "214": 0.03489057347178459,
                        "215": -0.13539624214172363,
                        "216": -0.005713853519409895,
                        "217": 0.01751578040421009,
                        "218": 0.00009525845962343737,
                        "219": -0.06467536091804504,
                        "220": 0.03235765919089317,
                        "221": 0.0262845940887928,
                        "222": -0.04881211742758751,
                        "223": -0.16388241946697235,
                        "224": 0.046510182321071625,
                        "225": 0.0474499873816967,
                        "226": -0.015284611843526363,
                        "227": 0.14816179871559143,
                        "228": 0.14958423376083374,
                        "229": 0.020713258534669876,
                        "230": 0.14018197357654572,
                        "231": -0.15329194068908691,
                        "232": 0.050665564835071564,
                        "233": -0.1496003419160843,
                        "234": 0.19193781912326813,
                        "235": 0.08341662585735321,
                        "236": -0.0831545740365982,
                        "237": -0.00969728734344244,
                        "238": 0.0016408944502472878,
                        "239": 0.005627080798149109,
                        "240": -0.24403297901153564,
                        "241": -0.03431585431098938,
                        "242": -0.24524715542793274,
                        "243": 0.114663265645504,
                        "244": -0.005272305104881525,
                        "245": -0.004727873485535383,
                        "246": -0.12645035982131958,
                        "247": 0.07572041451931,
                        "248": 0.019744092598557472,
                        "249": -0.06601472944021225,
                        "250": 0.09373871237039566,
                        "251": -0.0702843964099884,
                        "252": -0.1740485429763794,
                        "253": -0.13554534316062927,
                        "254": -0.13695430755615234,
                        "255": -0.003947380930185318
                    }
                },
                "1": {
                    "bias": -0.10049828886985779,
                    "weights": {
                        "0": 0.2439003884792328,
                        "1": -0.09129146486520767,
                        "2": -0.08781479299068451,
                        "3": 0.16918478906154633,
                        "4": 0.21636083722114563,
                        "5": -0.017797691747546196,
                        "6": 0.13734473288059235,
                        "7": 0.14122261106967926,
                        "8": -0.1370355486869812,
                        "9": -0.01031441055238247,
                        "10": -0.08145845681428909,
                        "11": -0.06757117807865143,
                        "12": 0.027769090607762337,
                        "13": 0.07253007590770721,
                        "14": 0.11852839589118958,
                        "15": 0.1960858255624771,
                        "16": 0.1891712248325348,
                        "17": 0.09099042415618896,
                        "18": -0.13774296641349792,
                        "19": 0.02490604855120182,
                        "20": -0.048802345991134644,
                        "21": 0.046381231397390366,
                        "22": -0.12705287337303162,
                        "23": 0.10392241925001144,
                        "24": 0.14038079977035522,
                        "25": 0.1740683913230896,
                        "26": -0.0923110619187355,
                        "27": -0.09161600470542908,
                        "28": -0.08050686120986938,
                        "29": -0.0010762871243059635,
                        "30": -0.07328915596008301,
                        "31": -0.16275782883167267,
                        "32": 0.027129217982292175,
                        "33": 0.059625376015901566,
                        "34": 0.15995413064956665,
                        "35": -0.006512561812996864,
                        "36": 0.0005561484722420573,
                        "37": -0.10156027227640152,
                        "38": -0.15810410678386688,
                        "39": -0.11847738921642303,
                        "40": 0.021413030102849007,
                        "41": -0.1569889336824417,
                        "42": 0.0160733163356781,
                        "43": 0.0009641684009693563,
                        "44": 0.13802482187747955,
                        "45": 0.09808607399463654,
                        "46": -0.051523104310035706,
                        "47": -0.06281337141990662,
                        "48": 0.23642420768737793,
                        "49": 0.1391720473766327,
                        "50": 0.14302080869674683,
                        "51": 0.10430216789245605,
                        "52": -0.13458587229251862,
                        "53": -0.16519328951835632,
                        "54": 0.05021040514111519,
                        "55": 0.0645885169506073,
                        "56": -0.08607571572065353,
                        "57": 0.03385734185576439,
                        "58": -0.19718682765960693,
                        "59": 0.19742007553577423,
                        "60": -0.06950217485427856,
                        "61": 0.18366895616054535,
                        "62": -0.17562702298164368,
                        "63": -0.14247259497642517,
                        "64": 0.06409309059381485,
                        "65": 0.26927369832992554,
                        "66": 0.016306651756167412,
                        "67": -0.10537848621606827,
                        "68": 0.20310626924037933,
                        "69": -0.11526316404342651,
                        "70": -0.039930619299411774,
                        "71": 0.0027818556409329176,
                        "72": -0.01783861592411995,
                        "73": 0.0041401623748242855,
                        "74": -0.054128821939229965,
                        "75": -0.11633274704217911,
                        "76": 0.02864711359143257,
                        "77": -0.08329567313194275,
                        "78": 0.02646053209900856,
                        "79": -0.03461313992738724,
                        "80": -0.028736529871821404,
                        "81": 0.2409142404794693,
                        "82": 0.09821964055299759,
                        "83": -0.11798344552516937,
                        "84": -0.158223494887352,
                        "85": 0.0734359622001648,
                        "86": -0.05086454749107361,
                        "87": -0.051615193486213684,
                        "88": -0.02715257741510868,
                        "89": 0.17136594653129578,
                        "90": -0.010286479257047176,
                        "91": 0.14384207129478455,
                        "92": -0.06145959720015526,
                        "93": 0.12193233519792557,
                        "94": 0.056890252977609634,
                        "95": -0.09481707215309143,
                        "96": 0.15982356667518616,
                        "97": 0.0785137265920639,
                        "98": 0.04126835986971855,
                        "99": 0.11326617747545242,
                        "100": 0.10423189401626587,
                        "101": 0.05385677143931389,
                        "102": 0.02311660349369049,
                        "103": 0.1483469158411026,
                        "104": -0.16998083889484406,
                        "105": -0.06364237517118454,
                        "106": 0.0866745114326477,
                        "107": -0.16433589160442352,
                        "108": -0.07248303294181824,
                        "109": 0.10767488181591034,
                        "110": 0.030554192140698433,
                        "111": -0.03653401881456375,
                        "112": 0.27126815915107727,
                        "113": 0.020434699952602386,
                        "114": 0.14063677191734314,
                        "115": 0.23459932208061218,
                        "116": 0.1903802454471588,
                        "117": -0.17494544386863708,
                        "118": 0.11398770660161972,
                        "119": 0.0016909083351492882,
                        "120": 0.04767203703522682,
                        "121": 0.2049679160118103,
                        "122": 0.16314703226089478,
                        "123": -0.18085038661956787,
                        "124": 0.19437116384506226,
                        "125": 0.09462839365005493,
                        "126": 0.049822863191366196,
                        "127": 0.15195679664611816,
                        "128": -0.0005207881331443787,
                        "129": 0.16232991218566895,
                        "130": 0.20045454800128937,
                        "131": -0.006437213160097599,
                        "132": 0.2647169828414917,
                        "133": 0.012735575437545776,
                        "134": 0.21683447062969208,
                        "135": 0.21921677887439728,
                        "136": -0.057519830763339996,
                        "137": 0.18470197916030884,
                        "138": 0.25773727893829346,
                        "139": 0.035144783556461334,
                        "140": 0.20730020105838776,
                        "141": 0.10341920703649521,
                        "142": -0.05927484482526779,
                        "143": 0.20675325393676758,
                        "144": -0.022058030590415,
                        "145": -0.0663585439324379,
                        "146": -0.011961658485233784,
                        "147": 0.20020364224910736,
                        "148": 0.05586644262075424,
                        "149": -0.1262589395046234,
                        "150": 0.18395426869392395,
                        "151": 0.17514972388744354,
                        "152": -0.12110584229230881,
                        "153": 0.16467662155628204,
                        "154": 0.21090781688690186,
                        "155": -0.052110809832811356,
                        "156": -0.12733550369739532,
                        "157": -0.03693899139761925,
                        "158": -0.0233141016215086,
                        "159": 0.250461608171463,
                        "160": -0.012643110938370228,
                        "161": -0.012907730415463448,
                        "162": 0.17454682290554047,
                        "163": 0.11208625882863998,
                        "164": 0.055419303476810455,
                        "165": -0.01251205988228321,
                        "166": 0.15137268602848053,
                        "167": -0.021835122257471085,
                        "168": 0.1056666374206543,
                        "169": -0.10013243556022644,
                        "170": -0.10067728906869888,
                        "171": -0.020093435421586037,
                        "172": -0.014331004582345486,
                        "173": 0.0854286178946495,
                        "174": 0.0027949465438723564,
                        "175": -0.12278378754854202,
                        "176": 0.020764825865626335,
                        "177": 0.05860669165849686,
                        "178": 0.18968980014324188,
                        "179": -0.004293827805668116,
                        "180": 0.050139397382736206,
                        "181": -0.0839017927646637,
                        "182": 0.2024567425251007,
                        "183": -0.049788687378168106,
                        "184": -0.1537104845046997,
                        "185": 0.0931783989071846,
                        "186": -0.13288964331150055,
                        "187": -0.13912057876586914,
                        "188": 0.027807001024484634,
                        "189": 0.09803533554077148,
                        "190": -0.10521689802408218,
                        "191": -0.09424459934234619,
                        "192": 0.12094072997570038,
                        "193": -0.14720815420150757,
                        "194": 0.06830962747335434,
                        "195": 0.14686980843544006,
                        "196": 0.0875958651304245,
                        "197": 0.10017409920692444,
                        "198": 0.08779077231884003,
                        "199": 0.06024189665913582,
                        "200": -0.09823298454284668,
                        "201": 0.03960571438074112,
                        "202": 0.18009072542190552,
                        "203": 0.16206136345863342,
                        "204": -0.024641023948788643,
                        "205": -0.08421207964420319,
                        "206": -0.07484235614538193,
                        "207": 0.23208940029144287,
                        "208": 0.021117541939020157,
                        "209": 0.10587689280509949,
                        "210": 0.020244091749191284,
                        "211": 0.1049717515707016,
                        "212": -0.0644800141453743,
                        "213": -0.06750144809484482,
                        "214": -0.15972547233104706,
                        "215": -0.09637247771024704,
                        "216": 0.09093005955219269,
                        "217": 0.18813066184520721,
                        "218": 0.12175438553094864,
                        "219": -0.13673822581768036,
                        "220": 0.010578066110610962,
                        "221": 0.021405719220638275,
                        "222": -0.08093177527189255,
                        "223": -0.024413956329226494,
                        "224": 0.01919332519173622,
                        "225": 0.18945306539535522,
                        "226": 0.1672680377960205,
                        "227": 0.13726694881916046,
                        "228": 0.14308859407901764,
                        "229": -0.015609332360327244,
                        "230": 0.007278712000697851,
                        "231": 0.026816077530384064,
                        "232": -0.13227073848247528,
                        "233": -0.18811209499835968,
                        "234": 0.15768314898014069,
                        "235": -0.13776253163814545,
                        "236": 0.13406924903392792,
                        "237": 0.0033408505842089653,
                        "238": 0.22033609449863434,
                        "239": 0.003932842519134283,
                        "240": 0.007158308289945126,
                        "241": 0.06364329159259796,
                        "242": 0.12016243487596512,
                        "243": 0.20382316410541534,
                        "244": -0.001194079639390111,
                        "245": -0.13669496774673462,
                        "246": -0.07450801134109497,
                        "247": -0.08949976414442062,
                        "248": -0.15594179928302765,
                        "249": 0.015894219279289246,
                        "250": 0.035598255693912506,
                        "251": -0.1258140206336975,
                        "252": 0.02493458054959774,
                        "253": -0.04057565703988075,
                        "254": 0.18584772944450378,
                        "255": -0.06531476229429245
                    }
                },
                "2": {
                    "bias": 0.1673021912574768,
                    "weights": {
                        "0": -0.15026170015335083,
                        "1": -0.12285736948251724,
                        "2": -0.06225037947297096,
                        "3": 0.1485322117805481,
                        "4": 0.07569198310375214,
                        "5": -0.1535957008600235,
                        "6": -0.10341747105121613,
                        "7": -0.15447035431861877,
                        "8": -0.09937240928411484,
                        "9": -0.05290388688445091,
                        "10": -0.04208734259009361,
                        "11": 0.07493827491998672,
                        "12": -0.005089316982775927,
                        "13": 0.11433788388967514,
                        "14": -0.09450933337211609,
                        "15": 0.03802249953150749,
                        "16": -0.04249987006187439,
                        "17": 0.14966247975826263,
                        "18": 0.19671626389026642,
                        "19": -0.10743100196123123,
                        "20": -0.016944102942943573,
                        "21": 0.023311559110879898,
                        "22": -0.14443200826644897,
                        "23": 0.13050755858421326,
                        "24": 0.01285367738455534,
                        "25": 0.09196346998214722,
                        "26": 0.026165971532464027,
                        "27": 0.14781880378723145,
                        "28": -0.12774254381656647,
                        "29": 0.12698103487491608,
                        "30": 0.19296768307685852,
                        "31": -0.1612871140241623,
                        "32": 0.07798288017511368,
                        "33": 0.1954902857542038,
                        "34": 0.03913350775837898,
                        "35": -0.03885705769062042,
                        "36": -0.021364416927099228,
                        "37": -0.08627743273973465,
                        "38": 0.17867209017276764,
                        "39": -0.09851617366075516,
                        "40": -0.14267201721668243,
                        "41": 0.14197619259357452,
                        "42": -0.16138170659542084,
                        "43": -0.15886273980140686,
                        "44": 0.07290332019329071,
                        "45": 0.1812143623828888,
                        "46": -0.18891151249408722,
                        "47": 0.144349604845047,
                        "48": 0.10773733258247375,
                        "49": 0.1863422393798828,
                        "50": 0.0032118104863911867,
                        "51": 0.08371671289205551,
                        "52": -0.08501704782247543,
                        "53": -0.02282078191637993,
                        "54": -0.14254476130008698,
                        "55": -0.1594381481409073,
                        "56": 0.10048520565032959,
                        "57": -0.04990378022193909,
                        "58": 0.13358274102210999,
                        "59": 0.007753864862024784,
                        "60": -0.1496444195508957,
                        "61": -0.04708290472626686,
                        "62": -0.09765725582838058,
                        "63": -0.0805579349398613,
                        "64": -0.035369738936424255,
                        "65": -0.11795855313539505,
                        "66": -0.1265559047460556,
                        "67": -0.021969011053442955,
                        "68": -0.006557754706591368,
                        "69": -0.05205358564853668,
                        "70": 0.11538070440292358,
                        "71": -0.03388276696205139,
                        "72": 0.012431752867996693,
                        "73": -0.05502350628376007,
                        "74": 0.20969070494174957,
                        "75": -0.18809185922145844,
                        "76": 0.09686283022165298,
                        "77": -0.10384245216846466,
                        "78": -0.14139021933078766,
                        "79": -0.11937914043664932,
                        "80": 0.10085882246494293,
                        "81": -0.11863619089126587,
                        "82": -0.0666205883026123,
                        "83": 0.01797480508685112,
                        "84": 0.17398002743721008,
                        "85": -0.08613648265600204,
                        "86": 0.06845579296350479,
                        "87": 0.15279565751552582,
                        "88": 0.18910004198551178,
                        "89": -0.1685960441827774,
                        "90": -0.09031551331281662,
                        "91": -0.0954291895031929,
                        "92": -0.08574099093675613,
                        "93": -0.043660927563905716,
                        "94": 0.05368537828326225,
                        "95": 0.2032737284898758,
                        "96": -0.13013482093811035,
                        "97": 0.027227750048041344,
                        "98": -0.16979195177555084,
                        "99": -0.16963404417037964,
                        "100": -0.08981923758983612,
                        "101": 0.1516866832971573,
                        "102": -0.009546184912323952,
                        "103": 0.016799159348011017,
                        "104": -0.0751037672162056,
                        "105": -0.028924131765961647,
                        "106": 0.08532089740037918,
                        "107": 0.11696484684944153,
                        "108": -0.15698237717151642,
                        "109": -0.1849353164434433,
                        "110": -0.024731187149882317,
                        "111": 0.04585571214556694,
                        "112": -0.10584986954927444,
                        "113": -0.12748652696609497,
                        "114": -0.041237734258174896,
                        "115": 0.17643876373767853,
                        "116": -0.027196897193789482,
                        "117": -0.16614222526550293,
                        "118": 0.05585477128624916,
                        "119": -0.1650686413049698,
                        "120": -0.12059114128351212,
                        "121": 0.19078968465328217,
                        "122": -0.11776139587163925,
                        "123": 0.054331161081790924,
                        "124": 0.06490303575992584,
                        "125": 0.1840643584728241,
                        "126": 0.017081478610634804,
                        "127": 0.048959698528051376,
                        "128": 0.013885512948036194,
                        "129": 0.034972574561834335,
                        "130": -0.13716650009155273,
                        "131": 0.15584005415439606,
                        "132": 0.13965706527233124,
                        "133": 0.047669053077697754,
                        "134": 0.14129523932933807,
                        "135": 0.12992636859416962,
                        "136": 0.002893752185627818,
                        "137": 0.05188770964741707,
                        "138": -0.1861296147108078,
                        "139": -0.03034881502389908,
                        "140": 0.028556223958730698,
                        "141": -0.07064180076122284,
                        "142": 0.23065611720085144,
                        "143": 0.039100099354982376,
                        "144": -0.09343378990888596,
                        "145": 0.18000352382659912,
                        "146": 0.09833676367998123,
                        "147": -0.003972258884459734,
                        "148": 0.054559655487537384,
                        "149": 0.04362034425139427,
                        "150": -0.1365026980638504,
                        "151": 0.04247581958770752,
                        "152": -0.07536730915307999,
                        "153": 0.16334910690784454,
                        "154": -0.0315559059381485,
                        "155": 0.005363674368709326,
                        "156": -0.16884540021419525,
                        "157": 0.018530406057834625,
                        "158": 0.006172021850943565,
                        "159": -0.12780551612377167,
                        "160": 0.23241911828517914,
                        "161": -0.10564827173948288,
                        "162": -0.1280132234096527,
                        "163": 0.05735573545098305,
                        "164": 0.08278367668390274,
                        "165": 0.13527196645736694,
                        "166": 0.07556244730949402,
                        "167": -0.14115504920482635,
                        "168": 0.16761277616024017,
                        "169": 0.006418795790523291,
                        "170": -0.07670874893665314,
                        "171": 0.0011366429971531034,
                        "172": -0.16694632172584534,
                        "173": 0.040017735213041306,
                        "174": 0.21383383870124817,
                        "175": -0.09743895381689072,
                        "176": -0.1319829821586609,
                        "177": -0.15213894844055176,
                        "178": 0.10716324299573898,
                        "179": -0.10652157664299011,
                        "180": 0.04900359362363815,
                        "181": -0.11972614377737045,
                        "182": 0.15768063068389893,
                        "183": 0.01076877024024725,
                        "184": 0.12568135559558868,
                        "185": 0.1787864714860916,
                        "186": 0.06731678545475006,
                        "187": -0.14553417265415192,
                        "188": 0.03391663357615471,
                        "189": -0.07483623921871185,
                        "190": -0.012398192659020424,
                        "191": 0.16952645778656006,
                        "192": 0.02164224162697792,
                        "193": -0.036171410232782364,
                        "194": 0.14318877458572388,
                        "195": 0.18500034511089325,
                        "196": 0.13713300228118896,
                        "197": 0.018230831250548363,
                        "198": 0.00185106392018497,
                        "199": -0.008536415174603462,
                        "200": -0.18871767818927765,
                        "201": 0.11330073326826096,
                        "202": -0.03597011789679527,
                        "203": 0.02951594814658165,
                        "204": 0.13313806056976318,
                        "205": 0.20386141538619995,
                        "206": 0.10398042947053909,
                        "207": 0.23019316792488098,
                        "208": 0.21170702576637268,
                        "209": -0.160191148519516,
                        "210": -0.13993524014949799,
                        "211": 0.0658501461148262,
                        "212": 0.031777314841747284,
                        "213": -0.0737416222691536,
                        "214": 0.14541372656822205,
                        "215": 0.2119038701057434,
                        "216": -0.17569082975387573,
                        "217": -0.1389886736869812,
                        "218": 0.11514951288700104,
                        "219": -0.12123926728963852,
                        "220": -0.07815337926149368,
                        "221": 0.23294024169445038,
                        "222": 0.02552274614572525,
                        "223": 0.20747019350528717,
                        "224": -0.007606689818203449,
                        "225": 0.1680394411087036,
                        "226": -0.12121190875768661,
                        "227": -0.0003177118778694421,
                        "228": 0.009988520294427872,
                        "229": 0.019676322117447853,
                        "230": 0.14763100445270538,
                        "231": -0.16265244781970978,
                        "232": 0.1252288818359375,
                        "233": -0.09811479598283768,
                        "234": -0.18609650433063507,
                        "235": 0.0031025889329612255,
                        "236": -0.03333403542637825,
                        "237": -0.0035487671848386526,
                        "238": 0.1400064378976822,
                        "239": 0.10945132374763489,
                        "240": 0.19732336699962616,
                        "241": -0.020841021090745926,
                        "242": 0.017739567905664444,
                        "243": -0.15055164694786072,
                        "244": 0.19310520589351654,
                        "245": -0.13846787810325623,
                        "246": 0.12067355215549469,
                        "247": -0.14739522337913513,
                        "248": 0.08683702349662781,
                        "249": -0.07609532028436661,
                        "250": 0.15108273923397064,
                        "251": -0.004293176811188459,
                        "252": 0.017710011452436447,
                        "253": -0.04280494153499603,
                        "254": 0.039435237646102905,
                        "255": 0.23248739540576935
                    }
                },
                "3": {
                    "bias": -0.015395784750580788,
                    "weights": {
                        "0": 0.15743941068649292,
                        "1": 0.22035881876945496,
                        "2": -0.0882195383310318,
                        "3": -0.034944579005241394,
                        "4": -0.07272658497095108,
                        "5": 0.017880532890558243,
                        "6": -0.09557098895311356,
                        "7": -0.07724272459745407,
                        "8": -0.06672389805316925,
                        "9": -0.16840630769729614,
                        "10": -0.1365205943584442,
                        "11": 0.08007606863975525,
                        "12": 0.19318394362926483,
                        "13": -0.012581298127770424,
                        "14": 0.14048591256141663,
                        "15": 0.1829759180545807,
                        "16": -0.12148723006248474,
                        "17": 0.191108837723732,
                        "18": -0.0802316889166832,
                        "19": -0.1728237122297287,
                        "20": -0.18324586749076843,
                        "21": -0.0070227691903710365,
                        "22": -0.14060300588607788,
                        "23": -0.2088594287633896,
                        "24": 0.1052367091178894,
                        "25": -0.12904205918312073,
                        "26": -0.14804518222808838,
                        "27": -0.03291543573141098,
                        "28": -0.1941409707069397,
                        "29": 0.060028400272130966,
                        "30": 0.06611327081918716,
                        "31": -0.1913600116968155,
                        "32": 0.000014463614206761122,
                        "33": 0.057962529361248016,
                        "34": -0.06769868731498718,
                        "35": -0.03748304396867752,
                        "36": -0.02362634241580963,
                        "37": 0.11105272173881531,
                        "38": 0.18151433765888214,
                        "39": -0.11513262242078781,
                        "40": 0.22673745453357697,
                        "41": 0.03478481248021126,
                        "42": 0.11986202746629715,
                        "43": -0.004775051958858967,
                        "44": -0.06674658507108688,
                        "45": 0.18097935616970062,
                        "46": -0.0021965811029076576,
                        "47": -0.04022388160228729,
                        "48": -0.08006010204553604,
                        "49": 0.2090231329202652,
                        "50": -0.047605518251657486,
                        "51": -0.0015744352713227272,
                        "52": -0.09575582295656204,
                        "53": -0.15407168865203857,
                        "54": 0.2000666707754135,
                        "55": -0.09937506914138794,
                        "56": 0.15354831516742706,
                        "57": 0.1059843897819519,
                        "58": -0.12534092366695404,
                        "59": -0.12077987939119339,
                        "60": -0.1680641621351242,
                        "61": -0.13785983622074127,
                        "62": -0.06332767754793167,
                        "63": 0.06307968497276306,
                        "64": -0.1404951512813568,
                        "65": 0.1462574452161789,
                        "66": 0.0570831336081028,
                        "67": -0.0856550857424736,
                        "68": -0.008056480437517166,
                        "69": 0.03823653981089592,
                        "70": 0.13513848185539246,
                        "71": 0.1813310980796814,
                        "72": 0.1073651909828186,
                        "73": -0.03398612514138222,
                        "74": -0.020003732293844223,
                        "75": -0.011600526981055737,
                        "76": 0.10650904476642609,
                        "77": 0.10255902260541916,
                        "78": -0.09611096233129501,
                        "79": -0.08017320930957794,
                        "80": -0.05402848497033119,
                        "81": 0.18991900980472565,
                        "82": -0.13815002143383026,
                        "83": -0.19983549416065216,
                        "84": -0.09306082874536514,
                        "85": -0.1466006487607956,
                        "86": 0.1555856466293335,
                        "87": 0.24197490513324738,
                        "88": -0.025900138542056084,
                        "89": 0.038185808807611465,
                        "90": -0.016779178753495216,
                        "91": -0.09309811145067215,
                        "92": 0.08708637207746506,
                        "93": -0.026603922247886658,
                        "94": 0.15091408789157867,
                        "95": 0.19231344759464264,
                        "96": -0.03512899577617645,
                        "97": -0.17322127521038055,
                        "98": -0.1609303057193756,
                        "99": -0.1182648316025734,
                        "100": -0.14460346102714539,
                        "101": 0.09085054695606232,
                        "102": -0.08447741717100143,
                        "103": 0.2561894655227661,
                        "104": 0.003023515222594142,
                        "105": 0.006433248519897461,
                        "106": -0.04364926367998123,
                        "107": -0.1660187542438507,
                        "108": -0.04379278048872948,
                        "109": 0.07409028708934784,
                        "110": -0.009829111397266388,
                        "111": 0.12495990097522736,
                        "112": 0.08946871012449265,
                        "113": 0.11100556701421738,
                        "114": -0.008151632733643055,
                        "115": 0.2462536096572876,
                        "116": 0.0808291807770729,
                        "117": 0.030391734093427658,
                        "118": 0.0678102895617485,
                        "119": 0.16701538860797882,
                        "120": 0.17999885976314545,
                        "121": 0.18016895651817322,
                        "122": 0.22393284738063812,
                        "123": -0.009653556160628796,
                        "124": 0.09644676744937897,
                        "125": 0.1335708349943161,
                        "126": 0.17325057089328766,
                        "127": 0.21395736932754517,
                        "128": 0.1010485365986824,
                        "129": -0.07416804134845734,
                        "130": -0.13595494627952576,
                        "131": -0.07870806008577347,
                        "132": 0.13088540732860565,
                        "133": 0.07595442980527878,
                        "134": 0.06371185183525085,
                        "135": 0.07646273821592331,
                        "136": -0.09016267210245132,
                        "137": 0.21551743149757385,
                        "138": -0.018956143409013748,
                        "139": -0.030358044430613518,
                        "140": 0.13532693684101105,
                        "141": -0.030101891607046127,
                        "142": -0.10742921382188797,
                        "143": -0.029606733471155167,
                        "144": 0.13854441046714783,
                        "145": 0.1611071676015854,
                        "146": -0.018758971244096756,
                        "147": -0.051669660955667496,
                        "148": -0.08685602247714996,
                        "149": 0.23316368460655212,
                        "150": 0.05398538336157799,
                        "151": 0.045659177005290985,
                        "152": 0.20582422614097595,
                        "153": 0.22461454570293427,
                        "154": -0.11501166969537735,
                        "155": 0.16773861646652222,
                        "156": -0.14964918792247772,
                        "157": -0.1699093133211136,
                        "158": -0.1610579788684845,
                        "159": -0.06534592062234879,
                        "160": 0.14442449808120728,
                        "161": 0.14253957569599152,
                        "162": 0.141534224152565,
                        "163": -0.1193147748708725,
                        "164": 0.061283864080905914,
                        "165": -0.07610851526260376,
                        "166": 0.05398154258728027,
                        "167": -0.00924303475767374,
                        "168": 0.07909615337848663,
                        "169": 0.25275716185569763,
                        "170": -0.05247638747096062,
                        "171": 0.10278499871492386,
                        "172": 0.08534137904644012,
                        "173": -0.13604913651943207,
                        "174": 0.07185955345630646,
                        "175": 0.11806109547615051,
                        "176": 0.02080634795129299,
                        "177": -0.1484665423631668,
                        "178": -0.15853747725486755,
                        "179": -0.12226411700248718,
                        "180": -0.05440317094326019,
                        "181": 0.049234043806791306,
                        "182": 0.21277527511119843,
                        "183": 0.18575671315193176,
                        "184": -0.09113252907991409,
                        "185": 0.08190469443798065,
                        "186": 0.11190386116504669,
                        "187": -0.22051621973514557,
                        "188": -0.07030545175075531,
                        "189": 0.1226278692483902,
                        "190": -0.029739152640104294,
                        "191": -0.04025634750723839,
                        "192": 0.20732468366622925,
                        "193": 0.0254727303981781,
                        "194": 0.10692660510540009,
                        "195": -0.11912011355161667,
                        "196": -0.10738906264305115,
                        "197": -0.05382973700761795,
                        "198": -0.1291576772928238,
                        "199": -0.12235483527183533,
                        "200": 0.08414239436388016,
                        "201": -0.12217558920383453,
                        "202": 0.1193719282746315,
                        "203": -0.034575916826725006,
                        "204": 0.12984155118465424,
                        "205": -0.06504873931407928,
                        "206": 0.057200558483600616,
                        "207": 0.06536131352186203,
                        "208": 0.185318261384964,
                        "209": 0.11078453063964844,
                        "210": 0.18732301890850067,
                        "211": 0.09197736531496048,
                        "212": 0.17365513741970062,
                        "213": 0.13066084682941437,
                        "214": -0.05228321626782417,
                        "215": -0.10147916525602341,
                        "216": 0.05772996321320534,
                        "217": -0.06650516390800476,
                        "218": 0.027230462059378624,
                        "219": -0.1726890504360199,
                        "220": -0.15232014656066895,
                        "221": -0.152286097407341,
                        "222": -0.03449177369475365,
                        "223": 0.19528916478157043,
                        "224": -0.011615543626248837,
                        "225": -0.06318365782499313,
                        "226": -0.08245662599802017,
                        "227": 0.033826302736997604,
                        "228": 0.02704029716551304,
                        "229": -0.16387499868869781,
                        "230": -0.034890297800302505,
                        "231": -0.15463870763778687,
                        "232": -0.11585751175880432,
                        "233": 0.07402697950601578,
                        "234": -0.1265493929386139,
                        "235": 0.13928179442882538,
                        "236": 0.048759911209344864,
                        "237": 0.003057233989238739,
                        "238": 0.22760406136512756,
                        "239": 0.07572773844003677,
                        "240": 0.08529996126890182,
                        "241": 0.2218167781829834,
                        "242": 0.08968787640333176,
                        "243": -0.03624478355050087,
                        "244": -0.07958586513996124,
                        "245": 0.02415221557021141,
                        "246": 0.06370371580123901,
                        "247": -0.10462867468595505,
                        "248": 0.14547939598560333,
                        "249": 0.09563098102807999,
                        "250": -0.11336579918861389,
                        "251": -0.22872118651866913,
                        "252": -0.07256781309843063,
                        "253": 0.14866173267364502,
                        "254": 0.04685165360569954,
                        "255": -0.04892023652791977
                    }
                },
                "4": {
                    "bias": 0.007558009587228298,
                    "weights": {
                        "0": 0.06924406439065933,
                        "1": 0.19967874884605408,
                        "2": 0.1881306916475296,
                        "3": 0.03622257336974144,
                        "4": -0.160119891166687,
                        "5": 0.166559100151062,
                        "6": -0.11627323925495148,
                        "7": 0.20402087271213531,
                        "8": 0.11935441195964813,
                        "9": -0.10344961285591125,
                        "10": 0.13376544415950775,
                        "11": 0.030166441574692726,
                        "12": 0.12990179657936096,
                        "13": 0.037574853748083115,
                        "14": 0.0885976254940033,
                        "15": -0.07899704575538635,
                        "16": -0.12038092315196991,
                        "17": 0.09218328446149826,
                        "18": 0.08063435554504395,
                        "19": 0.1580982506275177,
                        "20": 0.11794602870941162,
                        "21": 0.2052547037601471,
                        "22": 0.10689903050661087,
                        "23": 0.17833289504051208,
                        "24": -0.0055931429378688335,
                        "25": -0.008977989666163921,
                        "26": 0.1419007033109665,
                        "27": -0.04003341123461723,
                        "28": -0.10276003181934357,
                        "29": 0.02245478518307209,
                        "30": 0.0027240414638072252,
                        "31": -0.002763450611382723,
                        "32": -0.014254053123295307,
                        "33": 0.027424493804574013,
                        "34": -0.1560312658548355,
                        "35": 0.21317289769649506,
                        "36": 0.02381981909275055,
                        "37": -0.055217329412698746,
                        "38": 0.1105218157172203,
                        "39": 0.12576285004615784,
                        "40": -0.15304136276245117,
                        "41": 0.08988343924283981,
                        "42": 0.020494917407631874,
                        "43": -0.0826306939125061,
                        "44": -0.01043830905109644,
                        "45": 0.05333299934864044,
                        "46": 0.1181614100933075,
                        "47": 0.17195501923561096,
                        "48": -0.1305542290210724,
                        "49": 0.11100821197032928,
                        "50": 0.15829741954803467,
                        "51": 0.18077310919761658,
                        "52": -0.03443345054984093,
                        "53": -0.15054990351200104,
                        "54": -0.018251260742545128,
                        "55": -0.1248687282204628,
                        "56": 0.17925967276096344,
                        "57": -0.03286636620759964,
                        "58": 0.14973953366279602,
                        "59": -0.1618703305721283,
                        "60": -0.08682505786418915,
                        "61": 0.10796067863702774,
                        "62": -0.2003454715013504,
                        "63": -0.013875638134777546,
                        "64": -0.09525751322507858,
                        "65": -0.04506241902709007,
                        "66": -0.1601928174495697,
                        "67": -0.02384774200618267,
                        "68": 0.1608523428440094,
                        "69": 0.11869779974222183,
                        "70": -0.0717996209859848,
                        "71": -0.08707503229379654,
                        "72": -0.12580400705337524,
                        "73": 0.08321462571620941,
                        "74": -0.17569541931152344,
                        "75": 0.07553192973136902,
                        "76": -0.18930889666080475,
                        "77": 0.18363967537879944,
                        "78": 0.11775185167789459,
                        "79": 0.12272141128778458,
                        "80": 0.21786242723464966,
                        "81": -0.021096549928188324,
                        "82": 0.03856014832854271,
                        "83": 0.140761598944664,
                        "84": -0.04671677574515343,
                        "85": 0.026523595675826073,
                        "86": -0.15910960733890533,
                        "87": 0.08285059779882431,
                        "88": 0.14737077057361603,
                        "89": 0.1799222081899643,
                        "90": 0.13170884549617767,
                        "91": -0.11815586686134338,
                        "92": -0.16070637106895447,
                        "93": 0.09760373830795288,
                        "94": -0.12456804513931274,
                        "95": 0.1794600933790207,
                        "96": -0.0027738192584365606,
                        "97": -0.029382726177573204,
                        "98": -0.007013833615928888,
                        "99": 0.11645039916038513,
                        "100": 0.12036604434251785,
                        "101": -0.08026501536369324,
                        "102": 0.16848798096179962,
                        "103": 0.049682099372148514,
                        "104": 0.06159649044275284,
                        "105": -0.008963505737483501,
                        "106": 0.08962404727935791,
                        "107": 0.15371176600456238,
                        "108": 0.09058919548988342,
                        "109": -0.006217774469405413,
                        "110": -0.006755232345312834,
                        "111": -0.044821660965681076,
                        "112": 0.09612475335597992,
                        "113": -0.16486619412899017,
                        "114": -0.0010283796582370996,
                        "115": 0.16038843989372253,
                        "116": 0.12653669714927673,
                        "117": 0.11422201991081238,
                        "118": 0.1474756896495819,
                        "119": 0.08731422573328018,
                        "120": 0.031209396198391914,
                        "121": -0.14207983016967773,
                        "122": -0.02348271571099758,
                        "123": 0.15745799243450165,
                        "124": -0.10419714450836182,
                        "125": 0.057375468313694,
                        "126": 0.05025412142276764,
                        "127": -0.009161175228655338,
                        "128": -0.09940041601657867,
                        "129": 0.10918931663036346,
                        "130": -0.0551719106733799,
                        "131": 0.1102476418018341,
                        "132": 0.1907888799905777,
                        "133": 0.02270297333598137,
                        "134": -0.07741212844848633,
                        "135": -0.07597734034061432,
                        "136": 0.03900686278939247,
                        "137": 0.1965884119272232,
                        "138": -0.006821138318628073,
                        "139": 0.0499863475561142,
                        "140": -0.08082450926303864,
                        "141": 0.028472384437918663,
                        "142": 0.22217191755771637,
                        "143": 0.19459912180900574,
                        "144": -0.13187606632709503,
                        "145": 0.07971520721912384,
                        "146": -0.13756217062473297,
                        "147": 0.09748433530330658,
                        "148": 0.045303408056497574,
                        "149": 0.019318435341119766,
                        "150": -0.1441064178943634,
                        "151": -0.04501399025321007,
                        "152": -0.11735205352306366,
                        "153": -0.005172411445528269,
                        "154": 0.054888635873794556,
                        "155": 0.03704444691538811,
                        "156": 0.15380731225013733,
                        "157": -0.14132221043109894,
                        "158": 0.1290588080883026,
                        "159": -0.143433079123497,
                        "160": 0.06504735350608826,
                        "161": -0.15597683191299438,
                        "162": 0.12565220892429352,
                        "163": 0.1855856031179428,
                        "164": 0.045451801270246506,
                        "165": 0.07879052311182022,
                        "166": 0.151469424366951,
                        "167": 0.188406303524971,
                        "168": -0.029545288532972336,
                        "169": 0.013507491908967495,
                        "170": 0.007698017172515392,
                        "171": -0.14599905908107758,
                        "172": -0.16253253817558289,
                        "173": 0.16891412436962128,
                        "174": 0.061693497002124786,
                        "175": -0.06680256873369217,
                        "176": 0.035048115998506546,
                        "177": 0.18042036890983582,
                        "178": -0.0904374048113823,
                        "179": 0.172603577375412,
                        "180": 0.18079189956188202,
                        "181": 0.0925852507352829,
                        "182": -0.06894966959953308,
                        "183": 0.10765908658504486,
                        "184": -0.1651649922132492,
                        "185": -0.0657510980963707,
                        "186": -0.16841650009155273,
                        "187": 0.05319290980696678,
                        "188": 0.03764698654413223,
                        "189": 0.10434805601835251,
                        "190": 0.032680731266736984,
                        "191": 0.11134901642799377,
                        "192": 0.19201290607452393,
                        "193": 0.12593583762645721,
                        "194": -0.015209086239337921,
                        "195": 0.07727837562561035,
                        "196": 0.1775948405265808,
                        "197": 0.15075796842575073,
                        "198": 0.17019891738891602,
                        "199": 0.06325136870145798,
                        "200": -0.04508224129676819,
                        "201": -0.1199842318892479,
                        "202": -0.07633420825004578,
                        "203": -0.053557440638542175,
                        "204": 0.1239394024014473,
                        "205": -0.030820192769169807,
                        "206": 0.08598319441080093,
                        "207": 0.13759055733680725,
                        "208": 0.15481191873550415,
                        "209": 0.068503737449646,
                        "210": 0.015648091211915016,
                        "211": 0.038088198751211166,
                        "212": 0.11941812187433243,
                        "213": -0.1131979450583458,
                        "214": 0.016336502507328987,
                        "215": 0.0011461697285994887,
                        "216": -0.12946535646915436,
                        "217": -0.03656909987330437,
                        "218": -0.08492238819599152,
                        "219": -0.06994926929473877,
                        "220": -0.04197079315781593,
                        "221": 0.13309185206890106,
                        "222": 0.22387053072452545,
                        "223": -0.040704499930143356,
                        "224": -0.06363796442747116,
                        "225": 0.03060435876250267,
                        "226": 0.14265824854373932,
                        "227": -0.0023620796855539083,
                        "228": 0.19233869016170502,
                        "229": -0.06804761290550232,
                        "230": -0.1640997678041458,
                        "231": -0.18116430938243866,
                        "232": 0.16431470215320587,
                        "233": -0.14947672188282013,
                        "234": 0.16518564522266388,
                        "235": -0.14011633396148682,
                        "236": -0.15425126254558563,
                        "237": -0.04177170991897583,
                        "238": 0.035194311290979385,
                        "239": -0.1512565016746521,
                        "240": 0.20707106590270996,
                        "241": 0.09685691446065903,
                        "242": -0.1714283525943756,
                        "243": -0.049735177308321,
                        "244": 0.10022874921560287,
                        "245": -0.07679060101509094,
                        "246": 0.02995338849723339,
                        "247": 0.09366539120674133,
                        "248": 0.1479472666978836,
                        "249": -0.12306038290262222,
                        "250": -0.09741279482841492,
                        "251": 0.10100916028022766,
                        "252": -0.11567898094654083,
                        "253": 0.20630806684494019,
                        "254": -0.07760051637887955,
                        "255": -0.1303255558013916
                    }
                },
                "5": {
                    "bias": -0.2240832895040512,
                    "weights": {
                        "0": 0.010201262310147285,
                        "1": -0.16697481274604797,
                        "2": 0.09569057822227478,
                        "3": -0.21566142141819,
                        "4": -0.012744396924972534,
                        "5": -0.0765833929181099,
                        "6": -0.009626085869967937,
                        "7": 0.09027048945426941,
                        "8": 0.09987559169530869,
                        "9": -0.16125290095806122,
                        "10": -0.028664393350481987,
                        "11": -0.07972952723503113,
                        "12": 0.09784842282533646,
                        "13": -0.09764069318771362,
                        "14": -0.16960746049880981,
                        "15": 0.12954160571098328,
                        "16": -0.06629268079996109,
                        "17": -0.19385963678359985,
                        "18": -0.22838588058948517,
                        "19": -0.14955918490886688,
                        "20": -0.17462703585624695,
                        "21": -0.15066517889499664,
                        "22": 0.019818749278783798,
                        "23": -0.1099725216627121,
                        "24": 0.0017861125525087118,
                        "25": -0.11591313034296036,
                        "26": -0.13541598618030548,
                        "27": -0.18440501391887665,
                        "28": 0.11223367601633072,
                        "29": 0.04584624990820885,
                        "30": 0.0786556601524353,
                        "31": 0.16677986085414886,
                        "32": -0.1743367463350296,
                        "33": -0.1580830067396164,
                        "34": 0.08863277733325958,
                        "35": -0.1605226993560791,
                        "36": -0.17465843260288239,
                        "37": -0.03440507501363754,
                        "38": -0.0357845202088356,
                        "39": 0.04687604680657387,
                        "40": 0.028720539063215256,
                        "41": 0.010626627132296562,
                        "42": 0.14976730942726135,
                        "43": 0.03722144663333893,
                        "44": -0.0018970828969031572,
                        "45": 0.10850531607866287,
                        "46": -0.16818208992481232,
                        "47": 0.16061680018901825,
                        "48": 0.11224141716957092,
                        "49": -0.003297418588772416,
                        "50": 0.13711391389369965,
                        "51": -0.14110314846038818,
                        "52": -0.21381881833076477,
                        "53": 0.017236728221178055,
                        "54": -0.1801326870918274,
                        "55": 0.15826742351055145,
                        "56": 0.04777592793107033,
                        "57": -0.04205712676048279,
                        "58": 0.06402131170034409,
                        "59": -0.07239879667758942,
                        "60": -0.1376321017742157,
                        "61": 0.10790199786424637,
                        "62": 0.1962137222290039,
                        "63": -0.11508048325777054,
                        "64": -0.25343480706214905,
                        "65": -0.2236480712890625,
                        "66": 0.09237045049667358,
                        "67": -0.04030686616897583,
                        "68": 0.10669707506895065,
                        "69": 0.06456400454044342,
                        "70": -0.19310492277145386,
                        "71": -0.14454691112041473,
                        "72": -0.17423579096794128,
                        "73": 0.1716259866952896,
                        "74": -0.19118501245975494,
                        "75": -0.09091907739639282,
                        "76": 0.15836559236049652,
                        "77": 0.058589350432157516,
                        "78": -0.11310972273349762,
                        "79": 0.10599257051944733,
                        "80": 0.10126273334026337,
                        "81": 0.0414872020483017,
                        "82": 0.04037053510546684,
                        "83": 0.11742887645959854,
                        "84": -0.09143897145986557,
                        "85": 0.02190500870347023,
                        "86": 0.0016945904353633523,
                        "87": 0.16855843365192413,
                        "88": -0.14173509180545807,
                        "89": -0.05025861784815788,
                        "90": 0.1272689551115036,
                        "91": -0.05967371538281441,
                        "92": -0.1323402225971222,
                        "93": 0.009922926314175129,
                        "94": -0.18624447286128998,
                        "95": -0.19533537328243256,
                        "96": -0.14796409010887146,
                        "97": -0.04438404738903046,
                        "98": 0.07684189081192017,
                        "99": 0.13260741531848907,
                        "100": 0.03785519674420357,
                        "101": -0.05965084582567215,
                        "102": -0.16416612267494202,
                        "103": -0.09020745009183884,
                        "104": -0.20712953805923462,
                        "105": 0.16997049748897552,
                        "106": 0.11210636794567108,
                        "107": -0.011143524199724197,
                        "108": 0.14601251482963562,
                        "109": 0.023075180128216743,
                        "110": 0.05568654462695122,
                        "111": 0.081200011074543,
                        "112": -0.16379038989543915,
                        "113": 0.07149873673915863,
                        "114": -0.03473222628235817,
                        "115": -0.09412948042154312,
                        "116": -0.17476606369018555,
                        "117": 0.1483931839466095,
                        "118": 0.03971116989850998,
                        "119": -0.0786498636007309,
                        "120": 0.055986467748880386,
                        "121": -0.09612671285867691,
                        "122": -0.0912276953458786,
                        "123": 0.11060325056314468,
                        "124": 0.18610920011997223,
                        "125": 0.032793156802654266,
                        "126": 0.04408576712012291,
                        "127": -0.2128273844718933,
                        "128": 0.09979207813739777,
                        "129": 0.0635087788105011,
                        "130": -0.14693647623062134,
                        "131": -0.21767328679561615,
                        "132": -0.021045256406068802,
                        "133": 0.12884296476840973,
                        "134": 0.07611764222383499,
                        "135": 0.10691829025745392,
                        "136": 0.13765811920166016,
                        "137": 0.007770792581140995,
                        "138": -0.03654088079929352,
                        "139": -0.07687848061323166,
                        "140": 0.13640908896923065,
                        "141": -0.08564095944166183,
                        "142": -0.09845756739377975,
                        "143": -0.1567360907793045,
                        "144": -0.11807797849178314,
                        "145": -0.008090529590845108,
                        "146": -0.2314118593931198,
                        "147": 0.14392979443073273,
                        "148": -0.03919341787695885,
                        "149": 0.15165889263153076,
                        "150": -0.021615033969283104,
                        "151": -0.053052518516778946,
                        "152": -0.10668989270925522,
                        "153": 0.012592330574989319,
                        "154": 0.038221679627895355,
                        "155": 0.1579514890909195,
                        "156": -0.12200646102428436,
                        "157": 0.05263495817780495,
                        "158": -0.04519067332148552,
                        "159": -0.10653410106897354,
                        "160": 0.10901786386966705,
                        "161": -0.20606622099876404,
                        "162": 0.08387591689825058,
                        "163": -0.1241951659321785,
                        "164": -0.1863660216331482,
                        "165": 0.005663522053509951,
                        "166": 0.11817625164985657,
                        "167": 0.1426921933889389,
                        "168": -0.03477180004119873,
                        "169": 0.06698017567396164,
                        "170": 0.08339603245258331,
                        "171": -0.013738933950662613,
                        "172": 0.02220180071890354,
                        "173": -0.11965662986040115,
                        "174": -0.12448974698781967,
                        "175": 0.1180681586265564,
                        "176": 0.00778682017698884,
                        "177": 0.13684430718421936,
                        "178": -0.14609800279140472,
                        "179": 0.06407640874385834,
                        "180": -0.12199527025222778,
                        "181": -0.13872864842414856,
                        "182": 0.08235803246498108,
                        "183": 0.09006147086620331,
                        "184": 0.1160600483417511,
                        "185": 0.09464278072118759,
                        "186": -0.10184646397829056,
                        "187": -0.16712187230587006,
                        "188": -0.05614778399467468,
                        "189": -0.04180905595421791,
                        "190": 0.14859944581985474,
                        "191": 0.13837791979312897,
                        "192": 0.10948300361633301,
                        "193": -0.15674370527267456,
                        "194": 0.1679282784461975,
                        "195": -0.1164206862449646,
                        "196": 0.018826395273208618,
                        "197": 0.07056791335344315,
                        "198": 0.05584975704550743,
                        "199": 0.08950401842594147,
                        "200": -0.0901532843708992,
                        "201": -0.10397286713123322,
                        "202": 0.06861460953950882,
                        "203": 0.048178672790527344,
                        "204": -0.1938122808933258,
                        "205": -0.036838598549366,
                        "206": -0.12751752138137817,
                        "207": 0.0984426736831665,
                        "208": 0.03266723453998566,
                        "209": 0.15248404443264008,
                        "210": 0.06982497125864029,
                        "211": 0.07187093049287796,
                        "212": -0.06177840754389763,
                        "213": 0.10087429732084274,
                        "214": 0.08797334879636765,
                        "215": 0.11999018490314484,
                        "216": -0.15194706618785858,
                        "217": -0.1267211139202118,
                        "218": -0.1838712841272354,
                        "219": -0.10260538756847382,
                        "220": 0.0736737996339798,
                        "221": 0.0825326070189476,
                        "222": -0.13072733581066132,
                        "223": 0.012602850794792175,
                        "224": 0.06822922825813293,
                        "225": 0.08266102522611618,
                        "226": 0.13166353106498718,
                        "227": -0.1685764044523239,
                        "228": -0.11301684379577637,
                        "229": -0.06216235086321831,
                        "230": 0.06690148264169693,
                        "231": 0.02145671658217907,
                        "232": 0.08335740119218826,
                        "233": -0.06584755331277847,
                        "234": 0.11454907059669495,
                        "235": -0.02948841080069542,
                        "236": -0.07728764414787292,
                        "237": -0.08967236429452896,
                        "238": -0.2255401462316513,
                        "239": -0.2407216727733612,
                        "240": -0.23121605813503265,
                        "241": -0.2173205465078354,
                        "242": -0.03452598676085472,
                        "243": -0.0730331763625145,
                        "244": 0.13463141024112701,
                        "245": -0.20034709572792053,
                        "246": -0.1849984973669052,
                        "247": 0.0995756983757019,
                        "248": 0.14520779252052307,
                        "249": 0.016639091074466705,
                        "250": -0.1648142784833908,
                        "251": -0.1099933609366417,
                        "252": 0.059181902557611465,
                        "253": -0.013759728521108627,
                        "254": -0.2312030792236328,
                        "255": -0.09231282770633698
                    }
                },
                "6": {
                    "bias": 0.012273713015019894,
                    "weights": {
                        "0": -0.03314649313688278,
                        "1": 0.041309986263513565,
                        "2": 0.05444297194480896,
                        "3": -0.1558486521244049,
                        "4": -0.1658017486333847,
                        "5": -0.16064181923866272,
                        "6": 0.09213221818208694,
                        "7": -0.0013374019181355834,
                        "8": 0.039448030292987823,
                        "9": 0.17636065185070038,
                        "10": 0.0829419270157814,
                        "11": 0.05674215406179428,
                        "12": 0.05190586671233177,
                        "13": -0.08730623871088028,
                        "14": -0.07120786607265472,
                        "15": 0.007246880792081356,
                        "16": -0.191491961479187,
                        "17": -0.20031999051570892,
                        "18": 0.17524462938308716,
                        "19": -0.04798195883631706,
                        "20": 0.12484872341156006,
                        "21": 0.16072018444538116,
                        "22": 0.04674333333969116,
                        "23": 0.0844937413930893,
                        "24": 0.182495579123497,
                        "25": -0.029549987986683846,
                        "26": 0.11474308371543884,
                        "27": -0.15193407237529755,
                        "28": 0.15080319344997406,
                        "29": 0.0411938838660717,
                        "30": -0.0704653412103653,
                        "31": -0.11394086480140686,
                        "32": -0.14407917857170105,
                        "33": -0.19263555109500885,
                        "34": 0.12414348125457764,
                        "35": 0.14693373441696167,
                        "36": -0.10745187103748322,
                        "37": 0.1590663641691208,
                        "38": -0.008639931678771973,
                        "39": -0.09222341328859329,
                        "40": 0.12225461006164551,
                        "41": -0.07511559128761292,
                        "42": 0.17240206897258759,
                        "43": 0.19687245786190033,
                        "44": 0.15902173519134521,
                        "45": -0.05230703577399254,
                        "46": 0.0056954543106257915,
                        "47": 0.04377429559826851,
                        "48": -0.07980174571275711,
                        "49": -0.17168384790420532,
                        "50": -0.07913655042648315,
                        "51": -0.16286872327327728,
                        "52": -0.06325259804725647,
                        "53": -0.05272010341286659,
                        "54": 0.017549848183989525,
                        "55": -0.20744688808918,
                        "56": 0.020786242559552193,
                        "57": -0.025570252910256386,
                        "58": -0.17545443773269653,
                        "59": -0.19165344536304474,
                        "60": -0.1232043206691742,
                        "61": -0.17846155166625977,
                        "62": -0.11730674654245377,
                        "63": -0.1635926216840744,
                        "64": -0.030854126438498497,
                        "65": -0.20713035762310028,
                        "66": 0.027860570698976517,
                        "67": -0.08959253132343292,
                        "68": -0.14248397946357727,
                        "69": -0.10114432871341705,
                        "70": -0.11565040051937103,
                        "71": 0.10202231258153915,
                        "72": -0.06413963437080383,
                        "73": -0.06647547334432602,
                        "74": 0.1220054030418396,
                        "75": -0.010526644997298717,
                        "76": -0.10569208860397339,
                        "77": 0.09415801614522934,
                        "78": -0.13797391951084137,
                        "79": 0.008511637337505817,
                        "80": -0.09050668776035309,
                        "81": -0.029208531603217125,
                        "82": -0.08115321397781372,
                        "83": -0.03882070630788803,
                        "84": 0.006265152245759964,
                        "85": -0.04280871897935867,
                        "86": 0.1740359365940094,
                        "87": 0.16384269297122955,
                        "88": -0.018011147156357765,
                        "89": 0.031038109213113785,
                        "90": 0.008288429118692875,
                        "91": -0.1761580854654312,
                        "92": -0.021968921646475792,
                        "93": -0.17062942683696747,
                        "94": 0.18160484731197357,
                        "95": 0.060821533203125,
                        "96": -0.20085687935352325,
                        "97": 0.1577506959438324,
                        "98": 0.12708422541618347,
                        "99": -0.14689424633979797,
                        "100": 0.16777648031711578,
                        "101": -0.06334509700536728,
                        "102": -0.07044777274131775,
                        "103": 0.1173681914806366,
                        "104": -0.028566911816596985,
                        "105": -0.20399163663387299,
                        "106": 0.07001344859600067,
                        "107": -0.08764069527387619,
                        "108": 0.09457658231258392,
                        "109": -0.1310569941997528,
                        "110": 0.11063594371080399,
                        "111": -0.14753781259059906,
                        "112": -0.057256460189819336,
                        "113": -0.10034306347370148,
                        "114": -0.1737557202577591,
                        "115": 0.03983348608016968,
                        "116": -0.1774933785200119,
                        "117": 0.032102104276418686,
                        "118": 0.009557013399899006,
                        "119": -0.13779006898403168,
                        "120": 0.08800210058689117,
                        "121": 0.19943755865097046,
                        "122": -0.01263079047203064,
                        "123": -0.05092732235789299,
                        "124": 0.19982004165649414,
                        "125": -0.16320224106311798,
                        "126": -0.09966740012168884,
                        "127": -0.016838176175951958,
                        "128": -0.16789987683296204,
                        "129": -0.16801907122135162,
                        "130": 0.06838203221559525,
                        "131": 0.010386576876044273,
                        "132": 0.04841332510113716,
                        "133": -0.10170288383960724,
                        "134": -0.09628357738256454,
                        "135": -0.18029217422008514,
                        "136": 0.18187956511974335,
                        "137": -0.19625459611415863,
                        "138": -0.15776140987873077,
                        "139": -0.06817217171192169,
                        "140": 0.06806602329015732,
                        "141": -0.12385473400354385,
                        "142": -0.1801367849111557,
                        "143": -0.15305450558662415,
                        "144": -0.03883698582649231,
                        "145": -0.04162367805838585,
                        "146": -0.0821261927485466,
                        "147": -0.089640311896801,
                        "148": 0.10476690530776978,
                        "149": -0.03637196123600006,
                        "150": -0.18663686513900757,
                        "151": 0.10490698367357254,
                        "152": -0.1396375149488449,
                        "153": 0.12766370177268982,
                        "154": 0.12150498479604721,
                        "155": 0.13197194039821625,
                        "156": 0.19058002531528473,
                        "157": 0.1652652621269226,
                        "158": 0.12687097489833832,
                        "159": -0.05470007285475731,
                        "160": -0.06888878345489502,
                        "161": -0.15188920497894287,
                        "162": 0.05880266800522804,
                        "163": -0.19419647753238678,
                        "164": -0.19696259498596191,
                        "165": -0.07042395323514938,
                        "166": -0.1583392322063446,
                        "167": -0.20014497637748718,
                        "168": 0.07506168633699417,
                        "169": -0.1979522556066513,
                        "170": -0.13819988071918488,
                        "171": 0.14965717494487762,
                        "172": -0.03079400025308132,
                        "173": 0.08301091939210892,
                        "174": 0.143337681889534,
                        "175": 0.03438662365078926,
                        "176": 0.01915813237428665,
                        "177": 0.029905179515480995,
                        "178": -0.15711595118045807,
                        "179": 0.17864425480365753,
                        "180": 0.03295042738318443,
                        "181": -0.06199869513511658,
                        "182": -0.03025306575000286,
                        "183": 0.003896142356097698,
                        "184": 0.1310417801141739,
                        "185": -0.15454357862472534,
                        "186": -0.1168733760714531,
                        "187": 0.10188239067792892,
                        "188": -0.0709017813205719,
                        "189": 0.01808854751288891,
                        "190": 0.1556415557861328,
                        "191": -0.10672552138566971,
                        "192": 0.022285446524620056,
                        "193": -0.12115412205457687,
                        "194": -0.03853723406791687,
                        "195": -0.02495383843779564,
                        "196": 0.13320550322532654,
                        "197": -0.16255542635917664,
                        "198": -0.020373936742544174,
                        "199": 0.10071413218975067,
                        "200": 0.10280362516641617,
                        "201": -0.17393416166305542,
                        "202": -0.06350251287221909,
                        "203": 0.08675025403499603,
                        "204": -0.05202808603644371,
                        "205": 0.007968513295054436,
                        "206": -0.03151737526059151,
                        "207": -0.033881962299346924,
                        "208": -0.017406338825821877,
                        "209": 0.09416861087083817,
                        "210": -0.03392484411597252,
                        "211": 0.1160537451505661,
                        "212": -0.0720093697309494,
                        "213": -0.19149097800254822,
                        "214": 0.005834499839693308,
                        "215": 0.015371646732091904,
                        "216": -0.0993342399597168,
                        "217": -0.11525914072990417,
                        "218": -0.1351422369480133,
