{
    "info": {
        "ai": {
            "config": {
                "hiddenLayers": [
                    128,
                    128
                ],
                "activation": "tanh"
            },
            "training": {
                "iterations": 200,
                "errorThresh": 0.0001,
                "learningRate": 0.3,
                "momentum": 0.1
            }
        },
        "id": "60ab54ca2240737f16f7d93a836973d7",
        "dimension": [
            16,
            16
        ],
        "channel": "red",
        "colorspace": "b-w",
        "blackWhite": true
    },
    "data": {
        "sizes": [
            256,
            128,
            128,
            10
        ],
        "layers": [
            {
                "0": {},
                "1": {},
                "2": {},
                "3": {},
                "4": {},
                "5": {},
                "6": {},
                "7": {},
                "8": {},
                "9": {},
                "10": {},
                "11": {},
                "12": {},
                "13": {},
                "14": {},
                "15": {},
                "16": {},
                "17": {},
                "18": {},
                "19": {},
                "20": {},
                "21": {},
                "22": {},
                "23": {},
                "24": {},
                "25": {},
                "26": {},
                "27": {},
                "28": {},
                "29": {},
                "30": {},
                "31": {},
                "32": {},
                "33": {},
                "34": {},
                "35": {},
                "36": {},
                "37": {},
                "38": {},
                "39": {},
                "40": {},
                "41": {},
                "42": {},
                "43": {},
                "44": {},
                "45": {},
                "46": {},
                "47": {},
                "48": {},
                "49": {},
                "50": {},
                "51": {},
                "52": {},
                "53": {},
                "54": {},
                "55": {},
                "56": {},
                "57": {},
                "58": {},
                "59": {},
                "60": {},
                "61": {},
                "62": {},
                "63": {},
                "64": {},
                "65": {},
                "66": {},
                "67": {},
                "68": {},
                "69": {},
                "70": {},
                "71": {},
                "72": {},
                "73": {},
                "74": {},
                "75": {},
                "76": {},
                "77": {},
                "78": {},
                "79": {},
                "80": {},
                "81": {},
                "82": {},
                "83": {},
                "84": {},
                "85": {},
                "86": {},
                "87": {},
                "88": {},
                "89": {},
                "90": {},
                "91": {},
                "92": {},
                "93": {},
                "94": {},
                "95": {},
                "96": {},
                "97": {},
                "98": {},
                "99": {},
                "100": {},
                "101": {},
                "102": {},
                "103": {},
                "104": {},
                "105": {},
                "106": {},
                "107": {},
                "108": {},
                "109": {},
                "110": {},
                "111": {},
                "112": {},
                "113": {},
                "114": {},
                "115": {},
                "116": {},
                "117": {},
                "118": {},
                "119": {},
                "120": {},
                "121": {},
                "122": {},
                "123": {},
                "124": {},
                "125": {},
                "126": {},
                "127": {},
                "128": {},
                "129": {},
                "130": {},
                "131": {},
                "132": {},
                "133": {},
                "134": {},
                "135": {},
                "136": {},
                "137": {},
                "138": {},
                "139": {},
                "140": {},
                "141": {},
                "142": {},
                "143": {},
                "144": {},
                "145": {},
                "146": {},
                "147": {},
                "148": {},
                "149": {},
                "150": {},
                "151": {},
                "152": {},
                "153": {},
                "154": {},
                "155": {},
                "156": {},
                "157": {},
                "158": {},
                "159": {},
                "160": {},
                "161": {},
                "162": {},
                "163": {},
                "164": {},
                "165": {},
                "166": {},
                "167": {},
                "168": {},
                "169": {},
                "170": {},
                "171": {},
                "172": {},
                "173": {},
                "174": {},
                "175": {},
                "176": {},
                "177": {},
                "178": {},
                "179": {},
                "180": {},
                "181": {},
                "182": {},
                "183": {},
                "184": {},
                "185": {},
                "186": {},
                "187": {},
                "188": {},
                "189": {},
                "190": {},
                "191": {},
                "192": {},
                "193": {},
                "194": {},
                "195": {},
                "196": {},
                "197": {},
                "198": {},
                "199": {},
                "200": {},
                "201": {},
                "202": {},
                "203": {},
                "204": {},
                "205": {},
                "206": {},
                "207": {},
                "208": {},
                "209": {},
                "210": {},
                "211": {},
                "212": {},
                "213": {},
                "214": {},
                "215": {},
                "216": {},
                "217": {},
                "218": {},
                "219": {},
                "220": {},
                "221": {},
                "222": {},
                "223": {},
                "224": {},
                "225": {},
                "226": {},
                "227": {},
                "228": {},
                "229": {},
                "230": {},
                "231": {},
                "232": {},
                "233": {},
                "234": {},
                "235": {},
                "236": {},
                "237": {},
                "238": {},
                "239": {},
                "240": {},
                "241": {},
                "242": {},
                "243": {},
                "244": {},
                "245": {},
                "246": {},
                "247": {},
                "248": {},
                "249": {},
                "250": {},
                "251": {},
                "252": {},
                "253": {},
                "254": {},
                "255": {}
            },
            {
                "0": {
                    "bias": 0.044617000967264175,
                    "weights": {
                        "0": -0.1764710247516632,
                        "1": -0.03406532108783722,
                        "2": 0.009571561589837074,
                        "3": 0.032882723957300186,
                        "4": -0.03120105341076851,
                        "5": -0.043909814208745956,
                        "6": 0.0356203094124794,
                        "7": -0.09279372543096542,
                        "8": -0.17685562372207642,
                        "9": 0.07795155048370361,
                        "10": 0.13571429252624512,
                        "11": 0.011289159767329693,
                        "12": 0.1026192158460617,
                        "13": 0.1419156789779663,
                        "14": -0.21967776119709015,
                        "15": 0.14300215244293213,
                        "16": -0.14647990465164185,
                        "17": 0.09905844181776047,
                        "18": -0.02684149146080017,
                        "19": -0.11701802909374237,
                        "20": 0.16335256397724152,
                        "21": 0.15655700862407684,
                        "22": 0.10806360840797424,
                        "23": 0.04214569181203842,
                        "24": 0.13354294002056122,
                        "25": -0.12360858917236328,
                        "26": 0.13702842593193054,
                        "27": -0.14562004804611206,
                        "28": 0.09191977232694626,
                        "29": 0.037002742290496826,
                        "30": 0.14743445813655853,
                        "31": 0.118946373462677,
                        "32": -0.15284603834152222,
                        "33": -0.15656381845474243,
                        "34": -0.11676225066184998,
                        "35": 0.07761316746473312,
                        "36": 0.18489032983779907,
                        "37": 0.1490609496831894,
                        "38": 0.12043678015470505,
                        "39": -0.1358441561460495,
                        "40": 0.15114754438400269,
                        "41": -0.1330879181623459,
                        "42": -0.05732177197933197,
                        "43": 0.039304569363594055,
                        "44": -0.11735694110393524,
                        "45": 0.02149312198162079,
                        "46": 0.04149235412478447,
                        "47": 0.0007262419094331563,
                        "48": -0.22691771388053894,
                        "49": -0.16400037705898285,
                        "50": 0.13845853507518768,
                        "51": -0.12808747589588165,
                        "52": -0.031588081270456314,
                        "53": 0.05521797016263008,
                        "54": 0.06369800120592117,
                        "55": -0.01430620439350605,
                        "56": -0.04072213172912598,
                        "57": -0.11739056557416916,
                        "58": 0.030959216877818108,
                        "59": -0.010365933179855347,
                        "60": 0.09852832555770874,
                        "61": -0.03440025821328163,
                        "62": 0.03578118234872818,
                        "63": 0.13414303958415985,
                        "64": 0.16186954081058502,
                        "65": 0.12791790068149567,
                        "66": -0.18384240567684174,
                        "67": -0.061468131840229034,
                        "68": 0.07868530601263046,
                        "69": -0.24595986306667328,
                        "70": 0.06230344995856285,
                        "71": -0.08843643218278885,
                        "72": 0.01791677251458168,
                        "73": 0.04857257753610611,
                        "74": 0.04017971083521843,
                        "75": -0.0185825377702713,
                        "76": 0.13774622976779938,
                        "77": -0.14811140298843384,
                        "78": -0.1536785066127777,
                        "79": 0.06315585225820541,
                        "80": -0.06720113009214401,
                        "81": 0.1661548763513565,
                        "82": 0.13511575758457184,
                        "83": -0.12681159377098083,
                        "84": -0.009851028211414814,
                        "85": 0.024253830313682556,
                        "86": -0.04017799347639084,
                        "87": -0.1161530539393425,
                        "88": -0.21833424270153046,
                        "89": 0.12422212958335876,
                        "90": -0.0923565998673439,
                        "91": -0.15538933873176575,
                        "92": 0.1741449534893036,
                        "93": 0.18914303183555603,
                        "94": 0.0020454239565879107,
                        "95": -0.1810280829668045,
                        "96": -0.07838945090770721,
                        "97": -0.1280612051486969,
                        "98": 0.06090796738862991,
                        "99": 0.04125609248876572,
                        "100": -0.007385743781924248,
                        "101": -0.2403010129928589,
                        "102": -0.21009622514247894,
                        "103": -0.08503637462854385,
                        "104": -0.22076889872550964,
                        "105": -0.08978351950645447,
                        "106": 0.033092837780714035,
                        "107": -0.12642335891723633,
                        "108": 0.06094672158360481,
                        "109": -0.1775512844324112,
                        "110": 0.06810320913791656,
                        "111": 0.035249534994363785,
                        "112": -0.053319934755563736,
                        "113": -0.19098050892353058,
                        "114": 0.132234588265419,
                        "115": 0.09266076982021332,
                        "116": -0.023240908980369568,
                        "117": 0.0659468024969101,
                        "118": 0.1614457070827484,
                        "119": 0.038246043026447296,
                        "120": -0.186112180352211,
                        "121": -0.07884185016155243,
                        "122": 0.028459932655096054,
                        "123": 0.01608593761920929,
                        "124": 0.03085348568856716,
                        "125": 0.1487828940153122,
                        "126": -0.09282056242227554,
                        "127": -0.10125937312841415,
                        "128": -0.0989147424697876,
                        "129": -0.13002318143844604,
                        "130": -0.05619041249155998,
                        "131": 0.09061946719884872,
                        "132": -0.15338949859142303,
                        "133": 0.11066605895757675,
                        "134": -0.1408626139163971,
                        "135": 0.03316304832696915,
                        "136": -0.09824632108211517,
                        "137": -0.1064293161034584,
                        "138": 0.0509987436234951,
                        "139": 0.09245867282152176,
                        "140": -0.13807782530784607,
                        "141": 0.026017488911747932,
                        "142": -0.09873591363430023,
                        "143": 0.023007167503237724,
                        "144": -0.022395938634872437,
                        "145": -0.03451918438076973,
                        "146": 0.15716050565242767,
                        "147": 0.13540798425674438,
                        "148": -0.05016598477959633,
                        "149": 0.003824316430836916,
                        "150": -0.22413361072540283,
                        "151": 0.10990733653306961,
                        "152": 0.020490624010562897,
                        "153": 0.03955290466547012,
                        "154": -0.012767503969371319,
                        "155": 0.07907240092754364,
                        "156": -0.13077273964881897,
                        "157": 0.027446070685982704,
                        "158": 0.11837539076805115,
                        "159": 0.09246556460857391,
                        "160": -0.027603210881352425,
                        "161": 0.11431765556335449,
                        "162": -0.2095271646976471,
                        "163": 0.11782298982143402,
                        "164": -0.15668801963329315,
                        "165": -0.0580592080950737,
                        "166": 0.04941468685865402,
                        "167": 0.12072806805372238,
                        "168": 0.07709948718547821,
                        "169": -0.05837373062968254,
                        "170": 0.041157592087984085,
                        "171": -0.19924931228160858,
                        "172": -0.05742662400007248,
                        "173": -0.1147574633359909,
                        "174": -0.0933067724108696,
                        "175": 0.08132435381412506,
                        "176": -0.23293200135231018,
                        "177": -0.10128846019506454,
                        "178": -0.1434207558631897,
                        "179": 0.11149562150239944,
                        "180": 0.0006333767087198794,
                        "181": -0.12336354702711105,
                        "182": 0.019632678478956223,
                        "183": 0.14867697656154633,
                        "184": 0.0551191009581089,
                        "185": 0.07117349654436111,
                        "186": 0.17525506019592285,
                        "187": 0.06426513940095901,
                        "188": 0.09245164692401886,
                        "189": 0.13034088909626007,
                        "190": -0.035606417804956436,
                        "191": -0.11939689517021179,
                        "192": -0.006932348944246769,
                        "193": -0.13651567697525024,
                        "194": -0.04852725937962532,
                        "195": -0.0798742026090622,
                        "196": -0.10209812223911285,
                        "197": 0.051852770149707794,
                        "198": 0.06533559411764145,
                        "199": 0.016336344182491302,
                        "200": -0.06097671389579773,
                        "201": -0.008159048855304718,
                        "202": 0.09914284199476242,
                        "203": -0.18338021636009216,
                        "204": -0.10521972179412842,
                        "205": -0.10157681256532669,
                        "206": -0.21045812964439392,
                        "207": 0.12271016836166382,
                        "208": -0.09842494130134583,
                        "209": -0.09078948199748993,
                        "210": -0.10121601819992065,
                        "211": -0.12895163893699646,
                        "212": -0.22718079388141632,
                        "213": -0.09665799140930176,
                        "214": -0.008635045029222965,
                        "215": -0.007956516928970814,
                        "216": -0.018944909796118736,
                        "217": -0.11779361963272095,
                        "218": 0.04503387585282326,
                        "219": 0.057220473885536194,
                        "220": -0.18971028923988342,
                        "221": -0.15877003967761993,
                        "222": -0.04117168113589287,
                        "223": 0.14183376729488373,
                        "224": -0.18603630363941193,
                        "225": -0.022575022652745247,
                        "226": -0.23578031361103058,
                        "227": -0.04280880093574524,
                        "228": 0.027670836076140404,
                        "229": -0.0014868787257000804,
                        "230": 0.15680748224258423,
                        "231": 0.09022747725248337,
                        "232": 0.17182424664497375,
                        "233": -0.10398917645215988,
                        "234": -0.18917028605937958,
                        "235": 0.18871010839939117,
                        "236": -0.09447041898965836,
                        "237": 0.059933293610811234,
                        "238": 0.10961305350065231,
                        "239": -0.053830888122320175,
                        "240": 0.05061686038970947,
                        "241": -0.18138419091701508,
                        "242": 0.13405847549438477,
                        "243": -0.10858990252017975,
                        "244": -0.038782209157943726,
                        "245": -0.07706080377101898,
                        "246": 0.14828501641750336,
                        "247": -0.16190427541732788,
                        "248": -0.07712731510400772,
                        "249": -0.01261037029325962,
                        "250": 0.06831624358892441,
                        "251": -0.04479313641786575,
                        "252": -0.05493956804275513,
                        "253": 0.12028464674949646,
                        "254": -0.12882257997989655,
                        "255": -0.0587790422141552
                    }
                },
                "1": {
                    "bias": -0.04237417131662369,
                    "weights": {
                        "0": -0.13797423243522644,
                        "1": -0.09243100136518478,
                        "2": 0.1359773427248001,
                        "3": -0.15954813361167908,
                        "4": 0.12864172458648682,
                        "5": -0.13410329818725586,
                        "6": 0.09837865829467773,
                        "7": -0.12101324647665024,
                        "8": -0.18622435629367828,
                        "9": -0.1819792091846466,
                        "10": -0.14201466739177704,
                        "11": 0.07895639538764954,
                        "12": -0.15083155035972595,
                        "13": 0.11315616220235825,
                        "14": -0.016306143254041672,
                        "15": -0.04751576855778694,
                        "16": -0.20734567940235138,
                        "17": 0.15358684957027435,
                        "18": 0.008596256375312805,
                        "19": 0.02571467123925686,
                        "20": -0.039141587913036346,
                        "21": -0.1529081016778946,
                        "22": -0.07952122390270233,
                        "23": 0.05048830062150955,
                        "24": 0.15370386838912964,
                        "25": -0.06537099182605743,
                        "26": -0.019697898998856544,
                        "27": -0.09898978471755981,
                        "28": 0.07323546707630157,
                        "29": 0.07751008123159409,
                        "30": -0.08388129621744156,
                        "31": -0.1520491987466812,
                        "32": -0.20989294350147247,
                        "33": 0.130949929356575,
                        "34": 0.09207886457443237,
                        "35": -0.13781750202178955,
                        "36": -0.1741681843996048,
                        "37": 0.02993585728108883,
                        "38": -0.04781004413962364,
                        "39": 0.01941993273794651,
                        "40": -0.04262896627187729,
                        "41": 0.1122501939535141,
                        "42": -0.1141185313463211,
                        "43": 0.10640329122543335,
                        "44": -0.16946250200271606,
                        "45": 0.15009163320064545,
                        "46": -0.06548751145601273,
                        "47": -0.07671103626489639,
                        "48": 0.17365138232707977,
                        "49": -0.1379244178533554,
                        "50": 0.027904804795980453,
                        "51": 0.099477119743824,
                        "52": -0.01910829171538353,
                        "53": 0.10908357053995132,
                        "54": -0.13650010526180267,
                        "55": -0.14592978358268738,
                        "56": 0.10634743422269821,
                        "57": 0.0032378435134887695,
                        "58": 0.1635764241218567,
                        "59": 0.1353239119052887,
                        "60": 0.0393851138651371,
                        "61": 0.07118041813373566,
                        "62": 0.18859733641147614,
                        "63": 0.10097255557775497,
                        "64": 0.10508064925670624,
                        "65": -0.07854442298412323,
                        "66": -0.10740646719932556,
                        "67": -0.03443387523293495,
                        "68": -0.07973341643810272,
                        "69": 0.04161415994167328,
                        "70": 0.20334157347679138,
                        "71": -0.10103252530097961,
                        "72": 0.19704793393611908,
                        "73": 0.04782835394144058,
                        "74": -0.15121132135391235,
                        "75": 0.0855097696185112,
                        "76": -0.05417995899915695,
                        "77": 0.08247314393520355,
                        "78": -0.13307440280914307,
                        "79": 0.16774873435497284,
                        "80": -0.19769318401813507,
                        "81": 0.013211056590080261,
                        "82": 0.16016526520252228,
                        "83": -0.16805316507816315,
                        "84": 0.11383319646120071,
                        "85": -0.12888561189174652,
                        "86": -0.003695621620863676,
                        "87": -0.007112599443644285,
                        "88": -0.15075771510601044,
                        "89": 0.1383882313966751,
                        "90": 0.13498327136039734,
                        "91": 0.07504872232675552,
                        "92": 0.09683043509721756,
                        "93": 0.14807547628879547,
                        "94": 0.02815094217658043,
                        "95": 0.110300213098526,
                        "96": 0.05227041244506836,
                        "97": 0.01754675805568695,
                        "98": -0.04916061833500862,
                        "99": -0.18167468905448914,
                        "100": -0.056178297847509384,
                        "101": -0.07054273039102554,
                        "102": -0.02407950907945633,
                        "103": 0.08389245718717575,
                        "104": -0.00896788202226162,
                        "105": 0.03351312503218651,
                        "106": 0.13157449662685394,
                        "107": -0.18402144312858582,
                        "108": -0.013582462444901466,
                        "109": -0.15969419479370117,
                        "110": -0.20270036160945892,
                        "111": -0.056377775967121124,
                        "112": -0.0887444019317627,
                        "113": 0.17862482368946075,
                        "114": -0.17140422761440277,
                        "115": -0.18226660788059235,
                        "116": -0.04313773661851883,
                        "117": -0.12047430872917175,
                        "118": 0.10076945275068283,
                        "119": 0.03484562411904335,
                        "120": 0.09480219334363937,
                        "121": -0.13247908651828766,
                        "122": 0.07892657816410065,
                        "123": -0.02292827144265175,
                        "124": 0.19503091275691986,
                        "125": 0.017270727083086967,
                        "126": 0.0882321298122406,
                        "127": 0.04098239913582802,
                        "128": 0.10647370666265488,
                        "129": -0.14691771566867828,
                        "130": 0.11026237159967422,
                        "131": -0.18173637986183167,
                        "132": -0.0049232360906898975,
                        "133": -0.11896156519651413,
                        "134": -0.10145661234855652,
                        "135": 0.06405975669622421,
                        "136": -0.10719463229179382,
                        "137": -0.22230380773544312,
                        "138": -0.07304448634386063,
                        "139": -0.12690529227256775,
                        "140": 0.055579014122486115,
                        "141": 0.015485535375773907,
                        "142": -0.14961905777454376,
                        "143": -0.0810399278998375,
                        "144": -0.18734200298786163,
                        "145": -0.2093241661787033,
                        "146": -0.011116649024188519,
                        "147": 0.03717969357967377,
                        "148": -0.06554974615573883,
                        "149": 0.07522707432508469,
                        "150": 0.12769320607185364,
                        "151": -0.022174127399921417,
                        "152": -0.10419078171253204,
                        "153": 0.21073469519615173,
                        "154": 0.01125901285558939,
                        "155": -0.056212615221738815,
                        "156": -0.20402981340885162,
                        "157": 0.13955311477184296,
                        "158": 0.15063615143299103,
                        "159": -0.04819570481777191,
                        "160": 0.17660832405090332,
                        "161": -0.05914873629808426,
                        "162": 0.024246178567409515,
                        "163": 0.029096923768520355,
                        "164": -0.07769555598497391,
                        "165": 0.1952383667230606,
                        "166": 0.13090340793132782,
                        "167": -0.04416923224925995,
                        "168": -0.07984317094087601,
                        "169": 0.1772504597902298,
                        "170": 0.18215999007225037,
                        "171": -0.0676177516579628,
                        "172": 0.14393632113933563,
                        "173": 0.15140964090824127,
                        "174": -0.10165265947580338,
                        "175": -0.11229253560304642,
                        "176": 0.010667843744158745,
                        "177": 0.005340729374438524,
                        "178": -0.16634657979011536,
                        "179": -0.04745877906680107,
                        "180": 0.06351899355649948,
                        "181": -0.01641969382762909,
                        "182": 0.1994158923625946,
                        "183": -0.011453303508460522,
                        "184": 0.17459608614444733,
                        "185": 0.16266712546348572,
                        "186": 0.010680687613785267,
                        "187": 0.14085564017295837,
                        "188": 0.033000506460666656,
                        "189": 0.1188717782497406,
                        "190": -0.14036908745765686,
                        "191": -0.051124777644872665,
                        "192": 0.18529756367206573,
                        "193": 0.10664864629507065,
                        "194": -0.08875676989555359,
                        "195": -0.04987207055091858,
                        "196": 0.14792373776435852,
                        "197": 0.02613099478185177,
                        "198": -0.1633354127407074,
                        "199": 0.21445931494235992,
                        "200": 0.04981540888547897,
                        "201": 0.08194999396800995,
                        "202": 0.07791148126125336,
                        "203": 0.10228317230939865,
                        "204": 0.1326541304588318,
                        "205": 0.15681634843349457,
                        "206": 0.09412212669849396,
                        "207": 0.022283144295215607,
                        "208": -0.10062405467033386,
                        "209": -0.014243269339203835,
                        "210": -0.1729017049074173,
                        "211": 0.16333279013633728,
                        "212": 0.03780650720000267,
                        "213": 0.1973625272512436,
                        "214": -0.04421886429190636,
                        "215": 0.013611944392323494,
                        "216": -0.054736312478780746,
                        "217": -0.04838227108120918,
                        "218": -0.05204470083117485,
                        "219": -0.16017989814281464,
                        "220": 0.025570381432771683,
                        "221": -0.034298453480005264,
                        "222": 0.08085928112268448,
                        "223": 0.10892418026924133,
                        "224": -0.07025845348834991,
                        "225": -0.07276923954486847,
                        "226": 0.18262280523777008,
                        "227": -0.1299416869878769,
                        "228": 0.021163705736398697,
                        "229": 0.15309488773345947,
                        "230": 0.15596440434455872,
                        "231": 0.18098752200603485,
                        "232": -0.1881747990846634,
                        "233": 0.06101671978831291,
                        "234": -0.03395063057541847,
                        "235": 0.027635522186756134,
                        "236": -0.08850584924221039,
                        "237": -0.09488875418901443,
                        "238": 0.046992529183626175,
                        "239": 0.18646499514579773,
                        "240": -0.011830261908471584,
                        "241": 0.1279565542936325,
                        "242": -0.18877826631069183,
                        "243": -0.11632779985666275,
                        "244": 0.12888552248477936,
                        "245": 0.14493243396282196,
                        "246": -0.06814590096473694,
                        "247": -0.19457300007343292,
                        "248": -0.1437186747789383,
                        "249": -0.10621161758899689,
                        "250": 0.005667667370289564,
                        "251": 0.14287069439888,
                        "252": 0.03925492241978645,
                        "253": 0.008560950867831707,
                        "254": 0.021021153777837753,
                        "255": 0.0798567607998848
                    }
                },
                "2": {
                    "bias": 0.04786678031086922,
                    "weights": {
                        "0": 0.2060285061597824,
                        "1": 0.16306984424591064,
                        "2": 0.0363333560526371,
                        "3": -0.08206461369991302,
                        "4": 0.23852013051509857,
                        "5": 0.06555195897817612,
                        "6": 0.09922705590724945,
                        "7": 0.2317890226840973,
                        "8": -0.10582942515611649,
                        "9": 0.14690706133842468,
                        "10": -0.00424405001103878,
                        "11": -0.03015623241662979,
                        "12": -0.09300576150417328,
                        "13": 0.08642283827066422,
                        "14": -0.08222214877605438,
                        "15": 0.11846904456615448,
                        "16": 0.024168189615011215,
                        "17": -0.11269358545541763,
                        "18": -0.1288253664970398,
                        "19": -0.14088678359985352,
                        "20": -0.11701235175132751,
                        "21": -0.14472810924053192,
                        "22": -0.10724170506000519,
                        "23": 0.13019795715808868,
                        "24": -0.1665133535861969,
                        "25": -0.09719107300043106,
                        "26": -0.04502623900771141,
                        "27": -0.11464129388332367,
                        "28": -0.11205524206161499,
                        "29": 0.04277174174785614,
                        "30": -0.11856290698051453,
                        "31": -0.0454375259578228,
                        "32": -0.12341818958520889,
                        "33": 0.1067410260438919,
                        "34": 0.1594066619873047,
                        "35": -0.11267127096652985,
                        "36": -0.1281418800354004,
                        "37": -0.14000853896141052,
                        "38": 0.15173503756523132,
                        "39": 0.04383848235011101,
                        "40": 0.11461057513952255,
                        "41": -0.12078865617513657,
                        "42": -0.00093992636539042,
                        "43": -0.13397526741027832,
                        "44": -0.17506571114063263,
                        "45": -0.1436493843793869,
                        "46": 0.18637365102767944,
                        "47": -0.08126705139875412,
                        "48": 0.20422551035881042,
                        "49": 0.20711584389209747,
                        "50": 0.15582601726055145,
                        "51": 0.18446050584316254,
                        "52": 0.055651672184467316,
                        "53": -0.054601918905973434,
                        "54": -0.14283107221126556,
                        "55": 0.05386221408843994,
                        "56": 0.004292655736207962,
                        "57": 0.09882643818855286,
                        "58": 0.03463887423276901,
                        "59": -0.18541906774044037,
                        "60": 0.029404493048787117,
                        "61": -0.08558962494134903,
                        "62": 0.06374996155500412,
                        "63": 0.13841590285301208,
                        "64": 0.15652035176753998,
                        "65": -0.08468583971261978,
                        "66": 0.1924607753753662,
                        "67": 0.21470963954925537,
                        "68": 0.09085850417613983,
                        "69": -0.19387304782867432,
                        "70": 0.015356093645095825,
                        "71": -0.19323305785655975,
                        "72": -0.15135231614112854,
                        "73": -0.1380384862422943,
                        "74": 0.04664294421672821,
                        "75": -0.14994527399539948,
                        "76": -0.027692876756191254,
                        "77": -0.09911728650331497,
                        "78": -0.012009534984827042,
                        "79": -0.0025292488280683756,
                        "80": 0.0571371465921402,
                        "81": 0.09265890717506409,
                        "82": 0.029721900820732117,
                        "83": -0.05346861109137535,
                        "84": 0.08420068770647049,
                        "85": -0.17189434170722961,
                        "86": -0.14195483922958374,
                        "87": 0.057447656989097595,
                        "88": 0.12393219023942947,
                        "89": -0.06741409003734589,
                        "90": -0.059841737151145935,
                        "91": -0.1929347664117813,
                        "92": -0.030330779030919075,
                        "93": 0.017504651099443436,
                        "94": -0.07100342959165573,
                        "95": 0.1142471507191658,
                        "96": 0.08047983795404434,
                        "97": 0.2290438860654831,
                        "98": 0.09788341075181961,
                        "99": 0.17697109282016754,
                        "100": -0.20110534131526947,
                        "101": -0.14059285819530487,
                        "102": 0.10023652017116547,
                        "103": 0.10541986674070358,
                        "104": -0.10231872648000717,
                        "105": -0.21183690428733826,
                        "106": -0.15005868673324585,
                        "107": 0.0594211146235466,
                        "108": -0.20021817088127136,
                        "109": -0.13392503559589386,
                        "110": -0.15342164039611816,
                        "111": 0.12646424770355225,
                        "112": 0.022922277450561523,
                        "113": 0.11818345636129379,
                        "114": 0.24326470494270325,
                        "115": 0.22862091660499573,
                        "116": -0.06508605182170868,
                        "117": -0.09094519168138504,
                        "118": 0.1836244910955429,
                        "119": -0.03358756750822067,
                        "120": 0.09288837760686874,
                        "121": -0.1832558810710907,
                        "122": -0.08361788839101791,
                        "123": 0.12161417305469513,
                        "124": -0.19170165061950684,
                        "125": 0.05312259867787361,
                        "126": 0.06643085181713104,
                        "127": -0.09680262207984924,
                        "128": 0.020795155316591263,
                        "129": 0.054527074098587036,
                        "130": 0.037888601422309875,
                        "131": -0.10135474801063538,
                        "132": 0.2360261231660843,
                        "133": -0.11171801388263702,
                        "134": -0.06843426823616028,
                        "135": 0.03191271796822548,
                        "136": 0.013282526284456253,
                        "137": 0.039232704788446426,
                        "138": -0.09219346195459366,
                        "139": 0.07430659234523773,
                        "140": -0.1611545979976654,
                        "141": 0.05300845578312874,
                        "142": -0.1068282350897789,
                        "143": -0.14736197888851166,
                        "144": 0.11184164881706238,
                        "145": 0.1612589955329895,
                        "146": 0.13319338858127594,
                        "147": 0.02161567471921444,
                        "148": -0.09698083251714706,
                        "149": 0.013998736627399921,
                        "150": -0.053544286638498306,
                        "151": -0.11402358114719391,
                        "152": -0.027466991916298866,
                        "153": -0.06339855492115021,
                        "154": 0.062075115740299225,
                        "155": 0.1942419558763504,
                        "156": 0.09335897117853165,
                        "157": 0.013549345545470715,
                        "158": 0.02122241072356701,
                        "159": 0.06579317897558212,
                        "160": 0.16438882052898407,
                        "161": -0.1429503858089447,
                        "162": -0.08392501622438431,
                        "163": 0.10503760725259781,
                        "164": -0.04930322617292404,
                        "165": -0.06951899081468582,
                        "166": -0.05440271645784378,
                        "167": 0.029851285740733147,
                        "168": -0.01871267333626747,
                        "169": 0.16968709230422974,
                        "170": -0.09417994320392609,
                        "171": 0.03662243112921715,
                        "172": -0.10884610563516617,
                        "173": 0.16671979427337646,
                        "174": -0.12474168092012405,
                        "175": 0.07263065129518509,
                        "176": 0.04060545563697815,
                        "177": -0.0970098152756691,
                        "178": -0.1162010058760643,
                        "179": 0.060569509863853455,
                        "180": -0.11962968856096268,
                        "181": 0.18080082535743713,
                        "182": -0.07004342973232269,
                        "183": -0.059839338064193726,
                        "184": 0.1297408491373062,
                        "185": -0.025593843311071396,
                        "186": 0.06844882667064667,
                        "187": -0.05575549602508545,
                        "188": -0.06389936059713364,
                        "189": -0.11520738899707794,
                        "190": 0.214809849858284,
                        "191": -0.05703020840883255,
                        "192": 0.13627409934997559,
                        "193": 0.11939407885074615,
                        "194": -0.06044181436300278,
                        "195": 0.09995503723621368,
                        "196": 0.06542922556400299,
                        "197": -0.11979859322309494,
                        "198": 0.04205523803830147,
                        "199": -0.07556392252445221,
                        "200": 0.009083297103643417,
                        "201": -0.11025796830654144,
                        "202": -0.0908266231417656,
                        "203": -0.09331722557544708,
                        "204": 0.11572286486625671,
                        "205": 0.1069272831082344,
                        "206": -0.08126512169837952,
                        "207": 0.2057788223028183,
                        "208": -0.08814530074596405,
                        "209": -0.10823535174131393,
                        "210": 0.01741713285446167,
                        "211": 0.14504104852676392,
                        "212": 0.1114133968949318,
                        "213": -0.019447218626737595,
                        "214": 0.14996349811553955,
                        "215": 0.047408781945705414,
                        "216": 0.001647080876864493,
                        "217": 0.18514636158943176,
                        "218": -0.15578477084636688,
                        "219": 0.10767136514186859,
                        "220": 0.18283098936080933,
                        "221": 0.010947135277092457,
                        "222": 0.10713575780391693,
                        "223": 0.184883713722229,
                        "224": 0.009575569070875645,
                        "225": 0.10905294865369797,
                        "226": 0.0005585488979704678,
                        "227": 0.10266633331775665,
                        "228": -0.1342390924692154,
                        "229": -0.041462935507297516,
                        "230": 0.09192032366991043,
                        "231": 0.03337496891617775,
                        "232": 0.1722373515367508,
                        "233": 0.10948187112808228,
                        "234": -0.04016904905438423,
                        "235": 0.014764390885829926,
                        "236": -0.1417839676141739,
                        "237": 0.07235521078109741,
                        "238": -0.14373841881752014,
                        "239": 0.07971922308206558,
                        "240": -0.11676015704870224,
                        "241": 0.1669364869594574,
                        "242": -0.030408645048737526,
                        "243": 0.01536932960152626,
                        "244": -0.16133078932762146,
                        "245": 0.03945228457450867,
                        "246": 0.009726167656481266,
                        "247": -0.0938303992152214,
                        "248": -0.1510528326034546,
                        "249": -0.15565842390060425,
                        "250": 0.08531106263399124,
                        "251": 0.09217559546232224,
                        "252": 0.13598868250846863,
                        "253": 0.14979568123817444,
                        "254": -0.1510225087404251,
                        "255": -0.07876197248697281
                    }
                },
                "3": {
                    "bias": -0.054774921387434006,
                    "weights": {
                        "0": -0.12163983285427094,
                        "1": -0.09471090137958527,
                        "2": -0.16229382157325745,
                        "3": 0.05603452026844025,
                        "4": -0.0594957172870636,
                        "5": -0.04969644546508789,
                        "6": -0.15442101657390594,
                        "7": -0.023767665028572083,
                        "8": 0.14603064954280853,
                        "9": -0.06680026650428772,
                        "10": -0.18663212656974792,
                        "11": 0.19215263426303864,
                        "12": 0.17646922171115875,
                        "13": 0.130378857254982,
                        "14": 0.06801889836788177,
                        "15": 0.11741425096988678,
                        "16": -0.10557416826486588,
                        "17": -0.01655656471848488,
                        "18": -0.18342019617557526,
                        "19": 0.13696491718292236,
                        "20": -0.1419859081506729,
                        "21": -0.19425836205482483,
                        "22": -0.13990004360675812,
                        "23": -0.09113381803035736,
                        "24": 0.10287489742040634,
                        "25": 0.045166976749897,
                        "26": 0.015832997858524323,
                        "27": 0.1533912867307663,
                        "28": 0.18882128596305847,
                        "29": 0.037875112146139145,
                        "30": -0.10626588016748428,
                        "31": -0.12296339869499207,
                        "32": -0.052937936037778854,
                        "33": 0.11461107432842255,
                        "34": 0.04177147522568703,
                        "35": -0.041685011237859726,
                        "36": 0.197585791349411,
                        "37": 0.08288872987031937,
                        "38": -0.19080288708209991,
                        "39": -0.03361476585268974,
                        "40": 0.1438099443912506,
                        "41": 0.05975468456745148,
                        "42": -0.08757113665342331,
                        "43": 0.15139780938625336,
                        "44": 0.175643190741539,
                        "45": -0.19891907274723053,
                        "46": -0.18610620498657227,
                        "47": -0.06288633495569229,
                        "48": 0.08678597211837769,
                        "49": -0.04188636690378189,
                        "50": 0.09583986550569534,
                        "51": -0.05022167041897774,
                        "52": 0.1584445685148239,
                        "53": 0.16365301609039307,
                        "54": -0.08685707300901413,
                        "55": 0.18597562611103058,
                        "56": 0.10218062251806259,
                        "57": 0.11632736772298813,
                        "58": 0.15452006459236145,
                        "59": -0.029176026582717896,
                        "60": -0.04771716520190239,
                        "61": -0.08038885146379471,
                        "62": 0.05566723644733429,
                        "63": -0.18820267915725708,
                        "64": -0.12953804433345795,
                        "65": -0.04733309894800186,
                        "66": 0.07690796256065369,
                        "67": -0.041549235582351685,
                        "68": 0.005490703508257866,
                        "69": 0.05113399773836136,
                        "70": -0.0635840892791748,
                        "71": 0.025829413905739784,
                        "72": -0.047233354300260544,
                        "73": 0.060652777552604675,
                        "74": -0.07418549805879593,
                        "75": -0.18886511027812958,
                        "76": -0.07959918677806854,
                        "77": -0.09206108003854752,
                        "78": -0.10901699960231781,
                        "79": -0.14536914229393005,
                        "80": 0.11287946254014969,
                        "81": -0.19559943675994873,
                        "82": -0.14613373577594757,
                        "83": 0.11740042269229889,
                        "84": -0.036431968212127686,
                        "85": -0.05133829638361931,
                        "86": -0.10601558536291122,
                        "87": -0.013777568936347961,
                        "88": -0.04079617187380791,
                        "89": 0.055786821991205215,
                        "90": 0.10227329283952713,
                        "91": -0.1841842234134674,
                        "92": -0.1611974835395813,
                        "93": 0.03346944600343704,
                        "94": 0.1710784137248993,
                        "95": 0.11043035238981247,
                        "96": 0.04483082890510559,
                        "97": -0.12858349084854126,
                        "98": 0.14940576255321503,
                        "99": -0.015640676021575928,
                        "100": 0.12881509959697723,
                        "101": -0.1390005648136139,
                        "102": -0.09459751844406128,
                        "103": 0.16811834275722504,
                        "104": -0.12655115127563477,
                        "105": 0.11450980603694916,
                        "106": -0.052312951534986496,
                        "107": -0.15356145799160004,
                        "108": -0.18102233111858368,
                        "109": -0.060498327016830444,
                        "110": 0.02782347798347473,
                        "111": -0.02999468520283699,
                        "112": -0.0038649658672511578,
                        "113": 0.012766849249601364,
                        "114": -0.11050789803266525,
                        "115": -0.004884815774857998,
                        "116": -0.1236843392252922,
                        "117": 0.137846440076828,
                        "118": -0.016178548336029053,
                        "119": -0.1355770230293274,
                        "120": -0.06115065515041351,
                        "121": 0.06753610074520111,
                        "122": 0.062118224799633026,
                        "123": 0.06806163489818573,
                        "124": 0.1005142480134964,
                        "125": 0.061531104147434235,
                        "126": -0.09424250572919846,
                        "127": -0.0774606391787529,
                        "128": -0.1575789451599121,
                        "129": 0.18943385779857635,
                        "130": -0.07176924496889114,
                        "131": -0.03348417207598686,
                        "132": 0.0005197207792662084,
                        "133": -0.017979159951210022,
                        "134": 0.06507784128189087,
                        "135": 0.12603478133678436,
                        "136": -0.11112706363201141,
                        "137": 0.05130987614393234,
                        "138": -0.0909871831536293,
                        "139": 0.027126848697662354,
                        "140": -0.1580493152141571,
                        "141": -0.10135795176029205,
                        "142": 0.07548168301582336,
                        "143": -0.09069783240556717,
                        "144": 0.005228914320468903,
                        "145": 0.06196683645248413,
                        "146": -0.16139008104801178,
                        "147": 0.10689971596002579,
                        "148": -0.14419901371002197,
                        "149": 0.18867772817611694,
                        "150": -0.0007676962413825095,
                        "151": -0.10152099281549454,
                        "152": -0.05209435522556305,
                        "153": -0.04855085909366608,
                        "154": 0.0472438670694828,
                        "155": -0.02631230279803276,
                        "156": -0.04203112795948982,
                        "157": 0.13445505499839783,
                        "158": 0.13369697332382202,
                        "159": -0.0009419623529538512,
                        "160": -0.17488832771778107,
                        "161": -0.16518551111221313,
                        "162": -0.0426861047744751,
                        "163": -0.18242383003234863,
                        "164": 0.065984807908535,
                        "165": 0.14193005859851837,
                        "166": 0.05988851189613342,
                        "167": -0.11694282293319702,
                        "168": 0.045385610312223434,
                        "169": -0.08328770101070404,
                        "170": 0.1753975749015808,
                        "171": 0.1704544872045517,
                        "172": -0.16020677983760834,
                        "173": 0.0030586421489715576,
                        "174": -0.05607284605503082,
                        "175": -0.11932958662509918,
                        "176": -0.1402871161699295,
                        "177": -0.14135827124118805,
                        "178": 0.09415225684642792,
                        "179": 0.0412750206887722,
                        "180": 0.07927439361810684,
                        "181": 0.08993004262447357,
                        "182": 0.1279984712600708,
                        "183": -0.09504079073667526,
                        "184": 0.15386463701725006,
                        "185": 0.10516107082366943,
                        "186": 0.07626014947891235,
                        "187": 0.17867673933506012,
                        "188": 0.016432182863354683,
                        "189": 0.16696619987487793,
                        "190": 0.056715838611125946,
                        "191": -0.10964629799127579,
                        "192": 0.05854424834251404,
                        "193": -0.15951840579509735,
                        "194": -0.17304544150829315,
                        "195": -0.03783034905791283,
                        "196": 0.06521394848823547,
                        "197": -0.16930226981639862,
                        "198": 0.14799265563488007,
                        "199": 0.012861683033406734,
                        "200": 0.14720645546913147,
                        "201": -0.05287465080618858,
                        "202": -0.006742044817656279,
                        "203": -0.1487397402524948,
                        "204": -0.18035350739955902,
                        "205": 0.0029496215283870697,
                        "206": -0.1733713299036026,
                        "207": -0.20106953382492065,
                        "208": -0.004226456396281719,
                        "209": 0.19416667520999908,
                        "210": -0.03930230811238289,
                        "211": 0.07863902300596237,
                        "212": -0.14252397418022156,
                        "213": 0.08451972901821136,
                        "214": -0.16609792411327362,
                        "215": 0.1923970878124237,
                        "216": -0.11179987341165543,
                        "217": 0.1186361163854599,
                        "218": -0.14389881491661072,
                        "219": 0.17651475965976715,
                        "220": 0.1407996267080307,
                        "221": -0.04094821214675903,
                        "222": 0.0915803536772728,
                        "223": -0.09342777729034424,
                        "224": 0.01870766282081604,
                        "225": -0.1652403324842453,
                        "226": 0.16900570690631866,
                        "227": 0.19235067069530487,
                        "228": 0.09147635847330093,
                        "229": 0.13069824874401093,
                        "230": -0.13610076904296875,
                        "231": -0.14476434886455536,
                        "232": -0.076107919216156,
                        "233": -0.17384418845176697,
                        "234": -0.04207766428589821,
                        "235": 0.10817760229110718,
                        "236": 0.04399596527218819,
                        "237": 0.14240363240242004,
                        "238": -0.042373381555080414,
                        "239": -0.18394596874713898,
                        "240": -0.08412496745586395,
                        "241": 0.16224348545074463,
                        "242": -0.04917877912521362,
                        "243": -0.03288212791085243,
                        "244": -0.1389990746974945,
                        "245": -0.17987149953842163,
                        "246": 0.006337088067084551,
                        "247": 0.1367948353290558,
                        "248": -0.005536878481507301,
                        "249": -0.031569596379995346,
                        "250": -0.05117444321513176,
                        "251": -0.12062863260507584,
                        "252": 0.01417370792478323,
                        "253": -0.10275961458683014,
                        "254": 0.12160834670066833,
                        "255": 0.190641850233078
                    }
                },
                "4": {
                    "bias": 0.07766790688037872,
                    "weights": {
                        "0": 0.12433530390262604,
                        "1": -0.015062450431287289,
                        "2": 0.13962772488594055,
                        "3": 0.030974924564361572,
                        "4": -0.0899442806839943,
                        "5": 0.14177608489990234,
                        "6": 0.032600391656160355,
                        "7": -0.18549878895282745,
                        "8": 0.1249963790178299,
                        "9": -0.12903866171836853,
                        "10": 0.05280524864792824,
                        "11": 0.040716417133808136,
                        "12": 0.17010624706745148,
                        "13": 0.06260522454977036,
                        "14": 0.15059295296669006,
                        "15": -0.023334559053182602,
                        "16": 0.017100324854254723,
                        "17": -0.10915587842464447,
                        "18": 0.1766340136528015,
                        "19": 0.17671877145767212,
                        "20": -0.10520996153354645,
                        "21": 0.028832383453845978,
                        "22": -0.19086575508117676,
                        "23": -0.16625219583511353,
                        "24": 0.06434175372123718,
                        "25": 0.13950596749782562,
                        "26": 0.03561143949627876,
                        "27": 0.16098633408546448,
                        "28": -0.09364250302314758,
                        "29": -0.031666677445173264,
                        "30": 0.06113002449274063,
                        "31": 0.037255965173244476,
                        "32": -0.1720089465379715,
                        "33": -0.07936839759349823,
                        "34": 0.16881828010082245,
                        "35": 0.16145005822181702,
                        "36": -0.012929306365549564,
                        "37": -0.09223305433988571,
                        "38": -0.06359823793172836,
                        "39": 0.09682255983352661,
                        "40": -0.06178099662065506,
                        "41": 0.03465942665934563,
                        "42": 0.026991194114089012,
                        "43": 0.09907986223697662,
                        "44": 0.1808326542377472,
                        "45": -0.13442832231521606,
                        "46": 0.029497727751731873,
                        "47": 0.13024543225765228,
                        "48": -0.10911726951599121,
                        "49": 0.12514325976371765,
                        "50": 0.07458628714084625,
                        "51": 0.12272971123456955,
                        "52": -0.10770296305418015,
                        "53": 0.1416616439819336,
                        "54": 0.09633316099643707,
                        "55": -0.18825967609882355,
                        "56": 0.10139782726764679,
                        "57": -0.20578154921531677,
                        "58": -0.1408170461654663,
                        "59": 0.018415967002511024,
                        "60": -0.14912009239196777,
                        "61": 0.05652803182601929,
                        "62": 0.07011300325393677,
                        "63": 0.11327610909938812,
                        "64": -0.1459638625383377,
                        "65": 0.08481602370738983,
                        "66": 0.11099567264318466,
                        "67": 0.1510295271873474,
                        "68": 0.15472020208835602,
                        "69": -0.004206983372569084,
                        "70": -0.04590513929724693,
                        "71": -0.20656149089336395,
                        "72": -0.15501458942890167,
                        "73": -0.1339285522699356,
                        "74": -0.17032288014888763,
                        "75": -0.10441510379314423,
                        "76": 0.17293599247932434,
                        "77": 0.1099516823887825,
                        "78": 0.06014777719974518,
                        "79": -0.011132965795695782,
                        "80": -0.07748012244701385,
                        "81": 0.10532338172197342,
                        "82": -0.15568187832832336,
                        "83": 0.1967865377664566,
                        "84": -0.026526693254709244,
                        "85": -0.04953768849372864,
                        "86": 0.15345697104930878,
                        "87": 0.13741335272789001,
                        "88": 0.024058030918240547,
                        "89": -0.1639757752418518,
                        "90": -0.08633339405059814,
                        "91": 0.15247660875320435,
                        "92": -0.05533166602253914,
                        "93": -0.1927257627248764,
                        "94": -0.133909210562706,
                        "95": -0.14365731179714203,
                        "96": -0.03525450825691223,
                        "97": -0.17181037366390228,
                        "98": 0.061098359525203705,
                        "99": -0.022581888362765312,
                        "100": 0.006258369889110327,
                        "101": -0.22512465715408325,
                        "102": -0.14721885323524475,
                        "103": 0.13425450026988983,
                        "104": -0.1885555237531662,
                        "105": -0.1262715458869934,
                        "106": -0.011361692100763321,
                        "107": 0.047453850507736206,
                        "108": 0.19083720445632935,
                        "109": -0.083490289747715,
                        "110": 0.1328652948141098,
                        "111": -0.15829528868198395,
                        "112": 0.06412938237190247,
                        "113": 0.10068584233522415,
                        "114": 0.13930173218250275,
                        "115": -0.06503698974847794,
                        "116": 0.17428219318389893,
                        "117": -0.04821237176656723,
                        "118": -0.05758444964885712,
                        "119": -0.1280234158039093,
                        "120": 0.10652127861976624,
                        "121": 0.15613149106502533,
                        "122": -0.004080464597791433,
                        "123": 0.06671024113893509,
                        "124": 0.012677785009145737,
                        "125": -0.030148714780807495,
                        "126": -0.12696479260921478,
                        "127": 0.1479678601026535,
                        "128": -0.11600156873464584,
                        "129": -0.10583696514368057,
                        "130": -0.10541146248579025,
                        "131": 0.04392414167523384,
                        "132": -0.09856504201889038,
                        "133": -0.018208680674433708,
                        "134": -0.07266785949468613,
                        "135": 0.11053632199764252,
                        "136": 0.01701550930738449,
                        "137": 0.04356195405125618,
                        "138": -0.18027479946613312,
                        "139": -0.1499205380678177,
                        "140": -0.05377994477748871,
                        "141": 0.13205471634864807,
                        "142": 0.12987257540225983,
                        "143": 0.06587974727153778,
                        "144": 0.0283918846398592,
                        "145": -0.11060357838869095,
                        "146": -0.12638071179389954,
                        "147": -0.19101542234420776,
                        "148": 0.050937529653310776,
                        "149": 0.14839401841163635,
                        "150": -0.17927289009094238,
                        "151": -0.07500059902667999,
                        "152": -0.10712217539548874,
                        "153": -0.08785516768693924,
                        "154": -0.1463630497455597,
                        "155": -0.06281664222478867,
                        "156": -0.02180924452841282,
                        "157": 0.0911087766289711,
                        "158": 0.10139055550098419,
                        "159": 0.15690234303474426,
                        "160": 0.06107620522379875,
                        "161": 0.040430448949337006,
                        "162": -0.06348863989114761,
                        "163": -0.015424106270074844,
                        "164": -0.05659491941332817,
                        "165": 0.12618857622146606,
                        "166": -0.18467940390110016,
                        "167": -0.08765245229005814,
                        "168": -0.09989193826913834,
                        "169": -0.00920462142676115,
                        "170": 0.16931010782718658,
                        "171": -0.025606870651245117,
                        "172": 0.007929439656436443,
                        "173": -0.01696169748902321,
                        "174": 0.09071224182844162,
                        "175": 0.14832313358783722,
                        "176": 0.053412750363349915,
                        "177": 0.0662279799580574,
                        "178": -0.21206967532634735,
                        "179": -0.19693444669246674,
                        "180": -0.19488653540611267,
                        "181": 0.10962821543216705,
                        "182": -0.1232447549700737,
                        "183": -0.0004251235513947904,
                        "184": -0.20447483658790588,
                        "185": -0.039454054087400436,
                        "186": 0.0009395334054715931,
                        "187": 0.12184402346611023,
                        "188": -0.020652862265706062,
                        "189": 0.1080964058637619,
                        "190": -0.18347615003585815,
                        "191": 0.04920091852545738,
                        "192": 0.07576572895050049,
                        "193": 0.06541724503040314,
                        "194": 0.1324177384376526,
                        "195": 0.02131771296262741,
                        "196": -0.1550973355770111,
                        "197": -0.14191824197769165,
                        "198": -0.07895709574222565,
                        "199": -0.1607355773448944,
                        "200": -0.10549204796552658,
                        "201": -0.22645863890647888,
                        "202": 0.08331063389778137,
                        "203": -0.10897164046764374,
                        "204": 0.06284059584140778,
                        "205": -0.16358882188796997,
                        "206": 0.07171804457902908,
                        "207": -0.17213283479213715,
                        "208": 0.09629207104444504,
                        "209": -0.12522605061531067,
                        "210": -0.1390342116355896,
                        "211": -0.002026133006438613,
                        "212": -0.11652243882417679,
                        "213": 0.0729203149676323,
                        "214": 0.13196082413196564,
                        "215": -0.1681765615940094,
                        "216": -0.18445757031440735,
                        "217": 0.08210746198892593,
                        "218": -0.014203001745045185,
                        "219": 0.08482446521520615,
                        "220": 0.09826039522886276,
                        "221": -0.18637141585350037,
                        "222": 0.07024800777435303,
                        "223": 0.12529973685741425,
                        "224": -0.04886719956994057,
                        "225": -0.08763902634382248,
                        "226": -0.06090740114450455,
                        "227": -0.16922041773796082,
                        "228": -0.10649718344211578,
                        "229": -0.0688258558511734,
                        "230": 0.0048636095598340034,
                        "231": 0.07977861911058426,
                        "232": -0.1236574575304985,
                        "233": -0.029266977682709694,
                        "234": 0.06395245343446732,
                        "235": -0.11049455404281616,
                        "236": 0.03324171155691147,
                        "237": -0.05311692878603935,
                        "238": 0.11507156491279602,
                        "239": -0.10195648670196533,
                        "240": -0.025512095540761948,
                        "241": -0.0977974459528923,
                        "242": 0.04440358281135559,
                        "243": 0.1723330020904541,
                        "244": -0.15630711615085602,
                        "245": 0.156650111079216,
                        "246": -0.18486416339874268,
                        "247": -0.09678397327661514,
                        "248": -0.16852857172489166,
                        "249": 0.12637436389923096,
                        "250": -0.045511841773986816,
                        "251": -0.04647728428244591,
                        "252": 0.08025635778903961,
                        "253": 0.12043299525976181,
                        "254": 0.060123346745967865,
                        "255": 0.09145355969667435
                    }
                },
                "5": {
                    "bias": -0.16294065117835999,
                    "weights": {
                        "0": 0.1764506697654724,
                        "1": 0.032802730798721313,
                        "2": -0.06579560786485672,
                        "3": -0.00188456813339144,
                        "4": 0.18263691663742065,
                        "5": 0.2460102140903473,
                        "6": 0.14799867570400238,
                        "7": -0.0012983110500499606,
                        "8": -0.050392236560583115,
                        "9": 0.2329360842704773,
                        "10": -0.07430995255708694,
                        "11": 0.007897851057350636,
                        "12": 0.16479316353797913,
                        "13": -0.05157699063420296,
                        "14": -0.09571076184511185,
                        "15": 0.08528684824705124,
                        "16": -0.16432777047157288,
                        "17": 0.11283426731824875,
                        "18": 0.18707938492298126,
                        "19": -0.10775933414697647,
                        "20": 0.12622229754924774,
                        "21": -0.03966080769896507,
                        "22": 0.11730270832777023,
                        "23": 0.14272917807102203,
                        "24": -0.15704838931560516,
                        "25": -0.0032015203032642603,
                        "26": 0.17938411235809326,
                        "27": -0.05061594396829605,
                        "28": 0.11111176759004593,
                        "29": 0.007782379165291786,
                        "30": 0.04688208922743797,
                        "31": 0.02288907766342163,
                        "32": -0.0833154171705246,
                        "33": 0.05264875292778015,
                        "34": 0.18772630393505096,
                        "35": -0.13909530639648438,
                        "36": 0.22831973433494568,
                        "37": -0.08672227710485458,
                        "38": -0.09187749028205872,
                        "39": 0.03092380240559578,
                        "40": -0.08713594079017639,
                        "41": 0.007057924289256334,
                        "42": 0.06499771028757095,
                        "43": 0.148066446185112,
                        "44": -0.12208989262580872,
                        "45": -0.18782661855220795,
                        "46": 0.027283307164907455,
                        "47": -0.012436405755579472,
                        "48": 0.18116696178913116,
                        "49": -0.1083708330988884,
                        "50": 0.17827573418617249,
                        "51": -0.08781031519174576,
                        "52": 0.23199471831321716,
                        "53": 0.015442630276083946,
                        "54": -0.1865786612033844,
                        "55": -0.10411626100540161,
                        "56": -0.08354061841964722,
                        "57": 0.047581709921360016,
                        "58": -0.06738300621509552,
                        "59": -0.048686545342206955,
                        "60": 0.0041918824426829815,
                        "61": -0.1966594010591507,
                        "62": -0.10954947024583817,
                        "63": -0.048473045229911804,
                        "64": 0.043104372918605804,
                        "65": 0.03102775476872921,
                        "66": 0.01844365894794464,
                        "67": 0.1223088875412941,
                        "68": -0.20201493799686432,
                        "69": -0.21404753625392914,
                        "70": -0.08400113880634308,
                        "71": -0.16180260479450226,
                        "72": 0.06527984887361526,
                        "73": 0.07373464107513428,
                        "74": -0.0055948831140995026,
                        "75": -0.16243259608745575,
                        "76": -0.07464700192213058,
                        "77": 0.1692197322845459,
                        "78": -0.007141168229281902,
                        "79": -0.01812835782766342,
                        "80": 0.16297349333763123,
                        "81": 0.1550261378288269,
                        "82": 0.18412545323371887,
                        "83": 0.14552974700927734,
                        "84": -0.18449270725250244,
                        "85": 0.12329177558422089,
                        "86": -0.14338845014572144,
                        "87": -0.17685231566429138,
                        "88": -0.08607225865125656,
                        "89": 0.02210821583867073,
                        "90": -0.0878833755850792,
                        "91": -0.07939169555902481,
                        "92": 0.15197113156318665,
                        "93": -0.15818460285663605,
                        "94": -0.1444508284330368,
                        "95": -0.09929952025413513,
                        "96": 0.0361311100423336,
                        "97": 0.1369834989309311,
                        "98": -0.0568624846637249,
                        "99": 0.15772798657417297,
                        "100": -0.11638902127742767,
                        "101": 0.11145274341106415,
                        "102": -0.2019708752632141,
                        "103": -0.0339815691113472,
                        "104": 0.04833932965993881,
                        "105": -0.08218410611152649,
                        "106": 0.14043162763118744,
                        "107": -0.1780591756105423,
                        "108": 0.17219895124435425,
                        "109": 0.06173302233219147,
                        "110": -0.18247725069522858,
                        "111": 0.09862043708562851,
                        "112": 0.0122626181691885,
                        "113": -0.14083443582057953,
                        "114": -0.0575936883687973,
                        "115": -0.1047300174832344,
                        "116": 0.0022454168647527695,
                        "117": 0.0756869688630104,
                        "118": -0.04111062362790108,
                        "119": -0.12525634467601776,
                        "120": 0.011575736105442047,
                        "121": -0.1395474225282669,
                        "122": -0.09959915280342102,
                        "123": -0.03805040568113327,
                        "124": -0.041606355458498,
                        "125": -0.1809457391500473,
                        "126": -0.10753321647644043,
                        "127": -0.17722593247890472,
                        "128": 0.14267195761203766,
                        "129": 0.07738349586725235,
                        "130": 0.04586579650640488,
                        "131": 0.24172936379909515,
                        "132": -0.1367117464542389,
                        "133": 0.160247802734375,
                        "134": 0.13447228074073792,
                        "135": 0.1622680425643921,
                        "136": 0.11142296344041824,
                        "137": 0.07415183633565903,
                        "138": -0.08247808367013931,
                        "139": 0.07161290943622589,
                        "140": 0.10330983251333237,
                        "141": 0.23321543633937836,
                        "142": 0.0762094110250473,
                        "143": 0.16162477433681488,
                        "144": -0.09809526056051254,
                        "145": -0.1704748272895813,
                        "146": -0.17780187726020813,
                        "147": -0.08688719570636749,
                        "148": 0.0983465164899826,
                        "149": 0.015381533652544022,
                        "150": 0.16307997703552246,
                        "151": -0.05297637730836868,
                        "152": -0.20767629146575928,
                        "153": -0.1905197948217392,
                        "154": 0.08896148949861526,
                        "155": 0.08772304654121399,
                        "156": 0.1614072471857071,
                        "157": 0.18087005615234375,
                        "158": 0.14196746051311493,
                        "159": -0.06784702837467194,
                        "160": 0.134188711643219,
                        "161": -0.003696309868246317,
                        "162": -0.04582997411489487,
                        "163": 0.06416267156600952,
                        "164": -0.12104830890893936,
                        "165": -0.03392036631703377,
                        "166": -0.221258282661438,
                        "167": 0.01617373526096344,
                        "168": -0.04638337716460228,
                        "169": 0.03367580845952034,
                        "170": 0.15477530658245087,
                        "171": -0.19273419678211212,
                        "172": -0.040220633149147034,
                        "173": 0.006496817339211702,
                        "174": -0.05437951162457466,
                        "175": 0.11690524965524673,
                        "176": -0.034290339797735214,
                        "177": -0.20628929138183594,
                        "178": -0.18685510754585266,
                        "179": 0.027268605306744576,
                        "180": 0.13985054194927216,
                        "181": -0.03562968969345093,
                        "182": 0.010325631126761436,
                        "183": -0.05226561799645424,
                        "184": 0.011653311550617218,
                        "185": -0.12046000361442566,
                        "186": -0.04924972727894783,
                        "187": 0.1743232011795044,
                        "188": 0.17621397972106934,
                        "189": -0.1866506040096283,
                        "190": -0.09797048568725586,
                        "191": -0.0799146369099617,
                        "192": -0.1800142079591751,
                        "193": 0.09986255317926407,
                        "194": 0.023823346942663193,
                        "195": -0.24475650489330292,
                        "196": -0.07658639550209045,
                        "197": -0.09470509737730026,
                        "198": 0.03069118782877922,
                        "199": 0.13069801032543182,
                        "200": -0.1481730192899704,
                        "201": 0.0594429075717926,
                        "202": 0.021198226138949394,
                        "203": -0.07223387062549591,
                        "204": 0.0346931628882885,
                        "205": 0.015970058739185333,
                        "206": -0.2022908478975296,
                        "207": 0.1432414948940277,
                        "208": -0.142745241522789,
                        "209": 0.10272308439016342,
                        "210": 0.013271020725369453,
                        "211": -0.12241881340742111,
                        "212": -0.08295146375894547,
                        "213": -0.21602433919906616,
                        "214": 0.009903088212013245,
                        "215": 0.07230940461158752,
                        "216": -0.09507356584072113,
                        "217": -0.08197309076786041,
                        "218": 0.20154976844787598,
                        "219": 0.1492815762758255,
                        "220": -0.09613773226737976,
                        "221": 0.10438065230846405,
                        "222": -0.11932700872421265,
                        "223": -0.20129087567329407,
                        "224": -0.24214160442352295,
                        "225": -0.2119755744934082,
                        "226": -0.01250308845192194,
                        "227": -0.155279740691185,
                        "228": 0.06233790144324303,
                        "229": -0.1006058007478714,
                        "230": 0.0020787047687917948,
                        "231": -0.09374295175075531,
                        "232": -0.09295002371072769,
                        "233": -0.05709473043680191,
                        "234": 0.08019794523715973,
                        "235": 0.022837655618786812,
                        "236": 0.21616674959659576,
                        "237": -0.033767227083444595,
                        "238": -0.18676277995109558,
                        "239": -0.10348997265100479,
                        "240": -0.14503705501556396,
                        "241": 0.12694618105888367,
                        "242": -0.20916087925434113,
                        "243": -0.03345679119229317,
                        "244": 0.11790989339351654,
                        "245": -0.17352509498596191,
                        "246": -0.16507576406002045,
                        "247": -0.10936856269836426,
                        "248": 0.09531857073307037,
                        "249": -0.09801191836595535,
                        "250": -0.06622680276632309,
                        "251": -0.14706741273403168,
                        "252": -0.07823449373245239,
                        "253": -0.011597023345530033,
                        "254": 0.01641564816236496,
                        "255": 0.0007379447924904525
                    }
                },
                "6": {
                    "bias": -0.12850885093212128,
                    "weights": {
                        "0": -0.002772025065496564,
                        "1": -0.16923043131828308,
                        "2": -0.006876638624817133,
                        "3": 0.034644655883312225,
                        "4": -0.1272590458393097,
                        "5": 0.12960602343082428,
                        "6": -0.24295882880687714,
                        "7": -0.026713509112596512,
                        "8": -0.009298482909798622,
                        "9": 0.04500120133161545,
                        "10": 0.1339103728532791,
                        "11": 0.03862354904413223,
                        "12": -0.14941351115703583,
                        "13": -0.14680886268615723,
                        "14": -0.17997892200946808,
                        "15": -0.09064073860645294,
                        "16": -0.12310921400785446,
                        "17": -0.005914053414016962,
                        "18": -0.004140242002904415,
                        "19": -0.19940213859081268,
                        "20": 0.08637578040361404,
                        "21": -0.036595359444618225,
                        "22": 0.007882287725806236,
                        "23": -0.13608670234680176,
                        "24": -0.09709560871124268,
                        "25": 0.07775473594665527,
                        "26": 0.1858014613389969,
                        "27": 0.17420196533203125,
                        "28": -0.199772447347641,
                        "29": -0.04002588987350464,
                        "30": 0.18194209039211273,
                        "31": -0.058114197105169296,
                        "32": -0.18414242565631866,
                        "33": 0.04931395500898361,
                        "34": -0.11890443414449692,
                        "35": 0.13459856808185577,
                        "36": -0.06284596025943756,
                        "37": 0.09934225678443909,
                        "38": -0.0427110381424427,
                        "39": -0.1199788749217987,
                        "40": -0.14464497566223145,
                        "41": 0.08901287615299225,
                        "42": -0.17031876742839813,
                        "43": -0.09183800965547562,
                        "44": 0.12747788429260254,
                        "45": -0.16887858510017395,
                        "46": -0.18938450515270233,
                        "47": 0.13165324926376343,
                        "48": -0.24641312658786774,
                        "49": 0.050704896450042725,
                        "50": 0.1420661211013794,
                        "51": -0.13677772879600525,
                        "52": 0.003682276699692011,
                        "53": 0.17916430532932281,
                        "54": -0.13771478831768036,
                        "55": 0.041580621153116226,
                        "56": 0.0708521232008934,
                        "57": -0.15163525938987732,
                        "58": -0.07586616277694702,
                        "59": -0.13824670016765594,
                        "60": -0.04433516785502434,
                        "61": 0.015199140645563602,
                        "62": -0.04075495898723602,
                        "63": -0.10954082757234573,
                        "64": 0.055603381246328354,
                        "65": 0.12337985634803772,
                        "66": -0.004589310381561518,
                        "67": 0.04324212297797203,
                        "68": -0.12514576315879822,
                        "69": 0.15218497812747955,
                        "70": 0.08632316440343857,
                        "71": -0.030141934752464294,
                        "72": 0.04269269481301308,
                        "73": -0.09515827894210815,
                        "74": 0.18912740051746368,
                        "75": 0.12167684733867645,
                        "76": 0.06251958012580872,
                        "77": -0.03608366847038269,
                        "78": 0.05607452616095543,
                        "79": 0.06432338058948517,
                        "80": -0.036532558500766754,
                        "81": -0.05235353484749794,
                        "82": -0.04832835868000984,
                        "83": 0.0535026378929615,
                        "84": 0.15016017854213715,
                        "85": -0.2073652595281601,
                        "86": -0.1077306941151619,
                        "87": 0.15887269377708435,
                        "88": 0.13423827290534973,
                        "89": -0.18102514743804932,
                        "90": 0.06449512392282486,
                        "91": -0.05528269335627556,
                        "92": -0.13779586553573608,
                        "93": -0.04789876937866211,
                        "94": 0.15553759038448334,
                        "95": -0.16420862078666687,
                        "96": -0.12862524390220642,
                        "97": 0.05299369618296623,
                        "98": -0.2289746254682541,
                        "99": 0.13424228131771088,
                        "100": -0.1296052187681198,
                        "101": 0.03733552247285843,
                        "102": -0.1494757980108261,
                        "103": 0.059983283281326294,
                        "104": -0.01897970587015152,
                        "105": -0.01065125036984682,
                        "106": 0.059081703424453735,
                        "107": -0.05737463757395744,
                        "108": -0.0749741941690445,
                        "109": -0.19041937589645386,
                        "110": 0.03919586166739464,
                        "111": -0.2341236025094986,
                        "112": -0.10903936624526978,
                        "113": 0.11036454886198044,
                        "114": -0.09050991386175156,
                        "115": -0.032561592757701874,
                        "116": 0.1477276086807251,
                        "117": 0.11381176114082336,
                        "118": -0.11715042591094971,
                        "119": 0.024277428165078163,
                        "120": -0.004452056717127562,
                        "121": 0.13361436128616333,
                        "122": 0.07796976715326309,
                        "123": -0.1784793734550476,
                        "124": 0.07495376467704773,
                        "125": -0.18283890187740326,
                        "126": -0.2227848321199417,
                        "127": -0.22798475623130798,
                        "128": -0.22450803220272064,
                        "129": 0.10812333226203918,
                        "130": -0.0895293727517128,
                        "131": -0.1088477149605751,
                        "132": -0.03332666680216789,
                        "133": 0.07785595208406448,
                        "134": 0.08205265551805496,
                        "135": -0.20730620622634888,
                        "136": 0.05471329018473625,
                        "137": -0.04159422963857651,
                        "138": -0.1738530993461609,
                        "139": 0.05217396840453148,
                        "140": 0.06484393775463104,
                        "141": -0.06808393448591232,
                        "142": -0.20242446660995483,
                        "143": -0.17896731197834015,
                        "144": -0.14879022538661957,
                        "145": -0.0033803072292357683,
                        "146": 0.000783515686634928,
                        "147": -0.09924984723329544,
                        "148": 0.08551958948373795,
                        "149": -0.1591060757637024,
                        "150": 0.1519145667552948,
                        "151": -0.1900263875722885,
                        "152": 0.1153663918375969,
                        "153": -0.0938553586602211,
                        "154": -0.0808643102645874,
                        "155": 0.0183193888515234,
                        "156": 0.19281083345413208,
                        "157": 0.04682622477412224,
                        "158": 0.13466009497642517,
                        "159": -0.05464513227343559,
                        "160": -0.12859255075454712,
                        "161": -0.19017811119556427,
                        "162": -0.18645334243774414,
                        "163": -0.11950694769620895,
                        "164": 0.08099127560853958,
                        "165": 0.0405299998819828,
                        "166": -0.08466973900794983,
                        "167": 0.17403709888458252,
                        "168": 0.048044122755527496,
                        "169": -0.1715003401041031,
                        "170": 0.17278838157653809,
                        "171": -0.1647588461637497,
                        "172": 0.04205828905105591,
                        "173": -0.04444679990410805,
                        "174": -0.049944594502449036,
                        "175": 0.03581313416361809,
                        "176": 0.08968360722064972,
                        "177": 0.03279205784201622,
                        "178": -0.1579546183347702,
                        "179": 0.1476231962442398,
                        "180": 0.16579069197177887,
                        "181": 0.17065486311912537,
                        "182": -0.09282200038433075,
                        "183": 0.010471497662365437,
                        "184": 0.09469763189554214,
                        "185": -0.10957608371973038,
                        "186": 0.16205725073814392,
                        "187": 0.009578990750014782,
                        "188": -0.040545132011175156,
                        "189": -0.15150506794452667,
                        "190": -0.20872962474822998,
                        "191": -0.12046365439891815,
                        "192": 0.09298457950353622,
                        "193": 0.028789611533284187,
                        "194": 0.0958525687456131,
                        "195": -0.03396547585725784,
                        "196": -0.10081467032432556,
                        "197": 0.1439410299062729,
                        "198": -0.12246354669332504,
                        "199": -0.07045892626047134,
                        "200": -0.19536396861076355,
                        "201": 0.008541441522538662,
                        "202": 0.07097624987363815,
                        "203": 0.17598827183246613,
                        "204": -0.19193509221076965,
                        "205": -0.0328291580080986,
                        "206": -0.011272876523435116,
                        "207": -0.015486788004636765,
                        "208": -0.011346948333084583,
                        "209": -0.08217987418174744,
                        "210": -0.15196052193641663,
                        "211": 0.13753241300582886,
                        "212": 0.13292953372001648,
                        "213": 0.07852661609649658,
                        "214": -0.20037543773651123,
                        "215": -0.05109906196594238,
                        "216": -0.11066126078367233,
                        "217": 0.14765098690986633,
                        "218": -0.16639326512813568,
