{
    "info": {
        "ai": {
            "config": {
                "hiddenLayers": [
                    128,
                    128
                ],
                "activation": "tanh"
            },
            "training": {
                "iterations": 500,
                "errorThresh": 0.0001,
                "learningRate": 0.001,
                "momentum": 0.1
            }
        },
        "id": "2accd055efafb130febdfc0c2da33e06",
        "dimension": [
            16,
            16
        ],
        "channel": "red",
        "colorspace": "b-w",
        "blackWhite": true
    },
    "data": {
        "sizes": [
            256,
            128,
            128,
            10
        ],
        "layers": [
            {
                "0": {},
                "1": {},
                "2": {},
                "3": {},
                "4": {},
                "5": {},
                "6": {},
                "7": {},
                "8": {},
                "9": {},
                "10": {},
                "11": {},
                "12": {},
                "13": {},
                "14": {},
                "15": {},
                "16": {},
                "17": {},
                "18": {},
                "19": {},
                "20": {},
                "21": {},
                "22": {},
                "23": {},
                "24": {},
                "25": {},
                "26": {},
                "27": {},
                "28": {},
                "29": {},
                "30": {},
                "31": {},
                "32": {},
                "33": {},
                "34": {},
                "35": {},
                "36": {},
                "37": {},
                "38": {},
                "39": {},
                "40": {},
                "41": {},
                "42": {},
                "43": {},
                "44": {},
                "45": {},
                "46": {},
                "47": {},
                "48": {},
                "49": {},
                "50": {},
                "51": {},
                "52": {},
                "53": {},
                "54": {},
                "55": {},
                "56": {},
                "57": {},
                "58": {},
                "59": {},
                "60": {},
                "61": {},
                "62": {},
                "63": {},
                "64": {},
                "65": {},
                "66": {},
                "67": {},
                "68": {},
                "69": {},
                "70": {},
                "71": {},
                "72": {},
                "73": {},
                "74": {},
                "75": {},
                "76": {},
                "77": {},
                "78": {},
                "79": {},
                "80": {},
                "81": {},
                "82": {},
                "83": {},
                "84": {},
                "85": {},
                "86": {},
                "87": {},
                "88": {},
                "89": {},
                "90": {},
                "91": {},
                "92": {},
                "93": {},
                "94": {},
                "95": {},
                "96": {},
                "97": {},
                "98": {},
                "99": {},
                "100": {},
                "101": {},
                "102": {},
                "103": {},
                "104": {},
                "105": {},
                "106": {},
                "107": {},
                "108": {},
                "109": {},
                "110": {},
                "111": {},
                "112": {},
                "113": {},
                "114": {},
                "115": {},
                "116": {},
                "117": {},
                "118": {},
                "119": {},
                "120": {},
                "121": {},
                "122": {},
                "123": {},
                "124": {},
                "125": {},
                "126": {},
                "127": {},
                "128": {},
                "129": {},
                "130": {},
                "131": {},
                "132": {},
                "133": {},
                "134": {},
                "135": {},
                "136": {},
                "137": {},
                "138": {},
                "139": {},
                "140": {},
                "141": {},
                "142": {},
                "143": {},
                "144": {},
                "145": {},
                "146": {},
                "147": {},
                "148": {},
                "149": {},
                "150": {},
                "151": {},
                "152": {},
                "153": {},
                "154": {},
                "155": {},
                "156": {},
                "157": {},
                "158": {},
                "159": {},
                "160": {},
                "161": {},
                "162": {},
                "163": {},
                "164": {},
                "165": {},
                "166": {},
                "167": {},
                "168": {},
                "169": {},
                "170": {},
                "171": {},
                "172": {},
                "173": {},
                "174": {},
                "175": {},
                "176": {},
                "177": {},
                "178": {},
                "179": {},
                "180": {},
                "181": {},
                "182": {},
                "183": {},
                "184": {},
                "185": {},
                "186": {},
                "187": {},
                "188": {},
                "189": {},
                "190": {},
                "191": {},
                "192": {},
                "193": {},
                "194": {},
                "195": {},
                "196": {},
                "197": {},
                "198": {},
                "199": {},
                "200": {},
                "201": {},
                "202": {},
                "203": {},
                "204": {},
                "205": {},
                "206": {},
                "207": {},
                "208": {},
                "209": {},
                "210": {},
                "211": {},
                "212": {},
                "213": {},
                "214": {},
                "215": {},
                "216": {},
                "217": {},
                "218": {},
                "219": {},
                "220": {},
                "221": {},
                "222": {},
                "223": {},
                "224": {},
                "225": {},
                "226": {},
                "227": {},
                "228": {},
                "229": {},
                "230": {},
                "231": {},
                "232": {},
                "233": {},
                "234": {},
                "235": {},
                "236": {},
                "237": {},
                "238": {},
                "239": {},
                "240": {},
                "241": {},
                "242": {},
                "243": {},
                "244": {},
                "245": {},
                "246": {},
                "247": {},
                "248": {},
                "249": {},
                "250": {},
                "251": {},
                "252": {},
                "253": {},
                "254": {},
                "255": {}
            },
            {
                "0": {
                    "bias": 0.04878869280219078,
                    "weights": {
                        "0": 0.1888083517551422,
                        "1": 0.09856342524290085,
                        "2": -0.062116481363773346,
                        "3": 0.1547834277153015,
                        "4": 0.14318272471427917,
                        "5": -0.12720634043216705,
                        "6": 0.16309119760990143,
                        "7": 0.14511248469352722,
                        "8": 0.15592655539512634,
                        "9": 0.1058952733874321,
                        "10": 0.14996427297592163,
                        "11": -0.10927871614694595,
                        "12": 0.06530028581619263,
                        "13": -0.17971201241016388,
                        "14": 0.02869591675698757,
                        "15": -0.06269709765911102,
                        "16": -0.039292480796575546,
                        "17": -0.04077308624982834,
                        "18": 0.052206605672836304,
                        "19": 0.13867223262786865,
                        "20": -0.16428527235984802,
                        "21": -0.17727023363113403,
                        "22": -0.025314535945653915,
                        "23": -0.1656396985054016,
                        "24": 0.12430892139673233,
                        "25": -0.10245007276535034,
                        "26": -0.1454581618309021,
                        "27": -0.18533149361610413,
                        "28": 0.0075546554289758205,
                        "29": 0.018508007749915123,
                        "30": -0.0818004161119461,
                        "31": -0.05527127906680107,
                        "32": 0.019933518022298813,
                        "33": -0.1626279652118683,
                        "34": -0.0639757290482521,
                        "35": -0.1242961585521698,
                        "36": -0.004701673984527588,
                        "37": 0.02762083150446415,
                        "38": 0.0813315287232399,
                        "39": -0.0013025993248447776,
                        "40": 0.12657243013381958,
                        "41": 0.1829686164855957,
                        "42": 0.074570432305336,
                        "43": -0.021961254999041557,
                        "44": 0.15160274505615234,
                        "45": 0.02900039218366146,
                        "46": 0.12665511667728424,
                        "47": 0.05047009140253067,
                        "48": 0.07568524777889252,
                        "49": 0.18579962849617004,
                        "50": -0.08816570788621902,
                        "51": -0.09289772808551788,
                        "52": 0.02286396361887455,
                        "53": -0.12306568026542664,
                        "54": 0.09482652693986893,
                        "55": 0.12811973690986633,
                        "56": -0.10308896750211716,
                        "57": 0.12097647041082382,
                        "58": -0.13955876231193542,
                        "59": -0.0919858068227768,
                        "60": -0.0057832649908959866,
                        "61": 0.03585842251777649,
                        "62": 0.10273845493793488,
                        "63": 0.15035563707351685,
                        "64": 0.06594207137823105,
                        "65": -0.1014738455414772,
                        "66": -0.036919984966516495,
                        "67": -0.057101961225271225,
                        "68": 0.14752434194087982,
                        "69": 0.17386770248413086,
                        "70": 0.14041630923748016,
                        "71": -0.11057617515325546,
                        "72": 0.19536451995372772,
                        "73": 0.012324811890721321,
                        "74": -0.18054251372814178,
                        "75": 0.09481433779001236,
                        "76": -0.008435585536062717,
                        "77": -0.13254593312740326,
                        "78": -0.08207599073648453,
                        "79": 0.12861870229244232,
                        "80": -0.1145600825548172,
                        "81": 0.18757347762584686,
                        "82": 0.1273987591266632,
                        "83": 0.08086761832237244,
                        "84": -0.0678548738360405,
                        "85": -0.1734911948442459,
                        "86": -0.06909134238958359,
                        "87": 0.08584573119878769,
                        "88": -0.004237492103129625,
                        "89": 0.09779629856348038,
                        "90": -0.12587203085422516,
                        "91": -0.16998903453350067,
                        "92": -0.11193832010030746,
                        "93": 0.09856826066970825,
                        "94": -0.10834383964538574,
                        "95": 0.14193955063819885,
                        "96": 0.16852501034736633,
                        "97": -0.004614762496203184,
                        "98": -0.12840072810649872,
                        "99": 0.09538839757442474,
                        "100": 0.053604766726493835,
                        "101": -0.18551868200302124,
                        "102": 0.07099711149930954,
                        "103": -0.18403621017932892,
                        "104": 0.04184157773852348,
                        "105": 0.19446171820163727,
                        "106": -0.07665713131427765,
                        "107": 0.1741505116224289,
                        "108": -0.17884601652622223,
                        "109": -0.09387414157390594,
                        "110": -0.14764367043972015,
                        "111": 0.14088772237300873,
                        "112": 0.1662481129169464,
                        "113": 0.0036877107340842485,
                        "114": -0.13022013008594513,
                        "115": -0.1006840392947197,
                        "116": -0.15195679664611816,
                        "117": 0.07952932268381119,
                        "118": 0.029024338349699974,
                        "119": -0.19491618871688843,
                        "120": -0.14041097462177277,
                        "121": 0.07276031374931335,
                        "122": -0.1188083067536354,
                        "123": 0.1087653860449791,
                        "124": -0.052443377673625946,
                        "125": 0.13612909615039825,
                        "126": 0.11597756296396255,
                        "127": 0.07237712293863297,
                        "128": 0.06311789155006409,
                        "129": -0.040148649364709854,
                        "130": -0.06365171819925308,
                        "131": -0.10572350770235062,
                        "132": 0.18579858541488647,
                        "133": 0.18470054864883423,
                        "134": 0.1881559044122696,
                        "135": 0.034534648060798645,
                        "136": -0.11899980157613754,
                        "137": -0.15141232311725616,
                        "138": 0.1261143535375595,
                        "139": 0.1735035628080368,
                        "140": 0.030913375318050385,
                        "141": -0.17209528386592865,
                        "142": -0.12727507948875427,
                        "143": -0.031667761504650116,
                        "144": -0.12463454902172089,
                        "145": -0.13666124641895294,
                        "146": 0.19893775880336761,
                        "147": 0.05988219752907753,
                        "148": -0.015290891751646996,
                        "149": -0.08546887338161469,
                        "150": 0.16002924740314484,
                        "151": -0.012373963370919228,
                        "152": 0.12803028523921967,
                        "153": 0.007480548229068518,
                        "154": -0.1467180997133255,
                        "155": 0.10188725590705872,
                        "156": -0.02144513837993145,
                        "157": 0.07061109691858292,
                        "158": -0.0001891535212052986,
                        "159": -0.10120569914579391,
                        "160": -0.18255425989627838,
                        "161": 0.16672754287719727,
                        "162": 0.007006985135376453,
                        "163": 0.1811213493347168,
                        "164": 0.14841027557849884,
                        "165": -0.00017075228970497847,
                        "166": -0.1283630132675171,
                        "167": 0.06303711235523224,
                        "168": 0.19910068809986115,
                        "169": -0.173970028758049,
                        "170": -0.1551968902349472,
                        "171": 0.1976054310798645,
                        "172": 0.04927368834614754,
                        "173": -0.15839071571826935,
                        "174": 0.0534837432205677,
                        "175": 0.04206890985369682,
                        "176": -0.19393913447856903,
                        "177": -0.11136242747306824,
                        "178": 0.06498273462057114,
                        "179": 0.18607647716999054,
                        "180": 0.0020882051903754473,
                        "181": 0.14146670699119568,
                        "182": -0.1688459813594818,
                        "183": 0.04381383955478668,
                        "184": -0.0947844609618187,
                        "185": 0.19861096143722534,
                        "186": 0.18678168952465057,
                        "187": 0.07723847031593323,
                        "188": 0.007241921965032816,
                        "189": 0.20115959644317627,
                        "190": -0.12016134709119797,
                        "191": -0.06271032989025116,
                        "192": 0.1732911616563797,
                        "193": 0.11450395733118057,
                        "194": -0.03925766795873642,
                        "195": -0.0015052853850647807,
                        "196": 0.18141528964042664,
                        "197": 0.1636313647031784,
                        "198": 0.09647021442651749,
                        "199": 0.09495396912097931,
                        "200": -0.09226689487695694,
                        "201": -0.1399288922548294,
                        "202": 0.05004163086414337,
                        "203": -0.07266876101493835,
                        "204": 0.15720747411251068,
                        "205": -0.00898282416164875,
                        "206": 0.023061314597725868,
                        "207": -0.14114835858345032,
                        "208": 0.015361042693257332,
                        "209": -0.04683174192905426,
                        "210": 0.15883928537368774,
                        "211": -0.1373872011899948,
                        "212": -0.10123797506093979,
                        "213": 0.17031389474868774,
                        "214": 0.1716984510421753,
                        "215": -0.0977460965514183,
                        "216": -0.14105752110481262,
                        "217": 0.19282275438308716,
                        "218": 0.06855741143226624,
                        "219": -0.19075916707515717,
                        "220": 0.14303047955036163,
                        "221": 0.14191004633903503,
                        "222": 0.13165754079818726,
                        "223": -0.14335303008556366,
                        "224": 0.002580630127340555,
                        "225": 0.15210945904254913,
                        "226": -0.048485852777957916,
                        "227": -0.05598445609211922,
                        "228": 0.11366616934537888,
                        "229": 0.10028530657291412,
                        "230": 0.0801939070224762,
                        "231": -0.08826863020658493,
                        "232": 0.08136097341775894,
                        "233": 0.11549299955368042,
                        "234": -0.17636440694332123,
                        "235": 0.20016852021217346,
                        "236": 0.19077594578266144,
                        "237": -0.029595786705613136,
                        "238": 0.07412876933813095,
                        "239": -0.0107166338711977,
                        "240": 0.09500184655189514,
                        "241": 0.18938851356506348,
                        "242": -0.15284325182437897,
                        "243": 0.04973825812339783,
                        "244": 0.1569710075855255,
                        "245": 0.11800917237997055,
                        "246": 0.1450442373752594,
                        "247": 0.10000529140233994,
                        "248": 0.060424529016017914,
                        "249": 0.04949847236275673,
                        "250": -0.1139899343252182,
                        "251": -0.07015813142061234,
                        "252": 0.023365970700979233,
                        "253": -0.06146708130836487,
                        "254": 0.12321093678474426,
                        "255": 0.043146464973688126
                    }
                },
                "1": {
                    "bias": -0.1805659830570221,
                    "weights": {
                        "0": -0.1902034729719162,
                        "1": 0.18774643540382385,
                        "2": 0.019289782270789146,
                        "3": -0.10205919295549393,
                        "4": -0.07082507759332657,
                        "5": -0.13301308453083038,
                        "6": -0.10774596035480499,
                        "7": -0.13711601495742798,
                        "8": 0.06925758719444275,
                        "9": 0.15690100193023682,
                        "10": -0.09442075341939926,
                        "11": -0.2117943912744522,
                        "12": 0.10482010245323181,
                        "13": 0.0070199682377278805,
                        "14": 0.1252603530883789,
                        "15": 0.11642919480800629,
                        "16": -0.0687127634882927,
                        "17": -0.17404213547706604,
                        "18": 0.04063279926776886,
                        "19": 0.07885071635246277,
                        "20": -0.16408130526542664,
                        "21": -0.08840911090373993,
                        "22": -0.07852663099765778,
                        "23": -0.02099131979048252,
                        "24": 0.16827337443828583,
                        "25": -0.17177754640579224,
                        "26": 0.0039278119802474976,
                        "27": -0.15989840030670166,
                        "28": -0.11279044300317764,
                        "29": 0.00312511483207345,
                        "30": -0.04563545435667038,
                        "31": -0.057338062673807144,
                        "32": 0.09367892146110535,
                        "33": 0.18129923939704895,
                        "34": 0.07500860095024109,
                        "35": 0.04958375543355942,
                        "36": -0.07501593232154846,
                        "37": -0.11962971836328506,
                        "38": -0.021847538650035858,
                        "39": -0.10831326991319656,
                        "40": 0.13943807780742645,
                        "41": 0.13264566659927368,
                        "42": 0.16647528111934662,
                        "43": -0.07345279306173325,
                        "44": 0.12157468497753143,
                        "45": 0.0290851928293705,
                        "46": -0.16155140101909637,
                        "47": 0.17674706876277924,
                        "48": -0.12097137421369553,
                        "49": 0.04626656323671341,
                        "50": -0.04726839065551758,
                        "51": 0.07583197206258774,
                        "52": 0.010856261476874352,
                        "53": -0.1799020767211914,
                        "54": -0.005636123940348625,
                        "55": 0.09569022804498672,
                        "56": 0.14140614867210388,
                        "57": -0.0635080337524414,
                        "58": 0.11601431667804718,
                        "59": -0.08115914463996887,
                        "60": 0.046829283237457275,
                        "61": 0.21102601289749146,
                        "62": -0.1869242638349533,
                        "63": 0.09998568147420883,
                        "64": -0.17284873127937317,
                        "65": -0.1476709395647049,
                        "66": -0.17238226532936096,
                        "67": -0.13065291941165924,
                        "68": -0.15169678628444672,
                        "69": 0.04140246659517288,
                        "70": 0.162432000041008,
                        "71": 0.08124488592147827,
                        "72": 0.06955108791589737,
                        "73": -0.011310970410704613,
                        "74": 0.1869705468416214,
                        "75": -0.09182992577552795,
                        "76": 0.03563804179430008,
                        "77": -0.013413136824965477,
                        "78": -0.008532028645277023,
                        "79": -0.0627983883023262,
                        "80": 0.1548820585012436,
                        "81": -0.07390250265598297,
                        "82": -0.06270173192024231,
                        "83": 0.007027416955679655,
                        "84": -0.07606450468301773,
                        "85": 0.0449494905769825,
                        "86": 0.15920832753181458,
                        "87": 0.20025096833705902,
                        "88": -0.02945750765502453,
                        "89": -0.16661642491817474,
                        "90": -0.041601553559303284,
                        "91": -0.10248453170061111,
                        "92": 0.20115764439105988,
                        "93": 0.09515874087810516,
                        "94": -0.09786871820688248,
                        "95": 0.00019442384655121714,
                        "96": 0.1574418991804123,
                        "97": 0.0659283772110939,
                        "98": -0.0577920600771904,
                        "99": 0.1479833424091339,
                        "100": 0.10073630511760712,
                        "101": -0.015375777147710323,
                        "102": 0.0391884483397007,
                        "103": 0.047812096774578094,
                        "104": 0.07051306962966919,
                        "105": 0.17681056261062622,
                        "106": -0.1395961344242096,
                        "107": 0.05608667433261871,
                        "108": -0.14943693578243256,
                        "109": 0.013819484040141106,
                        "110": 0.0956481322646141,
                        "111": -0.15949571132659912,
                        "112": -0.17002420127391815,
                        "113": -0.03527840971946716,
                        "114": -0.13633966445922852,
                        "115": 0.17687904834747314,
                        "116": -0.11862540990114212,
                        "117": -0.05031847953796387,
                        "118": -0.172039195895195,
                        "119": -0.20480133593082428,
                        "120": 0.018284771591424942,
                        "121": -0.0751536563038826,
                        "122": -0.01219649612903595,
                        "123": -0.04046366736292839,
                        "124": 0.08531246334314346,
                        "125": -0.11838848143815994,
                        "126": -0.1395239531993866,
                        "127": -0.1572028398513794,
                        "128": 0.05139186233282089,
                        "129": -0.12975698709487915,
                        "130": 0.005343542899936438,
                        "131": 0.1499149054288864,
                        "132": -0.06590153276920319,
                        "133": -0.1379508078098297,
                        "134": -0.006923466920852661,
                        "135": -0.19882705807685852,
                        "136": 0.13118977844715118,
                        "137": 0.1010657474398613,
                        "138": -0.1444033533334732,
                        "139": 0.13150033354759216,
                        "140": 0.1037919670343399,
                        "141": -0.07281249761581421,
                        "142": -0.09617433696985245,
                        "143": -0.10836449265480042,
                        "144": -0.08761321753263474,
                        "145": 0.2209269404411316,
                        "146": -0.0396445132791996,
                        "147": -0.06324466317892075,
                        "148": -0.03387906774878502,
                        "149": -0.15001684427261353,
                        "150": -0.10345514863729477,
                        "151": 0.13761606812477112,
                        "152": -0.002200689632445574,
                        "153": -0.043403372168540955,
                        "154": -0.0008450633613392711,
                        "155": -0.08206098526716232,
                        "156": 0.12302148342132568,
                        "157": -0.059899888932704926,
                        "158": -0.13539616763591766,
                        "159": -0.09675490856170654,
                        "160": -0.07672667503356934,
                        "161": -0.09990186989307404,
                        "162": 0.07108359783887863,
                        "163": 0.15704290568828583,
                        "164": 0.018805284053087234,
                        "165": -0.07857561856508255,
                        "166": -0.11991465836763382,
                        "167": -0.0658632218837738,
                        "168": 0.17557182908058167,
                        "169": -0.13775745034217834,
                        "170": -0.053183477371931076,
                        "171": -0.07601954787969589,
                        "172": -0.09166927635669708,
                        "173": -0.10125715285539627,
                        "174": 0.12568585574626923,
                        "175": -0.1788383573293686,
                        "176": 0.16601191461086273,
                        "177": 0.07154997438192368,
                        "178": 0.12028832733631134,
                        "179": 0.10330218821763992,
                        "180": -0.02019566483795643,
                        "181": 0.09670647233724594,
                        "182": -0.13849975168704987,
                        "183": 0.14826993644237518,
                        "184": -0.17631809413433075,
                        "185": 0.10606878995895386,
                        "186": 0.19467583298683167,
                        "187": -0.14430560171604156,
                        "188": 0.14891748130321503,
                        "189": 0.12911546230316162,
                        "190": -0.04550628364086151,
                        "191": -0.0854836031794548,
                        "192": 0.21007947623729706,
                        "193": 0.1529020220041275,
                        "194": -0.1473717838525772,
                        "195": 0.04727116972208023,
                        "196": -0.03939170017838478,
                        "197": -0.13073302805423737,
                        "198": 0.19871938228607178,
                        "199": 0.08658333867788315,
                        "200": -0.051531147211790085,
                        "201": 0.11416501551866531,
                        "202": -0.07973510026931763,
                        "203": 0.07006378471851349,
                        "204": -0.12400666624307632,
                        "205": 0.11651669442653656,
                        "206": -0.12977392971515656,
                        "207": -0.19428667426109314,
                        "208": 0.05391393601894379,
                        "209": -0.1228698343038559,
                        "210": -0.12118121236562729,
                        "211": -0.13470415771007538,
                        "212": 0.10477407276630402,
                        "213": -0.08059141039848328,
                        "214": -0.10336129367351532,
                        "215": -0.0778353363275528,
                        "216": -0.020112697035074234,
                        "217": 0.12634731829166412,
                        "218": 0.03272252902388573,
                        "219": 0.18103782832622528,
                        "220": -0.03963973745703697,
                        "221": -0.19425207376480103,
                        "222": 0.1929546594619751,
                        "223": 0.09344743937253952,
                        "224": 0.0667995885014534,
                        "225": 0.14958959817886353,
                        "226": -0.07341770082712173,
                        "227": 0.037520430982112885,
                        "228": -0.04193402826786041,
                        "229": 0.07608913630247116,
                        "230": 0.11915992200374603,
                        "231": 0.12951478362083435,
                        "232": -0.10974979400634766,
                        "233": 0.056374192237854004,
                        "234": -0.09263399243354797,
                        "235": 0.004220745526254177,
                        "236": -0.13436663150787354,
                        "237": 0.1945393681526184,
                        "238": -0.1482907086610794,
                        "239": -0.14048737287521362,
                        "240": -0.05523388460278511,
                        "241": -0.16666287183761597,
                        "242": -0.013552186079323292,
                        "243": -0.09867973625659943,
                        "244": -0.05919351428747177,
                        "245": -0.10015425086021423,
                        "246": -0.18512113392353058,
                        "247": 0.14285211265087128,
                        "248": -0.010238856077194214,
                        "249": 0.14680275321006775,
                        "250": 0.12144333124160767,
                        "251": 0.041008494794368744,
                        "252": 0.017073720693588257,
                        "253": -0.17758145928382874,
                        "254": 0.01600390486419201,
                        "255": 0.13752080500125885
                    }
                },
                "2": {
                    "bias": -0.17518524825572968,
                    "weights": {
                        "0": 0.07802188396453857,
                        "1": 0.0432615801692009,
                        "2": -0.03314663842320442,
                        "3": -0.09543152153491974,
                        "4": -0.09582303464412689,
                        "5": 0.18722490966320038,
                        "6": 0.024452708661556244,
                        "7": 0.13063150644302368,
                        "8": 0.20430338382720947,
                        "9": -0.14829115569591522,
                        "10": 0.02780255116522312,
                        "11": 0.14813297986984253,
                        "12": -0.0648891031742096,
                        "13": -0.17010095715522766,
                        "14": -0.15199635922908783,
                        "15": -0.03011910989880562,
                        "16": 0.14209845662117004,
                        "17": -0.12543316185474396,
                        "18": -0.172520712018013,
                        "19": -0.06059679388999939,
                        "20": 0.03753652051091194,
                        "21": 0.1843256950378418,
                        "22": 0.016040954738855362,
                        "23": -0.03389879688620567,
                        "24": -0.010280867107212543,
                        "25": -0.15348421037197113,
                        "26": -0.19418422877788544,
                        "27": 0.1674056053161621,
                        "28": 0.028992271050810814,
                        "29": -0.05287029221653938,
                        "30": 0.04743551090359688,
                        "31": -0.15398401021957397,
                        "32": -0.04104414954781532,
                        "33": 0.04234198480844498,
                        "34": 0.0009759513777680695,
                        "35": 0.1446055769920349,
                        "36": 0.155018612742424,
                        "37": -0.1851007640361786,
                        "38": -0.13495193421840668,
                        "39": 0.0005026261205784976,
                        "40": -0.10860788077116013,
                        "41": 0.14422307908535004,
                        "42": -0.038534436374902725,
                        "43": -0.13287672400474548,
                        "44": 0.028053047135472298,
                        "45": -0.16033487021923065,
                        "46": -0.07244325429201126,
                        "47": 0.19224676489830017,
                        "48": -0.10427863150835037,
                        "49": 0.05656270310282707,
                        "50": 0.09735016524791718,
                        "51": 0.05639443174004555,
                        "52": -0.12921597063541412,
                        "53": 0.14333142340183258,
                        "54": 0.011058843694627285,
                        "55": 0.07069266587495804,
                        "56": -0.1761540174484253,
                        "57": -0.20116809010505676,
                        "58": -0.007595738861709833,
                        "59": 0.010894520208239555,
                        "60": -0.01448980811983347,
                        "61": 0.10128431767225266,
                        "62": -0.16434045135974884,
                        "63": -0.19826747477054596,
                        "64": -0.006951848044991493,
                        "65": 0.0665087103843689,
                        "66": -0.18490250408649445,
                        "67": -0.058122728019952774,
                        "68": 0.03367552161216736,
                        "69": -0.043012265115976334,
                        "70": 0.16499823331832886,
                        "71": 0.11434964835643768,
                        "72": 0.16529156267642975,
                        "73": -0.07862570881843567,
                        "74": -0.09903161227703094,
                        "75": 0.007231095805764198,
                        "76": -0.03586934506893158,
                        "77": 0.10438058525323868,
                        "78": -0.10395105183124542,
                        "79": 0.07471317797899246,
                        "80": 0.0965191200375557,
                        "81": -0.1483258455991745,
                        "82": -0.10060326755046844,
                        "83": -0.19708216190338135,
                        "84": 0.15226325392723083,
                        "85": 0.06721579283475876,
                        "86": -0.007979555055499077,
                        "87": 0.11149132251739502,
                        "88": -0.1532410979270935,
                        "89": 0.1276952624320984,
                        "90": 0.01878081075847149,
                        "91": -0.1955607682466507,
                        "92": 0.02928193286061287,
                        "93": 0.1955103576183319,
                        "94": -0.06741257756948471,
                        "95": -0.07144473493099213,
                        "96": -0.0005379305803216994,
                        "97": 0.08525379747152328,
                        "98": -0.19558478891849518,
                        "99": -0.05088105797767639,
                        "100": 0.08057982474565506,
                        "101": 0.1561872363090515,
                        "102": -0.03907521069049835,
                        "103": 0.0896977037191391,
                        "104": 0.04175036773085594,
                        "105": -0.03543193265795708,
                        "106": 0.08145365864038467,
                        "107": 0.14078989624977112,
                        "108": 0.13506269454956055,
                        "109": 0.07041963189840317,
                        "110": 0.1378486603498459,
                        "111": -0.18750709295272827,
                        "112": -0.15460632741451263,
                        "113": 0.11940067261457443,
                        "114": -0.0529913455247879,
                        "115": 0.0346161313354969,
                        "116": -0.17107036709785461,
                        "117": -0.18480490148067474,
                        "118": -0.05492306500673294,
                        "119": -0.11483524739742279,
                        "120": 0.03196408599615097,
                        "121": 0.14875870943069458,
                        "122": 0.15949133038520813,
                        "123": 0.07528813928365707,
                        "124": 0.1711367964744568,
                        "125": 0.1622089296579361,
                        "126": 0.07780995219945908,
                        "127": -0.04389357566833496,
                        "128": 0.018229162320494652,
                        "129": 0.0517161525785923,
                        "130": -0.018836719915270805,
                        "131": 0.15072917938232422,
                        "132": -0.17062260210514069,
                        "133": 0.017446089535951614,
                        "134": -0.16233332455158234,
                        "135": 0.0507919117808342,
                        "136": -0.0903177261352539,
                        "137": 0.18891778588294983,
                        "138": -0.008110815659165382,
                        "139": 0.11264780908823013,
                        "140": -0.028781188651919365,
                        "141": -0.018475376069545746,
                        "142": -0.07321114093065262,
                        "143": -0.09686863422393799,
                        "144": 0.1852189600467682,
                        "145": -0.19046302139759064,
                        "146": 0.08975577354431152,
                        "147": -0.0730031356215477,
                        "148": 0.09271354228258133,
                        "149": 0.08732853084802628,
                        "150": 0.08924877643585205,
                        "151": -0.18465717136859894,
                        "152": -0.03243756666779518,
                        "153": -0.19171124696731567,
                        "154": 0.14581242203712463,
                        "155": -0.04191366583108902,
                        "156": 0.06901480257511139,
                        "157": 0.16260388493537903,
                        "158": 0.036781251430511475,
                        "159": 0.0019037576857954264,
                        "160": -0.004915968049317598,
                        "161": 0.06894517689943314,
                        "162": -0.17181046307086945,
                        "163": 0.17171211540699005,
                        "164": -0.1747361421585083,
                        "165": -0.09031324833631516,
                        "166": -0.11480819433927536,
                        "167": -0.07622674107551575,
                        "168": -0.10650481283664703,
                        "169": 0.033813368529081345,
                        "170": -0.07387004792690277,
                        "171": 0.05782163143157959,
                        "172": 0.051307313144207,
                        "173": -0.07363444566726685,
                        "174": -0.03500307723879814,
                        "175": -0.07788002490997314,
                        "176": -0.11202272772789001,
                        "177": -0.15299947559833527,
                        "178": -0.19053779542446136,
                        "179": -0.15427465736865997,
                        "180": -0.112569659948349,
                        "181": -0.17658446729183197,
                        "182": 0.1307203471660614,
                        "183": -0.09824005514383316,
                        "184": -0.1436772644519806,
                        "185": -0.07100914418697357,
                        "186": 0.05180423706769943,
                        "187": -0.036144670099020004,
                        "188": 0.18908433616161346,
                        "189": 0.0034407039638608694,
                        "190": -0.10790124535560608,
                        "191": 0.1417393535375595,
                        "192": -0.11997485905885696,
                        "193": 0.07714321464300156,
                        "194": 0.02503671869635582,
                        "195": 0.029570624232292175,
                        "196": 0.08074124157428741,
                        "197": -0.039361175149679184,
                        "198": -0.18416646122932434,
                        "199": -0.18969057500362396,
                        "200": 0.0699249729514122,
                        "201": -0.06898488849401474,
                        "202": -0.17651484906673431,
                        "203": -0.06382068991661072,
                        "204": 0.09891445934772491,
                        "205": -0.018662720918655396,
                        "206": -0.05433330684900284,
                        "207": 0.06284400075674057,
                        "208": 0.1920808106660843,
                        "209": 0.1939464956521988,
                        "210": 0.11543495208024979,
                        "211": -0.12363223731517792,
                        "212": 0.03471705690026283,
                        "213": 0.006857267580926418,
                        "214": -0.1648242473602295,
                        "215": 0.08562064915895462,
                        "216": 0.14592669904232025,
                        "217": 0.10533401370048523,
                        "218": -0.008299545384943485,
                        "219": -0.16866935789585114,
                        "220": -0.09327565878629684,
                        "221": 0.0002053109637927264,
                        "222": -0.12188340723514557,
                        "223": 0.07989660650491714,
                        "224": -0.012204064056277275,
                        "225": 0.021608183160424232,
                        "226": -0.08320476859807968,
                        "227": 0.1597260683774948,
                        "228": 0.10719013214111328,
                        "229": 0.14379680156707764,
                        "230": 0.12526914477348328,
                        "231": -0.05238911509513855,
                        "232": -0.053007300943136215,
                        "233": 0.14632557332515717,
                        "234": -0.08585935831069946,
                        "235": 0.06510376930236816,
                        "236": -0.1717570275068283,
                        "237": -0.14481115341186523,
                        "238": -0.2073051780462265,
                        "239": 0.06261397153139114,
                        "240": -0.057360488921403885,
                        "241": -0.11239871382713318,
                        "242": 0.10814496874809265,
                        "243": -0.07525069266557693,
                        "244": 0.09753967076539993,
                        "245": -0.007752612233161926,
                        "246": 0.13117271661758423,
                        "247": -0.07057373225688934,
                        "248": -0.005620487034320831,
                        "249": -0.13168230652809143,
                        "250": 0.07833323627710342,
                        "251": -0.06654951721429825,
                        "252": 0.01666182652115822,
                        "253": -0.048879433423280716,
                        "254": -0.17449598014354706,
                        "255": -0.13368262350559235
                    }
                },
                "3": {
                    "bias": -0.05109681934118271,
                    "weights": {
                        "0": 0.08115492016077042,
                        "1": -0.14938530325889587,
                        "2": -0.20091034471988678,
                        "3": 0.07592350244522095,
                        "4": 0.14313966035842896,
                        "5": 0.08143774420022964,
                        "6": 0.0909092128276825,
                        "7": 0.009614362381398678,
                        "8": -0.0625423938035965,
                        "9": 0.0073158335871994495,
                        "10": 0.029595643281936646,
                        "11": 0.07266406714916229,
                        "12": -0.1950158029794693,
                        "13": 0.03610997647047043,
                        "14": -0.11902539432048798,
                        "15": 0.13884252309799194,
                        "16": -0.006753051187843084,
                        "17": 0.08398705720901489,
                        "18": -0.19024252891540527,
                        "19": 0.08592469245195389,
                        "20": 0.05799802765250206,
                        "21": 0.12484295666217804,
                        "22": -0.014910437166690826,
                        "23": -0.09552408754825592,
                        "24": -0.1089043989777565,
                        "25": 0.058585699647665024,
                        "26": 0.17857341468334198,
                        "27": 0.17568624019622803,
                        "28": 0.11535390466451645,
                        "29": 0.16785912215709686,
                        "30": 0.14850763976573944,
                        "31": 0.052985914051532745,
                        "32": -0.03597407788038254,
                        "33": -0.15853580832481384,
                        "34": -0.10802538692951202,
                        "35": -0.1487480103969574,
                        "36": 0.02163175493478775,
                        "37": -0.1603299379348755,
                        "38": 0.06081180274486542,
                        "39": 0.1388336420059204,
                        "40": -0.13429372012615204,
                        "41": 0.16284985840320587,
                        "42": 0.01243999321013689,
                        "43": -0.16791823506355286,
                        "44": 0.12100210040807724,
                        "45": 0.1775432676076889,
                        "46": 0.18651972711086273,
                        "47": 0.11111687868833542,
                        "48": 0.18071825802326202,
                        "49": -0.12847760319709778,
                        "50": -0.020264696329832077,
                        "51": -0.021398359909653664,
                        "52": -0.12845748662948608,
                        "53": -0.19496282935142517,
                        "54": 0.03595932945609093,
                        "55": 0.1211126521229744,
                        "56": -0.2058485895395279,
                        "57": 0.04164144769310951,
                        "58": 0.1496451497077942,
                        "59": 0.02631453424692154,
                        "60": -0.10178235918283463,
                        "61": -0.1410885751247406,
                        "62": 0.12598662078380585,
                        "63": 0.14245694875717163,
                        "64": 0.12750931084156036,
                        "65": -0.0019379291916266084,
                        "66": 0.16028238832950592,
                        "67": -0.05079491436481476,
                        "68": 0.1546797901391983,
                        "69": -0.08029641956090927,
                        "70": 0.037839751690626144,
                        "71": -0.03745802864432335,
                        "72": 0.16999053955078125,
                        "73": -0.13874199986457825,
                        "74": 0.06258072704076767,
                        "75": 0.13321508467197418,
                        "76": 0.0027817413210868835,
                        "77": -0.10283727943897247,
                        "78": -0.027393465861678123,
                        "79": -0.09919312596321106,
                        "80": -0.19691339135169983,
                        "81": -0.1401715874671936,
                        "82": 0.1494894176721573,
                        "83": -0.13729390501976013,
                        "84": -0.12545469403266907,
                        "85": 0.08873344212770462,
                        "86": -0.19850391149520874,
                        "87": -0.07767383754253387,
                        "88": -0.012274031527340412,
                        "89": -0.17154355347156525,
                        "90": -0.0649382695555687,
                        "91": 0.018573064357042313,
                        "92": 0.15816767513751984,
                        "93": -0.17901988327503204,
                        "94": 0.13586366176605225,
                        "95": -0.1205224022269249,
                        "96": -0.18345461785793304,
                        "97": 0.11758191138505936,
                        "98": -0.14808446168899536,
                        "99": -0.1497071236371994,
                        "100": -0.09628506004810333,
                        "101": -0.1764751672744751,
                        "102": 0.023333093151450157,
                        "103": 0.12126283347606659,
                        "104": -0.12647752463817596,
                        "105": -0.034719306975603104,
                        "106": -0.21010099351406097,
                        "107": -0.19658473134040833,
                        "108": -0.007007732521742582,
                        "109": -0.1807180792093277,
                        "110": 0.042840175330638885,
                        "111": 0.07116925716400146,
                        "112": -0.15512071549892426,
                        "113": 0.0813150554895401,
                        "114": -0.08984808623790741,
                        "115": -0.0004593503545038402,
                        "116": -0.17645680904388428,
                        "117": 0.10300174355506897,
                        "118": -0.1881849765777588,
                        "119": 0.11854586005210876,
                        "120": -0.15247958898544312,
                        "121": -0.02817702665925026,
                        "122": -0.05751192942261696,
                        "123": -0.030984772369265556,
                        "124": -0.02373478189110756,
                        "125": 0.12891757488250732,
                        "126": 0.09383530169725418,
                        "127": -0.1590929627418518,
                        "128": -0.1707986444234848,
                        "129": 0.05689515918493271,
                        "130": 0.1169101670384407,
                        "131": 0.11012142151594162,
                        "132": 0.1502418965101242,
                        "133": -0.14775440096855164,
                        "134": -0.10800280421972275,
                        "135": 0.17169928550720215,
                        "136": -0.11305856704711914,
                        "137": 0.08206145465373993,
                        "138": -0.06537499278783798,
                        "139": -0.07923166453838348,
                        "140": 0.13330350816249847,
                        "141": 0.19305868446826935,
                        "142": -0.08666511625051498,
                        "143": 0.03119102120399475,
                        "144": -0.22053851187229156,
                        "145": -0.10185860097408295,
                        "146": -0.03392549231648445,
                        "147": -0.06074906885623932,
                        "148": -0.04572445526719093,
                        "149": 0.0011614850955083966,
                        "150": -0.11397923529148102,
                        "151": 0.16709311306476593,
                        "152": 0.043634459376335144,
                        "153": 0.029192771762609482,
                        "154": 0.12713930010795593,
                        "155": -0.12881819903850555,
                        "156": 0.1956145316362381,
                        "157": 0.17241889238357544,
                        "158": 0.15683576464653015,
                        "159": -0.07134243100881577,
                        "160": -0.09285558015108109,
                        "161": 0.022957393899559975,
                        "162": -0.12317025661468506,
                        "163": 0.12295307219028473,
                        "164": -0.15922628343105316,
                        "165": -0.043610211461782455,
                        "166": -0.025256775319576263,
                        "167": -0.1607394814491272,
                        "168": -0.0016217458760365844,
                        "169": 0.11955490708351135,
                        "170": 0.1470850557088852,
                        "171": 0.04194631427526474,
                        "172": -0.05379704385995865,
                        "173": -0.19521395862102509,
                        "174": -0.05667097121477127,
                        "175": 0.0056170751340687275,
                        "176": -0.06269387155771255,
                        "177": -0.1945246160030365,
                        "178": 0.030063223093748093,
                        "179": -0.0928436815738678,
                        "180": -0.1830276995897293,
                        "181": -0.12021245807409286,
                        "182": 0.05436516925692558,
                        "183": 0.13797439634799957,
                        "184": 0.10615575313568115,
                        "185": -0.1299479603767395,
                        "186": 0.01765446551144123,
                        "187": -0.18094190955162048,
                        "188": 0.1617184579372406,
                        "189": 0.15424494445323944,
                        "190": 0.03349049761891365,
                        "191": -0.20192667841911316,
                        "192": 0.012973292730748653,
                        "193": 0.13927102088928223,
                        "194": -0.20732875168323517,
                        "195": -0.08801043033599854,
                        "196": 0.17467890679836273,
                        "197": -0.03140493482351303,
                        "198": 0.004520649556070566,
                        "199": -0.07929457724094391,
                        "200": 0.17434300482273102,
                        "201": -0.04569455608725548,
                        "202": -0.09575717896223068,
                        "203": -0.07983671873807907,
                        "204": -0.1842680126428604,
                        "205": 0.17211571335792542,
                        "206": -0.10125821828842163,
                        "207": 0.054573360830545425,
                        "208": 0.15899738669395447,
                        "209": 0.09406944364309311,
                        "210": 0.04374074563384056,
                        "211": 0.024310089647769928,
                        "212": -0.1812293380498886,
                        "213": 0.12617206573486328,
                        "214": -0.002898113802075386,
                        "215": 0.02178303897380829,
                        "216": -0.20438189804553986,
                        "217": -0.03439768776297569,
                        "218": 0.11309737712144852,
                        "219": -0.09257993847131729,
                        "220": -0.03490395471453667,
                        "221": -0.10208787769079208,
                        "222": 0.08074446767568588,
                        "223": -0.058581769466400146,
                        "224": 0.17025795578956604,
                        "225": 0.13438139855861664,
                        "226": -0.09543882310390472,
                        "227": -0.0942811444401741,
                        "228": 0.05639021843671799,
                        "229": 0.09872497618198395,
                        "230": -0.02149917557835579,
                        "231": 0.09163403511047363,
                        "232": -0.1536349505186081,
                        "233": 0.149350106716156,
                        "234": 0.15321268141269684,
                        "235": -0.09020142257213593,
                        "236": -0.1821170151233673,
                        "237": 0.09895394742488861,
                        "238": 0.08129705488681793,
                        "239": -0.162248894572258,
                        "240": -0.1721167117357254,
                        "241": 0.02217194065451622,
                        "242": 0.1405041366815567,
                        "243": 0.17897483706474304,
                        "244": 0.0517304427921772,
                        "245": 0.17427018284797668,
                        "246": -0.1471717804670334,
                        "247": 0.028530757874250412,
                        "248": 0.07597869634628296,
                        "249": 0.09980130195617676,
                        "250": -0.06054200232028961,
                        "251": -0.06742867827415466,
                        "252": -0.15565407276153564,
                        "253": -0.1418752521276474,
                        "254": -0.1968587040901184,
                        "255": -0.08393223583698273
                    }
                },
                "4": {
                    "bias": 0.17221824824810028,
                    "weights": {
                        "0": -0.15920928120613098,
                        "1": -0.013008194975554943,
                        "2": -0.07187752425670624,
                        "3": -0.09189584106206894,
                        "4": -0.148555189371109,
                        "5": 0.05818943679332733,
                        "6": -0.03967566788196564,
                        "7": -0.19411540031433105,
                        "8": 0.10913494229316711,
                        "9": 0.1670600324869156,
                        "10": 0.12976403534412384,
                        "11": -0.03809472173452377,
                        "12": 0.17852681875228882,
                        "13": 0.07266810536384583,
                        "14": 0.059642404317855835,
                        "15": 0.09593255072832108,
                        "16": -0.17507682740688324,
                        "17": 0.08512414246797562,
                        "18": -0.03623626008629799,
                        "19": 0.06391768157482147,
                        "20": -0.07402212917804718,
                        "21": 0.1247435212135315,
                        "22": -0.19740286469459534,
                        "23": -0.15231484174728394,
                        "24": 0.05150391906499863,
                        "25": 0.18482930958271027,
                        "26": 0.12887120246887207,
                        "27": 0.13187022507190704,
                        "28": 0.20601068437099457,
                        "29": 0.013456355780363083,
                        "30": 0.15468573570251465,
                        "31": -0.10194484144449234,
                        "32": -0.14184220135211945,
                        "33": -0.0658503919839859,
                        "34": 0.10608351975679398,
                        "35": -0.025422383099794388,
                        "36": 0.06217574328184128,
                        "37": 0.08389689773321152,
                        "38": -0.04173639416694641,
                        "39": 0.04650208353996277,
                        "40": -0.0641920194029808,
                        "41": -0.014379475265741348,
                        "42": 0.09476443380117416,
                        "43": -0.14436852931976318,
                        "44": 0.0807950496673584,
                        "45": -0.11108600348234177,
                        "46": -0.10474573075771332,
                        "47": 0.09396485984325409,
                        "48": -0.028685396537184715,
                        "49": -0.028062211349606514,
                        "50": 0.2104567289352417,
                        "51": 0.031241094693541527,
                        "52": -0.0158813688904047,
                        "53": 0.09481218457221985,
                        "54": 0.14172406494617462,
                        "55": -0.14427423477172852,
                        "56": 0.08274650573730469,
                        "57": 0.11790899187326431,
                        "58": -0.11807087808847427,
                        "59": -0.0299643836915493,
                        "60": 0.14546479284763336,
                        "61": -0.09478600323200226,
                        "62": 0.07586758583784103,
                        "63": -0.0145200714468956,
                        "64": 0.03511513024568558,
                        "65": -0.11761391907930374,
                        "66": 0.13979725539684296,
                        "67": -0.08814208209514618,
                        "68": -0.12067195773124695,
                        "69": -0.14501509070396423,
                        "70": 0.15565629303455353,
                        "71": -0.07575498521327972,
                        "72": 0.03674837201833725,
                        "73": 0.10616789758205414,
                        "74": 0.12753380835056305,
                        "75": -0.048907630145549774,
                        "76": 0.015372677706182003,
                        "77": -0.030502500012516975,
                        "78": 0.07245869189500809,
                        "79": -0.1430434137582779,
                        "80": -0.049858130514621735,
                        "81": 0.02007174678146839,
                        "82": -0.018130116164684296,
                        "83": 0.24523800611495972,
                        "84": -0.12715010344982147,
                        "85": 0.14143960177898407,
                        "86": 0.1576772779226303,
                        "87": 0.12288489937782288,
                        "88": -0.03491676226258278,
                        "89": -0.18056708574295044,
                        "90": 0.18560752272605896,
                        "91": -0.0537046454846859,
                        "92": -0.043230146169662476,
                        "93": -0.08237770944833755,
                        "94": -0.09023278951644897,
                        "95": -0.18870368599891663,
                        "96": -0.1734408289194107,
                        "97": 0.07708505541086197,
                        "98": -0.08509573340415955,
                        "99": 0.142424076795578,
                        "100": 0.23891852796077728,
                        "101": -0.15454480051994324,
                        "102": 0.09738007187843323,
                        "103": 0.02639327384531498,
                        "104": 0.22467102110385895,
                        "105": -0.036605656147003174,
                        "106": -0.018933093175292015,
                        "107": -0.03168504685163498,
                        "108": 0.046322546899318695,
                        "109": -0.08488839864730835,
                        "110": -0.0752217024564743,
                        "111": 0.0035091242752969265,
                        "112": -0.18389886617660522,
                        "113": 0.0328100249171257,
                        "114": -0.029180290177464485,
                        "115": -0.1519523710012436,
                        "116": 0.08037032932043076,
                        "117": -0.07593099027872086,
                        "118": -0.16663850843906403,
                        "119": 0.09504450857639313,
                        "120": 0.09258773177862167,
                        "121": 0.14643438160419464,
                        "122": 0.1348802000284195,
                        "123": 0.11940610408782959,
                        "124": -0.14560826122760773,
                        "125": 0.15005739033222198,
                        "126": 0.15949207544326782,
                        "127": 0.047769755125045776,
                        "128": -0.011131095699965954,
                        "129": 0.08528291434049606,
                        "130": 0.1551186591386795,
                        "131": -0.16143132746219635,
                        "132": -0.09718505293130875,
                        "133": 0.12074888497591019,
                        "134": -0.09601487219333649,
                        "135": 0.043631959706544876,
                        "136": 0.0533805713057518,
                        "137": -0.14220523834228516,
                        "138": 0.13634167611598969,
                        "139": -0.14982400834560394,
                        "140": -0.09441915154457092,
                        "141": -0.011465735733509064,
                        "142": -0.12869887053966522,
                        "143": 0.07672496885061264,
                        "144": -0.18145976960659027,
                        "145": 0.16359348595142365,
                        "146": -0.1525394320487976,
                        "147": -0.13881216943264008,
                        "148": 0.14347369968891144,
                        "149": -0.05206325277686119,
                        "150": -0.05135416239500046,
                        "151": 0.17257924377918243,
                        "152": -0.1395432949066162,
                        "153": -0.061575330793857574,
                        "154": -0.06729808449745178,
                        "155": 0.03921287879347801,
                        "156": 0.13859188556671143,
                        "157": -0.07526867091655731,
                        "158": -0.1450650691986084,
                        "159": -0.20840461552143097,
                        "160": 0.2136509269475937,
                        "161": -0.06381811946630478,
                        "162": 0.13917581737041473,
                        "163": -0.1491556167602539,
                        "164": 0.13123725354671478,
                        "165": 0.15813913941383362,
                        "166": 0.07292739301919937,
                        "167": 0.18122239410877228,
                        "168": -0.02440785802900791,
                        "169": -0.00033834375790320337,
                        "170": 0.2018599808216095,
                        "171": 0.007390084210783243,
                        "172": 0.07426943629980087,
                        "173": -0.007021748460829258,
                        "174": -0.021182561293244362,
                        "175": -0.04292520880699158,
                        "176": -0.0985865592956543,
                        "177": 0.19622690975666046,
                        "178": 0.06203867122530937,
                        "179": 0.1519538164138794,
                        "180": -0.17603713274002075,
                        "181": -0.17039573192596436,
                        "182": -0.12146768718957901,
                        "183": 0.0009277549106627703,
                        "184": 0.09298581629991531,
                        "185": 0.13720037043094635,
                        "186": 0.1245514377951622,
                        "187": 0.08648985624313354,
                        "188": -0.08998081088066101,
                        "189": 0.15777018666267395,
                        "190": 0.0721183717250824,
                        "191": 0.08067280799150467,
                        "192": -0.10039346665143967,
                        "193": 0.1403641551733017,
                        "194": 0.10423331707715988,
                        "195": 0.1178356483578682,
                        "196": -0.03507406264543533,
                        "197": 0.10921825468540192,
                        "198": 0.16264772415161133,
                        "199": 0.1083170622587204,
                        "200": -0.08386830240488052,
                        "201": 0.04815353453159332,
                        "202": -0.038837216794490814,
                        "203": 0.07313678413629532,
                        "204": -0.07471039891242981,
                        "205": -0.055385906249284744,
                        "206": -0.15304918587207794,
                        "207": -0.18037913739681244,
                        "208": 0.18528354167938232,
                        "209": -0.13937243819236755,
                        "210": 0.18513871729373932,
                        "211": -0.13136178255081177,
                        "212": -0.05138303339481354,
                        "213": -0.12201344221830368,
                        "214": 0.010607985779643059,
                        "215": 0.14661504328250885,
                        "216": 0.19037863612174988,
                        "217": 0.13163165748119354,
                        "218": 0.10859822481870651,
                        "219": 0.002665324602276087,
                        "220": 0.042825013399124146,
                        "221": -0.02109588123857975,
                        "222": -0.163111612200737,
                        "223": 0.013486803509294987,
                        "224": -0.0495356023311615,
                        "225": -0.1715230643749237,
                        "226": 0.058331698179244995,
                        "227": -0.1405622810125351,
                        "228": -0.16857534646987915,
                        "229": -0.15564507246017456,
                        "230": 0.04875839501619339,
                        "231": -0.04556058719754219,
                        "232": -0.10941943526268005,
                        "233": -0.1905374974012375,
                        "234": -0.017114974558353424,
                        "235": -0.0734611377120018,
                        "236": -0.1757621318101883,
                        "237": 0.051730427891016006,
                        "238": -0.029419390484690666,
                        "239": 0.11711681634187698,
                        "240": -0.10727892816066742,
                        "241": 0.12199029326438904,
                        "242": 0.059612080454826355,
                        "243": 0.09743992984294891,
                        "244": 0.10161794722080231,
                        "245": 0.009114125743508339,
                        "246": 0.1035255417227745,
                        "247": 0.14450475573539734,
                        "248": 0.11776119470596313,
                        "249": 0.1322079747915268,
                        "250": -0.19942988455295563,
                        "251": 0.14041179418563843,
                        "252": -0.016377247869968414,
                        "253": -0.04930800572037697,
                        "254": 0.07677654922008514,
                        "255": -0.1964610069990158
                    }
                },
                "5": {
                    "bias": 0.16985170543193817,
                    "weights": {
                        "0": 0.19140420854091644,
                        "1": 0.1878529042005539,
                        "2": 0.013258614577353,
                        "3": 0.14392995834350586,
                        "4": -0.12321478128433228,
                        "5": -0.15748268365859985,
                        "6": -0.13762660324573517,
                        "7": 0.0657292827963829,
                        "8": -0.04259835556149483,
                        "9": 0.16671164333820343,
                        "10": 0.0070522804744541645,
                        "11": -0.17896044254302979,
                        "12": -0.14202551543712616,
                        "13": 0.11203566193580627,
                        "14": 0.12295865267515182,
                        "15": -0.14973901212215424,
                        "16": 0.0023900459054857492,
                        "17": -0.14187666773796082,
                        "18": -0.11684076488018036,
                        "19": 0.15435799956321716,
                        "20": 0.18295346200466156,
                        "21": -0.007468785159289837,
                        "22": -0.10086072981357574,
                        "23": 0.011388823390007019,
                        "24": -0.2023601531982422,
                        "25": 0.12582355737686157,
                        "26": -0.03673102334141731,
                        "27": 0.10496291518211365,
                        "28": 0.12988142669200897,
                        "29": 0.0032684619072824717,
                        "30": 0.1140541285276413,
                        "31": 0.18636469542980194,
                        "32": -0.0012904236791655421,
                        "33": 0.050909776240587234,
                        "34": 0.1680959165096283,
                        "35": -0.0008324639638885856,
                        "36": -0.16608764231204987,
                        "37": -0.07369451224803925,
                        "38": 0.16597314178943634,
                        "39": 0.14183683693408966,
                        "40": -0.19617946445941925,
                        "41": 0.0032568885944783688,
                        "42": -0.07944545894861221,
                        "43": 0.158598393201828,
                        "44": -0.08500979840755463,
                        "45": -0.18100343644618988,
                        "46": -0.09630858153104782,
                        "47": -0.0707755759358406,
                        "48": -0.04227835312485695,
                        "49": 0.11780320852994919,
                        "50": -0.14069533348083496,
                        "51": 0.00870202761143446,
                        "52": -0.16031412780284882,
                        "53": -0.03338678181171417,
                        "54": -0.11784003674983978,
                        "55": -0.1354215294122696,
                        "56": -0.06701402366161346,
                        "57": 0.09893647581338882,
                        "58": -0.012485207058489323,
                        "59": -0.11708728969097137,
                        "60": 0.16920603811740875,
                        "61": -0.18819589912891388,
                        "62": 0.061241332441568375,
                        "63": 0.17862601578235626,
                        "64": 0.14848341047763824,
                        "65": -0.1839967668056488,
                        "66": -0.03822483494877815,
                        "67": -0.10743463039398193,
                        "68": 0.15612468123435974,
                        "69": -0.06437518447637558,
                        "70": -0.0016683933790773153,
                        "71": -0.031331975013017654,
                        "72": 0.07577895373106003,
                        "73": 0.09404385834932327,
                        "74": 0.0838530883193016,
                        "75": -0.16730621457099915,
                        "76": -0.009858388453722,
                        "77": 0.11259400099515915,
                        "78": -0.10338893532752991,
                        "79": 0.0989701971411705,
                        "80": -0.15970933437347412,
                        "81": 0.0376729816198349,
                        "82": 0.10105149447917938,
                        "83": 0.005445788148790598,
                        "84": 0.11424393206834793,
                        "85": -0.06340720504522324,
                        "86": 0.0726761519908905,
                        "87": -0.11707976460456848,
                        "88": -0.14550824463367462,
                        "89": 0.008326769806444645,
                        "90": -0.19062605500221252,
                        "91": -0.1270867884159088,
                        "92": -0.19081012904644012,
                        "93": 0.014697159640491009,
                        "94": 0.16536985337734222,
                        "95": -0.06946027278900146,
                        "96": 0.0796528309583664,
                        "97": 0.15786214172840118,
                        "98": 0.1613117754459381,
                        "99": 0.1456708312034607,
                        "100": -0.12851661443710327,
                        "101": 0.03973652794957161,
                        "102": -0.17286626994609833,
                        "103": -0.018238062039017677,
                        "104": 0.1756773442029953,
                        "105": -0.03971366584300995,
                        "106": 0.16856077313423157,
                        "107": -0.10516826808452606,
                        "108": -0.13182896375656128,
                        "109": 0.0820421651005745,
                        "110": -0.031348783522844315,
                        "111": -0.08346512168645859,
                        "112": -0.01468502264469862,
                        "113": 0.007309305015951395,
                        "114": -0.08900385349988937,
                        "115": 0.20579685270786285,
                        "116": -0.0655689612030983,
                        "117": -0.035014260560274124,
                        "118": 0.20956680178642273,
                        "119": -0.1741686463356018,
                        "120": 0.1699521392583847,
                        "121": 0.06984718888998032,
                        "122": -0.16657623648643494,
                        "123": 0.17297497391700745,
                        "124": 0.043501339852809906,
                        "125": -0.006326132453978062,
                        "126": 0.14819826185703278,
                        "127": 0.14035943150520325,
                        "128": 0.09861019253730774,
                        "129": 0.1529666632413864,
                        "130": -0.0439852774143219,
                        "131": -0.11036313325166702,
                        "132": -0.04445953667163849,
                        "133": 0.02721104957163334,
                        "134": -0.029208671301603317,
                        "135": 0.17085057497024536,
                        "136": 0.09013387560844421,
                        "137": 0.1084488034248352,
                        "138": -0.11248917877674103,
                        "139": -0.034473858773708344,
                        "140": 0.07139649987220764,
                        "141": -0.08160766214132309,
                        "142": 0.004848392680287361,
                        "143": -0.18973137438297272,
                        "144": 0.08025919646024704,
                        "145": -0.13915476202964783,
                        "146": 0.1641394942998886,
                        "147": 0.06994776427745819,
                        "148": 0.14176377654075623,
                        "149": -0.04439640790224075,
                        "150": -0.15355102717876434,
                        "151": -0.11150927096605301,
                        "152": -0.004907755181193352,
                        "153": 0.12027333676815033,
                        "154": -0.025886962190270424,
                        "155": -0.14011026918888092,
                        "156": 0.12582848966121674,
                        "157": 0.18572092056274414,
                        "158": 0.11402937024831772,
                        "159": 0.12783080339431763,
                        "160": 0.02037879452109337,
                        "161": 0.04271424934267998,
                        "162": 0.20789846777915955,
                        "163": 0.09042540192604065,
                        "164": -0.17621876299381256,
                        "165": 0.011591103859245777,
                        "166": 0.1495150476694107,
                        "167": -0.14198638498783112,
                        "168": -0.20292475819587708,
                        "169": -0.19930335879325867,
                        "170": 0.06820821762084961,
                        "171": 0.16480298340320587,
                        "172": -0.14917577803134918,
                        "173": -0.10747624188661575,
                        "174": -0.000987498671747744,
                        "175": -0.008216958492994308,
                        "176": 0.021517379209399223,
                        "177": 0.09738387912511826,
                        "178": 0.10866967588663101,
                        "179": -0.07476593554019928,
                        "180": 0.13992346823215485,
                        "181": 0.1021421030163765,
                        "182": 0.16220366954803467,
                        "183": 0.1483858972787857,
                        "184": 0.031704291701316833,
                        "185": 0.016138989478349686,
                        "186": -0.015170182101428509,
                        "187": 0.1906524896621704,
                        "188": -0.13698840141296387,
                        "189": -0.010189533233642578,
                        "190": 0.007369738072156906,
                        "191": 0.18723751604557037,
                        "192": 0.05437817797064781,
                        "193": -0.149441197514534,
                        "194": 0.06355033069849014,
                        "195": -0.0906115174293518,
                        "196": 0.09738348424434662,
                        "197": -0.19648662209510803,
                        "198": 0.06879858672618866,
                        "199": -0.055004462599754333,
                        "200": 0.19063234329223633,
                        "201": 0.060540225356817245,
                        "202": 0.1298113316297531,
                        "203": 0.017431292682886124,
                        "204": 0.05835529416799545,
                        "205": -0.09282518178224564,
                        "206": 0.0793517604470253,
                        "207": 0.21063674986362457,
                        "208": 0.09170776605606079,
                        "209": -0.03771742805838585,
                        "210": 0.09307558834552765,
                        "211": -0.07109785825014114,
                        "212": -0.18821614980697632,
                        "213": 0.12078921496868134,
                        "214": -0.09106454253196716,
                        "215": 0.0480026975274086,
                        "216": 0.1371508687734604,
                        "217": -0.0025476093869656324,
                        "218": -0.01355831976979971,
                        "219": -0.14081767201423645,
                        "220": 0.09947098791599274,
                        "221": 0.0011635117698460817,
                        "222": -0.03355412930250168,
                        "223": -0.13318924605846405,
                        "224": 0.07486167550086975,
                        "225": 0.09358436614274979,
                        "226": -0.061694853007793427,
                        "227": 0.1886434108018875,
                        "228": -0.06987036764621735,
                        "229": -0.03646857291460037,
                        "230": -0.14603880047798157,
                        "231": 0.1008378341794014,
                        "232": -0.046013668179512024,
                        "233": 0.14191606640815735,
                        "234": -0.1306932270526886,
                        "235": -0.03856493532657623,
                        "236": -0.08535197377204895,
                        "237": 0.03839573636651039,
                        "238": -0.12901003658771515,
                        "239": -0.07609696686267853,
                        "240": 0.005488345865160227,
                        "241": 0.07589766383171082,
                        "242": -0.035781241953372955,
                        "243": -0.08987261354923248,
                        "244": -0.062202613800764084,
                        "245": -0.12756499648094177,
                        "246": 0.08489184081554413,
                        "247": -0.14533627033233643,
                        "248": 0.040235571563243866,
                        "249": 0.09536157548427582,
                        "250": 0.05241012945771217,
                        "251": -0.11693521589040756,
                        "252": 0.08443190902471542,
                        "253": 0.15890459716320038,
                        "254": -0.01508712861686945,
                        "255": -0.13365823030471802
                    }
                },
                "6": {
                    "bias": 0.09937752038240433,
                    "weights": {
                        "0": 0.005387381184846163,
                        "1": 0.14661091566085815,
                        "2": 0.13444265723228455,
                        "3": -0.18443797528743744,
                        "4": -0.14636178314685822,
                        "5": -0.038354381918907166,
                        "6": -0.16110248863697052,
                        "7": 0.012037861160933971,
                        "8": -0.04589707404375076,
                        "9": -0.025298889726400375,
                        "10": -0.08439519256353378,
                        "11": -0.02443942055106163,
                        "12": -0.02165999636054039,
                        "13": 0.17883937060832977,
                        "14": -0.05030284821987152,
                        "15": -0.1523311734199524,
                        "16": -0.14326849579811096,
                        "17": -0.05316554009914398,
                        "18": -0.10473993420600891,
                        "19": -0.1028071790933609,
                        "20": -0.1564856767654419,
                        "21": -0.02226879447698593,
                        "22": -0.04302974045276642,
                        "23": -0.08057872205972672,
                        "24": -0.04898696392774582,
                        "25": -0.02048526704311371,
                        "26": -0.02776869758963585,
                        "27": -0.1404750645160675,
                        "28": -0.023928938433527946,
                        "29": -0.05604848265647888,
                        "30": 0.08285881578922272,
                        "31": 0.001971940975636244,
                        "32": 0.014644675888121128,
                        "33": -0.19499333202838898,
                        "34": -0.006696233991533518,
                        "35": -0.19259217381477356,
                        "36": -0.07655008137226105,
                        "37": -0.15382927656173706,
                        "38": 0.07976633310317993,
                        "39": -0.08474184572696686,
                        "40": 0.029165299609303474,
                        "41": -0.03232719376683235,
                        "42": -0.15579526126384735,
                        "43": 0.13281315565109253,
                        "44": -0.18893563747406006,
                        "45": -0.16321702301502228,
                        "46": -0.04133233428001404,
                        "47": 0.11682280153036118,
                        "48": -0.11890184134244919,
                        "49": 0.08869746327400208,
                        "50": 0.01316385343670845,
                        "51": -0.20694534480571747,
                        "52": -0.20931972563266754,
                        "53": 0.08255414664745331,
                        "54": 0.08094941824674606,
                        "55": 0.15673436224460602,
                        "56": -0.0190596804022789,
                        "57": 0.19533029198646545,
                        "58": -0.18189352750778198,
                        "59": 0.06051069125533104,
                        "60": -0.09197871387004852,
                        "61": -0.0462903268635273,
                        "62": -0.010210487991571426,
                        "63": -0.08057344704866409,
                        "64": -0.1912911832332611,
                        "65": 0.012287241406738758,
                        "66": 0.0018791897455230355,
                        "67": 0.1305852234363556,
                        "68": -0.07013686001300812,
                        "69": -0.048299554735422134,
                        "70": -0.012156562879681587,
                        "71": 0.12389805912971497,
                        "72": 0.03491443395614624,
                        "73": -0.05257652699947357,
                        "74": 0.043823614716529846,
                        "75": -0.1651187539100647,
                        "76": -0.034855917096138,
                        "77": -0.18519096076488495,
                        "78": -0.02762097492814064,
                        "79": 0.1982111632823944,
                        "80": 0.017099769786000252,
                        "81": 0.0016675327206030488,
                        "82": -0.19276846945285797,
                        "83": -0.07020914554595947,
                        "84": -0.06170839071273804,
                        "85": 0.16345766186714172,
                        "86": 0.05427751690149307,
                        "87": -0.04489046707749367,
                        "88": 0.2108575701713562,
                        "89": -0.01282496377825737,
                        "90": -0.0649571418762207,
                        "91": 0.029243387281894684,
                        "92": -0.003305612364783883,
                        "93": 0.01442130096256733,
                        "94": 0.029997436329722404,
                        "95": 0.007848483510315418,
                        "96": 0.0930442288517952,
                        "97": 0.10403325408697128,
                        "98": -0.09932936728000641,
                        "99": 0.08850716054439545,
                        "100": 0.03512674942612648,
                        "101": -0.2023356854915619,
                        "102": 0.14559826254844666,
                        "103": -0.017916833981871605,
                        "104": 0.1047595962882042,
                        "105": 0.056340210139751434,
                        "106": -0.0011028435546904802,
                        "107": 0.009384477511048317,
                        "108": -0.052212558686733246,
                        "109": -0.02109174057841301,
                        "110": 0.14003901183605194,
                        "111": 0.1950971633195877,
                        "112": 0.17408688366413116,
                        "113": 0.15132059156894684,
                        "114": -0.1770862191915512,
                        "115": -0.04304858297109604,
                        "116": 0.08856383711099625,
                        "117": -0.07619702816009521,
                        "118": -0.026350023224949837,
                        "119": 0.12108688056468964,
                        "120": -0.05849224328994751,
                        "121": 0.010702991858124733,
                        "122": 0.1949368566274643,
                        "123": 0.09032940864562988,
                        "124": 0.1616409420967102,
                        "125": 0.19344139099121094,
                        "126": -0.05239538848400116,
                        "127": 0.05089052394032478,
                        "128": -0.03195301815867424,
                        "129": -0.11036435514688492,
                        "130": -0.11574166268110275,
                        "131": -0.054453294724226,
                        "132": -0.09054196625947952,
                        "133": -0.1266428381204605,
                        "134": 0.19103819131851196,
                        "135": 0.04156267270445824,
                        "136": 0.12564335763454437,
                        "137": -0.1334589123725891,
                        "138": -0.06590977311134338,
                        "139": 0.030378473922610283,
                        "140": -0.13099561631679535,
                        "141": -0.020760634914040565,
                        "142": -0.06989658623933792,
                        "143": 0.004748314153403044,
                        "144": 0.03893274813890457,
                        "145": 0.16443875432014465,
                        "146": 0.038501232862472534,
                        "147": 0.14408455789089203,
                        "148": 0.16289672255516052,
                        "149": -0.04970484972000122,
                        "150": -0.16238276660442352,
                        "151": 0.13303495943546295,
                        "152": -0.04737352952361107,
                        "153": 0.10931804776191711,
                        "154": -0.0813383087515831,
                        "155": 0.008935071527957916,
                        "156": 0.045056793838739395,
                        "157": -0.10265813767910004,
                        "158": -0.1376175731420517,
                        "159": -0.1793885976076126,
                        "160": 0.16549059748649597,
                        "161": 0.03297453373670578,
                        "162": 0.12730030715465546,
                        "163": 0.18324919044971466,
                        "164": 0.07484523952007294,
                        "165": 0.18805328011512756,
                        "166": -0.02367849461734295,
                        "167": -0.039363034069538116,
                        "168": 0.1274978220462799,
                        "169": 0.188012957572937,
                        "170": -0.07115352898836136,
                        "171": -0.1693202406167984,
                        "172": -0.015987129881978035,
                        "173": -0.18642613291740417,
                        "174": 0.1845453828573227,
                        "175": 0.13278226554393768,
                        "176": 0.1602167785167694,
                        "177": -0.07885704189538956,
                        "178": 0.03809838742017746,
                        "179": -0.07813823223114014,
                        "180": 0.11139621585607529,
                        "181": 0.20386739075183868,
                        "182": 0.005709536373615265,
                        "183": 0.0866299644112587,
                        "184": 0.08079794049263,
                        "185": 0.17719115316867828,
                        "186": 0.062403082847595215,
                        "187": 0.0782894641160965,
                        "188": 0.11530779302120209,
                        "189": -0.20599977672100067,
                        "190": -0.18473702669143677,
                        "191": 0.02401733212172985,
                        "192": 0.09999796748161316,
                        "193": -0.1279773712158203,
                        "194": 0.19154687225818634,
                        "195": -0.04863814637064934,
                        "196": 0.06427616626024246,
                        "197": 0.18464191257953644,
                        "198": -0.01685144565999508,
                        "199": -0.023382073268294334,
                        "200": -0.05934801325201988,
                        "201": -0.12091835588216782,
                        "202": 0.079958476126194,
                        "203": -0.19517239928245544,
                        "204": -0.12427247315645218,
                        "205": 0.035934146493673325,
                        "206": -0.08668974041938782,
                        "207": -0.06305737793445587,
                        "208": 0.09031913429498672,
                        "209": -0.12955760955810547,
                        "210": 0.15554019808769226,
                        "211": -0.060190845280885696,
                        "212": -0.0019658163655549288,
                        "213": -0.1110459640622139,
                        "214": -0.15525487065315247,
                        "215": -0.05105720832943916,
                        "216": 0.07985798269510269,
                        "217": -0.09446094930171967,
                        "218": 0.06514620780944824,
                        "219": -0.05141725391149521,
