{
    "info": {
        "ai": {
            "config": {
                "hiddenLayers": [
                    128,
                    128
                ],
                "activation": "tanh"
            },
            "training": {
                "iterations": 500,
                "errorThresh": 0.0001,
                "learningRate": 0.01,
                "momentum": 0.1
            }
        },
        "id": "fac1188de05a211d445247b2d6112e4e",
        "dimension": [
            16,
            16
        ],
        "channel": "red",
        "colorspace": "b-w",
        "blackWhite": true
    },
    "data": {
        "sizes": [
            256,
            128,
            128,
            10
        ],
        "layers": [
            {
                "0": {},
                "1": {},
                "2": {},
                "3": {},
                "4": {},
                "5": {},
                "6": {},
                "7": {},
                "8": {},
                "9": {},
                "10": {},
                "11": {},
                "12": {},
                "13": {},
                "14": {},
                "15": {},
                "16": {},
                "17": {},
                "18": {},
                "19": {},
                "20": {},
                "21": {},
                "22": {},
                "23": {},
                "24": {},
                "25": {},
                "26": {},
                "27": {},
                "28": {},
                "29": {},
                "30": {},
                "31": {},
                "32": {},
                "33": {},
                "34": {},
                "35": {},
                "36": {},
                "37": {},
                "38": {},
                "39": {},
                "40": {},
                "41": {},
                "42": {},
                "43": {},
                "44": {},
                "45": {},
                "46": {},
                "47": {},
                "48": {},
                "49": {},
                "50": {},
                "51": {},
                "52": {},
                "53": {},
                "54": {},
                "55": {},
                "56": {},
                "57": {},
                "58": {},
                "59": {},
                "60": {},
                "61": {},
                "62": {},
                "63": {},
                "64": {},
                "65": {},
                "66": {},
                "67": {},
                "68": {},
                "69": {},
                "70": {},
                "71": {},
                "72": {},
                "73": {},
                "74": {},
                "75": {},
                "76": {},
                "77": {},
                "78": {},
                "79": {},
                "80": {},
                "81": {},
                "82": {},
                "83": {},
                "84": {},
                "85": {},
                "86": {},
                "87": {},
                "88": {},
                "89": {},
                "90": {},
                "91": {},
                "92": {},
                "93": {},
                "94": {},
                "95": {},
                "96": {},
                "97": {},
                "98": {},
                "99": {},
                "100": {},
                "101": {},
                "102": {},
                "103": {},
                "104": {},
                "105": {},
                "106": {},
                "107": {},
                "108": {},
                "109": {},
                "110": {},
                "111": {},
                "112": {},
                "113": {},
                "114": {},
                "115": {},
                "116": {},
                "117": {},
                "118": {},
                "119": {},
                "120": {},
                "121": {},
                "122": {},
                "123": {},
                "124": {},
                "125": {},
                "126": {},
                "127": {},
                "128": {},
                "129": {},
                "130": {},
                "131": {},
                "132": {},
                "133": {},
                "134": {},
                "135": {},
                "136": {},
                "137": {},
                "138": {},
                "139": {},
                "140": {},
                "141": {},
                "142": {},
                "143": {},
                "144": {},
                "145": {},
                "146": {},
                "147": {},
                "148": {},
                "149": {},
                "150": {},
                "151": {},
                "152": {},
                "153": {},
                "154": {},
                "155": {},
                "156": {},
                "157": {},
                "158": {},
                "159": {},
                "160": {},
                "161": {},
                "162": {},
                "163": {},
                "164": {},
                "165": {},
                "166": {},
                "167": {},
                "168": {},
                "169": {},
                "170": {},
                "171": {},
                "172": {},
                "173": {},
                "174": {},
                "175": {},
                "176": {},
                "177": {},
                "178": {},
                "179": {},
                "180": {},
                "181": {},
                "182": {},
                "183": {},
                "184": {},
                "185": {},
                "186": {},
                "187": {},
                "188": {},
                "189": {},
                "190": {},
                "191": {},
                "192": {},
                "193": {},
                "194": {},
                "195": {},
                "196": {},
                "197": {},
                "198": {},
                "199": {},
                "200": {},
                "201": {},
                "202": {},
                "203": {},
                "204": {},
                "205": {},
                "206": {},
                "207": {},
                "208": {},
                "209": {},
                "210": {},
                "211": {},
                "212": {},
                "213": {},
                "214": {},
                "215": {},
                "216": {},
                "217": {},
                "218": {},
                "219": {},
                "220": {},
                "221": {},
                "222": {},
                "223": {},
                "224": {},
                "225": {},
                "226": {},
                "227": {},
                "228": {},
                "229": {},
                "230": {},
                "231": {},
                "232": {},
                "233": {},
                "234": {},
                "235": {},
                "236": {},
                "237": {},
                "238": {},
                "239": {},
                "240": {},
                "241": {},
                "242": {},
                "243": {},
                "244": {},
                "245": {},
                "246": {},
                "247": {},
                "248": {},
                "249": {},
                "250": {},
                "251": {},
                "252": {},
                "253": {},
                "254": {},
                "255": {}
            },
            {
                "0": {
                    "bias": -0.002622005995362997,
                    "weights": {
                        "0": -0.15417619049549103,
                        "1": 0.13854649662971497,
                        "2": -0.19589680433273315,
                        "3": -0.07027080655097961,
                        "4": 0.10553216934204102,
                        "5": 0.043288588523864746,
                        "6": -0.04844776168465614,
                        "7": 0.13257169723510742,
                        "8": 0.13326430320739746,
                        "9": 0.07170920819044113,
                        "10": -0.01199551671743393,
                        "11": 0.0900053158402443,
                        "12": 0.06662058085203171,
                        "13": 0.13081826269626617,
                        "14": -0.08727680146694183,
                        "15": 0.16905947029590607,
                        "16": -0.07153355330228806,
                        "17": -0.16456200182437897,
                        "18": 0.17460575699806213,
                        "19": 0.12973341345787048,
                        "20": -0.12293664366006851,
                        "21": 0.07286793738603592,
                        "22": 0.10334307700395584,
                        "23": -0.1664680540561676,
                        "24": -0.08131628483533859,
                        "25": -0.08255235105752945,
                        "26": 0.05446801707148552,
                        "27": 0.12859009206295013,
                        "28": 0.1127757802605629,
                        "29": -0.08591609448194504,
                        "30": -0.1518741250038147,
                        "31": -0.037205927073955536,
                        "32": 0.004140432458370924,
                        "33": -0.04940512403845787,
                        "34": -0.11255228519439697,
                        "35": -0.019791487604379654,
                        "36": 0.19059570133686066,
                        "37": -0.09835740923881531,
                        "38": -0.1676504760980606,
                        "39": 0.06487803906202316,
                        "40": 0.16739004850387573,
                        "41": 0.1500433385372162,
                        "42": -0.17090319097042084,
                        "43": 0.09999635070562363,
                        "44": -0.13929010927677155,
                        "45": 0.1898583471775055,
                        "46": 0.12414129823446274,
                        "47": 0.04402583837509155,
                        "48": 0.13316838443279266,
                        "49": -0.1989945024251938,
                        "50": 0.0412416085600853,
                        "51": -0.07903948426246643,
                        "52": 0.17900298535823822,
                        "53": -0.06078474968671799,
                        "54": -0.03603927418589592,
                        "55": -0.19331613183021545,
                        "56": 0.06590329110622406,
                        "57": -0.1282518357038498,
                        "58": -0.1907455176115036,
                        "59": -0.10762078315019608,
                        "60": 0.18261952698230743,
                        "61": -0.09730923175811768,
                        "62": 0.10959802567958832,
                        "63": 0.09930330514907837,
                        "64": -0.14724121987819672,
                        "65": -0.12435776740312576,
                        "66": -0.08070681989192963,
                        "67": -0.16940855979919434,
                        "68": -0.1578504890203476,
                        "69": 0.006801835261285305,
                        "70": 0.13414521515369415,
                        "71": -0.2001810073852539,
                        "72": 0.18850430846214294,
                        "73": 0.10740535706281662,
                        "74": -0.12843941152095795,
                        "75": 0.06586741656064987,
                        "76": -0.13956919312477112,
                        "77": 0.14470303058624268,
                        "78": -0.18093623220920563,
                        "79": 0.056774117052555084,
                        "80": 0.015508030541241169,
                        "81": -0.016609588637948036,
                        "82": -0.16742977499961853,
                        "83": -0.09402596950531006,
                        "84": -0.06382806599140167,
                        "85": 0.024721551686525345,
                        "86": -0.009183365851640701,
                        "87": -0.11443301290273666,
                        "88": -0.20391099154949188,
                        "89": -0.13688354194164276,
                        "90": 0.04635569825768471,
                        "91": 0.07003660500049591,
                        "92": -0.15886074304580688,
                        "93": 0.10521396994590759,
                        "94": -0.08033168315887451,
                        "95": -0.09185028821229935,
                        "96": -0.18869219720363617,
                        "97": 0.024918820708990097,
                        "98": -0.0005221422761678696,
                        "99": -0.13121479749679565,
                        "100": 0.16261468827724457,
                        "101": -0.08151060342788696,
                        "102": 0.04396187141537666,
                        "103": 0.14883331954479218,
                        "104": -0.2069946825504303,
                        "105": 0.0214978214353323,
                        "106": 0.15860621631145477,
                        "107": -0.1898692101240158,
                        "108": -0.0003000075521413237,
                        "109": -0.08508966118097305,
                        "110": -0.16671155393123627,
                        "111": 0.13434547185897827,
                        "112": 0.08814678341150284,
                        "113": -0.10553597658872604,
                        "114": -0.19266138970851898,
                        "115": -0.1147385686635971,
                        "116": 0.016128281131386757,
                        "117": 0.004470752086490393,
                        "118": -0.11824259161949158,
                        "119": -0.1621563583612442,
                        "120": -0.13331100344657898,
                        "121": 0.02954746037721634,
                        "122": -0.08571770787239075,
                        "123": 0.023053504526615143,
                        "124": -0.12448985129594803,
                        "125": -0.1847125142812729,
                        "126": -0.006644795183092356,
                        "127": -0.18294747173786163,
                        "128": -0.059294767677783966,
                        "129": -0.1144791767001152,
                        "130": -0.14082273840904236,
                        "131": -0.037336841225624084,
                        "132": -0.18095512688159943,
                        "133": 0.07273206114768982,
                        "134": -0.07585766166448593,
                        "135": 0.1177961528301239,
                        "136": 0.1350589394569397,
                        "137": 0.1866587996482849,
                        "138": -0.028400477021932602,
                        "139": -0.0027445186860859394,
                        "140": 0.02258378639817238,
                        "141": 0.13488328456878662,
                        "142": -0.15495851635932922,
                        "143": -0.032611966133117676,
                        "144": 0.017722252756357193,
                        "145": 0.17065873742103577,
                        "146": -0.06638931483030319,
                        "147": -0.07075131684541702,
                        "148": -0.17813441157341003,
                        "149": -0.1784301996231079,
                        "150": 0.18221785128116608,
                        "151": 0.1223968118429184,
                        "152": -0.1254395693540573,
                        "153": -0.19733069837093353,
                        "154": -0.016312051564455032,
                        "155": -0.18429872393608093,
                        "156": -0.11819829791784286,
                        "157": 0.12150843441486359,
                        "158": -0.06165928766131401,
                        "159": 0.10425101220607758,
                        "160": 0.06125457212328911,
                        "161": -0.0739283338189125,
                        "162": 0.15626777708530426,
                        "163": -0.12282963842153549,
                        "164": -0.028453240171074867,
                        "165": 0.014204932376742363,
                        "166": 0.16028285026550293,
                        "167": -0.049235567450523376,
                        "168": -0.1484978199005127,
                        "169": 0.0757255032658577,
                        "170": 0.050395622849464417,
                        "171": -0.19687628746032715,
                        "172": 0.1997731328010559,
                        "173": -0.04657582566142082,
                        "174": 0.11760560423135757,
                        "175": -0.15635548532009125,
                        "176": -0.07168200612068176,
                        "177": -0.15457989275455475,
                        "178": 0.10492046177387238,
                        "179": 0.1573963761329651,
                        "180": -0.08429943025112152,
                        "181": 0.06548679620027542,
                        "182": -0.1695946902036667,
                        "183": -0.03406504914164543,
                        "184": -0.08748000115156174,
                        "185": 0.055365320295095444,
                        "186": -0.18841850757598877,
                        "187": -0.1990746408700943,
                        "188": -0.021311376243829727,
                        "189": -0.16159887611865997,
                        "190": 0.06711538136005402,
                        "191": -0.15351107716560364,
                        "192": -0.013678782619535923,
                        "193": 0.03542309254407883,
                        "194": -0.15923993289470673,
                        "195": -0.11116018146276474,
                        "196": -0.08146225661039352,
                        "197": -0.08288303762674332,
                        "198": 0.018052145838737488,
                        "199": 0.08546093851327896,
                        "200": 0.13583508133888245,
                        "201": -0.13551655411720276,
                        "202": -0.07277245819568634,
                        "203": 0.029579663649201393,
                        "204": 0.15408386290073395,
                        "205": -0.17955343425273895,
                        "206": 0.05981859564781189,
                        "207": -0.0705336481332779,
                        "208": 0.13739754259586334,
                        "209": -0.19307883083820343,
                        "210": -0.0030986513011157513,
                        "211": -0.17754501104354858,
                        "212": 0.16155888140201569,
                        "213": 0.17256832122802734,
                        "214": -0.061231035739183426,
                        "215": 0.10362651944160461,
                        "216": 0.05523776262998581,
                        "217": -0.029052570462226868,
                        "218": 0.14305371046066284,
                        "219": -0.0849590077996254,
                        "220": 0.05710399150848389,
                        "221": 0.1218525618314743,
                        "222": -0.026872601360082626,
                        "223": 0.1433880627155304,
                        "224": 0.16880862414836884,
                        "225": -0.0713149905204773,
                        "226": -0.1752515286207199,
                        "227": -0.11366039514541626,
                        "228": -0.11452795565128326,
                        "229": 0.04779521003365517,
                        "230": 0.1984729766845703,
                        "231": -0.16941776871681213,
                        "232": 0.07983240485191345,
                        "233": 0.11027950793504715,
                        "234": -0.10655844956636429,
                        "235": 0.025027446448802948,
                        "236": -0.14058491587638855,
                        "237": 0.09751249849796295,
                        "238": -0.0006600546767003834,
                        "239": -0.12817007303237915,
                        "240": -0.007758130319416523,
                        "241": 0.054797690361738205,
                        "242": -0.15379326045513153,
                        "243": -0.13295577466487885,
                        "244": 0.1658477932214737,
                        "245": -0.03750182315707207,
                        "246": 0.09809397906064987,
                        "247": 0.03492988273501396,
                        "248": 0.0724148079752922,
                        "249": -0.10757961124181747,
                        "250": 0.019467001780867577,
                        "251": -0.03982154652476311,
                        "252": -0.07442990690469742,
                        "253": -0.008933911100029945,
                        "254": 0.0274069681763649,
                        "255": -0.12790970504283905
                    }
                },
                "1": {
                    "bias": 0.167699933052063,
                    "weights": {
                        "0": -0.13928404450416565,
                        "1": -0.1004546582698822,
                        "2": -0.0057878983207046986,
                        "3": -0.1772232949733734,
                        "4": -0.023157810792326927,
                        "5": -0.1395954191684723,
                        "6": -0.12216656655073166,
                        "7": 0.1031380444765091,
                        "8": 0.1697394698858261,
                        "9": -0.028434177860617638,
                        "10": -0.014749045483767986,
                        "11": -0.1397201418876648,
                        "12": 0.19352415204048157,
                        "13": -0.029345275834202766,
                        "14": -0.1191810593008995,
                        "15": -0.11924657225608826,
                        "16": -0.20732933282852173,
                        "17": -0.010379306972026825,
                        "18": 0.0706254169344902,
                        "19": -0.0037874169647693634,
                        "20": 0.003335204441100359,
                        "21": -0.1209343671798706,
                        "22": -0.13354453444480896,
                        "23": -0.09375760704278946,
                        "24": -0.1269403100013733,
                        "25": -0.02591238170862198,
                        "26": 0.17641091346740723,
                        "27": -0.07173782587051392,
                        "28": 0.14784710109233856,
                        "29": -0.015708396211266518,
                        "30": 0.06039731204509735,
                        "31": -0.1520194411277771,
                        "32": -0.05910637229681015,
                        "33": 0.12829777598381042,
                        "34": 0.032864030450582504,
                        "35": 0.12487675249576569,
                        "36": -0.04170587658882141,
                        "37": 0.08532054722309113,
                        "38": -0.1770092248916626,
                        "39": 0.029871661216020584,
                        "40": 0.23940564692020416,
                        "41": -0.0552586168050766,
                        "42": -0.1365664154291153,
                        "43": 0.073896624147892,
                        "44": -0.029362794011831284,
                        "45": 0.1083359643816948,
                        "46": 0.15432092547416687,
                        "47": 0.12737952172756195,
                        "48": -0.0292473454028368,
                        "49": -0.028716333210468292,
                        "50": -0.061513662338256836,
                        "51": 0.10024214535951614,
                        "52": 0.1762942522764206,
                        "53": 0.16233856976032257,
                        "54": 0.17309364676475525,
                        "55": 0.04067843034863472,
                        "56": -0.07982022315263748,
                        "57": -0.13651558756828308,
                        "58": -0.0484347939491272,
                        "59": -0.1790129691362381,
                        "60": -0.06006043031811714,
                        "61": -0.19701310992240906,
                        "62": 0.10362769663333893,
                        "63": -0.1364104002714157,
                        "64": -0.07308486104011536,
                        "65": 0.06921959668397903,
                        "66": 0.04281989485025406,
                        "67": -0.19144903123378754,
                        "68": -0.07388361543416977,
                        "69": 0.12042033672332764,
                        "70": 0.03141297772526741,
                        "71": -0.11516816169023514,
                        "72": 0.21501673758029938,
                        "73": -0.12770402431488037,
                        "74": 0.16323181986808777,
                        "75": 0.08793248981237411,
                        "76": 0.20863093435764313,
                        "77": -0.11700573563575745,
                        "78": 0.14249753952026367,
                        "79": -0.020459473133087158,
                        "80": 0.13388733565807343,
                        "81": 0.06460370868444443,
                        "82": 0.15969035029411316,
                        "83": -0.05237795040011406,
                        "84": 0.08711262792348862,
                        "85": -0.024693751707673073,
                        "86": 0.15223529934883118,
                        "87": 0.20393218100070953,
                        "88": 0.08279983699321747,
                        "89": -0.0690406784415245,
                        "90": -0.05472257360816002,
                        "91": 0.12196235358715057,
                        "92": -0.04566914588212967,
                        "93": -0.11606016755104065,
                        "94": -0.13018079102039337,
                        "95": 0.15859368443489075,
                        "96": 0.016378026455640793,
                        "97": -0.12554971873760223,
                        "98": -0.10939843207597733,
                        "99": -0.19861701130867004,
                        "100": 0.20807306468486786,
                        "101": -0.07137282937765121,
                        "102": -0.01209451723843813,
                        "103": -0.011470547877252102,
                        "104": 0.0006436171825043857,
                        "105": 0.1782187521457672,
                        "106": -0.045307841151952744,
                        "107": 0.19315868616104126,
                        "108": -0.11872436851263046,
                        "109": -0.1999237984418869,
                        "110": -0.05991475284099579,
                        "111": -0.08570107817649841,
                        "112": -0.04634054750204086,
                        "113": -0.03480962663888931,
                        "114": 0.051605645567178726,
                        "115": -0.16116811335086823,
                        "116": -0.1255149096250534,
                        "117": -0.13265810906887054,
                        "118": -0.03542100265622139,
                        "119": -0.02469322457909584,
                        "120": 0.2530927062034607,
                        "121": -0.14580747485160828,
                        "122": 0.180660679936409,
                        "123": 0.08561079204082489,
                        "124": -0.047998134046792984,
                        "125": 0.17648102343082428,
                        "126": 0.025246767327189445,
                        "127": -0.051977045834064484,
                        "128": 0.181345596909523,
                        "129": 0.19514741003513336,
                        "130": -0.015531810000538826,
                        "131": 0.0010422667255625129,
                        "132": 0.1843552142381668,
                        "133": 0.04359371215105057,
                        "134": -0.03807473182678223,
                        "135": 0.05167226865887642,
                        "136": -0.12749671936035156,
                        "137": -0.03143458813428879,
                        "138": -0.08810693025588989,
                        "139": 0.015233473852276802,
                        "140": 0.111139215528965,
                        "141": 0.06221912056207657,
                        "142": -0.026983723044395447,
                        "143": 0.001902058138512075,
                        "144": -0.09358242899179459,
                        "145": -0.06136178597807884,
                        "146": 0.011895823292434216,
                        "147": -0.12169481068849564,
                        "148": 0.10316433012485504,
                        "149": 0.22077631950378418,
                        "150": 0.11865878105163574,
                        "151": 0.08588836342096329,
                        "152": 0.18603835999965668,
                        "153": 0.15285824239253998,
                        "154": 0.1406211256980896,
                        "155": -0.10859022289514542,
                        "156": -0.20012778043746948,
                        "157": -0.055360548198223114,
                        "158": -0.05010107159614563,
                        "159": -0.05022873729467392,
                        "160": 0.03257230669260025,
                        "161": -0.02978014014661312,
                        "162": 0.030183112248778343,
                        "163": -0.12979882955551147,
                        "164": 0.21217882633209229,
                        "165": 0.06562411785125732,
                        "166": 0.2041916847229004,
                        "167": 0.13832776248455048,
                        "168": 0.0969136506319046,
                        "169": 0.08831870555877686,
                        "170": -0.13778050243854523,
                        "171": -0.09932044893503189,
                        "172": 0.10499154776334763,
                        "173": -0.09640049189329147,
                        "174": -0.17857547104358673,
                        "175": -0.15130968391895294,
                        "176": -0.1370626837015152,
                        "177": -0.08324012160301208,
                        "178": 0.03208297863602638,
                        "179": -0.02940630540251732,
                        "180": -0.146004781126976,
                        "181": 0.1782352775335312,
                        "182": -0.10872798413038254,
                        "183": 0.1465207040309906,
                        "184": 0.14980922639369965,
                        "185": 0.02980010025203228,
                        "186": 0.09413156658411026,
                        "187": -0.041890572756528854,
                        "188": -0.037619445472955704,
                        "189": -0.16572919487953186,
                        "190": 0.17633096873760223,
                        "191": 0.060065772384405136,
                        "192": 0.031228143721818924,
                        "193": 0.09955286234617233,
                        "194": 0.03363494947552681,
                        "195": -0.11956927925348282,
                        "196": -0.004376524593681097,
                        "197": -0.07326295971870422,
                        "198": 0.24596187472343445,
                        "199": 0.09281593561172485,
                        "200": 0.13667359948158264,
                        "201": -0.005162855610251427,
                        "202": -0.12763765454292297,
                        "203": -0.1635214239358902,
                        "204": 0.009366130456328392,
                        "205": 0.16685716807842255,
                        "206": 0.07536813616752625,
                        "207": -0.09773056209087372,
                        "208": -0.10825135558843613,
                        "209": 0.11510417610406876,
                        "210": 0.12470422685146332,
                        "211": -0.07744646817445755,
                        "212": -0.041196029633283615,
                        "213": 0.03515405207872391,
                        "214": 0.15988171100616455,
                        "215": -0.1758648008108139,
                        "216": 0.22029827535152435,
                        "217": 0.12741802632808685,
                        "218": -0.1215565949678421,
                        "219": 0.1450921893119812,
                        "220": -0.03876122832298279,
                        "221": 0.15715855360031128,
                        "222": -0.09721915423870087,
                        "223": 0.015904374420642853,
                        "224": 0.10317571461200714,
                        "225": -0.04800870642066002,
                        "226": 0.10740989446640015,
                        "227": 0.10528219491243362,
                        "228": -0.0278763510286808,
                        "229": -0.12858155369758606,
                        "230": 0.005354114808142185,
                        "231": -0.08068893849849701,
                        "232": -0.02193080261349678,
                        "233": 0.1773167997598648,
                        "234": 0.1615927368402481,
                        "235": -0.11156319826841354,
                        "236": 0.11018743366003036,
                        "237": -0.024966714903712273,
                        "238": -0.13068637251853943,
                        "239": 0.05416257679462433,
                        "240": -0.06358522176742554,
                        "241": 0.16037195920944214,
                        "242": -0.03754465654492378,
                        "243": 0.03130073845386505,
                        "244": 0.18758712708950043,
                        "245": -0.003342988668009639,
                        "246": -0.18064771592617035,
                        "247": 0.1407189667224884,
                        "248": -0.05489705502986908,
                        "249": -0.11160392314195633,
                        "250": -0.18015623092651367,
                        "251": -0.1555504947900772,
                        "252": 0.06548316776752472,
                        "253": -0.17795607447624207,
                        "254": -0.17534615099430084,
                        "255": 0.06807081401348114
                    }
                },
                "2": {
                    "bias": 0.20484687387943268,
                    "weights": {
                        "0": 0.16022762656211853,
                        "1": -0.13097648322582245,
                        "2": 0.19107429683208466,
                        "3": -0.0640350878238678,
                        "4": 0.080636166036129,
                        "5": -0.14288003742694855,
                        "6": -0.15338470041751862,
                        "7": 0.17652404308319092,
                        "8": 0.1499064415693283,
                        "9": 0.1737012267112732,
                        "10": -0.19372208416461945,
                        "11": 0.16951262950897217,
                        "12": 0.11273857951164246,
                        "13": -0.2013837695121765,
                        "14": 0.2063845694065094,
                        "15": 0.24923783540725708,
                        "16": 0.1237184926867485,
                        "17": -0.08434195816516876,
                        "18": 0.08541358262300491,
                        "19": 0.10180988907814026,
                        "20": 0.06868800520896912,
                        "21": -0.16238117218017578,
                        "22": -0.09590037912130356,
                        "23": 0.17952094972133636,
                        "24": 0.0708642527461052,
                        "25": -0.054265931248664856,
                        "26": -0.03568323701620102,
                        "27": 0.1369411051273346,
                        "28": -0.10034879297018051,
                        "29": 0.05548897013068199,
                        "30": 0.1431729942560196,
                        "31": 0.11922602355480194,
                        "32": 0.21785883605480194,
                        "33": 0.1758144199848175,
                        "34": -0.10840531438589096,
                        "35": 0.077295683324337,
                        "36": -0.11391308158636093,
                        "37": -0.17117640376091003,
                        "38": -0.16744832694530487,
                        "39": -0.011613654904067516,
                        "40": 0.01446476299315691,
                        "41": -0.1361962854862213,
                        "42": -0.000023810107450117357,
                        "43": -0.08063334226608276,
                        "44": -0.03594600409269333,
                        "45": -0.10254637151956558,
                        "46": -0.21471013128757477,
                        "47": -0.0001588425802765414,
                        "48": 0.1366007924079895,
                        "49": 0.08970291912555695,
                        "50": 0.13857148587703705,
                        "51": 0.06153123453259468,
                        "52": -0.023497438058257103,
                        "53": 0.09319985657930374,
                        "54": 0.21242186427116394,
                        "55": 0.018966400995850563,
                        "56": 0.1255122870206833,
                        "57": -0.15231072902679443,
                        "58": -0.14401832222938538,
                        "59": -0.06991177797317505,
                        "60": -0.1458670198917389,
                        "61": 0.1231890395283699,
                        "62": -0.23249877989292145,
                        "63": 0.12841422855854034,
                        "64": 0.010820052586495876,
                        "65": -0.047589387744665146,
                        "66": 0.06227309629321098,
                        "67": 0.17062190175056458,
                        "68": 0.033514972776174545,
                        "69": 0.04160614311695099,
                        "70": -0.12243473529815674,
                        "71": -0.18364186584949493,
                        "72": -0.08796793967485428,
                        "73": 0.04809475317597389,
                        "74": 0.08115335553884506,
                        "75": -0.10408826917409897,
                        "76": -0.21228691935539246,
                        "77": -0.19793987274169922,
                        "78": 0.12054888159036636,
                        "79": 0.03126037120819092,
                        "80": 0.06985102593898773,
                        "81": -0.06519734114408493,
                        "82": 0.14528153836727142,
                        "83": 0.13711857795715332,
                        "84": 0.08781467378139496,
                        "85": -0.15506817400455475,
                        "86": 0.00580460112541914,
                        "87": -0.11583194881677628,
                        "88": -0.15726174414157867,
                        "89": 0.15705110132694244,
                        "90": -0.02824818156659603,
                        "91": -0.033168647438287735,
                        "92": -0.12154929339885712,
                        "93": -0.24473154544830322,
                        "94": -0.12991392612457275,
                        "95": -0.1511206179857254,
                        "96": -0.04947471246123314,
                        "97": 0.04881954938173294,
                        "98": 0.17919836938381195,
                        "99": -0.20356611907482147,
                        "100": -0.200702503323555,
                        "101": -0.14303714036941528,
                        "102": 0.20230647921562195,
                        "103": -0.09331735223531723,
                        "104": 0.17755909264087677,
                        "105": -0.013745766133069992,
                        "106": 0.19047582149505615,
                        "107": -0.09795105457305908,
                        "108": 0.10179433226585388,
                        "109": -0.12624748051166534,
                        "110": -0.0893225446343422,
                        "111": -0.17198523879051208,
                        "112": 0.0786154717206955,
                        "113": 0.2766205966472626,
                        "114": -0.10989788174629211,
                        "115": -0.037653010338544846,
                        "116": 0.007039491552859545,
                        "117": 0.01904054917395115,
                        "118": 0.18122488260269165,
                        "119": -0.11397048085927963,
                        "120": 0.07378077507019043,
                        "121": 0.019819168373942375,
                        "122": 0.14812959730625153,
                        "123": -0.0932161882519722,
                        "124": 0.17922885715961456,
                        "125": 0.01842842809855938,
                        "126": -0.14022400975227356,
                        "127": 0.09838946163654327,
                        "128": 0.0340731181204319,
                        "129": 0.04534684121608734,
                        "130": 0.1932840794324875,
                        "131": 0.19988663494586945,
                        "132": -0.13751842081546783,
                        "133": -0.14608316123485565,
                        "134": -0.020755592733621597,
                        "135": 0.05291328579187393,
                        "136": -0.11564951390028,
                        "137": 0.14150945842266083,
                        "138": 0.17205151915550232,
                        "139": -0.16790920495986938,
                        "140": -0.07815930247306824,
                        "141": 0.12673093378543854,
                        "142": -0.062778539955616,
                        "143": 0.17893153429031372,
                        "144": -0.1458812803030014,
                        "145": -0.06154188513755798,
                        "146": -0.09851279109716415,
                        "147": -0.1837073564529419,
                        "148": -0.06752071529626846,
                        "149": 0.1997174620628357,
                        "150": -0.131490096449852,
                        "151": -0.1614362895488739,
                        "152": -0.10995591431856155,
                        "153": -0.08020078390836716,
                        "154": 0.06511317193508148,
                        "155": -0.196847066283226,
                        "156": 0.061959415674209595,
                        "157": -0.14671441912651062,
                        "158": 0.07816310971975327,
                        "159": 0.1699357032775879,
                        "160": 0.14953099191188812,
                        "161": -0.15531183779239655,
                        "162": 0.10143974423408508,
                        "163": 0.01888825185596943,
                        "164": 0.1335069239139557,
                        "165": -0.17717397212982178,
                        "166": 0.07651667296886444,
                        "167": -0.018536189571022987,
                        "168": -0.06761783361434937,
                        "169": -0.04599712789058685,
                        "170": -0.16291095316410065,
                        "171": -0.054790232330560684,
                        "172": -0.1232936903834343,
                        "173": 0.13961485028266907,
                        "174": 0.18647801876068115,
                        "175": 0.12378673255443573,
                        "176": 0.2201700359582901,
                        "177": 0.14396536350250244,
                        "178": -0.04343247786164284,
                        "179": -0.0657760426402092,
                        "180": 0.0003581463824957609,
                        "181": 0.1112256720662117,
                        "182": -0.016092689707875252,
                        "183": 0.11892014741897583,
                        "184": -0.08509360998868942,
                        "185": 0.17243234813213348,
                        "186": 0.02965741977095604,
                        "187": -0.03254589065909386,
                        "188": 0.1528453677892685,
                        "189": 0.1405714899301529,
                        "190": 0.03010210394859314,
                        "191": 0.1151331290602684,
                        "192": -0.1575630009174347,
                        "193": 0.04313233122229576,
                        "194": -0.10666828602552414,
                        "195": -0.05397873371839523,
                        "196": -0.06557951867580414,
                        "197": -0.13851068913936615,
                        "198": -0.14639268815517426,
                        "199": 0.0198601596057415,
                        "200": -0.08317387104034424,
                        "201": 0.18868571519851685,
                        "202": 0.042733680456876755,
                        "203": 0.17358991503715515,
                        "204": -0.17798644304275513,
                        "205": 0.17159654200077057,
                        "206": 0.12640424072742462,
                        "207": 0.00667001074180007,
                        "208": -0.11270492523908615,
                        "209": 0.15394064784049988,
                        "210": -0.22228312492370605,
                        "211": -0.16437888145446777,
                        "212": 0.036993466317653656,
                        "213": -0.17097730934619904,
                        "214": -0.16515947878360748,
                        "215": 0.08983182162046432,
                        "216": -0.08896851539611816,
                        "217": 0.15430885553359985,
                        "218": -0.06351122260093689,
                        "219": 0.03599928691983223,
                        "220": -0.006224681157618761,
                        "221": -0.1320214718580246,
                        "222": 0.18993286788463593,
                        "223": 0.18501955270767212,
                        "224": -0.0292933639138937,
                        "225": -0.0570143386721611,
                        "226": 0.10503418743610382,
                        "227": 0.1698436141014099,
                        "228": 0.13904815912246704,
                        "229": -0.0165423396974802,
                        "230": -0.10173482447862625,
                        "231": -0.0977119654417038,
                        "232": 0.11283789575099945,
                        "233": -0.06438187509775162,
                        "234": -0.019236907362937927,
                        "235": 0.09184341877698898,
                        "236": 0.013327877968549728,
                        "237": -0.08297336101531982,
                        "238": 0.11290792375802994,
                        "239": 0.08653411269187927,
                        "240": -0.1509573757648468,
                        "241": 0.2045425921678543,
                        "242": -0.172308087348938,
                        "243": -0.13819608092308044,
                        "244": -0.09559406340122223,
                        "245": -0.20073963701725006,
                        "246": 0.15724535286426544,
                        "247": -0.04740956425666809,
                        "248": -0.15655933320522308,
                        "249": 0.04491711035370827,
                        "250": -0.10083107650279999,
                        "251": 0.14085835218429565,
                        "252": -0.06169400364160538,
                        "253": 0.21071167290210724,
                        "254": -0.05213485285639763,
                        "255": 0.05032492056488991
                    }
                },
                "3": {
                    "bias": -0.17584273219108582,
                    "weights": {
                        "0": 0.03280581906437874,
                        "1": 0.13096243143081665,
                        "2": 0.0808044821023941,
                        "3": -0.15715046226978302,
                        "4": -0.225530743598938,
                        "5": -0.13041827082633972,
                        "6": -0.020863428711891174,
                        "7": -0.21525117754936218,
                        "8": -0.07402417808771133,
                        "9": -0.09166137874126434,
                        "10": -0.06362175196409225,
                        "11": 0.020875541493296623,
                        "12": -0.01610640063881874,
                        "13": -0.031052304431796074,
                        "14": -0.0103843342512846,
                        "15": 0.08924674242734909,
                        "16": -0.07345578074455261,
                        "17": -0.027793284505605698,
                        "18": -0.06997142732143402,
                        "19": -0.004885786212980747,
                        "20": -0.080307736992836,
                        "21": -0.15509246289730072,
                        "22": 0.01764594204723835,
                        "23": -0.013651206158101559,
                        "24": -0.005533890333026648,
                        "25": -0.040542736649513245,
                        "26": -0.14834322035312653,
                        "27": -0.21834875643253326,
                        "28": -0.03085528127849102,
                        "29": 0.1540217101573944,
                        "30": -0.04923016577959061,
                        "31": -0.10619041323661804,
                        "32": 0.18966637551784515,
                        "33": -0.11291179805994034,
                        "34": -0.16565591096878052,
                        "35": 0.18711969256401062,
                        "36": 0.07103857398033142,
                        "37": -0.0879175215959549,
                        "38": 0.016257766634225845,
                        "39": -0.00011680890020215884,
                        "40": -0.09467297792434692,
                        "41": -0.19355380535125732,
                        "42": 0.12096546590328217,
                        "43": 0.0487615130841732,
                        "44": -0.11948046088218689,
                        "45": 0.16270124912261963,
                        "46": -0.11465217173099518,
                        "47": -0.1001291424036026,
                        "48": 0.06333091109991074,
                        "49": -0.19345155358314514,
                        "50": -0.1435699462890625,
                        "51": 0.031158264726400375,
                        "52": 0.07308336347341537,
                        "53": -0.03405126556754112,
                        "54": 0.17872931063175201,
                        "55": -0.07383641600608826,
                        "56": -0.12269151955842972,
                        "57": 0.054486583918333054,
                        "58": 0.06482449173927307,
                        "59": 0.15210464596748352,
                        "60": 0.05095744878053665,
                        "61": 0.06609106063842773,
                        "62": -0.11130870878696442,
                        "63": 0.1405322104692459,
                        "64": -0.1414589285850525,
                        "65": 0.07577921450138092,
                        "66": -0.08032619953155518,
                        "67": 0.24618013203144073,
                        "68": 0.0352192223072052,
                        "69": -0.05924428254365921,
                        "70": 0.050128769129514694,
                        "71": 0.12043149769306183,
                        "72": 0.13276347517967224,
                        "73": -0.12543901801109314,
                        "74": 0.07820799201726913,
                        "75": 0.137664794921875,
                        "76": -0.023151610046625137,
                        "77": 0.0821562185883522,
                        "78": 0.17888642847537994,
                        "79": -0.05748186632990837,
                        "80": 0.18123872578144073,
                        "81": 0.10163753479719162,
                        "82": -0.06024191156029701,
                        "83": -0.012062699533998966,
                        "84": 0.15627355873584747,
                        "85": 0.0011592940427362919,
                        "86": 0.03688391298055649,
                        "87": 0.058281149715185165,
                        "88": -0.10641709715127945,
                        "89": 0.010096201673150063,
                        "90": -0.07607562839984894,
                        "91": -0.1298419088125229,
                        "92": -0.12136390805244446,
                        "93": -0.18423733115196228,
                        "94": -0.18247926235198975,
                        "95": 0.06955507397651672,
                        "96": -0.051324740052223206,
                        "97": -0.09953112155199051,
                        "98": 0.13574351370334625,
                        "99": 0.19294553995132446,
                        "100": -0.06604862213134766,
                        "101": -0.23249024152755737,
                        "102": 0.04183811694383621,
                        "103": 0.030362995341420174,
                        "104": 0.061558544635772705,
                        "105": -0.1197497546672821,
                        "106": 0.0896093100309372,
                        "107": 0.03908507525920868,
                        "108": -0.1214645728468895,
                        "109": -0.12746980786323547,
                        "110": -0.15744991600513458,
                        "111": 0.08126159012317657,
                        "112": -0.037953317165374756,
                        "113": -0.09517340362071991,
                        "114": -0.10006445646286011,
                        "115": -0.09556996822357178,
                        "116": 0.18785424530506134,
                        "117": 0.03003767691552639,
                        "118": 0.18934884667396545,
                        "119": 0.22274954617023468,
                        "120": 0.19989080727100372,
                        "121": -0.09792473912239075,
                        "122": 0.18786101043224335,
                        "123": -0.12564438581466675,
                        "124": 0.18538890779018402,
                        "125": 0.1690574586391449,
                        "126": 0.13836069405078888,
                        "127": 0.013904559426009655,
                        "128": -0.06821740418672562,
                        "129": -0.21465493738651276,
                        "130": 0.1566091924905777,
                        "131": -0.18050242960453033,
                        "132": 0.008458155207335949,
                        "133": 0.06527135521173477,
                        "134": 0.15117451548576355,
                        "135": 0.06370098888874054,
                        "136": 0.16492004692554474,
                        "137": 0.17379944026470184,
                        "138": -0.04383637383580208,
                        "139": -0.12151088565587997,
                        "140": 0.0053695449605584145,
                        "141": 0.1117643266916275,
                        "142": -0.04501503333449364,
                        "143": 0.2997105121612549,
                        "144": 0.08210926502943039,
                        "145": -0.08543800562620163,
                        "146": 0.03933043032884598,
                        "147": -0.05037969723343849,
                        "148": 0.007492388598620892,
                        "149": -0.10705959796905518,
                        "150": -0.03694517910480499,
                        "151": 0.06208597496151924,
                        "152": -0.04595419391989708,
                        "153": 0.08622752130031586,
                        "154": 0.03657527267932892,
                        "155": -0.16909009218215942,
                        "156": 0.14132940769195557,
                        "157": 0.14261338114738464,
                        "158": 0.16122101247310638,
                        "159": 0.168729767203331,
                        "160": 0.008184998296201229,
                        "161": 0.09014743566513062,
                        "162": 0.05427408590912819,
                        "163": 0.18855994939804077,
                        "164": 0.08838046342134476,
                        "165": 0.07786715030670166,
                        "166": 0.12585479021072388,
                        "167": -0.024278797209262848,
                        "168": 0.09818188101053238,
                        "169": -0.1039755642414093,
                        "170": 0.12445155531167984,
                        "171": -0.05714365839958191,
                        "172": 0.15245942771434784,
                        "173": -0.14895473420619965,
                        "174": -0.12484942376613617,
                        "175": -0.01508355513215065,
                        "176": 0.015119119547307491,
                        "177": -0.0019520556088536978,
                        "178": -0.09349866956472397,
                        "179": 0.20695295929908752,
                        "180": -0.024696720764040947,
                        "181": 0.06916499137878418,
                        "182": 0.022726478055119514,
                        "183": -0.1213139146566391,
                        "184": -0.1560344696044922,
                        "185": -0.05164432153105736,
                        "186": 0.1416064202785492,
                        "187": -0.14796440303325653,
                        "188": -0.00004278187043382786,
                        "189": -0.03618038445711136,
                        "190": 0.12286674976348877,
                        "191": 0.09755078703165054,
                        "192": 0.034226350486278534,
                        "193": 0.12189875543117523,
                        "194": 0.15330113470554352,
                        "195": 0.0947239100933075,
                        "196": -0.17239658534526825,
                        "197": 0.07561767101287842,
                        "198": -0.14720331132411957,
                        "199": -0.11416025459766388,
                        "200": 0.1071389690041542,
                        "201": 0.17942579090595245,
                        "202": -0.07177365571260452,
                        "203": 0.12242398411035538,
                        "204": -0.11750677973031998,
                        "205": 0.07692565023899078,
                        "206": 0.09183748066425323,
                        "207": -0.10033293813467026,
                        "208": 0.06391797959804535,
                        "209": -0.03488417714834213,
                        "210": -0.0510939285159111,
                        "211": 0.10760458558797836,
                        "212": -0.15386517345905304,
                        "213": -0.09372398257255554,
                        "214": 0.07633131742477417,
                        "215": 0.14324750006198883,
                        "216": 0.20146669447422028,
                        "217": -0.06233670562505722,
                        "218": 0.07078418880701065,
                        "219": -0.18180884420871735,
                        "220": -0.1436948925256729,
                        "221": -0.09094248712062836,
                        "222": 0.013174327090382576,
                        "223": -0.011730409227311611,
                        "224": 0.032099153846502304,
                        "225": -0.1148151084780693,
                        "226": -0.21924935281276703,
                        "227": -0.14190104603767395,
                        "228": 0.03990127518773079,
                        "229": -0.04871596768498421,
                        "230": 0.09779425710439682,
                        "231": -0.1182529404759407,
                        "232": 0.12473899871110916,
                        "233": -0.12569904327392578,
                        "234": 0.18221983313560486,
                        "235": 0.1223926767706871,
                        "236": 0.0493348091840744,
                        "237": 0.1626712679862976,
                        "238": 0.09177499264478683,
                        "239": 0.17268891632556915,
                        "240": -0.10476703196763992,
                        "241": 0.11834932863712311,
                        "242": -0.2109646052122116,
                        "243": -0.019610373303294182,
                        "244": -0.1642770618200302,
                        "245": -0.026671208441257477,
                        "246": -0.19431647658348083,
                        "247": -0.12559907138347626,
                        "248": 0.005054089706391096,
                        "249": 0.01773899421095848,
                        "250": -0.20034149289131165,
                        "251": 0.19611646234989166,
                        "252": -0.11539111286401749,
                        "253": 0.06393023580312729,
                        "254": -0.12866392731666565,
                        "255": -0.009212552569806576
                    }
                },
                "4": {
                    "bias": 0.1529468446969986,
                    "weights": {
                        "0": -0.18893201649188995,
                        "1": 0.07232267409563065,
                        "2": 0.10419560968875885,
                        "3": 0.019600966945290565,
                        "4": 0.0967770516872406,
                        "5": 0.12524259090423584,
                        "6": -0.10661405324935913,
                        "7": 0.14281179010868073,
                        "8": 0.20691172778606415,
                        "9": -0.04640131816267967,
                        "10": -0.06221386790275574,
                        "11": 0.08413809537887573,
                        "12": 0.13906456530094147,
                        "13": 0.17358773946762085,
                        "14": -0.13474206626415253,
                        "15": 0.12193402647972107,
                        "16": -0.04588804021477699,
                        "17": 0.152617409825325,
                        "18": -0.06584761291742325,
                        "19": 0.1512036770582199,
                        "20": 0.10850351303815842,
                        "21": -0.11758396774530411,
                        "22": -0.1669389009475708,
                        "23": 0.18079955875873566,
                        "24": -0.049636371433734894,
                        "25": 0.14993365108966827,
                        "26": -0.11957971751689911,
                        "27": -0.1653975546360016,
                        "28": -0.04521046578884125,
                        "29": 0.07410866767168045,
                        "30": -0.1601271778345108,
                        "31": -0.11517591029405594,
                        "32": -0.10666252672672272,
                        "33": -0.032912787050008774,
                        "34": 0.09625301510095596,
                        "35": 0.12732981145381927,
                        "36": 0.06561052054166794,
                        "37": -0.034249044954776764,
                        "38": 0.07250938564538956,
                        "39": -0.07895535975694656,
                        "40": -0.19893087446689606,
                        "41": 0.00922261830419302,
                        "42": -0.22408261895179749,
                        "43": 0.13124948740005493,
                        "44": -0.09775152802467346,
                        "45": -0.12569783627986908,
                        "46": 0.031181933358311653,
                        "47": -0.1522607058286667,
                        "48": -0.11560308933258057,
                        "49": -0.13766486942768097,
                        "50": 0.1468632072210312,
                        "51": -0.07314032316207886,
                        "52": 0.04474632441997528,
                        "53": 0.02422270178794861,
                        "54": -0.178069069981575,
                        "55": -0.0378413088619709,
                        "56": -0.09121940284967422,
                        "57": -0.040620967745780945,
                        "58": -0.12554669380187988,
                        "59": -0.16627612709999084,
                        "60": -0.11187836527824402,
                        "61": -0.17928913235664368,
                        "62": 0.034434955567121506,
                        "63": -0.12858141958713531,
                        "64": -0.15012900531291962,
                        "65": -0.13430915772914886,
                        "66": -0.12853661179542542,
                        "67": 0.008074955083429813,
                        "68": -0.12160315364599228,
                        "69": 0.09959016740322113,
                        "70": 0.16863392293453217,
                        "71": -0.03501533344388008,
                        "72": 0.0558663047850132,
                        "73": 0.0021473532542586327,
                        "74": -0.034998174756765366,
                        "75": 0.139518603682518,
                        "76": 0.10340738296508789,
                        "77": 0.12783604860305786,
                        "78": -0.16769874095916748,
                        "79": -0.0750388577580452,
                        "80": -0.0003006311017088592,
                        "81": 0.2089446783065796,
                        "82": 0.022469528019428253,
                        "83": -0.15940533578395844,
                        "84": 0.1193295270204544,
                        "85": 0.17538364231586456,
                        "86": -0.14999836683273315,
                        "87": -0.07676935940980911,
                        "88": 0.10874123126268387,
                        "89": -0.042194534093141556,
                        "90": -0.08555673807859421,
                        "91": -0.04524794593453407,
                        "92": 0.1623803675174713,
                        "93": 0.013361380435526371,
                        "94": -0.0700904056429863,
                        "95": 0.1360752284526825,
                        "96": 0.0987098440527916,
                        "97": 0.018323589116334915,
                        "98": 0.2002519965171814,
                        "99": 0.08833382278680801,
                        "100": 0.021901840344071388,
                        "101": -0.20088355243206024,
                        "102": 0.04071585834026337,
                        "103": 0.10234203934669495,
                        "104": 0.12149026244878769,
                        "105": 0.11133190989494324,
                        "106": 0.17508645355701447,
                        "107": -0.1661621779203415,
                        "108": -0.05779622122645378,
                        "109": -0.14707782864570618,
                        "110": 0.1937863528728485,
                        "111": -0.15586452186107635,
                        "112": 0.03865918889641762,
                        "113": -0.017992667853832245,
                        "114": 0.1905098408460617,
                        "115": 0.08045367151498795,
                        "116": -0.12508101761341095,
                        "117": -0.1494855135679245,
                        "118": 0.1097903773188591,
                        "119": -0.19968152046203613,
                        "120": 0.13409151136875153,
                        "121": 0.09955890476703644,
                        "122": -0.1754554659128189,
                        "123": 0.10853191465139389,
                        "124": -0.03082374297082424,
                        "125": 0.03228127956390381,
                        "126": 0.07098633795976639,
                        "127": 0.08826158195734024,
                        "128": 0.1778845489025116,
                        "129": -0.05353762209415436,
                        "130": -0.027156759053468704,
                        "131": 0.1347154974937439,
                        "132": -0.04664340242743492,
                        "133": 0.15117384493350983,
                        "134": 0.17418557405471802,
                        "135": -0.19168716669082642,
                        "136": -0.18760471045970917,
                        "137": 0.13322722911834717,
                        "138": 0.13176840543746948,
                        "139": 0.16201479732990265,
                        "140": 0.05146494135260582,
                        "141": -0.10827652364969254,
                        "142": -0.07916019856929779,
                        "143": 0.03366668149828911,
                        "144": 0.10709833353757858,
                        "145": 0.025245223194360733,
                        "146": 0.10258925706148148,
                        "147": -0.008281165733933449,
                        "148": -0.05646826699376106,
                        "149": 0.12683027982711792,
                        "150": -0.18500745296478271,
                        "151": -0.1608884334564209,
                        "152": 0.0896114706993103,
                        "153": 0.12989601492881775,
                        "154": -0.006575515493750572,
                        "155": 0.13562683761119843,
                        "156": 0.07435664534568787,
                        "157": -0.11089096963405609,
                        "158": -0.1869300752878189,
                        "159": -0.1333117038011551,
                        "160": -0.024586180225014687,
                        "161": 0.03270342946052551,
                        "162": -0.20966096222400665,
                        "163": -0.07124339044094086,
                        "164": -0.13773047924041748,
                        "165": 0.05617305263876915,
                        "166": 0.04691021889448166,
                        "167": -0.13865479826927185,
                        "168": -0.18528206646442413,
                        "169": -0.20160017907619476,
                        "170": 0.1418399065732956,
                        "171": -0.008474962785840034,
                        "172": 0.12944898009300232,
                        "173": -0.0899980291724205,
                        "174": 0.1672346293926239,
                        "175": 0.00008626836643088609,
                        "176": -0.15608349442481995,
                        "177": 0.06197262927889824,
                        "178": 0.16234815120697021,
                        "179": -0.09676798433065414,
                        "180": 0.16371364891529083,
                        "181": -0.007546589709818363,
                        "182": 0.01697409711778164,
                        "183": 0.00515618734061718,
                        "184": -0.18364033102989197,
                        "185": 0.11354494839906693,
                        "186": 0.009606643579900265,
                        "187": 0.2207385003566742,
                        "188": -0.03849035128951073,
                        "189": 0.05844377726316452,
                        "190": 0.14982283115386963,
                        "191": -0.03281750902533531,
                        "192": 0.059157732874155045,
                        "193": 0.10566698014736176,
                        "194": -0.07806181907653809,
                        "195": -0.08529149740934372,
                        "196": 0.11920112371444702,
                        "197": -0.0009468643693253398,
                        "198": -0.049729082733392715,
                        "199": 0.07618384063243866,
                        "200": 0.08745129406452179,
                        "201": -0.1266690045595169,
                        "202": -0.0930468812584877,
                        "203": 0.06737442314624786,
                        "204": 0.20655494928359985,
                        "205": -0.024828754365444183,
                        "206": -0.10258606821298599,
                        "207": 0.13824224472045898,
                        "208": -0.04115018621087074,
                        "209": -0.11940319091081619,
                        "210": 0.09381773322820663,
                        "211": 0.07254472374916077,
                        "212": 0.04793122038245201,
                        "213": 0.012426050379872322,
                        "214": -0.06718496978282928,
                        "215": -0.13065177202224731,
                        "216": -0.14135576784610748,
                        "217": -0.17015135288238525,
                        "218": -0.08270631730556488,
                        "219": 0.21476098895072937,
                        "220": 0.10480480641126633,
                        "221": -0.014913031831383705,
                        "222": -0.1466144472360611,
                        "223": 0.18507073819637299,
                        "224": 0.01670466549694538,
                        "225": -0.09433713555335999,
                        "226": -0.06951823085546494,
                        "227": 0.043033480644226074,
                        "228": 0.11013463884592056,
                        "229": 0.1819968968629837,
                        "230": -0.005073062144219875,
                        "231": -0.13984981179237366,
                        "232": -0.0865224301815033,
                        "233": 0.025705715641379356,
                        "234": 0.0909675657749176,
                        "235": -0.12190345674753189,
                        "236": 0.1755869835615158,
                        "237": 0.007942120544612408,
                        "238": -0.01789969950914383,
                        "239": -0.027690831571817398,
                        "240": -0.10533169656991959,
                        "241": 0.1598244607448578,
                        "242": -0.15572489798069,
                        "243": -0.04788818210363388,
                        "244": 0.19756458699703217,
                        "245": 0.0883130431175232,
                        "246": 0.10737564414739609,
                        "247": -0.0018009636551141739,
                        "248": 0.04743395000696182,
                        "249": 0.006356395315378904,
                        "250": -0.17427848279476166,
                        "251": 0.13285477459430695,
                        "252": -0.08749378472566605,
                        "253": -0.019439052790403366,
                        "254": -0.009876752272248268,
                        "255": 0.07271043956279755
                    }
                },
                "5": {
                    "bias": 0.15614739060401917,
                    "weights": {
                        "0": -0.01734296791255474,
                        "1": -0.10821778327226639,
                        "2": 0.14648306369781494,
                        "3": 0.10514532774686813,
                        "4": 0.10349046438932419,
                        "5": -0.16419890522956848,
                        "6": 0.08886504173278809,
                        "7": 0.08386549353599548,
                        "8": -0.12178116291761398,
                        "9": 0.19383813440799713,
                        "10": -0.08555977791547775,
                        "11": -0.035035859793424606,
                        "12": -0.013191440142691135,
                        "13": 0.1584184169769287,
                        "14": -0.06426909565925598,
                        "15": -0.10728229582309723,
                        "16": -0.09117191284894943,
                        "17": 0.18181610107421875,
                        "18": 0.09299766272306442,
                        "19": -0.08791950345039368,
                        "20": 0.033377841114997864,
                        "21": 0.12131698429584503,
                        "22": -0.18640093505382538,
                        "23": -0.16210173070430756,
                        "24": -0.19880688190460205,
                        "25": 0.1265658438205719,
                        "26": -0.1586291342973709,
                        "27": -0.17219559848308563,
                        "28": -0.04884961619973183,
                        "29": -0.003696926636621356,
                        "30": 0.16156046092510223,
                        "31": -0.053040724247694016,
                        "32": -0.1084088385105133,
                        "33": 0.1276567578315735,
                        "34": 0.16258442401885986,
                        "35": -0.009205385111272335,
                        "36": -0.16924914717674255,
                        "37": -0.14789147675037384,
                        "38": 0.038029465824365616,
                        "39": -0.16455592215061188,
                        "40": 0.06655780971050262,
                        "41": -0.04752914607524872,
                        "42": 0.153412863612175,
                        "43": -0.10880458354949951,
                        "44": -0.014824804849922657,
                        "45": -0.1151786595582962,
                        "46": 0.14647610485553741,
                        "47": -0.12305253744125366,
                        "48": 0.046523358672857285,
                        "49": 0.22821450233459473,
                        "50": 0.1305290013551712,
                        "51": -0.11128109693527222,
                        "52": -0.19079212844371796,
                        "53": 0.11339064687490463,
                        "54": -0.211013063788414,
                        "55": -0.1073802188038826,
                        "56": -0.11028482764959335,
                        "57": 0.015575011260807514,
                        "58": -0.19218970835208893,
                        "59": -0.1368427276611328,
                        "60": -0.13790911436080933,
                        "61": -0.08190884441137314,
                        "62": 0.1882091611623764,
                        "63": 0.02556423656642437,
                        "64": 0.19637899100780487,
                        "65": 0.20333267748355865,
                        "66": 0.022722218185663223,
                        "67": 0.15281371772289276,
                        "68": 0.0655503123998642,
                        "69": -0.22619491815567017,
                        "70": -0.047914765775203705,
                        "71": 0.09643647819757462,
                        "72": 0.04700135067105293,
                        "73": -0.17324405908584595,
                        "74": 0.10109996795654297,
                        "75": -0.02419273369014263,
                        "76": -0.08004656434059143,
                        "77": -0.17581096291542053,
                        "78": -0.13997216522693634,
                        "79": 0.006618141196668148,
                        "80": 0.06567196547985077,
                        "81": 0.12738972902297974,
                        "82": 0.0845738872885704,
                        "83": -0.2078288197517395,
                        "84": -0.17267055809497833,
                        "85": -0.11988946795463562,
                        "86": 0.11195437610149384,
                        "87": -0.18558217585086823,
                        "88": 0.060733161866664886,
                        "89": -0.17455509305000305,
                        "90": 0.12742705643177032,
                        "91": 0.1502923220396042,
                        "92": 0.14929334819316864,
                        "93": 0.016634924337267876,
                        "94": -0.014729869551956654,
                        "95": -0.002345498651266098,
                        "96": 0.07619612663984299,
                        "97": -0.20174813270568848,
                        "98": -0.19879257678985596,
                        "99": -0.12050732225179672,
                        "100": 0.02435963787138462,
                        "101": 0.16178907454013824,
                        "102": -0.025790350511670113,
                        "103": -0.07852781563997269,
                        "104": -0.10231483727693558,
                        "105": -0.02077348902821541,
                        "106": -0.18066294491291046,
                        "107": -0.06104573979973793,
                        "108": 0.097493015229702,
                        "109": 0.15151970088481903,
                        "110": -0.02059972658753395,
                        "111": -0.119986392557621,
                        "112": 0.08393647521734238,
                        "113": -0.13656507432460785,
                        "114": -0.1330547332763672,
                        "115": 0.1135922521352768,
                        "116": -0.05821537971496582,
                        "117": -0.1454276144504547,
                        "118": 0.035308852791786194,
                        "119": 0.21569333970546722,
                        "120": 0.1329030841588974,
                        "121": -0.12525175511837006,
                        "122": 0.12772247195243835,
                        "123": -0.16026242077350616,
                        "124": 0.05564858764410019,
                        "125": 0.14525219798088074,
                        "126": -0.08676132559776306,
                        "127": 0.07769080996513367,
                        "128": 0.12237782031297684,
                        "129": 0.003480112412944436,
                        "130": 0.04137527570128441,
                        "131": 0.10371550917625427,
                        "132": 0.21048758924007416,
                        "133": 0.22054551541805267,
                        "134": 0.19513154029846191,
                        "135": 0.19368690252304077,
                        "136": -0.06371460855007172,
                        "137": 0.17615532875061035,
                        "138": 0.15534363687038422,
                        "139": 0.11189522594213486,
                        "140": -0.18447713553905487,
                        "141": 0.18240715563297272,
                        "142": -0.0913531482219696,
                        "143": 0.12948057055473328,
                        "144": 0.1404784768819809,
                        "145": 0.17306086421012878,
                        "146": 0.1179039254784584,
                        "147": -0.03905213624238968,
                        "148": 0.029673758894205093,
                        "149": -0.12267684936523438,
                        "150": 0.0497029609978199,
                        "151": 0.08352259546518326,
                        "152": -0.08916068077087402,
                        "153": 0.03663058951497078,
                        "154": 0.03082786127924919,
                        "155": -0.11424848437309265,
                        "156": -0.03719711676239967,
                        "157": -0.15848079323768616,
                        "158": -0.13379831612110138,
                        "159": 0.1959364116191864,
                        "160": -0.0014060204848647118,
                        "161": 0.017358457669615746,
                        "162": -0.07460061460733414,
                        "163": -0.005555992014706135,
                        "164": -0.08414789289236069,
                        "165": -0.014113521203398705,
                        "166": 0.17151400446891785,
                        "167": 0.07354254275560379,
                        "168": -0.03664671629667282,
                        "169": -0.11234577000141144,
                        "170": -0.13405869901180267,
                        "171": 0.15778730809688568,
                        "172": 0.1371496319770813,
                        "173": -0.10838104039430618,
                        "174": 0.11812319606542587,
                        "175": 0.18897682428359985,
                        "176": 0.07472442835569382,
                        "177": 0.0738418772816658,
                        "178": 0.03659459948539734,
                        "179": -0.18575340509414673,
                        "180": 0.04605763778090477,
                        "181": 0.07649637013673782,
                        "182": -0.012496699579060078,
                        "183": -0.06921719759702682,
                        "184": -0.04716530814766884,
                        "185": -0.025015421211719513,
                        "186": -0.18985815346240997,
                        "187": -0.01572532393038273,
                        "188": -0.08495855331420898,
                        "189": -0.09894941747188568,
                        "190": -0.06567712873220444,
                        "191": -0.032965466380119324,
                        "192": -0.1158866211771965,
                        "193": 0.056698523461818695,
                        "194": -0.22777001559734344,
                        "195": -0.08086099475622177,
                        "196": 0.21720091998577118,
                        "197": -0.15640981495380402,
                        "198": 0.05561397224664688,
                        "199": -0.07365540415048599,
                        "200": -0.057861778885126114,
                        "201": 0.1267247498035431,
                        "202": 0.12214148789644241,
                        "203": 0.04768567904829979,
                        "204": -0.014885813929140568,
                        "205": -0.017134100198745728,
                        "206": 0.011677294969558716,
                        "207": -0.028607716783881187,
                        "208": -0.23546774685382843,
                        "209": 0.11051419377326965,
                        "210": -0.17508231103420258,
                        "211": 0.18136851489543915,
                        "212": 0.03937302902340889,
                        "213": -0.17340749502182007,
                        "214": -0.011041387915611267,
                        "215": 0.01366179808974266,
                        "216": 0.13619926571846008,
                        "217": -0.09753277152776718,
                        "218": -0.18575100600719452,
                        "219": -0.05962543934583664,
                        "220": -0.07258590310811996,
                        "221": -0.1438904106616974,
                        "222": -0.11283053457736969,
                        "223": -0.02882571704685688,
                        "224": -0.10665189474821091,
                        "225": -0.008905009366571903,
                        "226": 0.004436671733856201,
                        "227": 0.0686807781457901,
                        "228": 0.11586949229240417,
                        "229": 0.029631443321704865,
                        "230": -0.14536835253238678,
                        "231": -0.15150240063667297,
                        "232": 0.1814303696155548,
                        "233": -0.01449841633439064,
                        "234": -0.053351856768131256,
                        "235": -0.13679634034633636,
                        "236": -0.1471436321735382,
                        "237": 0.08505487442016602,
                        "238": 0.1178741529583931,
                        "239": -0.002067941939458251,
                        "240": 0.033333245664834976,
                        "241": 0.19331327080726624,
                        "242": -0.013305253349244595,
                        "243": -0.07852750271558762,
                        "244": -0.007124653551727533,
                        "245": 0.06295391917228699,
                        "246": 0.1738734096288681,
                        "247": -0.02635270170867443,
                        "248": 0.06916701048612595,
                        "249": -0.06632921099662781,
                        "250": -0.04474868252873421,
                        "251": 0.1592089980840683,
                        "252": 0.16254305839538574,
                        "253": -0.15168078243732452,
                        "254": 0.13838039338588715,
                        "255": 0.1419053077697754
                    }
                },
                "6": {
                    "bias": 0.081755131483078,
                    "weights": {
                        "0": -0.18770553171634674,
                        "1": 0.07264967262744904,
                        "2": 0.04186231642961502,
                        "3": -0.10232815146446228,
                        "4": -0.020872263237833977,
                        "5": -0.12525567412376404,
                        "6": -0.16712400317192078,
                        "7": 0.07338030636310577,
                        "8": 0.16508574783802032,
                        "9": 0.12812106311321259,
                        "10": -0.01857985183596611,
                        "11": 0.17741723358631134,
                        "12": -0.20032957196235657,
                        "13": -0.14093507826328278,
                        "14": 0.14484934508800507,
                        "15": -0.18842114508152008,
                        "16": 0.017936304211616516,
                        "17": 0.09569472074508667,
                        "18": -0.1084432303905487,
                        "19": -0.1215168908238411,
                        "20": 0.04480118304491043,
                        "21": -0.18981778621673584,
                        "22": 0.08491412550210953,
                        "23": 0.12201113253831863,
                        "24": -0.08584760874509811,
                        "25": 0.15514951944351196,
                        "26": -0.1119990348815918,
                        "27": -0.024995649233460426,
                        "28": 0.1315934956073761,
                        "29": 0.1759142428636551,
                        "30": -0.16270117461681366,
                        "31": 0.10475309193134308,
                        "32": -0.10536523908376694,
                        "33": 0.15871332585811615,
                        "34": -0.19883090257644653,
                        "35": -0.09377256780862808,
                        "36": -0.16989785432815552,
                        "37": 0.18224413692951202,
                        "38": -0.019287053495645523,
                        "39": 0.15283361077308655,
                        "40": -0.011542600579559803,
                        "41": -0.03629866987466812,
                        "42": 0.05360974743962288,
                        "43": 0.08998112380504608,
                        "44": -0.10967780649662018,
                        "45": 0.016636161133646965,
                        "46": -0.10994161665439606,
                        "47": 0.1581081748008728,
                        "48": -0.0691022127866745,
                        "49": -0.0432262159883976,
                        "50": 0.0582231767475605,
                        "51": 0.1571534126996994,
                        "52": -0.0799318477511406,
                        "53": 0.04936223104596138,
                        "54": 0.015564869157969952,
                        "55": 0.09815914183855057,
                        "56": 0.014494622126221657,
                        "57": -0.14030206203460693,
                        "58": 0.09817378968000412,
                        "59": 0.09823744744062424,
                        "60": -0.034879278391599655,
                        "61": 0.1114618256688118,
                        "62": -0.14760218560695648,
                        "63": 0.15564483404159546,
                        "64": -0.03628496080636978,
                        "65": -0.10547620058059692,
                        "66": -0.14891426265239716,
                        "67": -0.13593949377536774,
                        "68": -0.09781262278556824,
                        "69": 0.13977158069610596,
                        "70": 0.13712555170059204,
                        "71": -0.17865057289600372,
                        "72": -0.18946406245231628,
                        "73": -0.1556398570537567,
                        "74": -0.13694152235984802,
                        "75": -0.07056142389774323,
                        "76": -0.15029014647006989,
                        "77": 0.12988923490047455,
                        "78": -0.18111471831798553,
                        "79": 0.17784200608730316,
                        "80": 0.048386480659246445,
                        "81": 0.18858203291893005,
                        "82": -0.11691787093877792,
                        "83": 0.1183578372001648,
                        "84": 0.16067801415920258,
                        "85": -0.14646504819393158,
                        "86": 0.12624229490756989,
                        "87": -0.04900481924414635,
                        "88": 0.07361014932394028,
                        "89": -0.11859390139579773,
                        "90": -0.18780866265296936,
                        "91": 0.14655013382434845,
                        "92": 0.004210223909467459,
                        "93": -0.08850723505020142,
                        "94": 0.11860246956348419,
                        "95": -0.11177007853984833,
                        "96": 0.11684597283601761,
                        "97": 0.09470975399017334,
                        "98": 0.11586051434278488,
                        "99": 0.06850366294384003,
                        "100": -0.00905077625066042,
                        "101": -0.03146613761782646,
                        "102": 0.04573844373226166,
                        "103": -0.016516543924808502,
                        "104": -0.04491797834634781,
                        "105": 0.13469812273979187,
                        "106": -0.016813214868307114,
                        "107": 0.16486352682113647,
                        "108": -0.13447082042694092,
                        "109": 0.1414518803358078,
                        "110": 0.10108723491430283,
                        "111": 0.1603734791278839,
                        "112": 0.01861836202442646,
                        "113": 0.07892532646656036,
                        "114": 0.012674771249294281,
                        "115": 0.011534880846738815,
                        "116": 0.14830245077610016,
                        "117": 0.1904490739107132,
                        "118": -0.17059354484081268,
                        "119": -0.034406207501888275,
                        "120": -0.15379081666469574,
                        "121": -0.10284421592950821,
                        "122": 0.09121014922857285,
                        "123": -0.18747106194496155,
                        "124": 0.17954109609127045,
                        "125": 0.112855926156044,
                        "126": 0.1649339348077774,
                        "127": -0.0042477818205952644,
                        "128": 0.03554326295852661,
                        "129": -0.08818691968917847,
                        "130": -0.06607212126255035,
                        "131": -0.14490748941898346,
                        "132": -0.01613694615662098,
                        "133": 0.03752247244119644,
                        "134": -0.16876457631587982,
                        "135": 0.0031714553479105234,
                        "136": -0.16396237909793854,
                        "137": 0.15956418216228485,
                        "138": 0.07895778864622116,
                        "139": -0.059773560613393784,
                        "140": -0.15043646097183228,
                        "141": -0.14813144505023956,
                        "142": -0.16116932034492493,
                        "143": 0.12068589776754379,
                        "144": 0.13610400259494781,
                        "145": 0.06538636982440948,
                        "146": 0.004810474347323179,
                        "147": 0.04158870503306389,
                        "148": 0.0372137688100338,
                        "149": -0.13571110367774963,
                        "150": -0.0774998888373375,
                        "151": -0.05876261368393898,
                        "152": -0.14248567819595337,
                        "153": 0.06502635031938553,
                        "154": 0.13920238614082336,
                        "155": -0.10391100496053696,
                        "156": -0.13077840209007263,
                        "157": -0.1516752690076828,
                        "158": 0.14137378334999084,
                        "159": 0.03357478603720665,
                        "160": 0.06933184713125229,
                        "161": -0.16045810282230377,
                        "162": 0.08841811865568161,
                        "163": 0.18059022724628448,
                        "164": -0.06724382936954498,
                        "165": 0.19656281173229218,
                        "166": -0.015894131734967232,
                        "167": 0.17345304787158966,
                        "168": 0.16036541759967804,
                        "169": 0.2010035663843155,
                        "170": 0.035158976912498474,
                        "171": 0.01223221980035305,
                        "172": -0.03675439581274986,
                        "173": -0.16937293112277985,
                        "174": -0.12601417303085327,
                        "175": 0.19155995547771454,
                        "176": 0.006603425368666649,
                        "177": 0.17610213160514832,
                        "178": 0.15534628927707672,
                        "179": 0.04225990176200867,
                        "180": 0.16372190415859222,
                        "181": -0.18238577246665955,
                        "182": 0.10644204914569855,
                        "183": -0.08629471808671951,
                        "184": 0.18475040793418884,
                        "185": -0.1468486487865448,
                        "186": 0.08488228917121887,
                        "187": -0.10837363451719284,
                        "188": -0.07584713399410248,
                        "189": 0.07563906908035278,
                        "190": -0.11626565456390381,
                        "191": 0.1355503499507904,
                        "192": -0.01559575367718935,
                        "193": -0.03464991971850395,
                        "194": 0.10252124071121216,
                        "195": 0.1950410157442093,
                        "196": 0.10762437433004379,
                        "197": 0.19072024524211884,
                        "198": 0.20232157409191132,
                        "199": 0.13196982443332672,
                        "200": -0.004505680408328772,
                        "201": -0.17746354639530182,
                        "202": 0.10220219194889069,
                        "203": -0.07528447359800339,
                        "204": -0.05669918283820152,
                        "205": -0.04529287666082382,
                        "206": -0.0417865552008152,
                        "207": 0.03453691676259041,
                        "208": 0.13382184505462646,
                        "209": 0.14120149612426758,
                        "210": -0.19115832448005676,
                        "211": -0.002907245187088847,
                        "212": 0.023962683975696564,
                        "213": -0.07864709198474884,
                        "214": -0.05084716156125069,
                        "215": 0.06456169486045837,
                        "216": -0.12883824110031128,
                        "217": 0.02989818900823593,
                        "218": -0.017294710502028465,
                        "219": 0.05572265759110451,
