{
    "info": {
        "ai": {
            "config": {
                "hiddenLayers": [
                    128,
                    128
                ],
                "activation": "tanh"
            },
            "training": {
                "iterations": 500,
                "errorThresh": 0.001,
                "learningRate": 0.001,
                "momentum": 0.1
            }
        },
        "id": "8acb4953a8a721623b9371180620bfa8",
        "dimension": [
            16,
            16
        ],
        "channel": "red",
        "colorspace": "b-w",
        "blackWhite": true
    },
    "data": {
        "sizes": [
            256,
            128,
            128,
            10
        ],
        "layers": [
            {
                "0": {},
                "1": {},
                "2": {},
                "3": {},
                "4": {},
                "5": {},
                "6": {},
                "7": {},
                "8": {},
                "9": {},
                "10": {},
                "11": {},
                "12": {},
                "13": {},
                "14": {},
                "15": {},
                "16": {},
                "17": {},
                "18": {},
                "19": {},
                "20": {},
                "21": {},
                "22": {},
                "23": {},
                "24": {},
                "25": {},
                "26": {},
                "27": {},
                "28": {},
                "29": {},
                "30": {},
                "31": {},
                "32": {},
                "33": {},
                "34": {},
                "35": {},
                "36": {},
                "37": {},
                "38": {},
                "39": {},
                "40": {},
                "41": {},
                "42": {},
                "43": {},
                "44": {},
                "45": {},
                "46": {},
                "47": {},
                "48": {},
                "49": {},
                "50": {},
                "51": {},
                "52": {},
                "53": {},
                "54": {},
                "55": {},
                "56": {},
                "57": {},
                "58": {},
                "59": {},
                "60": {},
                "61": {},
                "62": {},
                "63": {},
                "64": {},
                "65": {},
                "66": {},
                "67": {},
                "68": {},
                "69": {},
                "70": {},
                "71": {},
                "72": {},
                "73": {},
                "74": {},
                "75": {},
                "76": {},
                "77": {},
                "78": {},
                "79": {},
                "80": {},
                "81": {},
                "82": {},
                "83": {},
                "84": {},
                "85": {},
                "86": {},
                "87": {},
                "88": {},
                "89": {},
                "90": {},
                "91": {},
                "92": {},
                "93": {},
                "94": {},
                "95": {},
                "96": {},
                "97": {},
                "98": {},
                "99": {},
                "100": {},
                "101": {},
                "102": {},
                "103": {},
                "104": {},
                "105": {},
                "106": {},
                "107": {},
                "108": {},
                "109": {},
                "110": {},
                "111": {},
                "112": {},
                "113": {},
                "114": {},
                "115": {},
                "116": {},
                "117": {},
                "118": {},
                "119": {},
                "120": {},
                "121": {},
                "122": {},
                "123": {},
                "124": {},
                "125": {},
                "126": {},
                "127": {},
                "128": {},
                "129": {},
                "130": {},
                "131": {},
                "132": {},
                "133": {},
                "134": {},
                "135": {},
                "136": {},
                "137": {},
                "138": {},
                "139": {},
                "140": {},
                "141": {},
                "142": {},
                "143": {},
                "144": {},
                "145": {},
                "146": {},
                "147": {},
                "148": {},
                "149": {},
                "150": {},
                "151": {},
                "152": {},
                "153": {},
                "154": {},
                "155": {},
                "156": {},
                "157": {},
                "158": {},
                "159": {},
                "160": {},
                "161": {},
                "162": {},
                "163": {},
                "164": {},
                "165": {},
                "166": {},
                "167": {},
                "168": {},
                "169": {},
                "170": {},
                "171": {},
                "172": {},
                "173": {},
                "174": {},
                "175": {},
                "176": {},
                "177": {},
                "178": {},
                "179": {},
                "180": {},
                "181": {},
                "182": {},
                "183": {},
                "184": {},
                "185": {},
                "186": {},
                "187": {},
                "188": {},
                "189": {},
                "190": {},
                "191": {},
                "192": {},
                "193": {},
                "194": {},
                "195": {},
                "196": {},
                "197": {},
                "198": {},
                "199": {},
                "200": {},
                "201": {},
                "202": {},
                "203": {},
                "204": {},
                "205": {},
                "206": {},
                "207": {},
                "208": {},
                "209": {},
                "210": {},
                "211": {},
                "212": {},
                "213": {},
                "214": {},
                "215": {},
                "216": {},
                "217": {},
                "218": {},
                "219": {},
                "220": {},
                "221": {},
                "222": {},
                "223": {},
                "224": {},
                "225": {},
                "226": {},
                "227": {},
                "228": {},
                "229": {},
                "230": {},
                "231": {},
                "232": {},
                "233": {},
                "234": {},
                "235": {},
                "236": {},
                "237": {},
                "238": {},
                "239": {},
                "240": {},
                "241": {},
                "242": {},
                "243": {},
                "244": {},
                "245": {},
                "246": {},
                "247": {},
                "248": {},
                "249": {},
                "250": {},
                "251": {},
                "252": {},
                "253": {},
                "254": {},
                "255": {}
            },
            {
                "0": {
                    "bias": -0.1299421489238739,
                    "weights": {
                        "0": -0.013476056978106499,
                        "1": -0.1652517020702362,
                        "2": 0.02443150244653225,
                        "3": -0.05095301568508148,
                        "4": 0.1465304046869278,
                        "5": 0.1304284781217575,
                        "6": -0.08165401965379715,
                        "7": 0.08325459063053131,
                        "8": -0.1661650836467743,
                        "9": -0.06770386546850204,
                        "10": 0.13459768891334534,
                        "11": -0.1931808739900589,
                        "12": 0.17912043631076813,
                        "13": -0.017983177676796913,
                        "14": -0.12187431752681732,
                        "15": -0.02193993516266346,
                        "16": 0.1230638325214386,
                        "17": 0.01929250918328762,
                        "18": -0.11219826340675354,
                        "19": -0.02282543294131756,
                        "20": 0.19059796631336212,
                        "21": -0.11618717759847641,
                        "22": -0.028069648891687393,
                        "23": 0.10314373672008514,
                        "24": -0.16634154319763184,
                        "25": 0.10543639212846756,
                        "26": 0.05498339235782623,
                        "27": -0.1616809070110321,
                        "28": 0.11774642020463943,
                        "29": 0.019451549276709557,
                        "30": 0.026258112862706184,
                        "31": -0.20490974187850952,
                        "32": -0.20552843809127808,
                        "33": -0.13348469138145447,
                        "34": 0.006075337529182434,
                        "35": -0.026612546294927597,
                        "36": 0.19586387276649475,
                        "37": -0.1967868208885193,
                        "38": -0.1189490333199501,
                        "39": 0.13987009227275848,
                        "40": 0.08493614196777344,
                        "41": -0.20251519978046417,
                        "42": 0.17100661993026733,
                        "43": -0.09364135563373566,
                        "44": -0.0173055250197649,
                        "45": 0.14100968837738037,
                        "46": -0.025728587061166763,
                        "47": 0.04377876967191696,
                        "48": 0.045311059802770615,
                        "49": 0.0696207657456398,
                        "50": -0.16927091777324677,
                        "51": 0.20280803740024567,
                        "52": 0.14813846349716187,
                        "53": 0.09666450321674347,
                        "54": -0.007084975950419903,
                        "55": 0.06991598755121231,
                        "56": -0.1980072259902954,
                        "57": 0.14846070110797882,
                        "58": 0.10368715971708298,
                        "59": 0.15256085991859436,
                        "60": -0.08003726601600647,
                        "61": -0.19139131903648376,
                        "62": -0.1658088117837906,
                        "63": -0.20497597754001617,
                        "64": 0.006029528100043535,
                        "65": 0.03986877575516701,
                        "66": -0.1034240648150444,
                        "67": -0.13352496922016144,
                        "68": -0.17265959084033966,
                        "69": -0.12602967023849487,
                        "70": -0.1774773746728897,
                        "71": 0.10409092903137207,
                        "72": -0.04664753004908562,
                        "73": -0.1467462033033371,
                        "74": 0.1321815848350525,
                        "75": -0.1455567479133606,
                        "76": -0.16377849876880646,
                        "77": -0.15596769750118256,
                        "78": 0.15459872782230377,
                        "79": 0.10196629911661148,
                        "80": -0.1117001622915268,
                        "81": 0.1748575121164322,
                        "82": -0.1584676206111908,
                        "83": 0.019899312406778336,
                        "84": -0.052138552069664,
                        "85": 0.14026378095149994,
                        "86": -0.11809922754764557,
                        "87": 0.020598238334059715,
                        "88": 0.04456294700503349,
                        "89": -0.15936847031116486,
                        "90": -0.19298222661018372,
                        "91": 0.06545022875070572,
                        "92": 0.01020355150103569,
                        "93": -0.07503034919500351,
                        "94": 0.11950309574604034,
                        "95": -0.053119853138923645,
                        "96": 0.12545427680015564,
                        "97": 0.009646745398640633,
                        "98": 0.04927055165171623,
                        "99": 0.01890651136636734,
                        "100": -0.17709438502788544,
                        "101": 0.032270397990942,
                        "102": -0.10957366228103638,
                        "103": -0.13976696133613586,
                        "104": -0.1847759187221527,
                        "105": -0.1346891224384308,
                        "106": -0.17912514507770538,
                        "107": 0.12843303382396698,
                        "108": 0.006516284309327602,
                        "109": 0.08631012588739395,
                        "110": 0.10213068872690201,
                        "111": -0.036489296704530716,
                        "112": 0.02673858031630516,
                        "113": -0.16218174993991852,
                        "114": -0.13767428696155548,
                        "115": -0.14683344960212708,
                        "116": 0.031683433800935745,
                        "117": -0.10542445629835129,
                        "118": 0.15787827968597412,
                        "119": -0.19735030829906464,
                        "120": -0.07388470321893692,
                        "121": 0.023052547127008438,
                        "122": 0.11096913367509842,
                        "123": 0.13342612981796265,
                        "124": -0.10203110426664352,
                        "125": -0.006921600084751844,
                        "126": 0.08199068903923035,
                        "127": -0.002634126227349043,
                        "128": 0.09096159785985947,
                        "129": 0.04291217774152756,
                        "130": -0.05608048290014267,
                        "131": 0.1899360567331314,
                        "132": 0.018263403326272964,
                        "133": -0.03114728443324566,
                        "134": -0.08164668828248978,
                        "135": -0.12220931053161621,
                        "136": 0.020255910232663155,
                        "137": 0.04392808675765991,
                        "138": -0.12318317592144012,
                        "139": -0.0471893735229969,
                        "140": 0.056437693536281586,
                        "141": -0.11422020941972733,
                        "142": 0.10322102159261703,
                        "143": -0.03161270171403885,
                        "144": 0.15977893769741058,
                        "145": -0.014174168929457664,
                        "146": -0.18662650883197784,
                        "147": -0.048966627568006516,
                        "148": 0.11486610770225525,
                        "149": -0.11201474815607071,
                        "150": 0.005372593179345131,
                        "151": -0.14192010462284088,
                        "152": 0.0028639924712479115,
                        "153": -0.09469165652990341,
                        "154": -0.19474054872989655,
                        "155": 0.012092642486095428,
                        "156": -0.05099986866116524,
                        "157": -0.038224924355745316,
                        "158": -0.0396171435713768,
                        "159": 0.046789541840553284,
                        "160": -0.07145662605762482,
                        "161": 0.04971449449658394,
                        "162": 0.03678463026881218,
                        "163": 0.16201144456863403,
                        "164": 0.013477751053869724,
                        "165": -0.12517490983009338,
                        "166": -0.020798711106181145,
                        "167": -0.16694077849388123,
                        "168": -0.09647329896688461,
                        "169": 0.10757198929786682,
                        "170": 0.17538273334503174,
                        "171": -0.019820919260382652,
                        "172": -0.08082569390535355,
                        "173": -0.012527937069535255,
                        "174": -0.03223375976085663,
                        "175": 0.11970791220664978,
                        "176": 0.03145521879196167,
                        "177": -0.03783762827515602,
                        "178": 0.0844447910785675,
                        "179": -0.12339670956134796,
                        "180": 0.06168179586529732,
                        "181": 0.07867211848497391,
                        "182": 0.1594255268573761,
                        "183": 0.018413284793496132,
                        "184": -0.07489892840385437,
                        "185": 0.18757885694503784,
                        "186": -0.07730291783809662,
                        "187": -0.19367460906505585,
                        "188": 0.1305467188358307,
                        "189": -0.1692390739917755,
                        "190": -0.05613645538687706,
                        "191": 0.016681542620062828,
                        "192": -0.03238818794488907,
                        "193": 0.05085990950465202,
                        "194": 0.018770886585116386,
                        "195": -0.10650572925806046,
                        "196": -0.023443972691893578,
                        "197": 0.15569263696670532,
                        "198": 0.13027901947498322,
                        "199": 0.1546366810798645,
                        "200": 0.08323026448488235,
                        "201": 0.016594773158431053,
                        "202": -0.19017714262008667,
                        "203": -0.023535534739494324,
                        "204": 0.03984531760215759,
                        "205": -0.050350066274404526,
                        "206": 0.05282223969697952,
                        "207": -0.14862728118896484,
                        "208": 0.14265410602092743,
                        "209": 0.0656099021434784,
                        "210": -0.20115995407104492,
                        "211": 0.16360057890415192,
                        "212": 0.14213848114013672,
                        "213": 0.16093295812606812,
                        "214": -0.023237155750393867,
                        "215": 0.10891537368297577,
                        "216": -0.19973242282867432,
                        "217": 0.14039137959480286,
                        "218": -0.1778571903705597,
                        "219": 0.07354200631380081,
                        "220": 0.1451074481010437,
                        "221": 0.1327032595872879,
                        "222": -0.14690226316452026,
                        "223": 0.1735966056585312,
                        "224": -0.13295166194438934,
                        "225": -0.15291517972946167,
                        "226": -0.06556931138038635,
                        "227": 0.15426068007946014,
                        "228": 0.088694266974926,
                        "229": 0.06258516013622284,
                        "230": -0.10919798910617828,
                        "231": -0.03730393946170807,
                        "232": -0.1647556722164154,
                        "233": -0.09982627630233765,
                        "234": -0.09155802428722382,
                        "235": -0.06285523623228073,
                        "236": -0.17063693702220917,
                        "237": -0.08784294873476028,
                        "238": -0.03769265487790108,
                        "239": 0.10574822872877121,
                        "240": 0.0814826488494873,
                        "241": 0.08355864137411118,
                        "242": 0.03076728992164135,
                        "243": 0.07517663389444351,
                        "244": -0.16637229919433594,
                        "245": -0.026069777086377144,
                        "246": -0.0454251803457737,
                        "247": 0.19542568922042847,
                        "248": 0.10749655961990356,
                        "249": 0.12905514240264893,
                        "250": -0.05907071381807327,
                        "251": -0.1301145851612091,
                        "252": -0.19570277631282806,
                        "253": -0.18781441450119019,
                        "254": -0.07940889894962311,
                        "255": -0.03547750040888786
                    }
                },
                "1": {
                    "bias": 0.10460704565048218,
                    "weights": {
                        "0": 0.14070287346839905,
                        "1": -0.1322859227657318,
                        "2": 0.06340650469064713,
                        "3": 0.11871948093175888,
                        "4": 0.17427930235862732,
                        "5": 0.1641339659690857,
                        "6": -0.14390401542186737,
                        "7": -0.1772192269563675,
                        "8": 0.0031942646019160748,
                        "9": -0.01579292118549347,
                        "10": 0.1921842247247696,
                        "11": 0.14451812207698822,
                        "12": 0.1341046690940857,
                        "13": 0.11267708241939545,
                        "14": 0.12181612104177475,
                        "15": 0.005863758735358715,
                        "16": -0.05965293571352959,
                        "17": -0.10461075603961945,
                        "18": -0.17729032039642334,
                        "19": -0.05424308776855469,
                        "20": 0.1429263800382614,
                        "21": 0.036588605493307114,
                        "22": -0.10621771216392517,
                        "23": 0.038901437073946,
                        "24": -0.03710085526108742,
                        "25": 0.09443248808383942,
                        "26": 0.17190667986869812,
                        "27": -0.032196104526519775,
                        "28": 0.12844815850257874,
                        "29": -0.059438664466142654,
                        "30": 0.17594791948795319,
                        "31": 0.1460902988910675,
                        "32": 0.10826002806425095,
                        "33": -0.15836602449417114,
                        "34": -0.1797526776790619,
                        "35": -0.17913784086704254,
                        "36": -0.03284716233611107,
                        "37": 0.07737162709236145,
                        "38": 0.06414687633514404,
                        "39": -0.12331213057041168,
                        "40": -0.0923118144273758,
                        "41": -0.15525436401367188,
                        "42": 0.08789261430501938,
                        "43": 0.10605557262897491,
                        "44": 0.0230268482118845,
                        "45": 0.05151500925421715,
                        "46": 0.1966555267572403,
                        "47": -0.13443788886070251,
                        "48": 0.08067324012517929,
                        "49": -0.1338815689086914,
                        "50": 0.16083309054374695,
                        "51": -0.1396445631980896,
                        "52": 0.11646508425474167,
                        "53": -0.20911341905593872,
                        "54": -0.11591499298810959,
                        "55": 0.11531305313110352,
                        "56": 0.0040297191590070724,
                        "57": -0.1459377110004425,
                        "58": -0.1499917209148407,
                        "59": 0.04793362691998482,
                        "60": 0.10053417086601257,
                        "61": -0.06670353561639786,
                        "62": 0.033855218440294266,
                        "63": -0.15994209051132202,
                        "64": 0.16484272480010986,
                        "65": 0.15221573412418365,
                        "66": -0.07867465168237686,
                        "67": 0.07630793005228043,
                        "68": -0.18826967477798462,
                        "69": -0.16966792941093445,
                        "70": -0.14126423001289368,
                        "71": 0.02332497574388981,
                        "72": 0.050103843212127686,
                        "73": -0.09604112803936005,
                        "74": 0.18278761208057404,
                        "75": -0.1892264187335968,
                        "76": 0.023062145337462425,
                        "77": 0.09297153353691101,
                        "78": 0.1521947979927063,
                        "79": -0.1878170520067215,
                        "80": 0.08653706312179565,
                        "81": -0.06278036534786224,
                        "82": 0.19641931354999542,
                        "83": 0.1841357797384262,
                        "84": -0.016238290816545486,
                        "85": 0.06509267538785934,
                        "86": -0.1910439282655716,
                        "87": 0.07862945646047592,
                        "88": 0.15437498688697815,
                        "89": 0.04012083634734154,
                        "90": 0.07027556002140045,
                        "91": -0.08544933795928955,
                        "92": -0.06335606426000595,
                        "93": 0.1193285807967186,
                        "94": 0.16375195980072021,
                        "95": 0.02589951455593109,
                        "96": -0.0020769217517226934,
                        "97": -0.0007934178574942052,
                        "98": 0.10048605501651764,
                        "99": -0.06539357453584671,
                        "100": -0.07314222306013107,
                        "101": 0.1875755339860916,
                        "102": -0.18319816887378693,
                        "103": 0.08562353253364563,
                        "104": -0.021122898906469345,
                        "105": 0.10681123286485672,
                        "106": 0.14103055000305176,
                        "107": 0.060702405869960785,
                        "108": -0.04769304767251015,
                        "109": 0.19183994829654694,
                        "110": 0.13841092586517334,
                        "111": 0.058928970247507095,
                        "112": -0.17957572638988495,
                        "113": -0.14945130050182343,
                        "114": -0.1581195890903473,
                        "115": 0.1380198746919632,
                        "116": -0.17511090636253357,
                        "117": -0.1259424090385437,
                        "118": 0.03878992795944214,
                        "119": -0.10316257923841476,
                        "120": -0.07551119476556778,
                        "121": -0.03683736175298691,
                        "122": 0.1592894345521927,
                        "123": -0.055659327656030655,
                        "124": -0.1817360818386078,
                        "125": -0.038416165858507156,
                        "126": 0.07143688946962357,
                        "127": -0.06942304968833923,
                        "128": -0.18608883023262024,
                        "129": 0.0029126922599971294,
                        "130": -0.06539283692836761,
                        "131": -0.10384748876094818,
                        "132": 0.16945813596248627,
                        "133": -0.036157649010419846,
                        "134": -0.11238734424114227,
                        "135": -0.1455467790365219,
                        "136": -0.035656511783599854,
                        "137": -0.20279724895954132,
                        "138": -0.10572759062051773,
                        "139": -0.1554744392633438,
                        "140": 0.2072223722934723,
                        "141": 0.16167938709259033,
                        "142": 0.14261990785598755,
                        "143": -0.10626918822526932,
                        "144": -0.15601199865341187,
                        "145": -0.04627686366438866,
                        "146": 0.14901353418827057,
                        "147": -0.1550641804933548,
                        "148": -0.17796000838279724,
                        "149": 0.19279666244983673,
                        "150": 0.15176010131835938,
                        "151": -0.09123706817626953,
                        "152": -0.1465541273355484,
                        "153": -0.058540504425764084,
                        "154": -0.051678337156772614,
                        "155": -0.09193573892116547,
                        "156": 0.00033709881245158613,
                        "157": 0.13379918038845062,
                        "158": 0.05631076917052269,
                        "159": 0.11888184398412704,
                        "160": 0.1560104936361313,
                        "161": 0.05604028329253197,
                        "162": -0.053301963955163956,
                        "163": -0.017382867634296417,
                        "164": -0.07405519485473633,
                        "165": -0.014006842859089375,
                        "166": -0.013839000836014748,
                        "167": -0.1807737946510315,
                        "168": -0.19288495182991028,
                        "169": -0.04030253738164902,
                        "170": 0.03981732204556465,
                        "171": -0.09714718908071518,
                        "172": 0.10687211900949478,
                        "173": -0.11644070595502853,
                        "174": -0.07783021777868271,
                        "175": 0.07869724184274673,
                        "176": 0.05672313645482063,
                        "177": 0.1544044017791748,
                        "178": -0.08076831698417664,
                        "179": 0.1303858458995819,
                        "180": 0.12957902252674103,
                        "181": 0.06829720735549927,
                        "182": -0.11330181360244751,
                        "183": -0.12535881996154785,
                        "184": -0.1091175228357315,
                        "185": -0.10825391113758087,
                        "186": 0.08582615852355957,
                        "187": 0.042908988893032074,
                        "188": 0.09173352271318436,
                        "189": 0.1602860987186432,
                        "190": 0.13405810296535492,
                        "191": -0.007079051807522774,
                        "192": -0.14102768898010254,
                        "193": 0.08874121308326721,
                        "194": 0.11710216104984283,
                        "195": -0.11134710907936096,
                        "196": 0.054071493446826935,
                        "197": -0.00410501379519701,
                        "198": 0.17244121432304382,
                        "199": -0.13972878456115723,
                        "200": -0.16478459537029266,
                        "201": -0.12635861337184906,
                        "202": 0.007706500124186277,
                        "203": 0.11024138331413269,
                        "204": 0.1114116683602333,
                        "205": 0.16632622480392456,
                        "206": 0.19068028032779694,
                        "207": -0.1051524206995964,
                        "208": -0.15167275071144104,
                        "209": 0.12865763902664185,
                        "210": -0.1726604402065277,
                        "211": -0.20294605195522308,
                        "212": -0.0411272756755352,
                        "213": -0.05139920860528946,
                        "214": -0.0903233140707016,
                        "215": -0.20686407387256622,
                        "216": 0.1251104474067688,
                        "217": -0.18711626529693604,
                        "218": -0.012378976680338383,
                        "219": -0.05205930396914482,
                        "220": -0.024051733314990997,
                        "221": 0.0016583061078563333,
                        "222": 0.0312863290309906,
                        "223": 0.049013931304216385,
                        "224": 0.08670071512460709,
                        "225": 0.10357628762722015,
                        "226": 0.16201519966125488,
                        "227": -0.03905284404754639,
                        "228": 0.007262611761689186,
                        "229": -0.1647152155637741,
                        "230": -0.08613664656877518,
                        "231": -0.08709710836410522,
                        "232": 0.15437422692775726,
                        "233": -0.1543043851852417,
                        "234": 0.17763550579547882,
                        "235": -0.10671381652355194,
                        "236": 0.0874200090765953,
                        "237": -0.07473842054605484,
                        "238": -0.19267767667770386,
                        "239": 0.10264182090759277,
                        "240": -0.13435550034046173,
                        "241": -0.110686756670475,
                        "242": -0.12084151059389114,
                        "243": -0.07845930755138397,
                        "244": -0.02238496206700802,
                        "245": -0.06666692346334457,
                        "246": 0.10721495002508163,
                        "247": -0.0352119579911232,
                        "248": 0.023434866219758987,
                        "249": -0.15829966962337494,
                        "250": 0.16790702939033508,
                        "251": -0.1885189414024353,
                        "252": 0.13117462396621704,
                        "253": -0.10982581973075867,
                        "254": 0.09492653608322144,
                        "255": -0.09791301190853119
                    }
                },
                "2": {
                    "bias": 0.14670972526073456,
                    "weights": {
                        "0": -0.05699565261602402,
                        "1": -0.1346036195755005,
                        "2": 0.20137766003608704,
                        "3": -0.1217913031578064,
                        "4": 0.07402610778808594,
                        "5": 0.18965652585029602,
                        "6": -0.12207148224115372,
                        "7": -0.131474107503891,
                        "8": -0.08859337121248245,
                        "9": 0.13362103700637817,
                        "10": 0.20184975862503052,
                        "11": 0.07571306824684143,
                        "12": 0.02545439451932907,
                        "13": 0.19602595269680023,
                        "14": 0.07378821074962616,
                        "15": -0.05455787107348442,
                        "16": -0.14292137324810028,
                        "17": -0.06759253889322281,
                        "18": -0.17148227989673615,
                        "19": -0.022572997957468033,
                        "20": -0.0611785389482975,
                        "21": 0.12377963215112686,
                        "22": 0.008022100664675236,
                        "23": 0.13512514531612396,
                        "24": -0.08055457472801208,
                        "25": -0.04865877330303192,
                        "26": 0.11905445903539658,
                        "27": 0.09001360088586807,
                        "28": -0.16253912448883057,
                        "29": -0.12101143598556519,
                        "30": 0.18578587472438812,
                        "31": 0.08513893187046051,
                        "32": -0.003132229670882225,
                        "33": -0.10659573972225189,
                        "34": 0.16284140944480896,
                        "35": 0.04716035723686218,
                        "36": -0.008584481664001942,
                        "37": -0.06031480059027672,
                        "38": -0.04703196883201599,
                        "39": -0.04533962160348892,
                        "40": -0.15977564454078674,
                        "41": 0.15826815366744995,
                        "42": 0.05782606825232506,
                        "43": -0.035820286720991135,
                        "44": -0.05195952579379082,
                        "45": -0.0868363082408905,
                        "46": -0.19931071996688843,
                        "47": -0.17793625593185425,
                        "48": 0.15387429296970367,
                        "49": 0.1574438363313675,
                        "50": 0.028038762509822845,
                        "51": -0.02184141054749489,
                        "52": -0.030816687270998955,
                        "53": 0.17670266330242157,
                        "54": 0.09992772340774536,
                        "55": -0.18920409679412842,
                        "56": -0.12327564507722855,
                        "57": -0.02557755820453167,
                        "58": -0.11518124490976334,
                        "59": 0.050176993012428284,
                        "60": 0.17737632989883423,
                        "61": -0.08526244014501572,
                        "62": 0.19117020070552826,
                        "63": -0.10313255339860916,
                        "64": -0.05979742109775543,
                        "65": -0.08560700714588165,
                        "66": -0.16421367228031158,
                        "67": 0.06836676597595215,
                        "68": 0.015304401516914368,
                        "69": -0.057873111218214035,
                        "70": -0.1740976721048355,
                        "71": 0.12178542464971542,
                        "72": -0.11476584523916245,
                        "73": -0.06168092414736748,
                        "74": -0.0736980140209198,
                        "75": 0.05687211826443672,
                        "76": 0.06338292360305786,
                        "77": -0.00205168011598289,
                        "78": 0.00588113022968173,
                        "79": 0.1636047065258026,
                        "80": 0.02442796714603901,
                        "81": -0.09066420793533325,
                        "82": -0.010503777302801609,
                        "83": 0.013212023302912712,
                        "84": -0.18850953876972198,
                        "85": -0.1824210286140442,
                        "86": -0.18290945887565613,
                        "87": 0.06688138842582703,
                        "88": 0.16372720897197723,
                        "89": -0.11319251358509064,
                        "90": 0.08424516767263412,
                        "91": 0.13724149763584137,
                        "92": -0.03083399124443531,
                        "93": 0.18032404780387878,
                        "94": -0.0857079029083252,
                        "95": 0.12485246360301971,
                        "96": 0.10490141063928604,
                        "97": -0.07817826420068741,
                        "98": -0.03758435323834419,
                        "99": -0.18147188425064087,
                        "100": -0.20417992770671844,
                        "101": 0.1478756070137024,
                        "102": 0.023635132238268852,
                        "103": 0.1272890269756317,
                        "104": 0.1485455334186554,
                        "105": 0.09404275566339493,
                        "106": 0.10961059480905533,
                        "107": -0.1887941062450409,
                        "108": 0.19320252537727356,
                        "109": 0.1658373773097992,
                        "110": -0.07932766526937485,
                        "111": 0.0072476123459637165,
                        "112": -0.05002197250723839,
                        "113": -0.08179638534784317,
                        "114": -0.11463110148906708,
                        "115": 0.13621759414672852,
                        "116": 0.10345656424760818,
                        "117": -0.133981391787529,
                        "118": 0.05948563292622566,
                        "119": -0.18064554035663605,
                        "120": -0.17789743840694427,
                        "121": -0.10378846526145935,
                        "122": 0.09887894243001938,
                        "123": 0.14995720982551575,
                        "124": 0.1804732382297516,
                        "125": -0.007652046624571085,
                        "126": -0.022117391228675842,
                        "127": -0.10302221775054932,
                        "128": 0.06536591053009033,
                        "129": 0.06283493340015411,
                        "130": -0.109901063144207,
                        "131": 0.11579629778862,
                        "132": -0.034204453229904175,
                        "133": 0.14133967459201813,
                        "134": -0.15127046406269073,
                        "135": 0.19182837009429932,
                        "136": -0.05310672149062157,
                        "137": -0.030324134975671768,
                        "138": -0.12847548723220825,
                        "139": 0.04381857439875603,
                        "140": 0.10469876229763031,
                        "141": 0.04332825914025307,
                        "142": -0.1420699656009674,
                        "143": 0.16541042923927307,
                        "144": -0.05281374976038933,
                        "145": 0.17387008666992188,
                        "146": 0.04947160184383392,
                        "147": 0.00022168712166603655,
                        "148": 0.06568028777837753,
                        "149": -0.16661866009235382,
                        "150": 0.13877086341381073,
                        "151": 0.05116153135895729,
                        "152": 0.12820810079574585,
                        "153": 0.1159510686993599,
                        "154": -0.0163298137485981,
                        "155": 0.07086390256881714,
                        "156": 0.034441303461790085,
                        "157": 0.0007184342248365283,
                        "158": 0.019075695425271988,
                        "159": -0.0034836081322282553,
                        "160": 0.13432899117469788,
                        "161": -0.016060052439570427,
                        "162": 0.00405410211533308,
                        "163": -0.015366723760962486,
                        "164": -0.06754089891910553,
                        "165": -0.047842346131801605,
                        "166": -0.11263304203748703,
                        "167": -0.1726822853088379,
                        "168": 0.19427810609340668,
                        "169": -0.01803705282509327,
                        "170": -0.15155236423015594,
                        "171": -0.0032457029446959496,
                        "172": 0.12941674888134003,
                        "173": 0.02338057942688465,
                        "174": 0.10047399252653122,
                        "175": -0.024167295545339584,
                        "176": 0.07230252772569656,
                        "177": -0.04044971615076065,
                        "178": 0.024097908288240433,
                        "179": -0.14584368467330933,
                        "180": 0.11072733998298645,
                        "181": 0.0834130346775055,
                        "182": -0.12879569828510284,
                        "183": -0.1571982353925705,
                        "184": 0.10692628473043442,
                        "185": -0.08821186423301697,
                        "186": -0.15114833414554596,
                        "187": -0.14428816735744476,
                        "188": 0.16599829494953156,
                        "189": 0.12556810677051544,
                        "190": -0.026220455765724182,
                        "191": 0.1046021580696106,
                        "192": -0.16520215570926666,
                        "193": -0.17087702453136444,
                        "194": 0.07896558940410614,
                        "195": -0.07407455891370773,
                        "196": 0.009419342502951622,
                        "197": -0.07284082472324371,
                        "198": -0.12455018609762192,
                        "199": 0.05687074735760689,
                        "200": 0.1646946221590042,
                        "201": -0.03517547994852066,
                        "202": -0.006165537983179092,
                        "203": 0.06279775500297546,
                        "204": -0.08067373931407928,
                        "205": -0.17790649831295013,
                        "206": 0.0713973119854927,
                        "207": 0.16755609214305878,
                        "208": -0.09874929487705231,
                        "209": -0.01771819218993187,
                        "210": 0.10942083597183228,
                        "211": 0.08658914268016815,
                        "212": 0.07231957465410233,
                        "213": -0.07593081146478653,
                        "214": 0.11951586604118347,
                        "215": -0.14769220352172852,
                        "216": -0.16483142971992493,
                        "217": -0.05421047657728195,
                        "218": 0.04467255622148514,
                        "219": -0.07290175557136536,
                        "220": 0.09105844795703888,
                        "221": -0.03789852187037468,
                        "222": -0.13840840756893158,
                        "223": -0.11097485572099686,
                        "224": -0.11512722820043564,
                        "225": 0.1343066245317459,
                        "226": 0.09693652391433716,
                        "227": -0.19218532741069794,
                        "228": 0.09248382598161697,
                        "229": 0.16379567980766296,
                        "230": -0.08034825325012207,
                        "231": 0.09761811047792435,
                        "232": -0.19306281208992004,
                        "233": 0.1014622375369072,
                        "234": 0.1553214192390442,
                        "235": -0.04439621418714523,
                        "236": -0.12685762345790863,
                        "237": 0.19175000488758087,
                        "238": 0.10891219228506088,
                        "239": -0.020547717809677124,
                        "240": 0.11581504344940186,
                        "241": 0.08044297993183136,
                        "242": 0.16701066493988037,
                        "243": 0.011286512948572636,
                        "244": -0.18889504671096802,
                        "245": 0.007731265854090452,
                        "246": 0.06673800945281982,
                        "247": -0.16633236408233643,
                        "248": -0.14108847081661224,
                        "249": -0.08499082922935486,
                        "250": -0.13759881258010864,
                        "251": -0.008092854171991348,
                        "252": -0.13519547879695892,
                        "253": 0.13101425766944885,
                        "254": 0.15973398089408875,
                        "255": 0.13142207264900208
                    }
                },
                "3": {
                    "bias": -0.07632633298635483,
                    "weights": {
                        "0": -0.18335984647274017,
                        "1": -0.10162640362977982,
                        "2": -0.13770641386508942,
                        "3": -0.14841395616531372,
                        "4": 0.11264637112617493,
                        "5": 0.04449300467967987,
                        "6": 0.024318652227520943,
                        "7": -0.19936294853687286,
                        "8": -0.0349811390042305,
                        "9": -0.06698960065841675,
                        "10": -0.06892123073339462,
                        "11": 0.11329153180122375,
                        "12": 0.15238386392593384,
                        "13": -0.16008539497852325,
                        "14": 0.17487832903862,
                        "15": 0.006687512155622244,
                        "16": 0.094950370490551,
                        "17": -0.07593341171741486,
                        "18": -0.22094592452049255,
                        "19": 0.04456028342247009,
                        "20": 0.10963382571935654,
                        "21": -0.194306418299675,
                        "22": -0.09559217840433121,
                        "23": 0.0356634296476841,
                        "24": -0.02511122077703476,
                        "25": 0.015117334201931953,
                        "26": 0.12871941924095154,
                        "27": -0.026647189632058144,
                        "28": -0.006302711553871632,
                        "29": 0.002819762332364917,
                        "30": 0.05221979320049286,
                        "31": -0.17606541514396667,
                        "32": 0.07142707705497742,
                        "33": -0.012401187792420387,
                        "34": 0.11935534328222275,
                        "35": -0.039255183190107346,
                        "36": 0.12307726591825485,
                        "37": -0.07663437724113464,
                        "38": 0.06181195378303528,
                        "39": 0.06595905870199203,
                        "40": 0.0520559586584568,
                        "41": -0.03138011693954468,
                        "42": 0.204875186085701,
                        "43": 0.07143796980381012,
                        "44": 0.11495800316333771,
                        "45": -0.054717063903808594,
                        "46": 0.036844268441200256,
                        "47": 0.12375714629888535,
                        "48": -0.040682755410671234,
                        "49": 0.150599867105484,
                        "50": -0.10156109184026718,
                        "51": -0.07628994435071945,
                        "52": 0.1306283175945282,
                        "53": 0.13534894585609436,
                        "54": -0.12353198975324631,
                        "55": 0.07005562633275986,
                        "56": 0.15496531128883362,
                        "57": 0.08847581595182419,
                        "58": 0.18418437242507935,
                        "59": -0.15749222040176392,
                        "60": 0.07038263231515884,
                        "61": 0.11733140796422958,
                        "62": -0.04084262251853943,
                        "63": 0.043095238506793976,
                        "64": 0.020993443205952644,
                        "65": -0.11726345866918564,
                        "66": -0.1542755514383316,
                        "67": -0.08915266394615173,
                        "68": 0.15067331492900848,
                        "69": -0.11117608100175858,
                        "70": 0.13563033938407898,
                        "71": 0.05608246475458145,
                        "72": -0.015101911500096321,
                        "73": 0.0870504379272461,
                        "74": -0.042443517595529556,
                        "75": -0.029170135036110878,
                        "76": 0.19490179419517517,
                        "77": -0.009884815663099289,
                        "78": 0.14651374518871307,
                        "79": -0.06519237160682678,
                        "80": -0.11098957806825638,
                        "81": -0.07716813683509827,
                        "82": -0.051781296730041504,
                        "83": 0.16892990469932556,
                        "84": -0.07001233845949173,
                        "85": -0.14561526477336884,
                        "86": 0.009959347546100616,
                        "87": -0.14923332631587982,
                        "88": 0.12117941677570343,
                        "89": -0.04927535355091095,
                        "90": 0.05967964231967926,
                        "91": -0.029183058068156242,
                        "92": -0.1012742891907692,
                        "93": -0.13379278779029846,
                        "94": -0.17064081132411957,
                        "95": 0.16429947316646576,
                        "96": 0.07560668885707855,
                        "97": 0.06459950655698776,
                        "98": -0.19235488772392273,
                        "99": -0.00024108722573146224,
                        "100": 0.01798848807811737,
                        "101": -0.04719272255897522,
                        "102": -0.1117696687579155,
                        "103": -0.05353235453367233,
                        "104": -0.05084032565355301,
                        "105": 0.06736034899950027,
                        "106": -0.12865987420082092,
                        "107": -0.056301262229681015,
                        "108": 0.10567037016153336,
                        "109": 0.012954791076481342,
                        "110": 0.00839175097644329,
                        "111": 0.06578134745359421,
                        "112": -0.14087237417697906,
                        "113": -0.08144675940275192,
                        "114": 0.11409824341535568,
                        "115": -0.12220949679613113,
                        "116": -0.012461363337934017,
                        "117": -0.03841390833258629,
                        "118": 0.15218865871429443,
                        "119": 0.16275683045387268,
                        "120": 0.2098408043384552,
                        "121": 0.1864268183708191,
                        "122": -0.08542707562446594,
                        "123": -0.10610487312078476,
                        "124": -0.02201828360557556,
                        "125": 0.16082729399204254,
                        "126": 0.14028334617614746,
                        "127": 0.13360339403152466,
                        "128": -0.10941705852746964,
                        "129": -0.13832320272922516,
                        "130": -0.1923314481973648,
                        "131": -0.16792748868465424,
                        "132": 0.03837475925683975,
                        "133": -0.05281248688697815,
                        "134": 0.14379508793354034,
                        "135": -0.10802824795246124,
                        "136": -0.06387142091989517,
                        "137": -0.14562897384166718,
                        "138": -0.1328832060098648,
                        "139": 0.11378824710845947,
                        "140": -0.002490369835868478,
                        "141": -0.02325909584760666,
                        "142": 0.01496713887900114,
                        "143": -0.03453115001320839,
                        "144": -0.08285287022590637,
                        "145": 0.10207594931125641,
                        "146": 0.010049853473901749,
                        "147": 0.033431898802518845,
                        "148": -0.20250922441482544,
                        "149": 0.02072540484368801,
                        "150": -0.019563985988497734,
                        "151": -0.1493176519870758,
                        "152": 0.1930621713399887,
                        "153": 0.20581015944480896,
                        "154": -0.13126781582832336,
                        "155": 0.016357671469449997,
                        "156": -0.006637010723352432,
                        "157": -0.09170447289943695,
                        "158": 0.1340012401342392,
                        "159": -0.034541595727205276,
                        "160": -0.17828989028930664,
                        "161": 0.138204425573349,
                        "162": -0.11020354926586151,
                        "163": -0.016734881326556206,
                        "164": -0.11385129392147064,
                        "165": -0.1727834939956665,
                        "166": 0.17718712985515594,
                        "167": -0.10216628760099411,
                        "168": 0.12280026078224182,
                        "169": 0.09417330473661423,
                        "170": -0.11613602191209793,
                        "171": -0.15427401661872864,
                        "172": -0.02222808636724949,
                        "173": -0.09319175034761429,
                        "174": 0.16689211130142212,
                        "175": -0.15633347630500793,
                        "176": 0.08626388013362885,
                        "177": -0.18297640979290009,
                        "178": -0.10502837598323822,
                        "179": 0.2032230943441391,
                        "180": -0.12211743742227554,
                        "181": -0.16234007477760315,
                        "182": 0.19693057239055634,
                        "183": 0.05580107495188713,
                        "184": -0.07579172402620316,
                        "185": 0.06545381247997284,
                        "186": 0.10488874465227127,
                        "187": -0.03389454260468483,
                        "188": -0.16199660301208496,
                        "189": 0.06354105472564697,
                        "190": -0.14856909215450287,
                        "191": -0.17410051822662354,
                        "192": 0.15753383934497833,
                        "193": 0.14349831640720367,
                        "194": 0.11135251075029373,
                        "195": 0.08310730755329132,
                        "196": -0.14191344380378723,
                        "197": -0.045280709862709045,
                        "198": 0.12683908641338348,
                        "199": 0.10699925571680069,
                        "200": 0.09277253597974777,
                        "201": -0.14508812129497528,
                        "202": 0.18751844763755798,
                        "203": -0.049502771347761154,
                        "204": 0.07006946206092834,
                        "205": -0.07605250179767609,
                        "206": 0.02563280425965786,
                        "207": 0.023689839988946915,
                        "208": 0.08831755071878433,
                        "209": 0.11897376924753189,
                        "210": 0.03845926746726036,
                        "211": 0.1266423463821411,
                        "212": 0.05917255952954292,
                        "213": 0.1399526745080948,
                        "214": 0.051173608750104904,
                        "215": -0.10020014643669128,
                        "216": 0.03452923148870468,
                        "217": 0.13454264402389526,
                        "218": 0.15478625893592834,
                        "219": -0.07408275455236435,
                        "220": 0.13403943181037903,
                        "221": 0.1032605767250061,
                        "222": -0.1190660297870636,
                        "223": 0.10609420388936996,
                        "224": 0.1868157535791397,
                        "225": -0.13520526885986328,
                        "226": 0.006396048236638308,
                        "227": -0.09249462187290192,
                        "228": 0.028241388499736786,
                        "229": 0.021421700716018677,
                        "230": 0.07913041859865189,
                        "231": 0.10022067278623581,
                        "232": 0.13981381058692932,
                        "233": 0.033081404864788055,
                        "234": 0.18630948662757874,
                        "235": 0.09354051202535629,
                        "236": 0.19451233744621277,
                        "237": 0.04327060654759407,
                        "238": -0.026092521846294403,
                        "239": 0.16960251331329346,
                        "240": -0.0704159140586853,
                        "241": -0.021137550473213196,
                        "242": -0.030649321153759956,
                        "243": -0.09646642208099365,
                        "244": 0.05074794590473175,
                        "245": 0.08958227932453156,
                        "246": -0.06822565197944641,
                        "247": -0.08173295855522156,
                        "248": -0.061549633741378784,
                        "249": -0.008104614913463593,
                        "250": 0.17223575711250305,
                        "251": 0.125102236866951,
                        "252": -0.09486418217420578,
                        "253": 0.16180574893951416,
                        "254": 0.041886866092681885,
                        "255": 0.1389918476343155
                    }
                },
                "4": {
                    "bias": 0.06519117951393127,
                    "weights": {
                        "0": 0.13251952826976776,
                        "1": 0.1568918079137802,
                        "2": -0.03511457145214081,
                        "3": 0.08752696961164474,
                        "4": -0.03569414094090462,
                        "5": -0.14208655059337616,
                        "6": -0.05174460634589195,
                        "7": 0.03483618423342705,
                        "8": 0.06424148380756378,
                        "9": 0.16445939242839813,
                        "10": -0.1849813312292099,
                        "11": 0.08855896443128586,
                        "12": 0.12053658813238144,
                        "13": -0.015959765762090683,
                        "14": 0.0920809805393219,
                        "15": 0.1519598662853241,
                        "16": -0.16368626058101654,
                        "17": -0.07965362817049026,
                        "18": 0.04573196917772293,
                        "19": -0.18671947717666626,
                        "20": 0.05835750699043274,
                        "21": 0.11627809703350067,
                        "22": -0.10523077100515366,
                        "23": -0.036475032567977905,
                        "24": -0.018402498215436935,
                        "25": -0.16160577535629272,
                        "26": 0.11185911297798157,
                        "27": 0.12206624448299408,
                        "28": 0.1796719878911972,
                        "29": -0.1793719381093979,
                        "30": -0.15751463174819946,
                        "31": -0.10189629346132278,
                        "32": 0.01668214611709118,
                        "33": -0.13148465752601624,
                        "34": 0.21546947956085205,
                        "35": 0.009193109348416328,
                        "36": -0.002085273154079914,
                        "37": 0.0599902980029583,
                        "38": -0.1733790934085846,
                        "39": 0.07796584069728851,
                        "40": -0.09970636665821075,
                        "41": 0.020976409316062927,
                        "42": 0.1283009797334671,
                        "43": 0.058600690215826035,
                        "44": 0.07290656864643097,
                        "45": -0.14346276223659515,
                        "46": -0.07931972295045853,
                        "47": 0.1258770376443863,
                        "48": 0.008993853814899921,
                        "49": 0.08114264905452728,
                        "50": -0.080889992415905,
                        "51": 0.1790189892053604,
                        "52": 0.07766081392765045,
                        "53": -0.08707064390182495,
                        "54": 0.14968079328536987,
                        "55": -0.05697766691446304,
                        "56": -0.008877660147845745,
                        "57": -0.03493247553706169,
                        "58": 0.16144828498363495,
                        "59": 0.17007212340831757,
                        "60": -0.020681392401456833,
                        "61": 0.18950116634368896,
                        "62": -0.07175318151712418,
                        "63": -0.1549375057220459,
                        "64": -0.03047207184135914,
                        "65": 0.13038325309753418,
                        "66": 0.10618992149829865,
                        "67": 0.0799151360988617,
                        "68": -0.12397952377796173,
                        "69": 0.036815911531448364,
                        "70": -0.1410702019929886,
                        "71": 0.028475413098931313,
                        "72": 0.04693638160824776,
                        "73": 0.03466996178030968,
                        "74": 0.09927733242511749,
                        "75": -0.01402080524712801,
                        "76": -0.20054678618907928,
                        "77": -0.15261319279670715,
                        "78": 0.12748277187347412,
                        "79": -0.18849503993988037,
                        "80": 0.19536499679088593,
                        "81": 0.05160105600953102,
                        "82": -0.09313257038593292,
                        "83": -0.03583419695496559,
                        "84": 0.1208621934056282,
                        "85": 0.20526625216007233,
                        "86": -0.06783786416053772,
                        "87": 0.029576096683740616,
                        "88": 0.15694072842597961,
                        "89": -0.09161778539419174,
                        "90": 0.08874336630105972,
                        "91": -0.05173623189330101,
                        "92": -0.16901136934757233,
                        "93": -0.07468307763338089,
                        "94": -0.1720939725637436,
                        "95": 0.01659865491092205,
                        "96": -0.11822354793548584,
                        "97": -0.04518675059080124,
                        "98": 0.08459705859422684,
                        "99": 0.17891927063465118,
                        "100": 0.041356999427080154,
                        "101": -0.12238658964633942,
                        "102": -0.04346849024295807,
                        "103": -0.024596961215138435,
                        "104": 0.148382768034935,
                        "105": -0.1308823823928833,
                        "106": -0.10710272938013077,
                        "107": -0.002441324759274721,
                        "108": -0.1687789261341095,
                        "109": 0.041320815682411194,
                        "110": -0.1167287603020668,
                        "111": -0.06598428636789322,
                        "112": -0.12953704595565796,
                        "113": -0.10848024487495422,
                        "114": 0.011680925264954567,
                        "115": 0.023287752643227577,
                        "116": -0.12814490497112274,
                        "117": 0.1782969981431961,
                        "118": 0.0701264813542366,
                        "119": 0.063569575548172,
                        "120": 0.163203626871109,
                        "121": 0.006160339806228876,
                        "122": 0.15616455674171448,
                        "123": -0.04756974056363106,
                        "124": 0.17149114608764648,
                        "125": -0.03404926136136055,
                        "126": -0.045705653727054596,
                        "127": -0.08417651802301407,
                        "128": -0.15410581231117249,
                        "129": -0.1460479199886322,
                        "130": 0.019007207825779915,
                        "131": 0.19861330091953278,
                        "132": -0.01530386321246624,
                        "133": 0.12638938426971436,
                        "134": 0.10370869189500809,
                        "135": 0.1792142689228058,
                        "136": 0.15790289640426636,
                        "137": -0.12394069880247116,
                        "138": 0.15364113450050354,
                        "139": -0.08963961899280548,
                        "140": -0.10949499905109406,
                        "141": 0.17207126319408417,
                        "142": 0.024550985544919968,
                        "143": 0.10399620234966278,
                        "144": 0.16141925752162933,
                        "145": -0.06481614708900452,
                        "146": -0.10921373963356018,
                        "147": 0.14483509957790375,
                        "148": -0.03599952906370163,
                        "149": 0.17354834079742432,
                        "150": -0.08299726992845535,
                        "151": 0.14298999309539795,
                        "152": 0.19222812354564667,
                        "153": 0.18948955833911896,
                        "154": 0.12357471883296967,
                        "155": -0.027711516246199608,
                        "156": 0.17828835546970367,
                        "157": -0.0620904304087162,
                        "158": 0.04201710224151611,
                        "159": 0.14087612926959991,
                        "160": -0.14249801635742188,
                        "161": -0.07426919043064117,
                        "162": -0.06189953163266182,
                        "163": -0.019603805616497993,
                        "164": -0.06772708892822266,
                        "165": 0.1117439940571785,
                        "166": -0.15302999317646027,
                        "167": -0.16394536197185516,
                        "168": -0.18238309025764465,
                        "169": 0.021555975079536438,
                        "170": -0.19023269414901733,
                        "171": -0.02481864020228386,
                        "172": -0.16893115639686584,
                        "173": -0.0003563145874068141,
                        "174": 0.1955593079328537,
                        "175": 0.08020363748073578,
                        "176": -0.01970520056784153,
                        "177": -0.03589944168925285,
                        "178": 0.1387985795736313,
                        "179": -0.05317490175366402,
                        "180": -0.17608726024627686,
                        "181": 0.030238378793001175,
                        "182": -0.1921529769897461,
                        "183": 0.11638174951076508,
                        "184": 0.11507803946733475,
                        "185": 0.1307666152715683,
                        "186": -0.14157511293888092,
                        "187": 0.011437436565756798,
                        "188": -0.058057092130184174,
                        "189": -0.16726787388324738,
                        "190": 0.08710623532533646,
                        "191": 0.06400764733552933,
                        "192": 0.14212240278720856,
                        "193": -0.07509102672338486,
                        "194": -0.16111204028129578,
                        "195": 0.20115238428115845,
                        "196": 0.05440961942076683,
                        "197": 0.08837596327066422,
                        "198": 0.044756561517715454,
                        "199": 0.007730745244771242,
                        "200": 0.14322760701179504,
                        "201": 0.03380284458398819,
                        "202": -0.1499972939491272,
                        "203": -0.03872464969754219,
                        "204": 0.05379573628306389,
                        "205": -0.08020231127738953,
                        "206": 0.11938861757516861,
                        "207": 0.20523181557655334,
                        "208": 0.11251473426818848,
                        "209": 0.07824983447790146,
                        "210": -0.1678602248430252,
                        "211": -0.01270716730505228,
                        "212": 0.1554432362318039,
                        "213": 0.010507459752261639,
                        "214": -0.08411518484354019,
                        "215": -0.07728000730276108,
                        "216": -0.05982049182057381,
                        "217": 0.1231926679611206,
                        "218": -0.07574215531349182,
                        "219": -0.12590795755386353,
                        "220": 0.10724915564060211,
                        "221": -0.17855145037174225,
                        "222": -0.040231138467788696,
                        "223": 0.029450539499521255,
                        "224": -0.06727144122123718,
                        "225": 0.11476901918649673,
                        "226": -0.0065888529643416405,
                        "227": -0.12823118269443512,
                        "228": -0.15846191346645355,
                        "229": 0.003484365064650774,
                        "230": 0.18738953769207,
                        "231": -0.13812461495399475,
                        "232": -0.010817090980708599,
                        "233": -0.14876019954681396,
                        "234": -0.0866699069738388,
                        "235": 0.15577983856201172,
                        "236": -0.19403932988643646,
                        "237": -0.02145520970225334,
                        "238": 0.014181893318891525,
                        "239": 0.16254852712154388,
                        "240": 0.05897575244307518,
                        "241": -0.07118149101734161,
                        "242": 0.19417373836040497,
                        "243": 0.06619822978973389,
                        "244": -0.15447688102722168,
                        "245": 0.08586040139198303,
                        "246": 0.0473291352391243,
                        "247": -0.15581485629081726,
                        "248": -0.0005448946030810475,
                        "249": -0.09142950922250748,
                        "250": 0.10314008593559265,
                        "251": -0.16566890478134155,
                        "252": 0.0035492435563355684,
                        "253": -0.029625728726387024,
                        "254": 0.0018367897719144821,
                        "255": 0.0663413554430008
                    }
                },
                "5": {
                    "bias": -0.21745096147060394,
                    "weights": {
                        "0": -0.03596888482570648,
                        "1": -0.08995547145605087,
                        "2": 0.0717897042632103,
                        "3": 0.04854090139269829,
                        "4": -0.10433191061019897,
                        "5": 0.007471007760614157,
                        "6": -0.10287920385599136,
                        "7": -0.08691060543060303,
                        "8": 0.016519436612725258,
                        "9": -0.1700855940580368,
                        "10": 0.1844722032546997,
                        "11": -0.029644308611750603,
                        "12": 0.013055343180894852,
                        "13": 0.018083039671182632,
                        "14": -0.11420751363039017,
                        "15": -0.028024299070239067,
                        "16": -0.015682702884078026,
                        "17": 0.15577635169029236,
                        "18": -0.11100874096155167,
                        "19": -0.1842091977596283,
                        "20": 0.11056966334581375,
                        "21": 0.012319179251790047,
                        "22": 0.036247264593839645,
                        "23": 0.04541917145252228,
                        "24": -0.07410303503274918,
                        "25": 0.18289348483085632,
                        "26": 0.20444665849208832,
                        "27": 0.1399296522140503,
                        "28": -0.16767984628677368,
                        "29": -0.07641610503196716,
                        "30": 0.059535253793001175,
                        "31": 0.08793915808200836,
                        "32": -0.2209799587726593,
                        "33": -0.0026390415150672197,
                        "34": -0.11216188967227936,
                        "35": 0.1481042355298996,
                        "36": -0.050637003034353256,
                        "37": 0.030403396114706993,
                        "38": 0.0011416211491450667,
                        "39": -0.16901366412639618,
                        "40": 0.15135414898395538,
                        "41": 0.1351318210363388,
                        "42": -0.05249377340078354,
                        "43": -0.04337181895971298,
                        "44": -0.06207488849759102,
                        "45": -0.07938218116760254,
                        "46": 0.10740356147289276,
                        "47": 0.026979224756360054,
                        "48": -0.033987171947956085,
                        "49": -0.11899980902671814,
                        "50": 0.0088455555960536,
                        "51": -0.056034352630376816,
                        "52": -0.008846715092658997,
                        "53": 0.07049720734357834,
                        "54": 0.026772726327180862,
                        "55": 0.06303049623966217,
                        "56": -0.18666161596775055,
                        "57": -0.06617344915866852,
                        "58": -0.16523617506027222,
                        "59": -0.05254260450601578,
                        "60": 0.09723307192325592,
                        "61": 0.12846548855304718,
                        "62": 0.10574168711900711,
                        "63": -0.03888130933046341,
                        "64": -0.21648238599300385,
                        "65": -0.22714778780937195,
                        "66": 0.07257506251335144,
                        "67": -0.032450396567583084,
                        "68": 0.19122202694416046,
                        "69": 0.025587713345885277,
                        "70": -0.10400623083114624,
                        "71": -0.17014890909194946,
                        "72": -0.19106703996658325,
                        "73": -0.02744581364095211,
                        "74": -0.13954567909240723,
                        "75": 0.07067684084177017,
                        "76": 0.11562879383563995,
                        "77": -0.1805277317762375,
                        "78": -0.05283065512776375,
                        "79": 0.05177973210811615,
                        "80": -0.15784232318401337,
                        "81": -0.08204592764377594,
                        "82": 0.1453491896390915,
                        "83": -0.02751784957945347,
                        "84": -0.12120316177606583,
                        "85": 0.0187130868434906,
                        "86": 0.09307966381311417,
                        "87": 0.11053632199764252,
                        "88": 0.100911945104599,
                        "89": -0.19109444320201874,
                        "90": -0.16566744446754456,
                        "91": 0.12905490398406982,
                        "92": 0.146418035030365,
                        "93": 0.03714154660701752,
                        "94": 0.09559442102909088,
                        "95": -0.1515243649482727,
                        "96": 0.016998162493109703,
                        "97": -0.04207910597324371,
                        "98": -0.02345515415072441,
                        "99": -0.15548191964626312,
                        "100": -0.15214483439922333,
                        "101": 0.1254480481147766,
                        "102": -0.06228019669651985,
                        "103": -0.11542575061321259,
                        "104": -0.11649496108293533,
                        "105": -0.12542545795440674,
                        "106": -0.030756760388612747,
                        "107": 0.12667271494865417,
                        "108": 0.08426801860332489,
                        "109": 0.14379386603832245,
                        "110": 0.04796265810728073,
                        "111": 0.13183264434337616,
                        "112": 0.12016255408525467,
                        "113": -0.12557879090309143,
                        "114": 0.13930900394916534,
                        "115": 0.09250178188085556,
                        "116": -0.19049187004566193,
                        "117": -0.17623884975910187,
                        "118": -0.10350201278924942,
                        "119": 0.17068178951740265,
                        "120": 0.09736035019159317,
                        "121": -0.11969976127147675,
                        "122": 0.03416534140706062,
                        "123": 0.16439104080200195,
                        "124": 0.17368914186954498,
                        "125": 0.011465607210993767,
                        "126": 0.1269824057817459,
                        "127": 0.03533041849732399,
                        "128": -0.004782876931130886,
                        "129": 0.09193488210439682,
                        "130": 0.004082494881004095,
                        "131": -0.04590943455696106,
                        "132": 0.024835709482431412,
                        "133": -0.15548387169837952,
                        "134": -0.15047986805438995,
                        "135": 0.09244261682033539,
                        "136": 0.048962440341711044,
                        "137": 0.04183938354253769,
                        "138": -0.20288923382759094,
                        "139": -0.1379600465297699,
                        "140": -0.18980635702610016,
                        "141": 0.06300383806228638,
                        "142": 0.04208493232727051,
                        "143": 0.10302798449993134,
                        "144": -0.0040978374890983105,
                        "145": 0.16037186980247498,
                        "146": 0.15057452023029327,
                        "147": 0.1622912436723709,
                        "148": 0.025488724932074547,
                        "149": -0.11480628699064255,
                        "150": 0.03551275283098221,
                        "151": -0.09417155385017395,
                        "152": 0.05551186949014664,
                        "153": -0.1685081273317337,
                        "154": -0.18463678658008575,
                        "155": -0.1184903010725975,
                        "156": 0.03453485295176506,
                        "157": 0.18116925656795502,
                        "158": 0.015509920194745064,
                        "159": -0.0034655146300792694,
                        "160": 0.065388023853302,
                        "161": -0.14993734657764435,
                        "162": -0.06915002316236496,
                        "163": 0.18714751303195953,
                        "164": 0.12245171517133713,
                        "165": -0.06054941564798355,
                        "166": -0.032565537840127945,
                        "167": 0.18229670822620392,
                        "168": -0.0377754382789135,
                        "169": 0.09804489463567734,
                        "170": 0.010500813834369183,
                        "171": 0.16276027262210846,
                        "172": 0.05288131162524223,
                        "173": 0.018871290609240532,
                        "174": -0.12862518429756165,
                        "175": 0.006622858811169863,
                        "176": -0.0028109464328736067,
                        "177": 0.1629747450351715,
                        "178": -0.1296783834695816,
                        "179": 0.06536304950714111,
                        "180": -0.02410445362329483,
                        "181": 0.08160232752561569,
                        "182": -0.14210033416748047,
                        "183": 0.15465973317623138,
                        "184": 0.16621644794940948,
                        "185": 0.18307329714298248,
                        "186": 0.07090313732624054,
                        "187": -0.19773252308368683,
                        "188": -0.046026136726140976,
                        "189": -0.08559057861566544,
                        "190": -0.07915503531694412,
                        "191": -0.04477716609835625,
                        "192": 0.17124277353286743,
                        "193": 0.0025874513667076826,
                        "194": -0.07816777378320694,
                        "195": -0.12836723029613495,
                        "196": -0.03785233572125435,
                        "197": -0.16772755980491638,
                        "198": -0.007971787825226784,
                        "199": 0.17814213037490845,
                        "200": -0.13740605115890503,
                        "201": -0.027187351137399673,
                        "202": 0.05109555646777153,
                        "203": 0.07350380718708038,
                        "204": -0.20179691910743713,
                        "205": 0.15613438189029694,
                        "206": 0.019900552928447723,
                        "207": -0.19448120892047882,
                        "208": 0.10261785984039307,
                        "209": 0.17526333034038544,
                        "210": -0.17325735092163086,
                        "211": 0.07483946532011032,
                        "212": 0.10623274743556976,
                        "213": -0.019191425293684006,
                        "214": 0.02920999377965927,
                        "215": -0.07515819370746613,
                        "216": 0.025095950812101364,
                        "217": 0.08647361397743225,
                        "218": -0.14223243296146393,
                        "219": -0.021781178191304207,
                        "220": -0.1409221589565277,
                        "221": 0.05969538539648056,
                        "222": 0.07138879597187042,
                        "223": 0.07801977545022964,
                        "224": 0.015299943275749683,
                        "225": 0.012966507114470005,
                        "226": -0.1365646868944168,
                        "227": -0.14272482693195343,
                        "228": 0.07168946415185928,
                        "229": 0.04927196726202965,
                        "230": -0.02706076204776764,
                        "231": -0.153214693069458,
                        "232": -0.01576748490333557,
                        "233": 0.14810949563980103,
                        "234": -0.1518649458885193,
                        "235": -0.030719926580786705,
                        "236": -0.10380465537309647,
                        "237": -0.12591421604156494,
                        "238": -0.06805980950593948,
                        "239": -0.024151276797056198,
                        "240": 0.0476495735347271,
                        "241": -0.12402039021253586,
                        "242": 0.1614041030406952,
                        "243": -0.11767034232616425,
                        "244": 0.07955270260572433,
                        "245": -0.19945824146270752,
                        "246": 0.18800106644630432,
                        "247": 0.025356819853186607,
                        "248": -0.12778615951538086,
                        "249": -0.004219642840325832,
                        "250": -0.03252005577087402,
                        "251": 0.05538798123598099,
                        "252": -0.19985036551952362,
                        "253": 0.1850728988647461,
                        "254": 0.14361612498760223,
                        "255": 0.06982803344726562
                    }
                },
                "6": {
                    "bias": 0.014008574187755585,
                    "weights": {
                        "0": 0.002870336640626192,
                        "1": 0.13861335813999176,
                        "2": 0.09541628509759903,
                        "3": -0.09104706346988678,
                        "4": 0.017564792186021805,
                        "5": -0.07723664492368698,
                        "6": -0.10785701125860214,
                        "7": -0.10290738940238953,
                        "8": 0.13831815123558044,
                        "9": 0.029151052236557007,
                        "10": 0.1202000230550766,
                        "11": 0.15032020211219788,
                        "12": -0.03393362835049629,
                        "13": -0.13123326003551483,
                        "14": 0.18716441094875336,
                        "15": 0.07322248071432114,
                        "16": 0.05703325942158699,
                        "17": -0.11670650541782379,
                        "18": 0.11668744683265686,
                        "19": -0.02487819455564022,
                        "20": 0.13947170972824097,
                        "21": 0.13156524300575256,
                        "22": -0.09346473962068558,
                        "23": 0.07978983223438263,
                        "24": -0.13938328623771667,
                        "25": -0.11030806601047516,
                        "26": -0.09891368448734283,
                        "27": -0.06787172704935074,
                        "28": 0.1463785022497177,
                        "29": 0.15754032135009766,
                        "30": -0.202775776386261,
                        "31": 0.047104086726903915,
                        "32": 0.09534181654453278,
                        "33": 0.20536428689956665,
                        "34": -0.029928185045719147,
                        "35": 0.08951055258512497,
                        "36": 0.1646830290555954,
                        "37": 0.15818025171756744,
                        "38": 0.08663973212242126,
                        "39": 0.180007204413414,
                        "40": 0.0655999705195427,
                        "41": 0.10833759605884552,
                        "42": 0.17207734286785126,
                        "43": -0.17996221780776978,
                        "44": 0.0636061578989029,
                        "45": -0.026588430628180504,
                        "46": -0.10861683636903763,
                        "47": -0.05625973269343376,
                        "48": -0.1838536262512207,
                        "49": 0.1413789540529251,
                        "50": -0.11779461055994034,
                        "51": 0.168040931224823,
                        "52": 0.14087337255477905,
                        "53": -0.015216425992548466,
                        "54": -0.17696130275726318,
                        "55": 0.01622345671057701,
                        "56": 0.11243008077144623,
                        "57": 0.012243745848536491,
                        "58": 0.015343769453465939,
                        "59": -0.09872070699930191,
                        "60": 0.06975820660591125,
                        "61": -0.023251544684171677,
                        "62": 0.1305481642484665,
                        "63": 0.13308221101760864,
                        "64": -0.11382351815700531,
                        "65": 0.1318284273147583,
                        "66": 0.09124233573675156,
                        "67": 0.005577040370553732,
                        "68": -0.032382264733314514,
                        "69": 0.004155101720243692,
                        "70": 0.03648294508457184,
                        "71": -0.020017439499497414,
                        "72": 0.12910227477550507,
                        "73": 0.1174500584602356,
                        "74": 0.1135765016078949,
                        "75": 0.18174517154693604,
                        "76": -0.05207700654864311,
                        "77": -0.19328120350837708,
                        "78": 0.08876308053731918,
                        "79": 0.021338561549782753,
                        "80": 0.19483251869678497,
                        "81": -0.05311071127653122,
                        "82": -0.13118959963321686,
                        "83": 0.03383143991231918,
                        "84": -0.12242100387811661,
                        "85": 0.140117809176445,
                        "86": 0.034258127212524414,
                        "87": -0.024067383259534836,
                        "88": 0.11215704679489136,
                        "89": -0.0406193733215332,
                        "90": 0.14605669677257538,
                        "91": -0.08039151132106781,
                        "92": 0.13130003213882446,
                        "93": 0.07450500875711441,
                        "94": 0.1901768445968628,
                        "95": 0.11322076618671417,
                        "96": -0.041404563933610916,
                        "97": 0.13228903710842133,
                        "98": -0.11284681409597397,
                        "99": 0.1266823410987854,
                        "100": -0.02338085137307644,
                        "101": -0.19065088033676147,
                        "102": 0.1339288204908371,
                        "103": 0.1169840395450592,
                        "104": -0.019103722646832466,
                        "105": -0.07931357622146606,
                        "106": 0.05724478140473366,
                        "107": 0.13367238640785217,
                        "108": -0.195161834359169,
                        "109": -0.0928555503487587,
                        "110": -0.1129065454006195,
                        "111": 0.1247873306274414,
                        "112": -0.09904851019382477,
                        "113": -0.13475239276885986,
                        "114": -0.021950537338852882,
                        "115": 0.11797662824392319,
                        "116": 0.13794131577014923,
                        "117": 0.032569605857133865,
                        "118": 0.019273320212960243,
                        "119": -0.06574254482984543,
                        "120": -0.19590073823928833,
                        "121": 0.022341422736644745,
                        "122": -0.13322429358959198,
                        "123": -0.11696650087833405,
                        "124": 0.10209031403064728,
                        "125": 0.0312826931476593,
                        "126": -0.10242010653018951,
                        "127": -0.025491395965218544,
                        "128": -0.03371858596801758,
                        "129": 0.10817831009626389,
                        "130": -0.057273175567388535,
                        "131": -0.0966908261179924,
                        "132": -0.024003194645047188,
                        "133": -0.0655161589384079,
                        "134": -0.034833874553442,
                        "135": 0.059393689036369324,
                        "136": -0.18098782002925873,
                        "137": -0.009191103279590607,
                        "138": 0.04750809073448181,
                        "139": 0.016036290675401688,
                        "140": 0.0731457769870758,
                        "141": 0.12616512179374695,
                        "142": 0.15858781337738037,
                        "143": -0.08152469992637634,
                        "144": 0.0408313125371933,
                        "145": -0.048719778656959534,
                        "146": -0.012737879529595375,
                        "147": 0.15527409315109253,
                        "148": 0.019342051818966866,
                        "149": -0.17144306004047394,
                        "150": 0.1066313087940216,
                        "151": -0.12624651193618774,
                        "152": 0.10453128814697266,
                        "153": -0.038948699831962585,
                        "154": -0.10706373304128647,
                        "155": 0.0684964507818222,
                        "156": 0.1901874989271164,
                        "157": -0.060566749423742294,
                        "158": 0.1101546511054039,
                        "159": -0.012802566401660442,
                        "160": 0.05308745801448822,
                        "161": 0.19091588258743286,
                        "162": -0.1778135895729065,
                        "163": -0.08745727688074112,
                        "164": -0.12564334273338318,
                        "165": 0.1481829434633255,
                        "166": -0.09361767768859863,
                        "167": 0.19834692776203156,
                        "168": 0.14486582577228546,
                        "169": 0.020253395661711693,
                        "170": -0.15295207500457764,
                        "171": -0.08686056733131409,
                        "172": 0.006997430697083473,
                        "173": 0.1328512281179428,
                        "174": 0.018885917961597443,
                        "175": -0.03170371428132057,
                        "176": 0.02550347149372101,
                        "177": 0.08528587967157364,
                        "178": 0.16965509951114655,
                        "179": -0.02997828647494316,
                        "180": -0.08342420309782028,
                        "181": -0.07758956402540207,
                        "182": 0.00656288955360651,
                        "183": -0.07915043085813522,
                        "184": -0.14061790704727173,
                        "185": -0.0950474962592125,
                        "186": 0.20998843014240265,
                        "187": 0.101865254342556,
                        "188": 0.1103406473994255,
                        "189": 0.03088572807610035,
                        "190": -0.11601709574460983,
                        "191": -0.12047730386257172,
                        "192": -0.13055755198001862,
                        "193": 0.08654782921075821,
                        "194": 0.1639454960823059,
                        "195": -0.14398019015789032,
                        "196": 0.014072994701564312,
                        "197": -0.18136948347091675,
                        "198": 0.1742119938135147,
                        "199": -0.10245358943939209,
                        "200": 0.17610065639019012,
                        "201": -0.09772578626871109,
                        "202": -0.06535869836807251,
                        "203": 0.09925015270709991,
                        "204": 0.06838967651128769,
                        "205": 0.12760840356349945,
                        "206": 0.1802407056093216,
                        "207": 0.05275039002299309,
                        "208": -0.022305011749267578,
                        "209": -0.13596928119659424,
                        "210": 0.05732279270887375,
                        "211": -0.18334943056106567,
                        "212": 0.14152579009532928,
                        "213": 0.06356514245271683,
                        "214": -0.15932697057724,
                        "215": 0.11864988505840302,
                        "216": 0.0046410937793552876,
                        "217": -0.16094669699668884,
                        "218": -0.16509902477264404,
                        "219": -0.03157700598239899,
