{
    "info": {
        "ai": {
            "config": {
                "hiddenLayers": [
                    128,
                    128
                ],
                "activation": "sigmoid"
            },
            "training": {
                "iterations": 2000,
                "errorThresh": 0.0001,
                "learningRate": 0.01,
                "momentum": 0.1
            }
        },
        "id": "16f1f609b55c91a96efc398dbe7eee0f",
        "dimension": [
            16,
            16
        ],
        "channel": "red",
        "colorspace": "b-w",
        "blackWhite": true
    },
    "data": {
        "sizes": [
            256,
            128,
            128,
            10
        ],
        "layers": [
            {
                "0": {},
                "1": {},
                "2": {},
                "3": {},
                "4": {},
                "5": {},
                "6": {},
                "7": {},
                "8": {},
                "9": {},
                "10": {},
                "11": {},
                "12": {},
                "13": {},
                "14": {},
                "15": {},
                "16": {},
                "17": {},
                "18": {},
                "19": {},
                "20": {},
                "21": {},
                "22": {},
                "23": {},
                "24": {},
                "25": {},
                "26": {},
                "27": {},
                "28": {},
                "29": {},
                "30": {},
                "31": {},
                "32": {},
                "33": {},
                "34": {},
                "35": {},
                "36": {},
                "37": {},
                "38": {},
                "39": {},
                "40": {},
                "41": {},
                "42": {},
                "43": {},
                "44": {},
                "45": {},
                "46": {},
                "47": {},
                "48": {},
                "49": {},
                "50": {},
                "51": {},
                "52": {},
                "53": {},
                "54": {},
                "55": {},
                "56": {},
                "57": {},
                "58": {},
                "59": {},
                "60": {},
                "61": {},
                "62": {},
                "63": {},
                "64": {},
                "65": {},
                "66": {},
                "67": {},
                "68": {},
                "69": {},
                "70": {},
                "71": {},
                "72": {},
                "73": {},
                "74": {},
                "75": {},
                "76": {},
                "77": {},
                "78": {},
                "79": {},
                "80": {},
                "81": {},
                "82": {},
                "83": {},
                "84": {},
                "85": {},
                "86": {},
                "87": {},
                "88": {},
                "89": {},
                "90": {},
                "91": {},
                "92": {},
                "93": {},
                "94": {},
                "95": {},
                "96": {},
                "97": {},
                "98": {},
                "99": {},
                "100": {},
                "101": {},
                "102": {},
                "103": {},
                "104": {},
                "105": {},
                "106": {},
                "107": {},
                "108": {},
                "109": {},
                "110": {},
                "111": {},
                "112": {},
                "113": {},
                "114": {},
                "115": {},
                "116": {},
                "117": {},
                "118": {},
                "119": {},
                "120": {},
                "121": {},
                "122": {},
                "123": {},
                "124": {},
                "125": {},
                "126": {},
                "127": {},
                "128": {},
                "129": {},
                "130": {},
                "131": {},
                "132": {},
                "133": {},
                "134": {},
                "135": {},
                "136": {},
                "137": {},
                "138": {},
                "139": {},
                "140": {},
                "141": {},
                "142": {},
                "143": {},
                "144": {},
                "145": {},
                "146": {},
                "147": {},
                "148": {},
                "149": {},
                "150": {},
                "151": {},
                "152": {},
                "153": {},
                "154": {},
                "155": {},
                "156": {},
                "157": {},
                "158": {},
                "159": {},
                "160": {},
                "161": {},
                "162": {},
                "163": {},
                "164": {},
                "165": {},
                "166": {},
                "167": {},
                "168": {},
                "169": {},
                "170": {},
                "171": {},
                "172": {},
                "173": {},
                "174": {},
                "175": {},
                "176": {},
                "177": {},
                "178": {},
                "179": {},
                "180": {},
                "181": {},
                "182": {},
                "183": {},
                "184": {},
                "185": {},
                "186": {},
                "187": {},
                "188": {},
                "189": {},
                "190": {},
                "191": {},
                "192": {},
                "193": {},
                "194": {},
                "195": {},
                "196": {},
                "197": {},
                "198": {},
                "199": {},
                "200": {},
                "201": {},
                "202": {},
                "203": {},
                "204": {},
                "205": {},
                "206": {},
                "207": {},
                "208": {},
                "209": {},
                "210": {},
                "211": {},
                "212": {},
                "213": {},
                "214": {},
                "215": {},
                "216": {},
                "217": {},
                "218": {},
                "219": {},
                "220": {},
                "221": {},
                "222": {},
                "223": {},
                "224": {},
                "225": {},
                "226": {},
                "227": {},
                "228": {},
                "229": {},
                "230": {},
                "231": {},
                "232": {},
                "233": {},
                "234": {},
                "235": {},
                "236": {},
                "237": {},
                "238": {},
                "239": {},
                "240": {},
                "241": {},
                "242": {},
                "243": {},
                "244": {},
                "245": {},
                "246": {},
                "247": {},
                "248": {},
                "249": {},
                "250": {},
                "251": {},
                "252": {},
                "253": {},
                "254": {},
                "255": {}
            },
            {
                "0": {
                    "bias": 0.0841967761516571,
                    "weights": {
                        "0": -0.10688506811857224,
                        "1": 0.12961459159851074,
                        "2": -0.17795152962207794,
                        "3": -0.10924699157476425,
                        "4": -0.19138146936893463,
                        "5": 0.15228991210460663,
                        "6": 0.22163879871368408,
                        "7": 0.02144365757703781,
                        "8": 0.16752523183822632,
                        "9": 0.15330103039741516,
                        "10": 0.05182306095957756,
                        "11": 0.19815732538700104,
                        "12": 0.18229813873767853,
                        "13": 0.05125086382031441,
                        "14": 0.17716790735721588,
                        "15": -0.03897826001048088,
                        "16": -0.06418158859014511,
                        "17": -0.18869882822036743,
                        "18": 0.1746159791946411,
                        "19": -0.01859229989349842,
                        "20": -0.014013816602528095,
                        "21": -0.16471806168556213,
                        "22": -0.07352928817272186,
                        "23": 0.134353369474411,
                        "24": -0.019450722262263298,
                        "25": -0.01847578026354313,
                        "26": -0.084885373711586,
                        "27": 0.07721474021673203,
                        "28": 0.049226608127355576,
                        "29": -0.11070145666599274,
                        "30": 0.057103872299194336,
                        "31": -0.1499040424823761,
                        "32": 0.037291064858436584,
                        "33": 0.08828671276569366,
                        "34": 0.02875911258161068,
                        "35": 0.018337540328502655,
                        "36": -0.1540244221687317,
                        "37": 0.032425135374069214,
                        "38": 0.01709996722638607,
                        "39": -0.16262364387512207,
                        "40": 0.1348544955253601,
                        "41": 0.007381857838481665,
                        "42": 0.06113254278898239,
                        "43": 0.1398135870695114,
                        "44": -0.12119586765766144,
                        "45": -0.20251236855983734,
                        "46": -0.1154450923204422,
                        "47": -0.17171381413936615,
                        "48": 0.12511132657527924,
                        "49": -0.09049385040998459,
                        "50": -0.12048681825399399,
                        "51": 0.06587475538253784,
                        "52": -0.16361506283283234,
                        "53": 0.09909462928771973,
                        "54": 0.23414325714111328,
                        "55": -0.12186356633901596,
                        "56": -0.17515206336975098,
                        "57": 0.1307753175497055,
                        "58": 0.12715834379196167,
                        "59": 0.04460009187459946,
                        "60": 0.040861863642930984,
                        "61": -0.08211085945367813,
                        "62": 0.06598351150751114,
                        "63": 0.03577592223882675,
                        "64": -0.1344895213842392,
                        "65": 0.11044573038816452,
                        "66": -0.2031102329492569,
                        "67": -0.06925862282514572,
                        "68": 0.1216195672750473,
                        "69": 0.060528796166181564,
                        "70": 0.10843502730131149,
                        "71": -0.03996489197015762,
                        "72": 0.16278423368930817,
                        "73": 0.07407306879758835,
                        "74": -0.05571882799267769,
                        "75": -0.1982916295528412,
                        "76": 0.1295626014471054,
                        "77": -0.22997134923934937,
                        "78": -0.055786073207855225,
                        "79": -0.2083577960729599,
                        "80": 0.09056893736124039,
                        "81": -0.17288430035114288,
                        "82": 0.15229426324367523,
                        "83": -0.173967644572258,
                        "84": -0.1108212023973465,
                        "85": -0.03854162245988846,
                        "86": -0.03875076770782471,
                        "87": -0.15454234182834625,
                        "88": -0.13394932448863983,
                        "89": 0.1353687047958374,
                        "90": 0.17684811353683472,
                        "91": 0.1804201304912567,
                        "92": 0.0478634238243103,
                        "93": -0.07328440248966217,
                        "94": -0.1792793720960617,
                        "95": 0.12143351137638092,
                        "96": -0.22285714745521545,
                        "97": 0.08025610446929932,
                        "98": 0.06075334548950195,
                        "99": 0.10312450677156448,
                        "100": -0.05190663784742355,
                        "101": -0.1139415055513382,
                        "102": 0.04137076437473297,
                        "103": 0.09889134019613266,
                        "104": 0.06999564170837402,
                        "105": -0.005372071173042059,
                        "106": 0.18655185401439667,
                        "107": 0.025825487449765205,
                        "108": -0.08621581643819809,
                        "109": -0.07256652414798737,
                        "110": -0.006032978650182486,
                        "111": 0.121099092066288,
                        "112": 0.14285533130168915,
                        "113": 0.11495234072208405,
                        "114": 0.13961492478847504,
                        "115": 0.011879938654601574,
                        "116": -0.07422331720590591,
                        "117": -0.1038280501961708,
                        "118": -0.2588181495666504,
                        "119": -0.012732120230793953,
                        "120": -0.07639835774898529,
                        "121": 0.03999358043074608,
                        "122": -0.20518864691257477,
                        "123": -0.19197213649749756,
                        "124": -0.219795823097229,
                        "125": 0.05769391730427742,
                        "126": -0.2049325406551361,
                        "127": 0.10438419133424759,
                        "128": 0.06423927843570709,
                        "129": -0.059639424085617065,
                        "130": 0.0019075105665251613,
                        "131": 0.08371906727552414,
                        "132": 0.025822384282946587,
                        "133": -0.004269652534276247,
                        "134": -0.21800795197486877,
                        "135": -0.014770695008337498,
                        "136": -0.21593928337097168,
                        "137": -0.05827309936285019,
                        "138": -0.05513118579983711,
                        "139": -0.2421370893716812,
                        "140": -0.12159530073404312,
                        "141": -0.20344239473342896,
                        "142": -0.1189369484782219,
                        "143": 0.08176692575216293,
                        "144": 0.12022819370031357,
                        "145": -0.04124204441905022,
                        "146": 0.15313425660133362,
                        "147": -0.11396850645542145,
                        "148": -0.0773267149925232,
                        "149": -0.13762933015823364,
                        "150": 0.01873025856912136,
                        "151": 0.08394768834114075,
                        "152": 0.01582578383386135,
                        "153": -0.06452158838510513,
                        "154": 0.05983501300215721,
                        "155": 0.06696842610836029,
                        "156": 0.13541048765182495,
                        "157": 0.11307045072317123,
                        "158": 0.17444980144500732,
                        "159": 0.016259612515568733,
                        "160": 0.06561051309108734,
                        "161": -0.0519910529255867,
                        "162": 0.16657952964305878,
                        "163": 0.009617313742637634,
                        "164": -0.020716914907097816,
                        "165": 0.19012723863124847,
                        "166": 0.16450950503349304,
                        "167": -0.05766480043530464,
                        "168": -0.14768172800540924,
                        "169": 0.04504302889108658,
                        "170": -0.03140223026275635,
                        "171": -0.16384799778461456,
                        "172": 0.028258636593818665,
                        "173": -0.2085895985364914,
                        "174": 0.13028286397457123,
                        "175": 0.10374244302511215,
                        "176": 0.26996809244155884,
                        "177": 0.025136779993772507,
                        "178": 0.04724200814962387,
                        "179": 0.21448862552642822,
                        "180": 0.08098265528678894,
                        "181": 0.18621546030044556,
                        "182": 0.13837628066539764,
                        "183": -0.052440620958805084,
                        "184": -0.11572279036045074,
                        "185": -0.054662901908159256,
                        "186": -0.20666974782943726,
                        "187": -0.250725656747818,
                        "188": -0.07643846422433853,
                        "189": 0.0226015392690897,
                        "190": 0.12989652156829834,
                        "191": 0.026445096358656883,
                        "192": 0.0605921745300293,
                        "193": -0.033143673092126846,
                        "194": 0.19762998819351196,
                        "195": -0.09742555767297745,
                        "196": -0.01387703511863947,
                        "197": -0.06163511052727699,
                        "198": 0.09437504410743713,
                        "199": -0.15671057999134064,
                        "200": -0.09613405168056488,
                        "201": -0.049205124378204346,
                        "202": -0.03284206613898277,
                        "203": -0.03443926200270653,
                        "204": -0.13171763718128204,
                        "205": -0.10309546440839767,
                        "206": 0.037352412939071655,
                        "207": 0.1745591163635254,
                        "208": -0.1139335036277771,
                        "209": 0.1609456092119217,
                        "210": 0.14470137655735016,
                        "211": 0.047395043075084686,
                        "212": -0.1561393141746521,
                        "213": -0.05307420343160629,
                        "214": 0.12715601921081543,
                        "215": 0.06254350394010544,
                        "216": -0.15699079632759094,
                        "217": -0.06488411128520966,
                        "218": -0.04176238179206848,
                        "219": -0.1474531888961792,
                        "220": 0.04527103900909424,
                        "221": -0.036888446658849716,
                        "222": 0.10277211666107178,
                        "223": -0.009806469082832336,
                        "224": 0.11019965261220932,
                        "225": 0.14755640923976898,
                        "226": 0.03762261942028999,
                        "227": 0.1283946931362152,
                        "228": -0.053993791341781616,
                        "229": -0.1431017965078354,
                        "230": -0.04664163291454315,
                        "231": 0.11580415815114975,
                        "232": -0.1535274237394333,
                        "233": -0.15355965495109558,
                        "234": -0.16724635660648346,
                        "235": 0.03364209458231926,
                        "236": -0.1936771720647812,
                        "237": -0.2034023404121399,
                        "238": -0.009622730314731598,
                        "239": 0.18858499825000763,
                        "240": -0.011536749079823494,
                        "241": -0.13959123194217682,
                        "242": -0.23627403378486633,
                        "243": -0.15374989807605743,
                        "244": 0.15544076263904572,
                        "245": 0.149775430560112,
                        "246": -0.016269057989120483,
                        "247": -0.08330950886011124,
                        "248": 0.13165275752544403,
                        "249": -0.1418592780828476,
                        "250": 0.13188064098358154,
                        "251": 0.031498800963163376,
                        "252": -0.0022128077689558268,
                        "253": 0.09492786228656769,
                        "254": -0.11448060721158981,
                        "255": 0.10843439400196075
                    }
                },
                "1": {
                    "bias": 0.16440661251544952,
                    "weights": {
                        "0": -0.14653073251247406,
                        "1": 0.14736108481884003,
                        "2": -0.13015560805797577,
                        "3": -0.010007161647081375,
                        "4": 0.0072176638059318066,
                        "5": -0.07313226163387299,
                        "6": 0.10677500814199448,
                        "7": 0.10655836015939713,
                        "8": -0.06212726980447769,
                        "9": 0.0070515465922653675,
                        "10": 0.18667647242546082,
                        "11": 0.15746739506721497,
                        "12": 0.1658279150724411,
                        "13": 0.1870361566543579,
                        "14": 0.07723837345838547,
                        "15": -0.06793835014104843,
                        "16": 0.0792960524559021,
                        "17": 0.022655444219708443,
                        "18": -0.3228381276130676,
                        "19": -0.20670604705810547,
                        "20": -0.031607870012521744,
                        "21": -0.1944030076265335,
                        "22": 0.15856903791427612,
                        "23": 0.1394975185394287,
                        "24": -0.18220092356204987,
                        "25": 0.12954962253570557,
                        "26": 0.10783661901950836,
                        "27": 0.18594443798065186,
                        "28": 0.16736140847206116,
                        "29": -0.07362741976976395,
                        "30": -0.17733882367610931,
                        "31": -0.24244454503059387,
                        "32": -0.13654732704162598,
                        "33": -0.16398414969444275,
                        "34": -0.3550957441329956,
                        "35": -0.30402886867523193,
                        "36": -0.06836533546447754,
                        "37": -0.24473713338375092,
                        "38": -0.20681707561016083,
                        "39": -0.017779437825083733,
                        "40": 0.038473427295684814,
                        "41": 0.09435781836509705,
                        "42": -0.18131379783153534,
                        "43": -0.19685615599155426,
                        "44": -0.15653088688850403,
                        "45": -0.09724230319261551,
                        "46": 0.02416551113128662,
                        "47": 0.13342732191085815,
                        "48": -0.16341064870357513,
                        "49": 0.11544960737228394,
                        "50": -0.2237020879983902,
                        "51": -0.17352676391601562,
                        "52": -0.0389980748295784,
                        "53": 0.09200085699558258,
                        "54": 0.08577734977006912,
                        "55": -0.1803651750087738,
                        "56": 0.09221061319112778,
                        "57": 0.16520005464553833,
                        "58": -0.13606229424476624,
                        "59": -0.017225785180926323,
                        "60": -0.19124101102352142,
                        "61": 0.06901190429925919,
                        "62": -0.17868396639823914,
                        "63": 0.044316913932561874,
                        "64": 0.0024898285046219826,
                        "65": 0.06989576667547226,
                        "66": -0.11227447539567947,
                        "67": 0.011384780518710613,
                        "68": -0.11688253283500671,
                        "69": 0.10207123309373856,
                        "70": 0.13473094999790192,
                        "71": 0.20957982540130615,
                        "72": 0.17178677022457123,
                        "73": -0.10828331112861633,
                        "74": -0.02429015189409256,
                        "75": 0.13990353047847748,
                        "76": -0.14141955971717834,
                        "77": -0.2292630970478058,
                        "78": -0.14602480828762054,
                        "79": 0.20166847109794617,
                        "80": 0.026652246713638306,
                        "81": -0.12477005273103714,
                        "82": -0.03917879983782768,
                        "83": -0.1624760627746582,
                        "84": -0.20812812447547913,
                        "85": -0.19201546907424927,
                        "86": 0.1362718790769577,
                        "87": 0.20895028114318848,
                        "88": -0.06719838082790375,
                        "89": -0.1471652239561081,
                        "90": 0.11610893160104752,
                        "91": -0.14604228734970093,
                        "92": -0.08511023223400116,
                        "93": 0.027981389313936234,
                        "94": 0.12287341803312302,
                        "95": -0.14140765368938446,
                        "96": 0.007869784720242023,
                        "97": -0.32586389780044556,
                        "98": -0.17924091219902039,
                        "99": 0.01784880831837654,
                        "100": 0.020797697827219963,
                        "101": -0.16787901520729065,
                        "102": 0.1374562829732895,
                        "103": 0.08595173805952072,
                        "104": 0.041367899626493454,
                        "105": 0.09231414645910263,
                        "106": 0.16761553287506104,
                        "107": -0.003641030052676797,
                        "108": -0.20627151429653168,
                        "109": 0.030851058661937714,
                        "110": -0.019785448908805847,
                        "111": 0.20998911559581757,
                        "112": -0.22044572234153748,
                        "113": 0.14694830775260925,
                        "114": -0.166944682598114,
                        "115": -0.0755491554737091,
                        "116": -0.011947833932936192,
                        "117": 0.12844860553741455,
                        "118": -0.03313332423567772,
                        "119": -0.08632019907236099,
                        "120": 0.1648896038532257,
                        "121": 0.21444547176361084,
                        "122": 0.08721886575222015,
                        "123": 0.114657461643219,
                        "124": -0.13461899757385254,
                        "125": -0.012574664317071438,
                        "126": 0.008414286188781261,
                        "127": -0.055578507483005524,
                        "128": 0.21234603226184845,
                        "129": -0.054352451115846634,
                        "130": -0.056297216564416885,
                        "131": 0.1344313621520996,
                        "132": 0.2056625634431839,
                        "133": 0.21981623768806458,
                        "134": -0.017429761588573456,
                        "135": 0.04168844223022461,
                        "136": 0.1873329132795334,
                        "137": -0.08607702702283859,
                        "138": 0.2265336960554123,
                        "139": 0.12590113282203674,
                        "140": 0.026013724505901337,
                        "141": -0.03662386164069176,
                        "142": 0.17335395514965057,
                        "143": 0.2599610984325409,
                        "144": 0.16292515397071838,
                        "145": 0.02787192352116108,
                        "146": 0.024988682940602303,
                        "147": -0.038208968937397,
                        "148": 0.009615916758775711,
                        "149": 0.01677521876990795,
                        "150": -0.12457414716482162,
                        "151": 0.062370311468839645,
                        "152": 0.09222473949193954,
                        "153": 0.11914582550525665,
                        "154": 0.026660025119781494,
                        "155": -0.07930342108011246,
                        "156": -0.20962680876255035,
                        "157": -0.03701118007302284,
                        "158": 0.0694502517580986,
                        "159": 0.18435078859329224,
                        "160": -0.1998383104801178,
                        "161": 0.13817651569843292,
                        "162": -0.11816848069429398,
                        "163": -0.2556683123111725,
                        "164": -0.03681407496333122,
                        "165": -0.15702101588249207,
                        "166": 0.020793411880731583,
                        "167": 0.09487535059452057,
                        "168": 0.13825687766075134,
                        "169": 0.09002853184938431,
                        "170": -0.20359812676906586,
                        "171": -0.042644795030355453,
                        "172": -0.13469457626342773,
                        "173": 0.13684172928333282,
                        "174": 0.09727150946855545,
                        "175": -0.017346514388918877,
                        "176": 0.15325415134429932,
                        "177": -0.1034681499004364,
                        "178": 0.03617357090115547,
                        "179": 0.1144300028681755,
                        "180": -0.047110091894865036,
                        "181": 0.021479273214936256,
                        "182": -0.133119598031044,
                        "183": -0.11839370429515839,
                        "184": -0.03148917481303215,
                        "185": 0.2738948464393616,
                        "186": -0.2194841504096985,
                        "187": -0.09083853662014008,
                        "188": -0.10694778710603714,
                        "189": -0.21293504536151886,
                        "190": -0.10101127624511719,
                        "191": 0.1992730349302292,
                        "192": 0.09188451617956161,
                        "193": -0.22161495685577393,
                        "194": -0.24517232179641724,
                        "195": 0.14155061542987823,
                        "196": -0.1921725571155548,
                        "197": -0.042595621198415756,
                        "198": -0.04729905351996422,
                        "199": 0.13975687325000763,
                        "200": 0.049656085669994354,
                        "201": 0.13782039284706116,
                        "202": 0.0017498424276709557,
                        "203": 0.012802737765014172,
                        "204": -0.022424032911658287,
                        "205": -0.07653126865625381,
                        "206": -0.08449339121580124,
                        "207": -0.05574347823858261,
                        "208": -0.17086072266101837,
                        "209": -0.1872335970401764,
                        "210": -0.07388968765735626,
                        "211": 0.03730432689189911,
                        "212": -0.009223703294992447,
                        "213": -0.1272648274898529,
                        "214": -0.14808297157287598,
                        "215": 0.12301581352949142,
                        "216": -0.01920652948319912,
                        "217": 0.06310835480690002,
                        "218": 0.04824388027191162,
                        "219": -0.10608192533254623,
                        "220": 0.08406347781419754,
                        "221": 0.11500229686498642,
                        "222": -0.018216488882899284,
                        "223": 0.13337817788124084,
                        "224": -0.14019903540611267,
                        "225": 0.009984929114580154,
                        "226": 0.05396666377782822,
                        "227": -0.1872251033782959,
                        "228": -0.004807679448276758,
                        "229": 0.039644476026296616,
                        "230": 0.03296513855457306,
                        "231": 0.18019628524780273,
                        "232": 0.22106389701366425,
                        "233": 0.21644698083400726,
                        "234": 0.011806132271885872,
                        "235": -0.19043011963367462,
                        "236": -0.22156475484371185,
                        "237": 0.04981577768921852,
                        "238": -0.05179302766919136,
                        "239": 0.13877560198307037,
                        "240": 0.13345229625701904,
                        "241": 0.24431759119033813,
                        "242": 0.027291232720017433,
                        "243": 0.07668232917785645,
                        "244": 0.20322801172733307,
                        "245": -0.07254087179899216,
                        "246": 0.18706312775611877,
                        "247": 0.12244863063097,
                        "248": -0.053449008613824844,
                        "249": 0.16839633882045746,
                        "250": 0.16774512827396393,
                        "251": -0.04361685365438461,
                        "252": 0.14966444671154022,
                        "253": 0.14984403550624847,
                        "254": -0.0017302061896771193,
                        "255": -0.14471420645713806
                    }
                },
                "2": {
                    "bias": -0.16235925257205963,
                    "weights": {
                        "0": 0.07651492208242416,
                        "1": 0.11130308359861374,
                        "2": 0.062114160507917404,
                        "3": 0.0741933062672615,
                        "4": -0.11099569499492645,
                        "5": -0.16270801424980164,
                        "6": -0.035995159298181534,
                        "7": 0.09846583008766174,
                        "8": -0.143490269780159,
                        "9": -0.016609100624918938,
                        "10": -0.01083014253526926,
                        "11": -0.047608621418476105,
                        "12": 0.18693290650844574,
                        "13": 0.019601857289671898,
                        "14": -0.12658680975437164,
                        "15": -0.1111387088894844,
                        "16": -0.017959874123334885,
                        "17": 0.08141626417636871,
                        "18": 0.028920013457536697,
                        "19": -0.23977355659008026,
                        "20": -0.24122537672519684,
                        "21": -0.12561582028865814,
                        "22": -0.09946982562541962,
                        "23": 0.0927174985408783,
                        "24": 0.12590032815933228,
                        "25": 0.19434486329555511,
                        "26": 0.08968688547611237,
                        "27": -0.13715223968029022,
                        "28": 0.09800618141889572,
                        "29": 0.16684623062610626,
                        "30": -0.014932653866708279,
                        "31": 0.25731581449508667,
                        "32": 0.16406850516796112,
                        "33": 0.0593494288623333,
                        "34": -0.23925988376140594,
                        "35": 0.06271126121282578,
                        "36": -0.13378186523914337,
                        "37": -0.17125149071216583,
                        "38": -0.08822080492973328,
                        "39": 0.1681230664253235,
                        "40": 0.2006295919418335,
                        "41": -0.1532159149646759,
                        "42": -0.12280857563018799,
                        "43": 0.1868767887353897,
                        "44": -0.037593774497509,
                        "45": -0.038862477988004684,
                        "46": 0.13195966184139252,
                        "47": -0.013735376298427582,
                        "48": -0.03656548634171486,
                        "49": -0.1618906855583191,
                        "50": -0.26305994391441345,
                        "51": 0.003943609073758125,
                        "52": -0.08369012176990509,
                        "53": 0.021510759368538857,
                        "54": -0.12852828204631805,
                        "55": 0.07539544254541397,
                        "56": 0.04617951810359955,
                        "57": 0.18812933564186096,
                        "58": 0.18505330383777618,
                        "59": 0.13547392189502716,
                        "60": 0.21421797573566437,
                        "61": 0.028271667659282684,
                        "62": 0.21535471081733704,
                        "63": -0.14879344403743744,
                        "64": 0.036028165370225906,
                        "65": -0.20007963478565216,
                        "66": -0.10603780299425125,
                        "67": -0.2754008173942566,
                        "68": -0.12273751199245453,
                        "69": -0.13181310892105103,
                        "70": -0.018923982977867126,
                        "71": -0.13928864896297455,
                        "72": -0.03944404795765877,
                        "73": -0.1646721214056015,
                        "74": -0.1666167825460434,
                        "75": 0.04930003732442856,
                        "76": 0.19077369570732117,
                        "77": 0.11215609312057495,
                        "78": 0.10363884270191193,
                        "79": -0.07186899334192276,
                        "80": -0.008731606416404247,
                        "81": -0.07305252552032471,
                        "82": -0.12162657827138901,
                        "83": -0.2616691291332245,
                        "84": -0.19159433245658875,
                        "85": -0.2290898561477661,
                        "86": 0.062977634370327,
                        "87": 0.1279860883951187,
                        "88": 0.13173814117908478,
                        "89": 0.18828921020030975,
                        "90": 0.009306788444519043,
                        "91": -0.1470215767621994,
                        "92": 0.1142001748085022,
                        "93": 0.13820697367191315,
                        "94": -0.07552862912416458,
                        "95": 0.13643869757652283,
                        "96": -0.13624830543994904,
                        "97": 0.007054048590362072,
                        "98": 0.0614248663187027,
                        "99": -0.02879178524017334,
                        "100": -0.1779731810092926,
                        "101": 0.03644615784287453,
                        "102": -0.17651516199111938,
                        "103": 0.08370356261730194,
                        "104": 0.20278212428092957,
                        "105": -0.12067453563213348,
                        "106": -0.15598291158676147,
                        "107": 0.049467362463474274,
                        "108": 0.22584323585033417,
                        "109": -0.10257819294929504,
                        "110": 0.016074365004897118,
                        "111": 0.16946735978126526,
                        "112": -0.23827721178531647,
                        "113": -0.2513831853866577,
                        "114": -0.019052380695939064,
                        "115": -0.015626637265086174,
                        "116": -0.01833580806851387,
                        "117": 0.04442580044269562,
                        "118": -0.01788075640797615,
                        "119": -0.05625201016664505,
                        "120": 0.038582999259233475,
                        "121": 0.24137930572032928,
                        "122": -0.0571189820766449,
                        "123": 0.20187929272651672,
                        "124": 0.2133675068616867,
                        "125": 0.17509116232395172,
                        "126": 0.2502308487892151,
                        "127": -0.1823914349079132,
                        "128": -0.12883013486862183,
                        "129": 0.09407898038625717,
                        "130": 0.09924855083227158,
                        "131": -0.03453924506902695,
                        "132": 0.1949974149465561,
                        "133": -0.06106966361403465,
                        "134": 0.017933953553438187,
                        "135": 0.22333183884620667,
                        "136": -0.03064190223813057,
                        "137": -0.10984750092029572,
                        "138": 0.08484670519828796,
                        "139": 0.21926961839199066,
                        "140": 0.0300156082957983,
                        "141": 0.04413255304098129,
                        "142": -0.2094421535730362,
                        "143": 0.0029141996055841446,
                        "144": -0.07143505662679672,
                        "145": 0.08485569804906845,
                        "146": 0.12746554613113403,
                        "147": 0.09969010204076767,
                        "148": 0.18910421431064606,
                        "149": -0.08862948417663574,
                        "150": 0.002403604332357645,
                        "151": 0.20730648934841156,
                        "152": -0.1092393696308136,
                        "153": 0.16320334374904633,
                        "154": -0.02122746780514717,
                        "155": 0.04694262519478798,
                        "156": -0.23378394544124603,
                        "157": -0.09659868478775024,
                        "158": 0.052234284579753876,
                        "159": -0.1750202625989914,
                        "160": -0.07236065715551376,
                        "161": -0.05348597839474678,
                        "162": -0.0870409607887268,
                        "163": 0.03709089383482933,
                        "164": -0.07333783805370331,
                        "165": 0.04734821617603302,
                        "166": 0.19969314336776733,
                        "167": -0.036277059465646744,
                        "168": 0.1627991497516632,
                        "169": -0.08865299820899963,
                        "170": -0.025490928441286087,
                        "171": 0.051180023699998856,
                        "172": -0.19946809113025665,
                        "173": -0.23386473953723907,
                        "174": 0.10432872921228409,
                        "175": -0.037485674023628235,
                        "176": 0.1417967677116394,
                        "177": 0.21639494597911835,
                        "178": 0.0753006786108017,
                        "179": 0.06696061044931412,
                        "180": -0.10379469394683838,
                        "181": -0.06931483745574951,
                        "182": 0.012059765867888927,
                        "183": -0.13131967186927795,
                        "184": -0.17625056207180023,
                        "185": 0.15180379152297974,
                        "186": -0.12552787363529205,
                        "187": 0.1794484704732895,
                        "188": 0.08927548676729202,
                        "189": 0.10727566480636597,
                        "190": -0.07827232778072357,
                        "191": -0.17887793481349945,
                        "192": -0.07260249555110931,
                        "193": 0.08838298171758652,
                        "194": -0.15115423500537872,
                        "195": 0.13148261606693268,
                        "196": -0.06227744743227959,
                        "197": 0.16633261740207672,
                        "198": 0.1170714870095253,
                        "199": -0.03713512793183327,
                        "200": 0.02945105917751789,
                        "201": 0.022500863298773766,
                        "202": 0.04546718671917915,
                        "203": -0.2162962108850479,
                        "204": -0.06947093456983566,
                        "205": -0.19584524631500244,
                        "206": -0.10576748847961426,
                        "207": 0.09343060106039047,
                        "208": 0.14683173596858978,
                        "209": -0.0662178322672844,
                        "210": 0.055884912610054016,
                        "211": -0.13664570450782776,
                        "212": 0.0533318892121315,
                        "213": -0.0650709867477417,
                        "214": -0.04771828278899193,
                        "215": 0.14475886523723602,
                        "216": 0.10218153148889542,
                        "217": -0.14185693860054016,
                        "218": -0.05425644293427467,
                        "219": 0.13167576491832733,
                        "220": 0.09559419751167297,
                        "221": -0.0035281027667224407,
                        "222": 0.004170744679868221,
                        "223": 0.025526849552989006,
                        "224": -0.007497718557715416,
                        "225": 0.01789039559662342,
                        "226": -0.03428811952471733,
                        "227": 0.02800178714096546,
                        "228": 0.0017403786769136786,
                        "229": 0.14108622074127197,
                        "230": 0.12912893295288086,
                        "231": -0.17533546686172485,
                        "232": -0.055951621383428574,
                        "233": -0.02111315354704857,
                        "234": 0.07575766742229462,
                        "235": 0.03855425864458084,
                        "236": 0.06157270073890686,
                        "237": -0.05513012781739235,
                        "238": 0.159036785364151,
                        "239": 0.15890009701251984,
                        "240": 0.1344529539346695,
                        "241": 0.1092580035328865,
                        "242": 0.1494363248348236,
                        "243": 0.03211754560470581,
                        "244": 0.14177864789962769,
                        "245": 0.01538216695189476,
                        "246": 0.06929755955934525,
                        "247": 0.11599987000226974,
                        "248": 0.006606362760066986,
                        "249": 0.03668930381536484,
                        "250": 0.004434081260114908,
                        "251": 0.15009170770645142,
                        "252": -0.053464625030756,
                        "253": 0.19057798385620117,
                        "254": -0.0021452629007399082,
                        "255": -0.160124734044075
                    }
                },
                "3": {
                    "bias": -0.1490044742822647,
                    "weights": {
                        "0": -0.0582704022526741,
                        "1": -0.14184357225894928,
                        "2": -0.04831308126449585,
                        "3": -0.024010932072997093,
                        "4": 0.031361956149339676,
                        "5": -0.21962514519691467,
                        "6": -0.09411805123090744,
                        "7": 0.06864918023347855,
                        "8": 0.028767889365553856,
                        "9": -0.2064630538225174,
                        "10": -0.16947710514068604,
                        "11": 0.052557382732629776,
                        "12": 0.03860505297780037,
                        "13": -0.1452869176864624,
                        "14": -0.12471159547567368,
                        "15": -0.13277141749858856,
                        "16": 0.06614287942647934,
                        "17": -0.14689947664737701,
                        "18": -0.1505734920501709,
                        "19": 0.19960743188858032,
                        "20": -0.06502154469490051,
                        "21": 0.006478503346443176,
                        "22": 0.11859016120433807,
                        "23": 0.11630014330148697,
                        "24": 0.06256827712059021,
                        "25": -0.013358759693801403,
                        "26": 0.018246423453092575,
                        "27": -0.08187597244977951,
                        "28": -0.08625883609056473,
                        "29": -0.03517508879303932,
                        "30": -0.039462484419345856,
                        "31": 0.07629473507404327,
                        "32": 0.14048615097999573,
                        "33": -0.1363510936498642,
                        "34": -0.06376972794532776,
                        "35": -0.0472181960940361,
                        "36": -0.03450153395533562,
                        "37": 0.007712624501436949,
                        "38": -0.06488435715436935,
                        "39": -0.14879634976387024,
                        "40": 0.1832357794046402,
                        "41": 0.07088466733694077,
                        "42": -0.03494797646999359,
                        "43": 0.2597816586494446,
                        "44": 0.0789821520447731,
                        "45": -0.029693713411688805,
                        "46": -0.0967089906334877,
                        "47": -0.07805123180150986,
                        "48": 0.03411687910556793,
                        "49": 0.05659593269228935,
                        "50": -0.17162439227104187,
                        "51": 0.0685894638299942,
                        "52": -0.1171497106552124,
                        "53": -0.024493340402841568,
                        "54": 0.14477482438087463,
                        "55": -0.09037919342517853,
                        "56": -0.11139378696680069,
                        "57": 0.18579520285129547,
                        "58": -0.17379237711429596,
                        "59": 0.2528013586997986,
                        "60": 0.017653992399573326,
                        "61": 0.1495676040649414,
                        "62": 0.22129715979099274,
                        "63": -0.12624409794807434,
                        "64": -0.1515091210603714,
                        "65": -0.18133342266082764,
                        "66": 0.14401468634605408,
                        "67": -0.15630841255187988,
                        "68": 0.16420070827007294,
                        "69": -0.0066001745872199535,
                        "70": 0.10362675786018372,
                        "71": -0.13716933131217957,
                        "72": -0.19158904254436493,
                        "73": -0.09350746870040894,
                        "74": 0.08602707833051682,
                        "75": -0.02551577053964138,
                        "76": -0.1013815850019455,
                        "77": 0.028730327263474464,
                        "78": 0.05759626626968384,
                        "79": -0.1544819474220276,
                        "80": 0.012455948628485203,
                        "81": 0.2106575071811676,
                        "82": 0.14418283104896545,
                        "83": -0.002800627378746867,
                        "84": -0.10273631662130356,
                        "85": -0.07581604272127151,
                        "86": 0.05532744526863098,
                        "87": -0.06825315952301025,
                        "88": -0.075533926486969,
                        "89": 0.16811971366405487,
                        "90": -0.07995560765266418,
                        "91": 0.03648814186453819,
                        "92": 0.22133292257785797,
                        "93": 0.14764612913131714,
                        "94": 0.06821392476558685,
                        "95": 0.2007005363702774,
                        "96": -0.0689452588558197,
                        "97": 0.04723779484629631,
                        "98": -0.023822810500860214,
                        "99": 0.06422556936740875,
                        "100": -0.17091567814350128,
                        "101": -0.011353031732141972,
                        "102": 0.005890995264053345,
                        "103": -0.12166707217693329,
                        "104": 0.15721477568149567,
                        "105": -0.1310509592294693,
                        "106": -0.14105427265167236,
                        "107": 0.12721528112888336,
                        "108": 0.15913885831832886,
                        "109": 0.14710792899131775,
                        "110": 0.0725068598985672,
                        "111": 0.13620318472385406,
                        "112": -0.1994742900133133,
                        "113": 0.1224064901471138,
                        "114": 0.02933022752404213,
                        "115": 0.06870999932289124,
                        "116": -0.19476038217544556,
                        "117": -0.1041262298822403,
                        "118": 0.14687900245189667,
                        "119": 0.014183808118104935,
                        "120": -0.015820497646927834,
                        "121": -0.0998055711388588,
                        "122": 0.20724894106388092,
                        "123": 0.12686464190483093,
                        "124": -0.05792282894253731,
                        "125": 0.16826701164245605,
                        "126": -0.016677921637892723,
                        "127": -0.10089852660894394,
                        "128": 0.16020669043064117,
                        "129": 0.17519475519657135,
                        "130": -0.09787441790103912,
                        "131": 0.10121912509202957,
                        "132": 0.04747443273663521,
                        "133": 0.016562603414058685,
                        "134": 0.09915126860141754,
                        "135": -0.027162043377757072,
                        "136": -0.052550576627254486,
                        "137": 0.08360577374696732,
                        "138": -0.06788402050733566,
                        "139": -0.17652691900730133,
                        "140": -0.08158338814973831,
                        "141": 0.2211921066045761,
                        "142": -0.2232552319765091,
                        "143": -0.1562070995569229,
                        "144": 0.06141543760895729,
                        "145": -0.21577557921409607,
                        "146": -0.1280890554189682,
                        "147": -0.08004480600357056,
                        "148": 0.10046390444040298,
                        "149": -0.15463879704475403,
                        "150": -0.042268864810466766,
                        "151": -0.13656851649284363,
                        "152": 0.1567278802394867,
                        "153": 0.16994093358516693,
                        "154": -0.11041931807994843,
                        "155": 0.27139535546302795,
                        "156": 0.21478421986103058,
                        "157": -0.018923556432127953,
                        "158": -0.1998179852962494,
                        "159": 0.0669369325041771,
                        "160": -0.06004665046930313,
                        "161": -0.07659027725458145,
                        "162": 0.020616771653294563,
                        "163": 0.024800073355436325,
                        "164": -0.13358578085899353,
                        "165": 0.017663896083831787,
                        "166": 0.09481051564216614,
                        "167": 0.13681235909461975,
                        "168": 0.1443810611963272,
                        "169": 0.1418602466583252,
                        "170": -0.07571160793304443,
                        "171": 0.15352857112884521,
                        "172": 0.20562927424907684,
                        "173": -0.05671551451086998,
                        "174": 0.06824800372123718,
                        "175": -0.23569084703922272,
                        "176": -0.16077466309070587,
                        "177": 0.10192892700433731,
                        "178": 0.030659427866339684,
                        "179": 0.1664849817752838,
                        "180": -0.1146632730960846,
                        "181": 0.03483671322464943,
                        "182": 0.10083192586898804,
                        "183": -0.16977116465568542,
                        "184": 0.1864515095949173,
                        "185": -0.07037008553743362,
                        "186": -0.023004278540611267,
                        "187": 0.18074776232242584,
                        "188": -0.07632122933864594,
                        "189": 0.05080018937587738,
                        "190": -0.2785743176937103,
                        "191": -0.2309410125017166,
                        "192": 0.16190528869628906,
                        "193": -0.03113536350429058,
                        "194": -0.061389435082674026,
                        "195": 0.07837051898241043,
                        "196": -0.11801217496395111,
                        "197": 0.01511202659457922,
                        "198": 0.08909980207681656,
                        "199": -0.1911058872938156,
                        "200": 0.031522486358881,
                        "201": 0.06644681841135025,
                        "202": 0.28654611110687256,
                        "203": 0.2080809324979782,
                        "204": 0.2776801884174347,
                        "205": -0.01257336139678955,
                        "206": -0.07310803234577179,
                        "207": 0.05308960750699043,
                        "208": -0.15111954510211945,
                        "209": 0.1271732598543167,
                        "210": 0.11876873672008514,
                        "211": 0.006413974799215794,
                        "212": -0.006541229318827391,
                        "213": -0.008504842408001423,
                        "214": 0.09503106027841568,
                        "215": 0.11212779581546783,
                        "216": 0.04811074584722519,
                        "217": -0.07756669074296951,
                        "218": 0.22881539165973663,
                        "219": 0.036063361912965775,
                        "220": 0.24146857857704163,
                        "221": 0.008727421052753925,
                        "222": -0.2737337052822113,
                        "223": 0.0012073985999450088,
                        "224": 0.02534966729581356,
                        "225": 0.06922342628240585,
                        "226": 0.017046373337507248,
                        "227": 0.05802835151553154,
                        "228": 0.004789513535797596,
                        "229": 0.04213972017168999,
                        "230": -0.24892760813236237,
                        "231": -0.18187850713729858,
                        "232": 0.09057681262493134,
                        "233": -0.06238262727856636,
                        "234": 0.2443903088569641,
                        "235": 0.19052869081497192,
                        "236": 0.25266945362091064,
                        "237": -0.03232549875974655,
                        "238": -0.1220509335398674,
                        "239": -0.09388404339551926,
                        "240": 0.11721479892730713,
                        "241": 0.004733892623335123,
                        "242": -0.10471350699663162,
                        "243": -0.043154291808605194,
                        "244": -0.22372746467590332,
                        "245": -0.23589088022708893,
                        "246": -0.11565316468477249,
                        "247": 0.07086420059204102,
                        "248": -0.15604962408542633,
                        "249": -0.1302579939365387,
                        "250": -0.061582911759614944,
                        "251": -0.0055629657581448555,
                        "252": -0.05279659107327461,
                        "253": 0.0999588891863823,
                        "254": 0.1287519931793213,
                        "255": 0.029718564823269844
                    }
                },
                "4": {
                    "bias": 0.0038416993338614702,
                    "weights": {
                        "0": 0.049038589000701904,
                        "1": -0.017129311338067055,
                        "2": 0.11418544501066208,
                        "3": -0.09511667490005493,
                        "4": 0.10480164736509323,
                        "5": 0.0054123615846037865,
                        "6": 0.05494210496544838,
                        "7": -0.05750027671456337,
                        "8": -0.1151861697435379,
                        "9": 0.1598014533519745,
                        "10": 0.004560005851089954,
                        "11": 0.027541521936655045,
                        "12": -0.02917729690670967,
                        "13": -0.05664825811982155,
                        "14": 0.13595613837242126,
                        "15": 0.06391158699989319,
                        "16": -0.061027057468891144,
                        "17": 0.07098811864852905,
                        "18": 0.17325279116630554,
                        "19": 0.06629668921232224,
                        "20": 0.2162168174982071,
                        "21": -0.11805856972932816,
                        "22": -0.0041679879650473595,
                        "23": 0.05249767377972603,
                        "24": -0.14358673989772797,
                        "25": -0.08174879848957062,
                        "26": -0.18648730218410492,
                        "27": 0.11686018109321594,
                        "28": -0.20656535029411316,
                        "29": -0.19046588242053986,
                        "30": 0.03717556968331337,
                        "31": 0.19811280071735382,
                        "32": 0.2162090539932251,
                        "33": 0.05828408896923065,
                        "34": -0.06581414490938187,
                        "35": 0.17441196739673615,
                        "36": 0.06125573068857193,
                        "37": 0.06867200881242752,
                        "38": -0.15361520648002625,
                        "39": 0.06885910034179688,
                        "40": 0.04359492287039757,
                        "41": -0.0253252312541008,
                        "42": -0.2098599523305893,
                        "43": 0.11402232199907303,
                        "44": 0.1046929806470871,
                        "45": -0.0976177528500557,
                        "46": 0.051608823239803314,
                        "47": -0.00798230804502964,
                        "48": -0.0801178440451622,
                        "49": 0.003406546311452985,
                        "50": -0.01096304226666689,
                        "51": 0.1531311422586441,
                        "52": 0.15270400047302246,
                        "53": -0.08622926473617554,
                        "54": -0.20588156580924988,
                        "55": 0.14163166284561157,
                        "56": 0.02650921232998371,
                        "57": -0.019607676193118095,
                        "58": -0.09286731481552124,
                        "59": -0.08404768258333206,
                        "60": -0.009729406796395779,
                        "61": 0.2135794758796692,
                        "62": 0.1924663633108139,
                        "63": 0.11873336881399155,
                        "64": 0.2096235156059265,
                        "65": 0.13324053585529327,
                        "66": 0.075400210916996,
                        "67": -0.14993707835674286,
                        "68": -0.09897860884666443,
                        "69": -0.04918459802865982,
                        "70": -0.1760799139738083,
                        "71": 0.007335485890507698,
                        "72": -0.053471777588129044,
                        "73": -0.025128696113824844,
                        "74": -0.05530586466193199,
                        "75": 0.0860045999288559,
                        "76": 0.10226383060216904,
                        "77": 0.218575581908226,
                        "78": 0.1466825157403946,
                        "79": 0.0868363231420517,
                        "80": -0.133335679769516,
                        "81": 0.22523127496242523,
                        "82": -0.0030760534573346376,
                        "83": -0.11833423376083374,
                        "84": 0.11791844666004181,
                        "85": -0.0425974540412426,
                        "86": -0.21788693964481354,
                        "87": -0.07491700351238251,
                        "88": -0.2584506571292877,
                        "89": 0.12914897501468658,
                        "90": 0.03553510457277298,
                        "91": -0.02385319396853447,
                        "92": -0.1466619074344635,
                        "93": 0.008899478241801262,
                        "94": -0.0836055725812912,
                        "95": -0.12594462931156158,
                        "96": -0.013240992091596127,
                        "97": 0.052970040589571,
                        "98": 0.08526009321212769,
                        "99": 0.04120362922549248,
                        "100": -0.015583980828523636,
                        "101": -0.11216861009597778,
                        "102": 0.054764315485954285,
                        "103": -0.11538376659154892,
                        "104": -0.15200096368789673,
                        "105": 0.06392788141965866,
                        "106": 0.025745827704668045,
                        "107": -0.18430505692958832,
                        "108": -0.0666608065366745,
                        "109": 0.007396260276436806,
                        "110": 0.001699266373179853,
                        "111": -0.019391078501939774,
                        "112": -0.07189979404211044,
                        "113": -0.14546434581279755,
                        "114": 0.10078324377536774,
                        "115": 0.08899375796318054,
                        "116": 0.013592802919447422,
                        "117": 0.28469711542129517,
                        "118": 0.06940343976020813,
                        "119": 0.2716894745826721,
                        "120": 0.06580563634634018,
                        "121": -0.11165095120668411,
                        "122": 0.1481057107448578,
                        "123": 0.011891908012330532,
                        "124": 0.16108334064483643,
                        "125": -0.10942850261926651,
                        "126": 0.02655927650630474,
                        "127": 0.0977511778473854,
                        "128": -0.0966167077422142,
                        "129": -0.04044177755713463,
                        "130": -0.04613187164068222,
                        "131": 0.007735489867627621,
                        "132": -0.06822960078716278,
                        "133": 0.23245230317115784,
                        "134": 0.31723904609680176,
                        "135": 0.20059098303318024,
                        "136": 0.30444300174713135,
                        "137": 0.17782627046108246,
                        "138": 0.13545259833335876,
                        "139": 0.22748488187789917,
                        "140": 0.10195984691381454,
                        "141": -0.029518000781536102,
                        "142": 0.151748389005661,
                        "143": -0.12171152979135513,
                        "144": -0.10923536121845245,
                        "145": -0.06569133698940277,
                        "146": -0.016927514225244522,
                        "147": -0.0011439572554081678,
                        "148": -0.17218218743801117,
                        "149": -0.0100098242983222,
                        "150": 0.0504225417971611,
                        "151": -0.19362828135490417,
                        "152": 0.12417829781770706,
                        "153": 0.15857195854187012,
                        "154": 0.04417312517762184,
                        "155": 0.23664653301239014,
                        "156": 0.16954579949378967,
                        "157": 0.16653256118297577,
                        "158": 0.11428698897361755,
                        "159": -0.07781779021024704,
                        "160": 0.16998231410980225,
                        "161": -0.1440907120704651,
                        "162": -0.24857357144355774,
                        "163": -0.16376817226409912,
                        "164": -0.16881218552589417,
                        "165": -0.08937961608171463,
                        "166": -0.04735264927148819,
                        "167": -0.009908998385071754,
                        "168": -0.13746273517608643,
                        "169": -0.018741479143500328,
                        "170": -0.0026326938532292843,
                        "171": 0.07529933750629425,
                        "172": 0.038443196564912796,
                        "173": 0.19924572110176086,
                        "174": 0.0628802701830864,
                        "175": -0.23476827144622803,
                        "176": 0.023577038198709488,
                        "177": -0.16055801510810852,
                        "178": 0.03460950031876564,
                        "179": -0.2392096370458603,
                        "180": -0.2164774090051651,
                        "181": 0.0715814083814621,
                        "182": -0.1914961189031601,
                        "183": -0.0669911801815033,
                        "184": -0.1830616444349289,
                        "185": 0.1448090523481369,
                        "186": 0.10851255804300308,
                        "187": 0.10421154648065567,
                        "188": 0.1921616941690445,
                        "189": 0.11407347768545151,
                        "190": -0.1618247777223587,
                        "191": -0.058786168694496155,
                        "192": -0.206266850233078,
                        "193": -0.0022516821045428514,
                        "194": 0.02420327626168728,
                        "195": -0.17128773033618927,
                        "196": 0.03225349634885788,
                        "197": 0.058857228606939316,
                        "198": 0.016875114291906357,
                        "199": -0.001858981791883707,
                        "200": 0.07605418562889099,
                        "201": -0.1758028268814087,
                        "202": 0.1687150001525879,
                        "203": 0.08084344118833542,
                        "204": 0.0855131596326828,
                        "205": -0.0765230730175972,
                        "206": -0.012646527960896492,
                        "207": 0.021037748083472252,
                        "208": 0.053672950714826584,
                        "209": -0.20271889865398407,
                        "210": -0.07419878244400024,
                        "211": -0.191982239484787,
                        "212": 0.06662692874670029,
                        "213": 0.08609816431999207,
                        "214": -0.04408113658428192,
                        "215": -0.06574085354804993,
                        "216": 0.13201504945755005,
                        "217": 0.08064693212509155,
                        "218": 0.20201963186264038,
                        "219": -0.09828168898820877,
                        "220": -0.05127965286374092,
                        "221": 0.08798348158597946,
                        "222": 0.0024119100999087095,
                        "223": -0.02170124650001526,
                        "224": 0.014662601985037327,
                        "225": 0.01848338171839714,
                        "226": 0.023519176989793777,
                        "227": -0.09290289878845215,
                        "228": 0.015463199466466904,
                        "229": -0.03678238019347191,
                        "230": -0.03637092933058739,
                        "231": -0.1962866634130478,
                        "232": -0.1485346406698227,
                        "233": 0.08900514990091324,
                        "234": -0.01004042662680149,
                        "235": -0.0036033939104527235,
                        "236": 0.22651717066764832,
                        "237": 0.11840549111366272,
                        "238": -0.04984549060463905,
                        "239": 0.14531473815441132,
                        "240": -0.04200856387615204,
                        "241": 0.19823984801769257,
                        "242": -0.08684130758047104,
                        "243": 0.1938185840845108,
                        "244": 0.022000819444656372,
                        "245": 0.06850254535675049,
                        "246": 0.1679324209690094,
                        "247": 0.03506329655647278,
                        "248": -0.1651168316602707,
                        "249": -0.12687204778194427,
                        "250": 0.1435818374156952,
                        "251": 0.21804577112197876,
                        "252": -0.09760495275259018,
                        "253": -0.11004921048879623,
                        "254": -0.059507932513952255,
                        "255": -0.10745689272880554
                    }
                },
                "5": {
                    "bias": 0.04287644103169441,
                    "weights": {
                        "0": -0.11130979657173157,
                        "1": 0.14711900055408478,
                        "2": 0.025690635666251183,
                        "3": 0.12173912674188614,
                        "4": -0.0017925994470715523,
                        "5": 0.08770801872015,
                        "6": -0.0878695622086525,
                        "7": -0.1735081523656845,
                        "8": -0.07946381717920303,
                        "9": 0.1288871318101883,
                        "10": -0.13660863041877747,
                        "11": -0.02271476574242115,
                        "12": 0.039203811436891556,
                        "13": -0.06594865769147873,
                        "14": 0.06131420657038689,
                        "15": -0.1351609081029892,
                        "16": -0.07403186708688736,
                        "17": 0.14319249987602234,
                        "18": -0.23979827761650085,
                        "19": -0.06527458131313324,
                        "20": -0.14831528067588806,
                        "21": -0.09936649352312088,
                        "22": -0.05194845423102379,
                        "23": 0.10453353822231293,
                        "24": -0.0587511882185936,
                        "25": -0.14145120978355408,
                        "26": 0.06578496098518372,
                        "27": 0.10311692208051682,
                        "28": -0.024732867255806923,
                        "29": 0.11477319896221161,
                        "30": 0.11552367359399796,
                        "31": 0.19543279707431793,
                        "32": -0.05061812326312065,
                        "33": 0.08120362460613251,
                        "34": 0.08120272308588028,
                        "35": -0.10399384051561356,
                        "36": -0.2117163985967636,
                        "37": 0.054830342531204224,
                        "38": 0.08725868910551071,
                        "39": 0.11485026776790619,
                        "40": 0.18834733963012695,
                        "41": -0.10137377679347992,
                        "42": 0.13334737718105316,
                        "43": 0.10940810292959213,
                        "44": -0.04187715798616409,
                        "45": -0.08768723905086517,
                        "46": 0.14588148891925812,
                        "47": 0.07779336720705032,
                        "48": 0.029957251623272896,
                        "49": -0.026151739060878754,
                        "50": -0.2505543828010559,
                        "51": -0.19304391741752625,
                        "52": -0.04853068292140961,
                        "53": -0.0887477770447731,
                        "54": -0.14322714507579803,
                        "55": 0.13451535999774933,
                        "56": 0.2251899242401123,
                        "57": 0.18678635358810425,
                        "58": -0.11942857503890991,
                        "59": 0.061454351991415024,
                        "60": -0.08413004875183105,
                        "61": -0.07394967973232269,
                        "62": 0.032141052186489105,
                        "63": -0.07814068347215652,
                        "64": -0.0009770516771823168,
                        "65": -0.08676482737064362,
                        "66": 0.056509438902139664,
                        "67": 0.05044234171509743,
                        "68": -0.23238320648670197,
                        "69": 0.06681579351425171,
                        "70": 0.15015622973442078,
                        "71": 0.047096118330955505,
                        "72": 0.1677427738904953,
                        "73": 0.05882889777421951,
                        "74": -0.08318497985601425,
                        "75": -0.028597889468073845,
                        "76": -0.06513688713312149,
                        "77": 0.12920984625816345,
                        "78": 0.18453793227672577,
                        "79": 0.004823822528123856,
                        "80": 0.17950795590877533,
                        "81": -0.10143440216779709,
                        "82": -0.025843696668744087,
                        "83": -0.11185374855995178,
                        "84": -0.0585419237613678,
                        "85": -0.2081064134836197,
                        "86": -0.12722261250019073,
                        "87": -0.01307515799999237,
                        "88": -0.15165765583515167,
                        "89": 0.1817159801721573,
                        "90": -0.06390034407377243,
                        "91": -0.003036510432139039,
                        "92": 0.012327587231993675,
                        "93": -0.057293497025966644,
                        "94": 0.11185591667890549,
                        "95": 0.04239628463983536,
                        "96": 0.07245959341526031,
                        "97": -0.022140508517622948,
                        "98": -0.1788688600063324,
                        "99": -0.0717635229229927,
                        "100": -0.14830447733402252,
                        "101": 0.10411765426397324,
                        "102": -0.08321063220500946,
                        "103": 0.06281118094921112,
                        "104": -0.09761188179254532,
                        "105": 0.11967886984348297,
                        "106": 0.056149717420339584,
                        "107": -0.09243755787611008,
                        "108": 0.17893539369106293,
                        "109": 0.2119678109884262,
                        "110": -0.10319628566503525,
                        "111": -0.1834554821252823,
                        "112": -0.037497445940971375,
                        "113": -0.03404907509684563,
                        "114": -0.009783237241208553,
                        "115": 0.1973467320203781,
                        "116": 0.09224772453308105,
                        "117": 0.1302533745765686,
                        "118": -0.07531285285949707,
                        "119": 0.13799448311328888,
                        "120": 0.19292794167995453,
                        "121": 0.007220599800348282,
                        "122": 0.2308954894542694,
                        "123": 0.17172780632972717,
                        "124": 0.12411259859800339,
                        "125": 0.25434207916259766,
                        "126": 0.0809825137257576,
                        "127": -0.0950833186507225,
                        "128": 0.09849554300308228,
                        "129": 0.033924736082553864,
                        "130": -0.2106117606163025,
                        "131": 0.06604987382888794,
                        "132": -0.0661008358001709,
                        "133": -0.11509102582931519,
                        "134": 0.17212583124637604,
                        "135": 0.029427101835608482,
                        "136": 0.04997433349490166,
                        "137": -0.15091529488563538,
                        "138": -0.004082558210939169,
                        "139": 0.0012540488969534636,
                        "140": -0.13627217710018158,
                        "141": 0.07453729212284088,
                        "142": -0.09943709522485733,
                        "143": -0.1634475588798523,
                        "144": -0.18882888555526733,
                        "145": -0.13097645342350006,
                        "146": -0.23662956058979034,
                        "147": -0.038417793810367584,
                        "148": 0.0420091487467289,
                        "149": 0.0072127534076571465,
                        "150": -0.025236323475837708,
                        "151": -0.1157182827591896,
                        "152": 0.03795468807220459,
                        "153": -0.02525279112160206,
                        "154": 0.09056193381547928,
                        "155": 0.1556292027235031,
                        "156": 0.049839284271001816,
                        "157": -0.10241547226905823,
                        "158": 0.06566455960273743,
                        "159": -0.12778179347515106,
                        "160": -0.08645930141210556,
                        "161": -0.14014063775539398,
                        "162": -0.18102487921714783,
                        "163": -0.054926928132772446,
                        "164": -0.11730658262968063,
                        "165": -0.11132145673036575,
                        "166": 0.11277350038290024,
                        "167": 0.014005078002810478,
                        "168": -0.02357848733663559,
                        "169": -0.049488525837659836,
                        "170": 0.182436004281044,
                        "171": -0.12827472388744354,
                        "172": -0.19072680175304413,
                        "173": 0.0008207625360228121,
                        "174": 0.08648838102817535,
                        "175": -0.2358134686946869,
                        "176": -0.027981510385870934,
                        "177": 0.08222892880439758,
                        "178": 0.0034082564525306225,
                        "179": -0.23669268190860748,
                        "180": -0.20973460376262665,
                        "181": -0.1526915729045868,
                        "182": 0.14730103313922882,
                        "183": -0.0613531619310379,
                        "184": -0.07774907350540161,
                        "185": 0.08505768328905106,
                        "186": 0.15599258244037628,
                        "187": -0.20159055292606354,
                        "188": 0.056024305522441864,
                        "189": -0.003963771276175976,
                        "190": -0.05707978084683418,
                        "191": 0.1445518434047699,
                        "192": 0.10760770738124847,
                        "193": -0.2017177790403366,
                        "194": -0.1912483125925064,
                        "195": 0.12603774666786194,
                        "196": -0.06024850159883499,
                        "197": 0.156022310256958,
                        "198": -0.04865334928035736,
                        "199": 0.02542455494403839,
                        "200": 0.07367151230573654,
                        "201": 0.024067183956503868,
                        "202": 0.04493758827447891,
                        "203": 0.11540772765874863,
                        "204": 0.05923772230744362,
                        "205": -0.01787113957107067,
                        "206": 0.12299008667469025,
                        "207": -0.22236929833889008,
                        "208": 0.14169424772262573,
                        "209": 0.0456942543387413,
                        "210": -0.09140167385339737,
                        "211": -0.13978800177574158,
                        "212": 0.025163795799016953,
                        "213": 0.18480512499809265,
                        "214": -0.03345804661512375,
                        "215": 0.1656845211982727,
                        "216": 0.16292305290699005,
                        "217": 0.11124267429113388,
                        "218": -0.1274275928735733,
                        "219": -0.04355182126164436,
                        "220": -0.05595633387565613,
                        "221": -0.015070815570652485,
                        "222": 0.034282442182302475,
                        "223": -0.12189969420433044,
                        "224": 0.1826651394367218,
                        "225": 0.08774080127477646,
                        "226": -0.04898395016789436,
                        "227": -0.11841151863336563,
                        "228": 0.09673889726400375,
                        "229": -0.09317344427108765,
                        "230": 0.019443469122052193,
                        "231": 0.09411207586526871,
                        "232": 0.18590158224105835,
                        "233": -0.13226932287216187,
                        "234": 0.07692786306142807,
                        "235": 0.09016891568899155,
                        "236": 0.10650334507226944,
                        "237": -0.12853337824344635,
                        "238": 0.023259608075022697,
                        "239": 0.10740848630666733,
                        "240": 0.155184805393219,
                        "241": -0.072818323969841,
                        "242": 0.035770218819379807,
                        "243": -0.13423389196395874,
                        "244": 0.175162672996521,
                        "245": 0.14123480021953583,
                        "246": 0.07288099825382233,
                        "247": -0.18665915727615356,
                        "248": 0.07435399293899536,
                        "249": -0.019019262865185738,
                        "250": 0.03466860204935074,
                        "251": 0.010254167951643467,
                        "252": 0.06928038597106934,
                        "253": 0.0857337936758995,
                        "254": -0.12057974934577942,
                        "255": -0.10364313423633575
                    }
                },
                "6": {
                    "bias": -0.05367044731974602,
                    "weights": {
                        "0": -0.09203314036130905,
                        "1": 0.03293590247631073,
                        "2": -0.25779595971107483,
                        "3": -0.012343690730631351,
                        "4": 0.10006169229745865,
                        "5": -0.06231089308857918,
                        "6": -0.12394503504037857,
                        "7": -0.15547755360603333,
                        "8": 0.07852175086736679,
                        "9": -0.17048919200897217,
                        "10": -0.0973617434501648,
                        "11": -0.0863807424902916,
                        "12": -0.07239165902137756,
                        "13": 0.20773743093013763,
                        "14": 0.05455603450536728,
                        "15": -0.06970371305942535,
                        "16": -0.0650845393538475,
                        "17": -0.03725579380989075,
                        "18": -0.047329943627119064,
                        "19": -0.21131737530231476,
                        "20": -0.12047983705997467,
                        "21": 0.1425328552722931,
                        "22": -0.052099090069532394,
                        "23": 0.04841886833310127,
                        "24": 0.06604859232902527,
                        "25": 0.08073362708091736,
                        "26": 0.10004684329032898,
                        "27": 0.009396247565746307,
                        "28": 0.07963502407073975,
                        "29": 0.017848437651991844,
                        "30": -0.10911066085100174,
                        "31": 0.228252112865448,
                        "32": -0.16747790575027466,
                        "33": 0.014373690821230412,
                        "34": 0.13399161398410797,
                        "35": 0.07850934565067291,
                        "36": 0.18626296520233154,
                        "37": -0.21877087652683258,
                        "38": -0.17119388282299042,
                        "39": 0.1560683250427246,
                        "40": -0.10623864084482193,
                        "41": 0.1455826461315155,
                        "42": 0.1486642062664032,
                        "43": 0.15639051795005798,
                        "44": 0.011885524727404118,
                        "45": -0.02208656631410122,
                        "46": 0.18822750449180603,
                        "47": 0.08711101114749908,
                        "48": -0.042003288865089417,
                        "49": -0.06484737992286682,
                        "50": 0.0442141517996788,
                        "51": 0.12121410667896271,
                        "52": 0.11146174371242523,
                        "53": -0.07647553086280823,
                        "54": 0.18698738515377045,
                        "55": -0.01031430996954441,
                        "56": 0.12500227987766266,
                        "57": 0.023517638444900513,
                        "58": 0.1289072334766388,
                        "59": 0.2928716838359833,
                        "60": 0.0500183030962944,
                        "61": 0.21687187254428864,
                        "62": -0.03944402560591698,
                        "63": 0.2122088223695755,
                        "64": -0.007652525790035725,
                        "65": -0.058129411190748215,
                        "66": 0.105359748005867,
                        "67": -0.14304625988006592,
                        "68": 0.02957269735634327,
                        "69": 0.18472778797149658,
                        "70": -0.0838756263256073,
                        "71": -0.08347082883119583,
                        "72": 0.0760892927646637,
                        "73": 0.041646670550107956,
                        "74": 0.0869952142238617,
                        "75": 0.1655903160572052,
                        "76": -0.11158836632966995,
                        "77": 0.09968861937522888,
                        "78": -0.10814667493104935,
                        "79": -0.121707983314991,
                        "80": 0.141189843416214,
                        "81": -0.12050338834524155,
                        "82": -0.04828836768865585,
                        "83": 0.20129208266735077,
                        "84": -0.12419555336236954,
                        "85": 0.16919715702533722,
                        "86": 0.05247972533106804,
                        "87": 0.07167676836252213,
                        "88": -0.05409045144915581,
                        "89": 0.22240902483463287,
                        "90": 0.07969918847084045,
                        "91": -0.04358605667948723,
                        "92": 0.18286865949630737,
                        "93": 0.06271210312843323,
                        "94": 0.033273808658123016,
                        "95": 0.10701081156730652,
                        "96": 0.2664027512073517,
                        "97": 0.17177464067935944,
                        "98": 0.10788145661354065,
                        "99": 0.19339120388031006,
                        "100": -0.1616641879081726,
                        "101": -0.17333465814590454,
                        "102": -0.01607418619096279,
                        "103": -0.0345965139567852,
                        "104": 0.06886780261993408,
                        "105": -0.10646345466375351,
                        "106": 0.10064207017421722,
                        "107": 0.105034239590168,
                        "108": 0.16881248354911804,
                        "109": 0.10106383264064789,
                        "110": -0.185843363404274,
                        "111": 0.013233603909611702,
                        "112": 0.21566978096961975,
                        "113": 0.1264767050743103,
                        "114": 0.15110187232494354,
                        "115": -0.04504188895225525,
                        "116": 0.20602619647979736,
                        "117": -0.04338821396231651,
                        "118": 0.12042729556560516,
                        "119": 0.2207793891429901,
                        "120": -0.04566701501607895,
                        "121": 0.15316717326641083,
                        "122": -0.01662296988070011,
                        "123": -0.08705872297286987,
                        "124": -0.07245711982250214,
                        "125": 0.21929071843624115,
                        "126": 0.08163103461265564,
                        "127": 0.13622020184993744,
                        "128": 0.1738441437482834,
                        "129": 0.10056552290916443,
                        "130": -0.1872430294752121,
                        "131": 0.16225525736808777,
                        "132": 0.12071650475263596,
                        "133": -0.14951814711093903,
                        "134": -0.057343319058418274,
                        "135": 0.21804624795913696,
                        "136": 0.004572690464556217,
                        "137": -0.06574144214391708,
                        "138": 0.04893580079078674,
                        "139": 0.02923818863928318,
                        "140": 0.0740709900856018,
                        "141": 0.11405257135629654,
                        "142": -0.032756395637989044,
                        "143": -0.19430869817733765,
                        "144": -0.05803559720516205,
                        "145": -0.08559197932481766,
                        "146": -0.18183013796806335,
                        "147": -0.07996135205030441,
                        "148": -0.09821515530347824,
                        "149": 0.08674290031194687,
                        "150": 0.03604068234562874,
                        "151": -0.055384889245033264,
                        "152": 0.1355806291103363,
                        "153": -0.009772860445082188,
                        "154": -0.1183871328830719,
                        "155": 0.13413114845752716,
                        "156": 0.07693963497877121,
                        "157": -0.1977420449256897,
                        "158": -0.09069649875164032,
                        "159": 0.14263680577278137,
                        "160": 0.07052545994520187,
                        "161": -0.014106916263699532,
                        "162": -0.057298995554447174,
                        "163": -0.17575745284557343,
                        "164": 0.19723470509052277,
                        "165": -0.05945172905921936,
                        "166": -0.05958898738026619,
                        "167": -0.12574398517608643,
                        "168": -0.04302685707807541,
                        "169": 0.16997236013412476,
                        "170": 0.15592119097709656,
                        "171": -0.07590404152870178,
                        "172": -0.20601233839988708,
                        "173": -0.1705082654953003,
                        "174": -0.12045247852802277,
                        "175": -0.19315595924854279,
                        "176": 0.07350610941648483,
                        "177": -0.23126724362373352,
                        "178": -0.17126430571079254,
                        "179": 0.137573704123497,
                        "180": 0.023602070286870003,
                        "181": -0.10828948765993118,
                        "182": 0.13736741244792938,
                        "183": 0.1255020797252655,
                        "184": -0.16442039608955383,
                        "185": -0.16223283112049103,
                        "186": -0.037819817662239075,
                        "187": -0.02203158661723137,
                        "188": 0.03596418350934982,
                        "189": -0.15180999040603638,
                        "190": 0.045373477041721344,
                        "191": -0.17346875369548798,
                        "192": -0.07806410640478134,
                        "193": -0.09410572052001953,
                        "194": -0.024131467565894127,
                        "195": -0.014582722447812557,
                        "196": 0.0013876644661650062,
                        "197": -0.0033176534343510866,
                        "198": -0.06623155623674393,
                        "199": -0.10707450658082962,
                        "200": -0.1477220356464386,
                        "201": -0.04850802198052406,
                        "202": 0.17750898003578186,
                        "203": 0.12449223548173904,
                        "204": -0.17997492849826813,
                        "205": 0.022950949147343636,
                        "206": -0.0645531713962555,
                        "207": -0.009411242790520191,
                        "208": 0.0234123095870018,
                        "209": -0.24255099892616272,
                        "210": -0.1029508039355278,
                        "211": 0.1358564794063568,
                        "212": 0.018838904798030853,
                        "213": -0.10759008675813675,
                        "214": 0.10798050463199615,
                        "215": 0.018978657200932503,
                        "216": -0.07945188879966736,
                        "217": 0.17541761696338654,
                        "218": 0.12039341032505035,
                        "219": -0.1779145896434784,
                        "220": -0.05760129168629646,
