{
    "info": {
        "ai": {
            "config": {
                "hiddenLayers": [
                    128,
                    128
                ],
                "activation": "sigmoid"
            },
            "training": {
                "iterations": 2000,
                "errorThresh": 0.1,
                "learningRate": 0.3,
                "momentum": 0.1
            }
        },
        "id": "4e9ce7a82ce69a919db24c4946a4c07a",
        "dimension": [
            16,
            16
        ],
        "channel": "red",
        "colorspace": "b-w",
        "blackWhite": true
    },
    "data": {
        "sizes": [
            256,
            128,
            128,
            10
        ],
        "layers": [
            {
                "0": {},
                "1": {},
                "2": {},
                "3": {},
                "4": {},
                "5": {},
                "6": {},
                "7": {},
                "8": {},
                "9": {},
                "10": {},
                "11": {},
                "12": {},
                "13": {},
                "14": {},
                "15": {},
                "16": {},
                "17": {},
                "18": {},
                "19": {},
                "20": {},
                "21": {},
                "22": {},
                "23": {},
                "24": {},
                "25": {},
                "26": {},
                "27": {},
                "28": {},
                "29": {},
                "30": {},
                "31": {},
                "32": {},
                "33": {},
                "34": {},
                "35": {},
                "36": {},
                "37": {},
                "38": {},
                "39": {},
                "40": {},
                "41": {},
                "42": {},
                "43": {},
                "44": {},
                "45": {},
                "46": {},
                "47": {},
                "48": {},
                "49": {},
                "50": {},
                "51": {},
                "52": {},
                "53": {},
                "54": {},
                "55": {},
                "56": {},
                "57": {},
                "58": {},
                "59": {},
                "60": {},
                "61": {},
                "62": {},
                "63": {},
                "64": {},
                "65": {},
                "66": {},
                "67": {},
                "68": {},
                "69": {},
                "70": {},
                "71": {},
                "72": {},
                "73": {},
                "74": {},
                "75": {},
                "76": {},
                "77": {},
                "78": {},
                "79": {},
                "80": {},
                "81": {},
                "82": {},
                "83": {},
                "84": {},
                "85": {},
                "86": {},
                "87": {},
                "88": {},
                "89": {},
                "90": {},
                "91": {},
                "92": {},
                "93": {},
                "94": {},
                "95": {},
                "96": {},
                "97": {},
                "98": {},
                "99": {},
                "100": {},
                "101": {},
                "102": {},
                "103": {},
                "104": {},
                "105": {},
                "106": {},
                "107": {},
                "108": {},
                "109": {},
                "110": {},
                "111": {},
                "112": {},
                "113": {},
                "114": {},
                "115": {},
                "116": {},
                "117": {},
                "118": {},
                "119": {},
                "120": {},
                "121": {},
                "122": {},
                "123": {},
                "124": {},
                "125": {},
                "126": {},
                "127": {},
                "128": {},
                "129": {},
                "130": {},
                "131": {},
                "132": {},
                "133": {},
                "134": {},
                "135": {},
                "136": {},
                "137": {},
                "138": {},
                "139": {},
                "140": {},
                "141": {},
                "142": {},
                "143": {},
                "144": {},
                "145": {},
                "146": {},
                "147": {},
                "148": {},
                "149": {},
                "150": {},
                "151": {},
                "152": {},
                "153": {},
                "154": {},
                "155": {},
                "156": {},
                "157": {},
                "158": {},
                "159": {},
                "160": {},
                "161": {},
                "162": {},
                "163": {},
                "164": {},
                "165": {},
                "166": {},
                "167": {},
                "168": {},
                "169": {},
                "170": {},
                "171": {},
                "172": {},
                "173": {},
                "174": {},
                "175": {},
                "176": {},
                "177": {},
                "178": {},
                "179": {},
                "180": {},
                "181": {},
                "182": {},
                "183": {},
                "184": {},
                "185": {},
                "186": {},
                "187": {},
                "188": {},
                "189": {},
                "190": {},
                "191": {},
                "192": {},
                "193": {},
                "194": {},
                "195": {},
                "196": {},
                "197": {},
                "198": {},
                "199": {},
                "200": {},
                "201": {},
                "202": {},
                "203": {},
                "204": {},
                "205": {},
                "206": {},
                "207": {},
                "208": {},
                "209": {},
                "210": {},
                "211": {},
                "212": {},
                "213": {},
                "214": {},
                "215": {},
                "216": {},
                "217": {},
                "218": {},
                "219": {},
                "220": {},
                "221": {},
                "222": {},
                "223": {},
                "224": {},
                "225": {},
                "226": {},
                "227": {},
                "228": {},
                "229": {},
                "230": {},
                "231": {},
                "232": {},
                "233": {},
                "234": {},
                "235": {},
                "236": {},
                "237": {},
                "238": {},
                "239": {},
                "240": {},
                "241": {},
                "242": {},
                "243": {},
                "244": {},
                "245": {},
                "246": {},
                "247": {},
                "248": {},
                "249": {},
                "250": {},
                "251": {},
                "252": {},
                "253": {},
                "254": {},
                "255": {}
            },
            {
                "0": {
                    "bias": -0.08694906532764435,
                    "weights": {
                        "0": 0.11194715648889542,
                        "1": -0.15334835648536682,
                        "2": -0.1645793914794922,
                        "3": -0.10467434674501419,
                        "4": -0.1183396503329277,
                        "5": 0.13696613907814026,
                        "6": 0.1462726593017578,
                        "7": -0.009696165099740028,
                        "8": 0.08492179960012436,
                        "9": -0.010522502474486828,
                        "10": 0.052863772958517075,
                        "11": -0.008691973052918911,
                        "12": -0.05153350159525871,
                        "13": 0.16021013259887695,
                        "14": 0.049724992364645004,
                        "15": 0.017348455265164375,
                        "16": -0.10625049471855164,
                        "17": -0.18623629212379456,
                        "18": -0.014255051501095295,
                        "19": 0.04055662080645561,
                        "20": -0.14589090645313263,
                        "21": -0.059294745326042175,
                        "22": -0.1906796246767044,
                        "23": 0.1607206016778946,
                        "24": -0.1939254105091095,
                        "25": 0.18417955935001373,
                        "26": 0.025069359689950943,
                        "27": 0.06165557727217674,
                        "28": 0.06812521815299988,
                        "29": 0.13777026534080505,
                        "30": 0.009487425908446312,
                        "31": 0.028781577944755554,
                        "32": 0.15991324186325073,
                        "33": -0.16222986578941345,
                        "34": 0.06596279889345169,
                        "35": -0.016855545341968536,
                        "36": -0.012980758212506771,
                        "37": 0.1327260583639145,
                        "38": 0.09855629503726959,
                        "39": -0.03709634765982628,
                        "40": -0.08275141566991806,
                        "41": 0.03539547696709633,
                        "42": -0.16129662096500397,
                        "43": -0.030642280355095863,
                        "44": 0.1711646169424057,
                        "45": -0.1407160460948944,
                        "46": 0.12269870191812515,
                        "47": 0.06552472710609436,
                        "48": -0.14116215705871582,
                        "49": 0.11881746351718903,
                        "50": -0.019600365310907364,
                        "51": -0.1723223328590393,
                        "52": -0.0032079878728836775,
                        "53": -0.06040332093834877,
                        "54": 0.15197697281837463,
                        "55": 0.1386013925075531,
                        "56": -0.025589322671294212,
                        "57": 0.17328602075576782,
                        "58": 0.1875811219215393,
                        "59": 0.17765793204307556,
                        "60": -0.15238291025161743,
                        "61": 0.07871121913194656,
                        "62": -0.11015582829713821,
                        "63": -0.060583680868148804,
                        "64": -0.016175948083400726,
                        "65": -0.15434859693050385,
                        "66": 0.14347906410694122,
                        "67": 0.010791893117129803,
                        "68": -0.15336640179157257,
                        "69": -0.15068084001541138,
                        "70": -0.11780225485563278,
                        "71": 0.11291078478097916,
                        "72": -0.10501402616500854,
                        "73": -0.02333340235054493,
                        "74": -0.003136016894131899,
                        "75": -0.03351106494665146,
                        "76": 0.20063820481300354,
                        "77": -0.058567799627780914,
                        "78": -0.026337837800383568,
                        "79": -0.10066759586334229,
                        "80": 0.05474841222167015,
                        "81": -0.0013696375535801053,
                        "82": -0.06984473764896393,
                        "83": 0.034630823880434036,
                        "84": 0.05442891642451286,
                        "85": -0.06312880665063858,
                        "86": -0.1911589354276657,
                        "87": 0.04355248436331749,
                        "88": -0.15475618839263916,
                        "89": 0.11804410070180893,
                        "90": 0.030165113508701324,
                        "91": 0.02190631628036499,
                        "92": 0.1099730059504509,
                        "93": 0.19177447259426117,
                        "94": 0.06567604839801788,
                        "95": -0.12134235352277756,
                        "96": -0.18922725319862366,
                        "97": 0.1893036812543869,
                        "98": 0.11566602438688278,
                        "99": -0.11154024302959442,
                        "100": -0.12434040755033493,
                        "101": 0.19979418814182281,
                        "102": 0.060176603496074677,
                        "103": 0.12386015802621841,
                        "104": 0.19750674068927765,
                        "105": 0.1497519165277481,
                        "106": -0.08403225988149643,
                        "107": -0.18919292092323303,
                        "108": -0.19712935388088226,
                        "109": -0.06964003294706345,
                        "110": 0.18749086558818817,
                        "111": -0.06333623081445694,
                        "112": -0.16673775017261505,
                        "113": 0.13080444931983948,
                        "114": 0.18552926182746887,
                        "115": 0.08346591144800186,
                        "116": 0.12744691967964172,
                        "117": -0.0033662717323750257,
                        "118": -0.1051994040608406,
                        "119": 0.07638876885175705,
                        "120": 0.04104052484035492,
                        "121": 0.036210909485816956,
                        "122": 0.0609034039080143,
                        "123": -0.07740235328674316,
                        "124": -0.16234110295772552,
                        "125": -0.15258875489234924,
                        "126": 0.0030406489968299866,
                        "127": -0.19701986014842987,
                        "128": -0.0038531837053596973,
                        "129": 0.06333204358816147,
                        "130": -0.14212334156036377,
                        "131": 0.0555446483194828,
                        "132": -0.16416622698307037,
                        "133": 0.14689171314239502,
                        "134": -0.1292002946138382,
                        "135": 0.13787239789962769,
                        "136": -0.11680133640766144,
                        "137": 0.02019231952726841,
                        "138": -0.155702605843544,
                        "139": 0.0030591224785894156,
                        "140": 0.17806147038936615,
                        "141": -0.04679206386208534,
                        "142": 0.035048358142375946,
                        "143": -0.00660160556435585,
                        "144": 0.15221580862998962,
                        "145": -0.07538148760795593,
                        "146": -0.17334380745887756,
                        "147": 0.12901824712753296,
                        "148": -0.11075838655233383,
                        "149": 0.029952848330140114,
                        "150": 0.09776997566223145,
                        "151": -0.1869431585073471,
                        "152": -0.07920324057340622,
                        "153": -0.032505590468645096,
                        "154": -0.11943240463733673,
                        "155": 0.1836804300546646,
                        "156": 0.18891191482543945,
                        "157": -0.12067973613739014,
                        "158": 0.07353629171848297,
                        "159": 0.15727435052394867,
                        "160": 0.027142316102981567,
                        "161": -0.2031109631061554,
                        "162": -0.19180330634117126,
                        "163": 0.0512157566845417,
                        "164": -0.1124064028263092,
                        "165": -0.03720618784427643,
                        "166": -0.18184392154216766,
                        "167": 0.12575481832027435,
                        "168": -0.11418002098798752,
                        "169": -0.037321969866752625,
                        "170": 0.058357514441013336,
                        "171": 0.17475970089435577,
                        "172": -0.1534229964017868,
                        "173": 0.06040662154555321,
                        "174": -0.1947973221540451,
                        "175": -0.10974209010601044,
                        "176": -0.11191798001527786,
                        "177": 0.1326867938041687,
                        "178": 0.09624160826206207,
                        "179": -0.07079127430915833,
                        "180": 0.1960831880569458,
                        "181": -0.14722967147827148,
                        "182": 0.12475936114788055,
                        "183": -0.1951705813407898,
                        "184": -0.15361271798610687,
                        "185": 0.18702585995197296,
                        "186": 0.1932637095451355,
                        "187": 0.0289129801094532,
                        "188": -0.03661976382136345,
                        "189": -0.08791908621788025,
                        "190": -0.10131628811359406,
                        "191": -0.19508372247219086,
                        "192": 0.1652144193649292,
                        "193": 0.01653190515935421,
                        "194": 0.10772424191236496,
                        "195": -0.1830643266439438,
                        "196": 0.13372735679149628,
                        "197": 0.17666077613830566,
                        "198": 0.15040099620819092,
                        "199": -0.089602030813694,
                        "200": -0.19549685716629028,
                        "201": 0.06127240136265755,
                        "202": 0.09249567240476608,
                        "203": 0.1081157773733139,
                        "204": -0.17445425689220428,
                        "205": -0.010120676830410957,
                        "206": 0.11231657862663269,
                        "207": 0.16023819148540497,
                        "208": 0.16410721838474274,
                        "209": 0.027366893365979195,
                        "210": -0.153033047914505,
                        "211": 0.17180491983890533,
                        "212": 0.05483027920126915,
                        "213": 0.07650884240865707,
                        "214": -0.06519553065299988,
                        "215": 0.1222347840666771,
                        "216": -0.08691578358411789,
                        "217": 0.03996800631284714,
                        "218": 0.08480031043291092,
                        "219": -0.11823458969593048,
                        "220": 0.17741872370243073,
                        "221": 0.06261494010686874,
                        "222": -0.15174926817417145,
                        "223": 0.0018363608978688717,
                        "224": -0.056490495800971985,
                        "225": -0.04269697517156601,
                        "226": 0.11952395737171173,
                        "227": -0.04103823006153107,
                        "228": 0.15207429230213165,
                        "229": -0.03362739831209183,
                        "230": -0.11656766384840012,
                        "231": 0.13344429433345795,
                        "232": -0.13511697947978973,
                        "233": 0.06762229651212692,
                        "234": 0.1617288738489151,
                        "235": -0.04135223850607872,
                        "236": -0.052574288100004196,
                        "237": 0.015599377453327179,
                        "238": 0.14082781970500946,
                        "239": -0.17275191843509674,
                        "240": 0.016303304582834244,
                        "241": -0.19955633580684662,
                        "242": 0.06099003925919533,
                        "243": 0.00983455404639244,
                        "244": -0.03509996086359024,
                        "245": -0.10687222331762314,
                        "246": 0.07059524208307266,
                        "247": -0.18575747311115265,
                        "248": 0.15834258496761322,
                        "249": -0.12898102402687073,
                        "250": 0.18455897271633148,
                        "251": 0.12117420881986618,
                        "252": -0.06611576676368713,
                        "253": 0.13217246532440186,
                        "254": -0.04411197081208229,
                        "255": 0.07774189114570618
                    }
                },
                "1": {
                    "bias": 0.04488934949040413,
                    "weights": {
                        "0": 0.19067248702049255,
                        "1": 0.013777672313153744,
                        "2": -0.059914954006671906,
                        "3": -0.020642893388867378,
                        "4": 0.16930055618286133,
                        "5": 0.0161416158080101,
                        "6": -0.07975607365369797,
                        "7": 0.004957791417837143,
                        "8": -0.12192850559949875,
                        "9": -0.10650301724672318,
                        "10": -0.06520957499742508,
                        "11": 0.1386260837316513,
                        "12": 0.19129963219165802,
                        "13": -0.013188108801841736,
                        "14": 0.008164869621396065,
                        "15": -0.08554676175117493,
                        "16": -0.1760181039571762,
                        "17": 0.008833836764097214,
                        "18": -0.07837630808353424,
                        "19": 0.167427659034729,
                        "20": -0.011072990484535694,
                        "21": -0.15236690640449524,
                        "22": -0.04707399755716324,
                        "23": 0.18609991669654846,
                        "24": -0.19220852851867676,
                        "25": -0.027009546756744385,
                        "26": 0.1820220798254013,
                        "27": -0.18642796576023102,
                        "28": 0.12113815546035767,
                        "29": 0.13234716653823853,
                        "30": 0.017112411558628082,
                        "31": -0.17978724837303162,
                        "32": 0.020143628120422363,
                        "33": 0.17184239625930786,
                        "34": -0.056660525500774384,
                        "35": 0.011735651642084122,
                        "36": -0.17149223387241364,
                        "37": 0.07961174100637436,
                        "38": 0.12516550719738007,
                        "39": 0.15571054816246033,
                        "40": -0.1943015307188034,
                        "41": -0.15750068426132202,
                        "42": -0.14673328399658203,
                        "43": -0.16378651559352875,
                        "44": -0.01699081063270569,
                        "45": -0.1917724758386612,
                        "46": -0.19445332884788513,
                        "47": 0.057933151721954346,
                        "48": 0.07339272648096085,
                        "49": -0.05203833803534508,
                        "50": -0.007081144489347935,
                        "51": 0.17644529044628143,
                        "52": -0.011965849436819553,
                        "53": -0.07792869210243225,
                        "54": -0.13703450560569763,
                        "55": -0.0691276267170906,
                        "56": -0.012647846713662148,
                        "57": 0.135848268866539,
                        "58": -0.18957093358039856,
                        "59": -0.1769973337650299,
                        "60": 0.13559824228286743,
                        "61": 0.17073173820972443,
                        "62": -0.011058454401791096,
                        "63": -0.19401422142982483,
                        "64": -0.1322799175977707,
                        "65": 0.1862543225288391,
                        "66": -0.0540311262011528,
                        "67": 0.06716090440750122,
                        "68": 0.08680715411901474,
                        "69": 0.07820091396570206,
                        "70": -0.13191093504428864,
                        "71": 0.1685280054807663,
                        "72": -0.049802374094724655,
                        "73": -0.12148795276880264,
                        "74": 0.11508724093437195,
                        "75": -0.18193618953227997,
                        "76": 0.05388537421822548,
                        "77": 0.026845764368772507,
                        "78": -0.1813213974237442,
                        "79": -0.13296720385551453,
                        "80": -0.0568682998418808,
                        "81": 0.10467084497213364,
                        "82": -0.02918241359293461,
                        "83": -0.013606030493974686,
                        "84": 0.132388636469841,
                        "85": 0.026714563369750977,
                        "86": 0.15230560302734375,
                        "87": 0.19295881688594818,
                        "88": -0.15072603523731232,
                        "89": 0.06309227645397186,
                        "90": 0.10970769077539444,
                        "91": -0.15847143530845642,
                        "92": 0.09793668240308762,
                        "93": -0.17929308116436005,
                        "94": 0.0835430845618248,
                        "95": 0.1389368623495102,
                        "96": -0.18042626976966858,
                        "97": 0.11376674473285675,
                        "98": 0.05937566980719566,
                        "99": -0.0805673897266388,
                        "100": -0.11909626424312592,
                        "101": -0.1913936883211136,
                        "102": -0.10086921602487564,
                        "103": 0.02391807921230793,
                        "104": -0.10053447633981705,
                        "105": -0.055563054978847504,
                        "106": 0.0016879403265193105,
                        "107": -0.11278222501277924,
                        "108": -0.19256410002708435,
                        "109": -0.016820475459098816,
                        "110": 0.15976011753082275,
                        "111": -0.07052766531705856,
                        "112": 0.0559658445417881,
                        "113": -0.026944568380713463,
                        "114": 0.16398192942142487,
                        "115": 0.15989041328430176,
                        "116": -0.01033577136695385,
                        "117": 0.0450519397854805,
                        "118": 0.11113076657056808,
                        "119": 0.1126069650053978,
                        "120": 0.1461891084909439,
                        "121": -0.026423757895827293,
                        "122": 0.18628723919391632,
                        "123": -0.059229232370853424,
                        "124": 0.16928409039974213,
                        "125": 0.08509563654661179,
                        "126": 0.09129693359136581,
                        "127": -0.148633673787117,
                        "128": 0.10333339869976044,
                        "129": 0.1755787432193756,
                        "130": -0.19390833377838135,
                        "131": 0.13328102231025696,
                        "132": -0.06484590470790863,
                        "133": 0.1337904930114746,
                        "134": 0.13414546847343445,
                        "135": -0.03206361085176468,
                        "136": -0.12827131152153015,
                        "137": -0.08690159767866135,
                        "138": -0.1931540071964264,
                        "139": 0.0984923467040062,
                        "140": -0.03987107053399086,
                        "141": 0.13906678557395935,
                        "142": -0.08747048676013947,
                        "143": 0.025843799114227295,
                        "144": 0.20235991477966309,
                        "145": 0.07314706593751907,
                        "146": -0.15763787925243378,
                        "147": -0.17406542599201202,
                        "148": -0.1533387005329132,
                        "149": -0.08629223704338074,
                        "150": 0.15720690786838531,
                        "151": -0.02245219424366951,
                        "152": 0.0950603261590004,
                        "153": -0.18814173340797424,
                        "154": 0.09523551911115646,
                        "155": 0.11655793339014053,
                        "156": 0.013835271820425987,
                        "157": -0.13699649274349213,
                        "158": -0.10888378322124481,
                        "159": 0.0671042948961258,
                        "160": -0.07389289140701294,
                        "161": -0.14228180050849915,
                        "162": 0.08823280036449432,
                        "163": 0.14531086385250092,
                        "164": 0.04512670636177063,
                        "165": -0.018996896222233772,
                        "166": 0.03223453089594841,
                        "167": -0.13549929857254028,
                        "168": -0.14492174983024597,
                        "169": -0.014535901136696339,
                        "170": 0.12947294116020203,
                        "171": -0.034919630736112595,
                        "172": -0.19339632987976074,
                        "173": 0.16385559737682343,
                        "174": 0.16645199060440063,
                        "175": -0.13533779978752136,
                        "176": 0.19848094880580902,
                        "177": -0.025513818487524986,
                        "178": -0.040421146899461746,
                        "179": -0.190505251288414,
                        "180": 0.02548038586974144,
                        "181": -0.1732633113861084,
                        "182": 0.13783489167690277,
                        "183": 0.024938303977251053,
                        "184": 0.01777576468884945,
                        "185": 0.12891961634159088,
                        "186": -0.0389394648373127,
                        "187": 0.19300715625286102,
                        "188": -0.19106854498386383,
                        "189": -0.03587036952376366,
                        "190": 0.11775343865156174,
                        "191": 0.07370714098215103,
                        "192": 0.12111455202102661,
                        "193": -0.16671207547187805,
                        "194": 0.17307274043560028,
                        "195": 0.07070384174585342,
                        "196": 0.1541709154844284,
                        "197": 0.00782904215157032,
                        "198": 0.03762869909405708,
                        "199": 0.02221931330859661,
                        "200": -0.006796320900321007,
                        "201": -0.15168483555316925,
                        "202": -0.14618201553821564,
                        "203": -0.09719489514827728,
                        "204": 0.13453447818756104,
                        "205": 0.09994690120220184,
                        "206": -0.051063667982816696,
                        "207": -0.17381303012371063,
                        "208": -0.14547483623027802,
                        "209": -0.18188448250293732,
                        "210": 0.10113698244094849,
                        "211": 0.17006535828113556,
                        "212": -0.11139381676912308,
                        "213": 0.08346545696258545,
                        "214": 0.03634673357009888,
                        "215": -0.09942901879549026,
                        "216": 0.09279988706111908,
                        "217": 0.1029423177242279,
                        "218": -0.1769091635942459,
                        "219": -0.02118702605366707,
                        "220": 0.11119841039180756,
                        "221": -0.04459249600768089,
                        "222": 0.1880851536989212,
                        "223": -0.09317296743392944,
                        "224": -0.12281320989131927,
                        "225": 0.06995650380849838,
                        "226": -0.060063961893320084,
                        "227": -0.15034976601600647,
                        "228": 0.05092635378241539,
                        "229": 0.17581535875797272,
                        "230": -0.19780386984348297,
                        "231": 0.00546386418864131,
                        "232": 0.0846802294254303,
                        "233": -0.013226853683590889,
                        "234": -0.1428099125623703,
                        "235": 0.011644969694316387,
                        "236": -0.10551530122756958,
                        "237": 0.11805929988622665,
                        "238": 0.20313896238803864,
                        "239": 0.1097879558801651,
                        "240": -0.035157594829797745,
                        "241": -0.05366568639874458,
                        "242": 0.18929429352283478,
                        "243": 0.03498654440045357,
                        "244": 0.0060171103104949,
                        "245": 0.040996894240379333,
                        "246": 0.010671018622815609,
                        "247": -0.16372716426849365,
                        "248": 0.021085022017359734,
                        "249": 0.05224189907312393,
                        "250": 0.10372225195169449,
                        "251": 0.13775634765625,
                        "252": 0.06555958092212677,
                        "253": 0.020604470744729042,
                        "254": 0.1688244640827179,
                        "255": -0.047916993498802185
                    }
                },
                "2": {
                    "bias": -0.18715184926986694,
                    "weights": {
                        "0": -0.03933195769786835,
                        "1": 0.05172603577375412,
                        "2": -0.08497736603021622,
                        "3": -0.1429990828037262,
                        "4": -0.04730468988418579,
                        "5": 0.04857199266552925,
                        "6": 0.12491755187511444,
                        "7": 0.1911436766386032,
                        "8": -0.15113869309425354,
                        "9": -0.03656408190727234,
                        "10": 0.08749628812074661,
                        "11": -0.016283713281154633,
                        "12": -0.05453546717762947,
                        "13": -0.183351069688797,
                        "14": -0.04723013564944267,
                        "15": -0.17274029552936554,
                        "16": 0.18365569412708282,
                        "17": -0.06560436636209488,
                        "18": 0.1827779859304428,
                        "19": 0.05629158392548561,
                        "20": 0.061748914420604706,
                        "21": -0.06865052878856659,
                        "22": -0.1647462397813797,
                        "23": -0.17608192563056946,
                        "24": 0.09876194596290588,
                        "25": 0.15866844356060028,
                        "26": -0.09891995787620544,
                        "27": 0.007616180460900068,
                        "28": 0.0842619389295578,
                        "29": -0.189066082239151,
                        "30": -0.051152218133211136,
                        "31": -0.008927250280976295,
                        "32": 0.10631592571735382,
                        "33": -0.05535478889942169,
                        "34": 0.08068670332431793,
                        "35": -0.056672319769859314,
                        "36": 0.12931028008460999,
                        "37": 0.18642698228359222,
                        "38": -0.15562422573566437,
                        "39": 0.09482292085886002,
                        "40": -0.19314447045326233,
                        "41": 0.11909008771181107,
                        "42": 0.0021791814360767603,
                        "43": -0.18856042623519897,
                        "44": 0.177978053689003,
                        "45": 0.1647505909204483,
                        "46": 0.16318321228027344,
                        "47": 0.1853194534778595,
                        "48": -0.15970799326896667,
                        "49": 0.13407054543495178,
                        "50": 0.11132067441940308,
                        "51": -0.14122022688388824,
                        "52": 0.17595796287059784,
                        "53": 0.13703559339046478,
                        "54": -0.022780366241931915,
                        "55": -0.07159973680973053,
                        "56": -0.00630737142637372,
                        "57": 0.15971572697162628,
                        "58": -0.1550201177597046,
                        "59": 0.06103222444653511,
                        "60": -0.19447197020053864,
                        "61": 0.16094538569450378,
                        "62": -0.006362692918628454,
                        "63": 0.02305121347308159,
                        "64": -0.09311908483505249,
                        "65": 0.19613029062747955,
                        "66": -0.09103480726480484,
                        "67": -0.003868095576763153,
                        "68": -0.0504973828792572,
                        "69": -0.10083077102899551,
                        "70": 0.04334688186645508,
                        "71": -0.16945229470729828,
                        "72": 0.17355090379714966,
                        "73": 0.05033427104353905,
                        "74": -0.13293172419071198,
                        "75": -0.07390084862709045,
                        "76": 0.19680720567703247,
                        "77": -0.14424258470535278,
                        "78": -0.18908753991127014,
                        "79": -0.07697443664073944,
                        "80": 0.057765666395425797,
                        "81": -0.002579254563897848,
                        "82": -0.026420749723911285,
                        "83": 0.1344282329082489,
                        "84": -0.02524397149682045,
                        "85": 0.18169854581356049,
                        "86": 0.05627341568470001,
                        "87": 0.054580435156822205,
                        "88": 0.056672826409339905,
                        "89": 0.12162837386131287,
                        "90": -0.0416695773601532,
                        "91": 0.19453881680965424,
                        "92": -0.08424597233533859,
                        "93": -0.15466243028640747,
                        "94": 0.19756072759628296,
                        "95": -0.13006213307380676,
                        "96": -0.09539779275655746,
                        "97": 0.05845733731985092,
                        "98": 0.10411062091588974,
                        "99": -0.13474822044372559,
                        "100": 0.022610746324062347,
                        "101": 0.055602069944143295,
                        "102": -0.07172465324401855,
                        "103": 0.1390981525182724,
                        "104": 0.07036899030208588,
                        "105": -0.14711953699588776,
                        "106": -0.04258612170815468,
                        "107": 0.06482239812612534,
                        "108": 0.15995781123638153,
                        "109": -0.05841090902686119,
                        "110": 0.08019410073757172,
                        "111": -0.05983215197920799,
                        "112": 0.007929038256406784,
                        "113": -0.05241509526968002,
                        "114": 0.13004329800605774,
                        "115": 0.007454244419932365,
                        "116": 0.11234927922487259,
                        "117": -0.13876529037952423,
                        "118": -0.15206122398376465,
                        "119": -0.15276797115802765,
                        "120": 0.0017704000929370522,
                        "121": -0.013827997259795666,
                        "122": 0.003490347182378173,
                        "123": -0.006423621904104948,
                        "124": 0.15481142699718475,
                        "125": 0.10690049827098846,
                        "126": 0.02126501128077507,
                        "127": -0.10047531127929688,
                        "128": 0.051551833748817444,
                        "129": 0.03897615894675255,
                        "130": 0.036419209092855453,
                        "131": -0.12242183089256287,
                        "132": -0.009910792112350464,
                        "133": -0.0756242647767067,
                        "134": 0.16370517015457153,
                        "135": -0.11366930603981018,
                        "136": -0.1029413491487503,
                        "137": 0.035081155598163605,
                        "138": -0.043957728892564774,
                        "139": -0.06478174030780792,
                        "140": -0.06812328100204468,
                        "141": 0.06649757921695709,
                        "142": 0.09758706390857697,
                        "143": -0.191114604473114,
                        "144": -0.11164914816617966,
                        "145": -0.10965404659509659,
                        "146": 0.018292488530278206,
                        "147": 0.16817107796669006,
                        "148": -0.04184981808066368,
                        "149": -0.08945329487323761,
                        "150": -0.18542519211769104,
                        "151": -0.16178134083747864,
                        "152": 0.020287489518523216,
                        "153": 0.14754900336265564,
                        "154": 0.14818674325942993,
                        "155": -0.19534368813037872,
                        "156": 0.03609223663806915,
                        "157": 0.1767168790102005,
                        "158": 0.01026872731745243,
                        "159": -0.12281086295843124,
                        "160": -0.022868944332003593,
                        "161": -0.14333699643611908,
                        "162": -0.09959365427494049,
                        "163": -0.024254662916064262,
                        "164": 0.10297136753797531,
                        "165": 0.14140428602695465,
                        "166": 0.16123880445957184,
                        "167": -0.009974446147680283,
                        "168": 0.1289256364107132,
                        "169": -0.1904018372297287,
                        "170": 0.04275579750537872,
                        "171": 0.00023030940792523324,
                        "172": 0.012331339530646801,
                        "173": 0.05226461961865425,
                        "174": -0.06468424201011658,
                        "175": -0.0855298787355423,
                        "176": 0.12230052053928375,
                        "177": -0.016308842226862907,
                        "178": 0.19789791107177734,
                        "179": 0.1571967750787735,
                        "180": 0.16565075516700745,
                        "181": 0.026863377541303635,
                        "182": 0.010150974616408348,
                        "183": -0.1655125617980957,
                        "184": 0.0674811452627182,
                        "185": -0.04986429214477539,
                        "186": 0.00891729723662138,
                        "187": 0.17872890830039978,
                        "188": -0.0006317299557849765,
                        "189": -0.08221541345119476,
                        "190": 0.072811558842659,
                        "191": -0.10259440541267395,
                        "192": 0.022478442639112473,
                        "193": 0.15293622016906738,
                        "194": 0.15969505906105042,
                        "195": 0.17478875815868378,
                        "196": 0.08383594453334808,
                        "197": 0.054660264402627945,
                        "198": 0.0950244590640068,
                        "199": 0.06986071169376373,
                        "200": -0.19913868606090546,
                        "201": -0.16887667775154114,
                        "202": -0.09199245274066925,
                        "203": -0.015377304516732693,
                        "204": -0.004950348753482103,
                        "205": -0.1465919017791748,
                        "206": -0.07726002484560013,
                        "207": -0.15504081547260284,
                        "208": -0.06176319345831871,
                        "209": 0.08556509763002396,
                        "210": 0.07970736920833588,
                        "211": -0.06547276675701141,
                        "212": -0.1417090892791748,
                        "213": -0.05887574702501297,
                        "214": 0.08741967380046844,
                        "215": -0.08182179927825928,
                        "216": 0.03210371360182762,
                        "217": -0.13127091526985168,
                        "218": 0.03445998206734657,
                        "219": -0.09104026854038239,
                        "220": 0.012151585891842842,
                        "221": 0.07193039357662201,
                        "222": -0.11602364480495453,
                        "223": 0.1268736720085144,
                        "224": -0.11902772635221481,
                        "225": 0.09670671820640564,
                        "226": 0.04880968853831291,
                        "227": -0.185885488986969,
                        "228": -0.19214491546154022,
                        "229": 0.0868428498506546,
                        "230": 0.06862074881792068,
                        "231": -0.13955183327198029,
                        "232": -0.13450542092323303,
                        "233": 0.06076107919216156,
                        "234": -0.11718679219484329,
                        "235": -0.13356387615203857,
                        "236": -0.036040809005498886,
                        "237": -0.027093932032585144,
                        "238": 0.05869510397315025,
                        "239": 0.13993443548679352,
                        "240": -0.18434561789035797,
                        "241": -0.09480553865432739,
                        "242": -0.03852337226271629,
                        "243": 0.012753288261592388,
                        "244": 0.19965897500514984,
                        "245": 0.15457388758659363,
                        "246": 0.1669873744249344,
                        "247": 0.004154636524617672,
                        "248": 0.13524281978607178,
                        "249": -0.1357697695493698,
                        "250": -0.010033422149717808,
                        "251": 0.16679678857326508,
                        "252": -0.12207309901714325,
                        "253": 0.03871205076575279,
                        "254": 0.18602901697158813,
                        "255": 0.030896442010998726
                    }
                },
                "3": {
                    "bias": -0.14998352527618408,
                    "weights": {
                        "0": -0.05101138725876808,
                        "1": 0.10205535590648651,
                        "2": -0.14732275903224945,
                        "3": -0.09263226389884949,
                        "4": -0.028849633410573006,
                        "5": 0.10274834930896759,
                        "6": -0.05865277349948883,
                        "7": 0.07692685723304749,
                        "8": 0.06246298924088478,
                        "9": 0.11956249922513962,
                        "10": -0.09773323684930801,
                        "11": 0.17970851063728333,
                        "12": 0.05863909423351288,
                        "13": 0.16132071614265442,
                        "14": 0.063056081533432,
                        "15": -0.10905169695615768,
                        "16": -0.14253422617912292,
                        "17": 0.202952042222023,
                        "18": -0.1073533296585083,
                        "19": -0.1756841391324997,
                        "20": -0.197576105594635,
                        "21": 0.10218062996864319,
                        "22": 0.014744620770215988,
                        "23": -0.048943892121315,
                        "24": 0.02968105860054493,
                        "25": -0.16857266426086426,
                        "26": -0.0073474193923175335,
                        "27": 0.07875406742095947,
                        "28": 0.17239511013031006,
                        "29": -0.002631432842463255,
                        "30": -0.13082276284694672,
                        "31": -0.14505526423454285,
                        "32": 0.14964956045150757,
                        "33": 0.003249762812629342,
                        "34": 0.10685151070356369,
                        "35": -0.02416788972914219,
                        "36": 0.1513832062482834,
                        "37": -0.13210293650627136,
                        "38": -0.1460486501455307,
                        "39": 0.040879055857658386,
                        "40": 0.18019536137580872,
                        "41": -0.09250223636627197,
                        "42": 0.18874114751815796,
                        "43": -0.07017841935157776,
                        "44": 0.07999914139509201,
                        "45": -0.1534845530986786,
                        "46": 0.06584742665290833,
                        "47": -0.06275077909231186,
                        "48": 0.11883331090211868,
                        "49": -0.12348511815071106,
                        "50": 0.0995342805981636,
                        "51": -0.01983090117573738,
                        "52": -0.131748765707016,
                        "53": 0.09008005261421204,
                        "54": 0.09448389708995819,
                        "55": -0.14671289920806885,
                        "56": 0.15371711552143097,
                        "57": 0.019504278898239136,
                        "58": -0.13099457323551178,
                        "59": -0.09002446383237839,
                        "60": -0.15799398720264435,
                        "61": -0.06664958596229553,
                        "62": 0.12243565171957016,
                        "63": -0.2003023326396942,
                        "64": -0.18706803023815155,
                        "65": -0.17832249402999878,
                        "66": -0.05394016206264496,
                        "67": -0.05707267299294472,
                        "68": 0.03791044279932976,
                        "69": -0.18438898026943207,
                        "70": -0.07092530280351639,
                        "71": -0.02195345051586628,
                        "72": 0.06823577731847763,
                        "73": -0.08832957595586777,
                        "74": -0.11162552237510681,
                        "75": 0.1427249163389206,
                        "76": 0.02847324311733246,
                        "77": -0.19386231899261475,
                        "78": -0.03253011777997017,
                        "79": -0.032033294439315796,
                        "80": -0.12450678646564484,
                        "81": 0.1881190836429596,
                        "82": -0.17632544040679932,
                        "83": 0.19241289794445038,
                        "84": 0.1892160177230835,
                        "85": 0.1293766349554062,
                        "86": -0.17180031538009644,
                        "87": 0.18853865563869476,
                        "88": -0.13947442173957825,
                        "89": 0.10360469669103622,
                        "90": -0.1671065390110016,
                        "91": -0.11973355710506439,
                        "92": 0.11923433840274811,
                        "93": 0.04709332063794136,
                        "94": 0.09539701789617538,
                        "95": 0.03616422042250633,
                        "96": -0.07195228338241577,
                        "97": -0.178811177611351,
                        "98": -0.05058566853404045,
                        "99": -0.16054120659828186,
                        "100": 0.13059286773204803,
                        "101": -0.05691104382276535,
                        "102": 0.06115034222602844,
                        "103": 0.08940037339925766,
                        "104": 0.06561995297670364,
                        "105": 0.11988504230976105,
                        "106": 0.16776299476623535,
                        "107": 0.09680043905973434,
                        "108": 0.1586981862783432,
                        "109": -0.080445796251297,
                        "110": -0.012626794166862965,
                        "111": -0.09226567298173904,
                        "112": -0.08031414449214935,
                        "113": -0.09977727383375168,
                        "114": -0.08863691240549088,
                        "115": 0.0976618230342865,
                        "116": 0.048357319086790085,
                        "117": 0.0757777988910675,
                        "118": -0.17757245898246765,
                        "119": 0.008665253408253193,
                        "120": -0.047985222190618515,
                        "121": 0.07295039296150208,
                        "122": -0.01376704778522253,
                        "123": -0.16950155794620514,
                        "124": 0.020820260047912598,
                        "125": -0.09201671928167343,
                        "126": -0.1622612029314041,
                        "127": -0.16447259485721588,
                        "128": -0.14923393726348877,
                        "129": -0.1848079413175583,
                        "130": 0.042783401906490326,
                        "131": -0.06802698224782944,
                        "132": -0.14820994436740875,
                        "133": 0.010567008517682552,
                        "134": -0.08079928904771805,
                        "135": -0.13373221457004547,
                        "136": 0.17665933072566986,
                        "137": 0.08948078006505966,
                        "138": -0.04421326518058777,
                        "139": 0.07270382344722748,
                        "140": -0.09013034403324127,
                        "141": -0.041883714497089386,
                        "142": -0.19233177602291107,
                        "143": -0.10214229673147202,
                        "144": -0.14240579307079315,
                        "145": -0.04563945531845093,
                        "146": -0.0508783720433712,
                        "147": -0.001079381676390767,
                        "148": -0.019322944805026054,
                        "149": -0.17527461051940918,
                        "150": 0.01783888041973114,
                        "151": -0.14897410571575165,
                        "152": -0.15275521576404572,
                        "153": 0.055158581584692,
                        "154": 0.029941784217953682,
                        "155": 0.11859357357025146,
                        "156": 0.15967729687690735,
                        "157": -0.1298096776008606,
                        "158": 0.15096987783908844,
                        "159": -0.10280492901802063,
                        "160": 0.18773484230041504,
                        "161": 0.08293725550174713,
                        "162": 0.19223609566688538,
                        "163": -0.11004406958818436,
                        "164": 0.06582991778850555,
                        "165": -0.140769362449646,
                        "166": -0.09494592249393463,
                        "167": 0.11786935478448868,
                        "168": 0.19277323782444,
                        "169": 0.0010502361692488194,
                        "170": 0.06692598015069962,
                        "171": -0.18340769410133362,
                        "172": -0.16184115409851074,
                        "173": 0.02675255574285984,
                        "174": 0.09264609217643738,
                        "175": -0.09537891298532486,
                        "176": -0.12561485171318054,
                        "177": 0.15515439212322235,
                        "178": 0.048792749643325806,
                        "179": -0.03416680172085762,
                        "180": 0.13007374107837677,
                        "181": 0.1700073927640915,
                        "182": -0.12714065611362457,
                        "183": -0.13072387874126434,
                        "184": -0.045191921293735504,
                        "185": 0.0010329645592719316,
                        "186": 0.18057097494602203,
                        "187": 0.05254078283905983,
                        "188": 0.14263351261615753,
                        "189": -0.09471435099840164,
                        "190": 0.0020298855379223824,
                        "191": 0.07490286976099014,
                        "192": 0.026287075132131577,
                        "193": -0.04181135445833206,
                        "194": -0.17810390889644623,
                        "195": 0.10295199602842331,
                        "196": -0.12402045726776123,
                        "197": -0.061578646302223206,
                        "198": 0.14685048162937164,
                        "199": 0.15057066082954407,
                        "200": -0.1318041831254959,
                        "201": 0.015866491943597794,
                        "202": 0.028512077406048775,
                        "203": -0.0669689029455185,
                        "204": -0.014303662814199924,
                        "205": 0.078774593770504,
                        "206": -0.11857269704341888,
                        "207": -0.17024855315685272,
                        "208": 0.13680607080459595,
                        "209": 0.12337604910135269,
                        "210": 0.01987684704363346,
                        "211": -0.188767209649086,
                        "212": -0.17997457087039948,
                        "213": 0.09392239153385162,
                        "214": 0.11013442277908325,
                        "215": 0.04996428266167641,
                        "216": 0.1777605265378952,
                        "217": 0.15809565782546997,
                        "218": 0.05623763054609299,
                        "219": -0.047687679529190063,
                        "220": -0.19014517962932587,
                        "221": 0.10528452694416046,
                        "222": 0.07126392424106598,
                        "223": -0.06577711552381516,
                        "224": -0.056788694113492966,
                        "225": -0.0426219180226326,
                        "226": -0.02531994879245758,
                        "227": -0.13360431790351868,
                        "228": -0.19307470321655273,
                        "229": -0.009905208833515644,
                        "230": 0.053217701613903046,
                        "231": -0.0007643972057849169,
                        "232": -0.10252583771944046,
                        "233": -0.1725035458803177,
                        "234": -0.08071596920490265,
                        "235": 0.0649828165769577,
                        "236": -0.17132258415222168,
                        "237": 0.13593690097332,
                        "238": -0.007157864980399609,
                        "239": 0.08154419809579849,
                        "240": -0.05210825428366661,
                        "241": 0.13638576865196228,
                        "242": 0.18239827454090118,
                        "243": 0.15012741088867188,
                        "244": 0.1095946654677391,
                        "245": -0.12735892832279205,
                        "246": -0.039243292063474655,
                        "247": 0.19142280519008636,
                        "248": 0.0953269973397255,
                        "249": 0.10542187839746475,
                        "250": 0.14439725875854492,
                        "251": -0.07900511473417282,
                        "252": 0.15212774276733398,
                        "253": 0.009126988239586353,
                        "254": 0.12291757017374039,
                        "255": 0.039363548159599304
                    }
                },
                "4": {
                    "bias": -0.14421720802783966,
                    "weights": {
                        "0": -0.12132024765014648,
                        "1": 0.006678901147097349,
                        "2": 0.08559031784534454,
                        "3": -0.16277272999286652,
                        "4": -0.11647441983222961,
                        "5": 0.15639571845531464,
                        "6": -0.020852036774158478,
                        "7": -0.07398916780948639,
                        "8": 0.14735430479049683,
                        "9": -0.08111602067947388,
                        "10": 0.14610697329044342,
                        "11": -0.19506117701530457,
                        "12": 0.01681688241660595,
                        "13": 0.008576051332056522,
                        "14": 0.06902501732110977,
                        "15": 0.1400713175535202,
                        "16": 0.19704213738441467,
                        "17": 0.02476000040769577,
                        "18": 0.15020796656608582,
                        "19": -0.016812363639473915,
                        "20": 0.19897612929344177,
                        "21": 0.16913703083992004,
                        "22": 0.17971371114253998,
                        "23": 0.10884641855955124,
                        "24": -0.034919917583465576,
                        "25": -0.04603419452905655,
                        "26": -0.17156387865543365,
                        "27": 0.14466612040996552,
                        "28": 0.14372138679027557,
                        "29": 0.1624099165201187,
                        "30": -0.07926584035158157,
                        "31": -0.0125798424705863,
                        "32": -0.19792960584163666,
                        "33": 0.023847563192248344,
                        "34": -0.15093369781970978,
                        "35": 0.1521148383617401,
                        "36": -0.14217139780521393,
                        "37": -0.1720389425754547,
                        "38": -0.08054596930742264,
                        "39": -0.10592103004455566,
                        "40": 0.0013171968748793006,
                        "41": 0.09720222651958466,
                        "42": -0.013246703892946243,
                        "43": 0.03535881265997887,
                        "44": 0.017820820212364197,
                        "45": 0.09419906884431839,
                        "46": -0.15954172611236572,
                        "47": -0.12797583639621735,
                        "48": 0.066767118871212,
                        "49": -0.09913410991430283,
                        "50": 0.1595008671283722,
                        "51": -0.1689283400774002,
                        "52": -0.06900791078805923,
                        "53": -0.057499244809150696,
                        "54": 0.06180349364876747,
                        "55": -0.049833156168460846,
                        "56": -0.04118277505040169,
                        "57": -0.07783850282430649,
                        "58": 0.11254432797431946,
                        "59": -0.15483300387859344,
                        "60": 0.001458986778743565,
                        "61": 0.003779481863602996,
                        "62": 0.08927728235721588,
                        "63": 0.10714161396026611,
                        "64": 0.020250940695405006,
                        "65": -0.1836756467819214,
                        "66": 0.026086077094078064,
                        "67": -0.0178303774446249,
                        "68": 0.1844351887702942,
                        "69": 0.08547534048557281,
                        "70": 0.03526737168431282,
                        "71": -0.07235646992921829,
                        "72": -0.11772632598876953,
                        "73": 0.1128975972533226,
                        "74": -0.14672595262527466,
                        "75": 0.05290576443076134,
                        "76": -0.14397618174552917,
                        "77": 0.19156894087791443,
                        "78": 0.10676562786102295,
                        "79": 0.14279484748840332,
                        "80": -0.05212467536330223,
                        "81": -0.17256514728069305,
                        "82": 0.14419956505298615,
                        "83": -0.016447583213448524,
                        "84": -0.06025917828083038,
                        "85": 0.02584221214056015,
                        "86": 0.041610054671764374,
                        "87": -0.1305985152721405,
                        "88": 0.1749931126832962,
                        "89": 0.19660916924476624,
                        "90": -0.06667573004961014,
                        "91": -0.17629186809062958,
                        "92": 0.05638084560632706,
                        "93": 0.10040108859539032,
                        "94": 0.04749215766787529,
                        "95": 0.19281388819217682,
                        "96": -0.11528744548559189,
                        "97": 0.0331079475581646,
                        "98": -0.07636555284261703,
                        "99": -0.12111889570951462,
                        "100": 0.07203797250986099,
                        "101": -0.18736201524734497,
                        "102": -0.04573705419898033,
                        "103": -0.07790248841047287,
                        "104": -0.1609208881855011,
                        "105": -0.15791915357112885,
                        "106": -0.017670076340436935,
                        "107": 0.11054135113954544,
                        "108": 0.17516228556632996,
                        "109": 0.11706569045782089,
                        "110": 0.19236993789672852,
                        "111": 0.11306300014257431,
                        "112": 0.01985989883542061,
                        "113": 0.11104808747768402,
                        "114": -0.07958879321813583,
                        "115": -0.04985456541180611,
                        "116": 0.18524084985256195,
                        "117": 0.016232596710324287,
                        "118": -0.07030073553323746,
                        "119": 0.004636966157704592,
                        "120": -0.09796443581581116,
                        "121": -0.10704691708087921,
                        "122": -0.11789721250534058,
                        "123": -0.024850396439433098,
                        "124": -0.1805194467306137,
                        "125": 0.08584294468164444,
                        "126": -0.07659183442592621,
                        "127": -0.1616128534078598,
                        "128": 0.09064647555351257,
                        "129": -0.19230863451957703,
                        "130": -0.0717124491930008,
                        "131": -0.026224123314023018,
                        "132": 0.004954316187649965,
                        "133": -0.15342570841312408,
                        "134": 0.1182112768292427,
                        "135": 0.026234067976474762,
                        "136": 0.10213550925254822,
                        "137": -0.024155491963028908,
                        "138": 0.06001206859946251,
                        "139": -0.15888239443302155,
                        "140": 0.12223774194717407,
                        "141": -0.1763705462217331,
                        "142": 0.14000900089740753,
                        "143": -0.15821623802185059,
                        "144": 0.14584378898143768,
                        "145": -0.012942303903400898,
                        "146": 0.16053526103496552,
                        "147": -0.14062869548797607,
                        "148": -0.13646844029426575,
                        "149": 0.162080779671669,
                        "150": 0.04787953943014145,
                        "151": -0.030209777876734734,
                        "152": 0.07951301336288452,
                        "153": -0.07047577947378159,
                        "154": 0.1402917057275772,
                        "155": 0.1960318684577942,
                        "156": -0.18114806711673737,
                        "157": 0.06366553902626038,
                        "158": 0.020660066977143288,
                        "159": 0.027572084218263626,
                        "160": -0.19795067608356476,
                        "161": -0.15900489687919617,
                        "162": -0.11755342781543732,
                        "163": 0.1085745319724083,
                        "164": 0.04835929349064827,
                        "165": -0.1554662138223648,
                        "166": -0.02303050085902214,
                        "167": 0.014229602180421352,
                        "168": -0.11642840504646301,
                        "169": -0.10268203914165497,
                        "170": 0.005948217585682869,
                        "171": -0.07977248728275299,
                        "172": -0.046433478593826294,
                        "173": -0.19374525547027588,
                        "174": 0.08036322891712189,
                        "175": 0.17262867093086243,
                        "176": -0.11083414405584335,
                        "177": 0.20057718455791473,
                        "178": 0.1944865584373474,
                        "179": -0.14603133499622345,
                        "180": -0.15948346257209778,
                        "181": -0.0005197267164476216,
                        "182": 0.07042725384235382,
                        "183": 0.04962319880723953,
                        "184": -0.1462233066558838,
                        "185": 0.03204898163676262,
                        "186": 0.1325451135635376,
                        "187": 0.1760154366493225,
                        "188": 0.14618098735809326,
                        "189": -0.026898495852947235,
                        "190": -0.002873816527426243,
                        "191": 0.06209004297852516,
                        "192": -0.0852242037653923,
                        "193": 0.07971420884132385,
                        "194": -0.13771860301494598,
                        "195": 0.014474612660706043,
                        "196": 0.18684890866279602,
                        "197": -0.1922851949930191,
                        "198": 0.0021239928901195526,
                        "199": 0.1053917407989502,
                        "200": -0.026214493438601494,
                        "201": -0.19600318372249603,
                        "202": 0.013162666000425816,
                        "203": 0.0969887524843216,
                        "204": 0.09252148866653442,
                        "205": 0.09288697689771652,
                        "206": 0.012276013381779194,
                        "207": 0.044030945748090744,
                        "208": -0.05866643041372299,
                        "209": -0.038610026240348816,
                        "210": -0.16218866407871246,
                        "211": -0.042176470160484314,
                        "212": -0.024982959032058716,
                        "213": 0.12190011143684387,
                        "214": -0.14941367506980896,
                        "215": -0.018793251365423203,
                        "216": -0.1563895344734192,
                        "217": -0.11244887113571167,
                        "218": -0.1594357043504715,
                        "219": 0.06682159006595612,
                        "220": -0.08075137436389923,
                        "221": -0.084348164498806,
                        "222": 0.12385371327400208,
                        "223": -0.13866208493709564,
                        "224": 0.2003387063741684,
                        "225": 0.17262053489685059,
                        "226": -0.011464417912065983,
                        "227": -0.06904573738574982,
                        "228": 0.08806823939085007,
                        "229": -0.08683831244707108,
                        "230": -0.14216330647468567,
                        "231": -0.10281464457511902,
                        "232": -0.16841202974319458,
                        "233": 0.11492112278938293,
                        "234": 0.034375157207250595,
                        "235": 0.164474755525589,
                        "236": 0.0880645215511322,
                        "237": 0.14043305814266205,
                        "238": 0.078480564057827,
                        "239": -0.06168421357870102,
                        "240": -0.05236774682998657,
                        "241": -0.18330420553684235,
                        "242": -0.1621909886598587,
                        "243": -0.11479160189628601,
                        "244": -0.1777816265821457,
                        "245": -0.002511529717594385,
                        "246": -0.005096733570098877,
                        "247": 0.04434100165963173,
                        "248": -0.08174622058868408,
                        "249": 0.1333688497543335,
                        "250": -0.17032068967819214,
                        "251": 0.06071992963552475,
                        "252": 0.19882166385650635,
                        "253": 0.055647898465394974,
                        "254": -0.08574792742729187,
                        "255": -0.038140397518873215
                    }
                },
                "5": {
                    "bias": 0.16688434779644012,
                    "weights": {
                        "0": 0.12330040335655212,
                        "1": 0.12141148746013641,
                        "2": -0.16660596430301666,
                        "3": 0.15680216252803802,
                        "4": -0.17739860713481903,
                        "5": 0.07548633962869644,
                        "6": 0.1030668318271637,
                        "7": 0.18629921972751617,
                        "8": 0.17533254623413086,
                        "9": -0.1296701729297638,
                        "10": 0.17112191021442413,
                        "11": -0.00546825909987092,
                        "12": 0.09877534955739975,
                        "13": 0.10382623970508575,
                        "14": 0.06968006491661072,
                        "15": 0.05705723166465759,
                        "16": 0.04335537925362587,
                        "17": 0.06316722184419632,
                        "18": 0.052590519189834595,
                        "19": -0.05192962661385536,
                        "20": 0.1438332051038742,
                        "21": 0.11407408863306046,
                        "22": 0.14764870703220367,
                        "23": -0.04455484449863434,
                        "24": 0.13572117686271667,
                        "25": -0.19273370504379272,
                        "26": -0.01697820983827114,
                        "27": -0.10809903591871262,
                        "28": 0.15217582881450653,
                        "29": 0.148713156580925,
                        "30": 0.13271395862102509,
                        "31": -0.0018172325799241662,
                        "32": -0.11612918972969055,
                        "33": -0.11193684488534927,
                        "34": 0.17522838711738586,
                        "35": -0.11476380378007889,
                        "36": 0.16565360128879547,
                        "37": 0.05808090418577194,
                        "38": -0.17732015252113342,
                        "39": 0.06831851601600647,
                        "40": 0.04800531640648842,
                        "41": 0.0792725682258606,
                        "42": -0.03405606374144554,
                        "43": -0.017347823828458786,
                        "44": -0.14427365362644196,
                        "45": 0.1675828993320465,
                        "46": -0.009942827746272087,
                        "47": 0.028476087376475334,
                        "48": -0.183837428689003,
                        "49": -0.15474002063274384,
                        "50": 0.11977652460336685,
                        "51": 0.12336702644824982,
                        "52": -0.06485549360513687,
                        "53": -0.16364896297454834,
                        "54": 0.057949475944042206,
                        "55": 0.1046588197350502,
                        "56": -0.005344820208847523,
                        "57": -0.019024861976504326,
                        "58": -0.017483780160546303,
                        "59": -0.14877250790596008,
                        "60": 0.039921097457408905,
                        "61": -0.12834961712360382,
                        "62": -0.19679871201515198,
                        "63": -0.16008636355400085,
                        "64": 0.13488353788852692,
                        "65": -0.06374629586935043,
                        "66": -0.10419123619794846,
                        "67": -0.13230709731578827,
                        "68": -0.08842836320400238,
                        "69": 0.13917122781276703,
                        "70": 0.10928788036108017,
                        "71": 0.16338175535202026,
                        "72": 0.04947902262210846,
                        "73": -0.06921648234128952,
                        "74": 0.14313872158527374,
                        "75": 0.00038291746750473976,
                        "76": 0.018093500286340714,
                        "77": 0.06551480293273926,
                        "78": 0.15348590910434723,
                        "79": 0.16503487527370453,
                        "80": 0.1333233267068863,
                        "81": -0.08153896033763885,
                        "82": -0.043232522904872894,
                        "83": 0.14454972743988037,
                        "84": 0.10738228261470795,
                        "85": 0.07131420075893402,
                        "86": -0.004877487663179636,
                        "87": 0.09013516455888748,
                        "88": -0.13201555609703064,
                        "89": 0.06316372752189636,
                        "90": 0.1265963464975357,
                        "91": 0.16644719243049622,
                        "92": 0.07489558309316635,
                        "93": -0.07109711319208145,
                        "94": 0.11908355355262756,
                        "95": -0.02538987062871456,
                        "96": 0.07872918993234634,
                        "97": -0.16270919144153595,
                        "98": 0.01476149819791317,
                        "99": -0.19309775531291962,
                        "100": -0.05418054014444351,
                        "101": 0.17659012973308563,
                        "102": 0.16960373520851135,
                        "103": 0.12242835760116577,
                        "104": 0.12728261947631836,
                        "105": -0.06962402164936066,
                        "106": -0.14801077544689178,
                        "107": -0.16125014424324036,
                        "108": 0.14440052211284637,
                        "109": 0.13151636719703674,
                        "110": 0.07964824140071869,
                        "111": 0.07069185376167297,
                        "112": 0.013242624700069427,
                        "113": -0.05569472908973694,
                        "114": 0.129427969455719,
                        "115": -0.04352719336748123,
                        "116": -0.1043117418885231,
                        "117": 0.11541227251291275,
                        "118": -0.013035149313509464,
                        "119": 0.1757749766111374,
                        "120": -0.14016671478748322,
                        "121": 0.1969684362411499,
                        "122": 0.012191242538392544,
                        "123": -0.03204173967242241,
                        "124": 0.1479492485523224,
                        "125": 0.03871102258563042,
                        "126": -0.13174264132976532,
                        "127": 0.07629335671663284,
                        "128": -0.07896269112825394,
                        "129": -0.11992038786411285,
                        "130": -0.13958628475666046,
                        "131": 0.06027877703309059,
                        "132": 0.10931573808193207,
                        "133": -0.04213207587599754,
                        "134": 0.12785521149635315,
                        "135": 0.09162396192550659,
                        "136": -0.18984666466712952,
                        "137": -0.07918591797351837,
                        "138": -0.10853353142738342,
                        "139": 0.09135685861110687,
                        "140": 0.12761974334716797,
                        "141": -0.00520192738622427,
                        "142": 0.046670470386743546,
                        "143": -0.12807081639766693,
                        "144": 0.10065553337335587,
                        "145": 0.047016069293022156,
                        "146": -0.08146078884601593,
                        "147": 0.13059832155704498,
                        "148": -0.14913000166416168,
                        "149": -0.03290990740060806,
                        "150": 0.020640525966882706,
                        "151": 0.18633902072906494,
                        "152": 0.1883871853351593,
                        "153": -0.14025671780109406,
                        "154": -0.027746768668293953,
                        "155": -0.17846627533435822,
                        "156": -0.10612231492996216,
                        "157": 0.169923797249794,
                        "158": -0.03096974827349186,
                        "159": 0.02470017597079277,
                        "160": -0.14796827733516693,
                        "161": 0.18406210839748383,
                        "162": 0.10946469008922577,
                        "163": -0.13422198593616486,
                        "164": 0.03319375962018967,
                        "165": -0.06153235584497452,
                        "166": -0.04955589398741722,
                        "167": 0.032777633517980576,
                        "168": 0.1776605248451233,
                        "169": -0.16867530345916748,
                        "170": -0.05004101246595383,
                        "171": -0.175735741853714,
                        "172": -0.15883654356002808,
                        "173": 0.1329793632030487,
                        "174": 0.1306864470243454,
                        "175": 0.07413166761398315,
                        "176": 0.036255382001399994,
                        "177": 0.1404806226491928,
                        "178": 0.015020377933979034,
                        "179": 0.05492899939417839,
                        "180": -0.1401711255311966,
                        "181": 0.1711779534816742,
                        "182": -0.18860255181789398,
                        "183": -0.16515453159809113,
                        "184": 0.0024378334637731314,
                        "185": -0.09232663363218307,
                        "186": -0.018530141562223434,
                        "187": 0.12305320799350739,
                        "188": 0.11191828548908234,
                        "189": 0.17902271449565887,
                        "190": 0.11358048766851425,
                        "191": -0.0480087473988533,
                        "192": 0.09497898072004318,
                        "193": 0.01699460670351982,
                        "194": -0.18641069531440735,
                        "195": 0.18183746933937073,
                        "196": 0.12410520017147064,
                        "197": -0.05758320540189743,
                        "198": -0.12773606181144714,
                        "199": -0.0069978428073227406,
                        "200": -0.16310738027095795,
                        "201": 0.05892260745167732,
                        "202": 0.19590862095355988,
                        "203": 0.17951259016990662,
                        "204": 0.05140799283981323,
                        "205": -0.12024269253015518,
                        "206": 0.14435406029224396,
                        "207": -0.14706245064735413,
                        "208": -0.12617847323417664,
                        "209": 0.043939363211393356,
                        "210": 0.1470590978860855,
                        "211": 0.1695171743631363,
                        "212": 0.16365045309066772,
                        "213": 0.13918013870716095,
                        "214": 0.08081626147031784,
                        "215": -0.12878777086734772,
                        "216": 0.17053890228271484,
                        "217": -0.1840389519929886,
                        "218": 0.07259395718574524,
                        "219": -0.12510523200035095,
                        "220": 0.04391435161232948,
                        "221": 0.19858889281749725,
                        "222": -0.19976592063903809,
                        "223": 0.14885766804218292,
                        "224": -0.07541390508413315,
                        "225": 0.08230393379926682,
                        "226": -0.05938810110092163,
                        "227": 0.12040991336107254,
                        "228": 0.17844638228416443,
                        "229": 0.19459748268127441,
                        "230": -0.002807250479236245,
                        "231": 0.14118191599845886,
                        "232": 0.0032422079239040613,
                        "233": 0.17541751265525818,
                        "234": -0.06983967125415802,
                        "235": -0.19944915175437927,
                        "236": -0.18389326333999634,
                        "237": 0.1499127745628357,
                        "238": 0.12102978676557541,
                        "239": 0.05997748672962189,
                        "240": 0.08207978308200836,
                        "241": 0.05916381627321243,
                        "242": 0.1988167017698288,
                        "243": 0.15406638383865356,
                        "244": 0.12949737906455994,
                        "245": 0.19718897342681885,
                        "246": 0.01871180161833763,
                        "247": 0.10429740697145462,
                        "248": -0.15384066104888916,
                        "249": 0.09918564558029175,
                        "250": -0.17727650701999664,
                        "251": -0.037957292050123215,
                        "252": 0.11756256967782974,
                        "253": -0.1544414907693863,
                        "254": -0.17664118111133575,
                        "255": 0.16026021540164948
                    }
                },
                "6": {
                    "bias": 0.05982379615306854,
                    "weights": {
                        "0": 0.006654858123511076,
                        "1": 0.03209768608212471,
                        "2": -0.02366672456264496,
                        "3": 0.19837474822998047,
                        "4": 0.18727420270442963,
                        "5": 0.1622970998287201,
                        "6": -0.02277425304055214,
                        "7": -0.15394189953804016,
                        "8": -0.15688209235668182,
                        "9": 0.1080012172460556,
                        "10": 0.07394318282604218,
                        "11": -0.038299888372421265,
                        "12": -0.02720685303211212,
                        "13": -0.01921991817653179,
                        "14": -0.12395447492599487,
                        "15": 0.07047092169523239,
                        "16": 0.19077137112617493,
                        "17": -0.10600151866674423,
                        "18": -0.040068306028842926,
                        "19": 0.1436607539653778,
                        "20": -0.15125131607055664,
                        "21": 0.13422530889511108,
                        "22": 0.11457538604736328,
                        "23": -0.12358905375003815,
                        "24": -0.11590360850095749,
                        "25": -0.15881051123142242,
                        "26": -0.14544767141342163,
                        "27": -0.05920827016234398,
                        "28": -0.02828008495271206,
                        "29": 0.15024212002754211,
                        "30": 0.11439291387796402,
                        "31": -0.06865326315164566,
                        "32": 0.04455207288265228,
                        "33": -0.04855773597955704,
                        "34": -0.004685102496296167,
                        "35": -0.13404618203639984,
                        "36": -0.06576915085315704,
                        "37": -0.009020734578371048,
                        "38": -0.163493350148201,
                        "39": -0.1620832234621048,
                        "40": -0.05425025150179863,
                        "41": -0.026734132319688797,
                        "42": 0.03632422164082527,
                        "43": 0.08265412598848343,
                        "44": -0.09377288818359375,
                        "45": 0.1080121174454689,
                        "46": -0.07826393097639084,
                        "47": -0.013423939235508442,
                        "48": -0.01609952561557293,
                        "49": -0.026058118790388107,
                        "50": -0.19603393971920013,
                        "51": -0.07674678415060043,
                        "52": -0.20202195644378662,
                        "53": -0.12852051854133606,
                        "54": 0.09640694409608841,
                        "55": -0.05767476186156273,
                        "56": -0.07727927714586258,
                        "57": -0.12083090096712112,
                        "58": 0.03802217170596123,
                        "59": -0.04198100417852402,
                        "60": 0.17759057879447937,
                        "61": -0.18109506368637085,
                        "62": 0.01002537552267313,
                        "63": 0.095102459192276,
                        "64": 0.13547459244728088,
                        "65": 0.1101573035120964,
                        "66": -0.0168633870780468,
                        "67": 0.18288108706474304,
                        "68": -0.1319883167743683,
                        "69": -0.08745233714580536,
                        "70": -0.024302903562784195,
                        "71": 0.1414979100227356,
                        "72": 0.003542228601872921,
                        "73": 0.1657695770263672,
                        "74": -0.1347426027059555,
                        "75": -0.11784480512142181,
                        "76": 0.027804406359791756,
                        "77": 0.08573176711797714,
                        "78": 0.14346441626548767,
                        "79": -0.09113181382417679,
                        "80": -0.18910500407218933,
                        "81": 0.1622040569782257,
                        "82": -0.11833291500806808,
                        "83": 0.05115417018532753,
                        "84": 0.05787923187017441,
                        "85": 0.017667878419160843,
                        "86": -0.18846158683300018,
                        "87": 0.1084025651216507,
                        "88": -0.12013523280620575,
                        "89": -0.015411690808832645,
                        "90": 0.15134881436824799,
                        "91": 0.1850004345178604,
                        "92": 0.047924067825078964,
                        "93": -0.1029772162437439,
                        "94": -0.07575400173664093,
                        "95": -0.05221635475754738,
                        "96": 0.11306051164865494,
                        "97": -0.13109710812568665,
                        "98": 0.15449149906635284,
                        "99": -0.16575610637664795,
                        "100": 0.18603551387786865,
                        "101": -0.09807442873716354,
                        "102": -0.10483799874782562,
                        "103": 0.05641568452119827,
                        "104": -0.1542772352695465,
                        "105": -0.061722565442323685,
                        "106": 0.02176964096724987,
                        "107": 0.18791088461875916,
                        "108": -0.15078192949295044,
                        "109": 0.010309291072189808,
                        "110": -0.03500809147953987,
                        "111": -0.10473726689815521,
                        "112": -0.15366268157958984,
                        "113": -0.07992295920848846,
                        "114": 0.08986485749483109,
                        "115": -0.17808997631072998,
                        "116": 0.04378309100866318,
                        "117": 0.0667940005660057,
                        "118": -0.2007150799036026,
                        "119": 0.11502677202224731,
                        "120": 0.08248485624790192,
                        "121": 0.1432720571756363,
                        "122": -0.08856751769781113,
                        "123": -0.17818568646907806,
                        "124": -0.07046011835336685,
                        "125": 0.023636464029550552,
                        "126": -0.07196731120347977,
                        "127": 0.09415276348590851,
                        "128": 0.13133864104747772,
                        "129": -0.009515014477074146,
                        "130": -0.07823652029037476,
                        "131": -0.13475191593170166,
                        "132": -0.10626692324876785,
                        "133": 0.13672564923763275,
                        "134": 0.10824991017580032,
                        "135": -0.18010367453098297,
                        "136": 0.15615896880626678,
                        "137": 0.18885356187820435,
                        "138": -0.15992476046085358,
                        "139": 0.042029619216918945,
                        "140": -0.002984902122989297,
                        "141": 0.10913845151662827,
                        "142": 0.0872158333659172,
                        "143": 0.06126365438103676,
                        "144": -0.07878845930099487,
                        "145": -0.11890869587659836,
                        "146": -0.13053862750530243,
                        "147": -0.16205964982509613,
                        "148": 0.019716693088412285,
                        "149": -0.0334291011095047,
                        "150": 0.06358589977025986,
                        "151": 0.05854416638612747,
                        "152": 0.10200628638267517,
                        "153": -0.18740549683570862,
                        "154": -0.14334259927272797,
                        "155": 0.03752953186631203,
                        "156": 0.06906018406152725,
                        "157": -0.13088509440422058,
                        "158": 0.13589908182621002,
                        "159": 0.032959166914224625,
                        "160": 0.09147962927818298,
                        "161": 0.09412068873643875,
                        "162": -0.17923815548419952,
                        "163": 0.10952074825763702,
                        "164": 0.04497438669204712,
                        "165": 0.1023055836558342,
                        "166": 0.0845758393406868,
                        "167": -0.14400474727153778,
                        "168": -0.12565676867961884,
                        "169": 0.15799817442893982,
                        "170": -0.14073793590068817,
                        "171": 0.18623380362987518,
                        "172": 0.10156112164258957,
                        "173": 0.16612717509269714,
                        "174": 0.07380841672420502,
                        "175": -0.09760306030511856,
                        "176": -0.03994216397404671,
                        "177": 0.032107166945934296,
                        "178": 0.023027975112199783,
                        "179": 0.10652473568916321,
                        "180": -0.029116284102201462,
                        "181": 0.12093862891197205,
                        "182": 0.1496538668870926,
                        "183": 0.19583965837955475,
                        "184": -0.0521090030670166,
                        "185": 0.01742767170071602,
                        "186": -0.09659537672996521,
                        "187": -0.18513043224811554,
                        "188": -0.002226591343060136,
                        "189": 0.054233893752098083,
                        "190": 0.1579647958278656,
                        "191": -0.12876392900943756,
                        "192": 0.1925411969423294,
                        "193": 0.10330870002508163,
                        "194": 0.11530391871929169,
                        "195": -0.11516746133565903,
                        "196": -0.08928631246089935,
                        "197": 0.1142757385969162,
                        "198": 0.1668492555618286,
                        "199": 0.032648470252752304,
                        "200": 0.14935849606990814,
                        "201": -0.13568319380283356,
                        "202": 0.19767923653125763,
                        "203": -0.04227456822991371,
                        "204": 0.11589042842388153,
                        "205": -0.09055336564779282,
                        "206": -0.038942400366067886,
                        "207": 0.09905298054218292,
                        "208": -0.19002436101436615,
                        "209": 0.1688815951347351,
                        "210": 0.006939804181456566,
                        "211": 0.026156611740589142,
                        "212": 0.12117534130811691,
                        "213": -0.04106641933321953,
                        "214": 0.04069759324193001,
                        "215": -0.010794464498758316,
                        "216": 0.16250577569007874,
                        "217": 0.12080181390047073,
                        "218": -0.09696643054485321,
                        "219": -0.1095166727900505,
