{
    "info": {
        "ai": {
            "config": {
                "hiddenLayers": [
                    128,
                    128
                ],
                "activation": "sigmoid"
            },
            "training": {
                "iterations": 200,
                "errorThresh": 0.0001,
                "learningRate": 0.3,
                "momentum": 0.1
            }
        },
        "id": "9c1f3fb5525ff8a354ad55cd55cfa96e",
        "dimension": [
            16,
            16
        ],
        "channel": "red",
        "colorspace": "b-w",
        "blackWhite": true
    },
    "data": {
        "sizes": [
            256,
            128,
            128,
            10
        ],
        "layers": [
            {
                "0": {},
                "1": {},
                "2": {},
                "3": {},
                "4": {},
                "5": {},
                "6": {},
                "7": {},
                "8": {},
                "9": {},
                "10": {},
                "11": {},
                "12": {},
                "13": {},
                "14": {},
                "15": {},
                "16": {},
                "17": {},
                "18": {},
                "19": {},
                "20": {},
                "21": {},
                "22": {},
                "23": {},
                "24": {},
                "25": {},
                "26": {},
                "27": {},
                "28": {},
                "29": {},
                "30": {},
                "31": {},
                "32": {},
                "33": {},
                "34": {},
                "35": {},
                "36": {},
                "37": {},
                "38": {},
                "39": {},
                "40": {},
                "41": {},
                "42": {},
                "43": {},
                "44": {},
                "45": {},
                "46": {},
                "47": {},
                "48": {},
                "49": {},
                "50": {},
                "51": {},
                "52": {},
                "53": {},
                "54": {},
                "55": {},
                "56": {},
                "57": {},
                "58": {},
                "59": {},
                "60": {},
                "61": {},
                "62": {},
                "63": {},
                "64": {},
                "65": {},
                "66": {},
                "67": {},
                "68": {},
                "69": {},
                "70": {},
                "71": {},
                "72": {},
                "73": {},
                "74": {},
                "75": {},
                "76": {},
                "77": {},
                "78": {},
                "79": {},
                "80": {},
                "81": {},
                "82": {},
                "83": {},
                "84": {},
                "85": {},
                "86": {},
                "87": {},
                "88": {},
                "89": {},
                "90": {},
                "91": {},
                "92": {},
                "93": {},
                "94": {},
                "95": {},
                "96": {},
                "97": {},
                "98": {},
                "99": {},
                "100": {},
                "101": {},
                "102": {},
                "103": {},
                "104": {},
                "105": {},
                "106": {},
                "107": {},
                "108": {},
                "109": {},
                "110": {},
                "111": {},
                "112": {},
                "113": {},
                "114": {},
                "115": {},
                "116": {},
                "117": {},
                "118": {},
                "119": {},
                "120": {},
                "121": {},
                "122": {},
                "123": {},
                "124": {},
                "125": {},
                "126": {},
                "127": {},
                "128": {},
                "129": {},
                "130": {},
                "131": {},
                "132": {},
                "133": {},
                "134": {},
                "135": {},
                "136": {},
                "137": {},
                "138": {},
                "139": {},
                "140": {},
                "141": {},
                "142": {},
                "143": {},
                "144": {},
                "145": {},
                "146": {},
                "147": {},
                "148": {},
                "149": {},
                "150": {},
                "151": {},
                "152": {},
                "153": {},
                "154": {},
                "155": {},
                "156": {},
                "157": {},
                "158": {},
                "159": {},
                "160": {},
                "161": {},
                "162": {},
                "163": {},
                "164": {},
                "165": {},
                "166": {},
                "167": {},
                "168": {},
                "169": {},
                "170": {},
                "171": {},
                "172": {},
                "173": {},
                "174": {},
                "175": {},
                "176": {},
                "177": {},
                "178": {},
                "179": {},
                "180": {},
                "181": {},
                "182": {},
                "183": {},
                "184": {},
                "185": {},
                "186": {},
                "187": {},
                "188": {},
                "189": {},
                "190": {},
                "191": {},
                "192": {},
                "193": {},
                "194": {},
                "195": {},
                "196": {},
                "197": {},
                "198": {},
                "199": {},
                "200": {},
                "201": {},
                "202": {},
                "203": {},
                "204": {},
                "205": {},
                "206": {},
                "207": {},
                "208": {},
                "209": {},
                "210": {},
                "211": {},
                "212": {},
                "213": {},
                "214": {},
                "215": {},
                "216": {},
                "217": {},
                "218": {},
                "219": {},
                "220": {},
                "221": {},
                "222": {},
                "223": {},
                "224": {},
                "225": {},
                "226": {},
                "227": {},
                "228": {},
                "229": {},
                "230": {},
                "231": {},
                "232": {},
                "233": {},
                "234": {},
                "235": {},
                "236": {},
                "237": {},
                "238": {},
                "239": {},
                "240": {},
                "241": {},
                "242": {},
                "243": {},
                "244": {},
                "245": {},
                "246": {},
                "247": {},
                "248": {},
                "249": {},
                "250": {},
                "251": {},
                "252": {},
                "253": {},
                "254": {},
                "255": {}
            },
            {
                "0": {
                    "bias": 0.12357936799526215,
                    "weights": {
                        "0": -0.15171150863170624,
                        "1": -0.010781805031001568,
                        "2": -0.1580829918384552,
                        "3": -0.13173286616802216,
                        "4": -0.1866808980703354,
                        "5": 0.06657500565052032,
                        "6": 0.07618119567632675,
                        "7": 0.0847986713051796,
                        "8": -0.12254741042852402,
                        "9": -0.023632198572158813,
                        "10": -0.06313854455947876,
                        "11": 0.010540547780692577,
                        "12": 0.09374436736106873,
                        "13": 0.1003677174448967,
                        "14": -0.1339457631111145,
                        "15": 0.07637906074523926,
                        "16": 0.1100129783153534,
                        "17": -0.04208455607295036,
                        "18": -0.16599561274051666,
                        "19": 0.05300750583410263,
                        "20": 0.02243693731725216,
                        "21": 0.02274852804839611,
                        "22": 0.0202830471098423,
                        "23": -0.2506907880306244,
                        "24": -0.10174468904733658,
                        "25": -0.003763208631426096,
                        "26": 0.08504868298768997,
                        "27": 0.03155872970819473,
                        "28": 0.15087413787841797,
                        "29": -0.05719627067446709,
                        "30": 0.13891425728797913,
                        "31": -0.04006817191839218,
                        "32": 0.05131237581372261,
                        "33": 0.02695225551724434,
                        "34": -0.10492492467164993,
                        "35": 0.04949929937720299,
                        "36": 0.14864423871040344,
                        "37": 0.10605774074792862,
                        "38": -0.004158748779445887,
                        "39": -0.06095072627067566,
                        "40": -0.008762934245169163,
                        "41": 0.07726768404245377,
                        "42": -0.07046052813529968,
                        "43": -0.02655213698744774,
                        "44": 0.19044794142246246,
                        "45": 0.2111760824918747,
                        "46": 0.23752637207508087,
                        "47": 0.14764980971813202,
                        "48": 0.16778570413589478,
                        "49": -0.2544138431549072,
                        "50": -0.19510170817375183,
                        "51": 0.03223731741309166,
                        "52": 0.022510241717100143,
                        "53": -0.0390147902071476,
                        "54": -0.03398123010993004,
                        "55": 0.13898175954818726,
                        "56": 0.16894303262233734,
                        "57": -0.19057688117027283,
                        "58": -0.07478774338960648,
                        "59": 0.07852879166603088,
                        "60": 0.2015591710805893,
                        "61": 0.010238585993647575,
                        "62": -0.05233197286725044,
                        "63": -0.170501708984375,
                        "64": -0.19625279307365417,
                        "65": -0.1373332440853119,
                        "66": -0.07464619725942612,
                        "67": -0.2100919634103775,
                        "68": -0.02710813097655773,
                        "69": -0.11001899093389511,
                        "70": 0.10790561884641647,
                        "71": -0.1351020634174347,
                        "72": 0.20313005149364471,
                        "73": 0.10789833217859268,
                        "74": 0.11307338625192642,
                        "75": 0.19382935762405396,
                        "76": -0.1032647043466568,
                        "77": 0.11870326846837997,
                        "78": 0.22057071328163147,
                        "79": 0.010592426173388958,
                        "80": 0.07835210114717484,
                        "81": 0.2429475039243698,
                        "82": 0.08631458878517151,
                        "83": -0.032039180397987366,
                        "84": -0.08194456249475479,
                        "85": -0.18692204356193542,
                        "86": -0.10336683690547943,
                        "87": 0.11274920403957367,
                        "88": -0.04010143503546715,
                        "89": -0.04545535519719124,
                        "90": 0.012062450870871544,
                        "91": 0.14054779708385468,
                        "92": 0.2268049120903015,
                        "93": 0.045233581215143204,
                        "94": -0.06670443713665009,
                        "95": -0.1541491150856018,
                        "96": 0.08611395955085754,
                        "97": -0.08027488738298416,
                        "98": -0.012799459509551525,
                        "99": -0.03587184101343155,
                        "100": -0.07808753103017807,
                        "101": 0.3169826865196228,
                        "102": -0.10614244639873505,
                        "103": 0.1877588927745819,
                        "104": 0.20405296981334686,
                        "105": -0.06586609780788422,
                        "106": -0.12965461611747742,
                        "107": 0.21903608739376068,
                        "108": -0.1136360615491867,
                        "109": 0.018770437687635422,
                        "110": 0.055796023458242416,
                        "111": 0.053285665810108185,
                        "112": -0.20564456284046173,
                        "113": -0.15117132663726807,
                        "114": -0.15816916525363922,
                        "115": -0.017654089257121086,
                        "116": 0.12239298969507217,
                        "117": -0.03268583491444588,
                        "118": 0.3160620629787445,
                        "119": -0.02047460898756981,
                        "120": 0.2816675901412964,
                        "121": 0.33600032329559326,
                        "122": 0.29411008954048157,
                        "123": 0.036869343370199203,
                        "124": 0.16512323915958405,
                        "125": -0.01834719069302082,
                        "126": -0.09762944281101227,
                        "127": 0.13696841895580292,
                        "128": -0.0520542748272419,
                        "129": 0.23359429836273193,
                        "130": 0.017093859612941742,
                        "131": 0.20351770520210266,
                        "132": 0.0972406342625618,
                        "133": 0.22073249518871307,
                        "134": 0.21532407402992249,
                        "135": -0.04200974479317665,
                        "136": 0.21590080857276917,
                        "137": 0.019247639924287796,
                        "138": 0.016073288396000862,
                        "139": 0.29037317633628845,
                        "140": 0.09825728088617325,
                        "141": -0.08667100965976715,
                        "142": -0.03761982172727585,
                        "143": -0.6149775981903076,
                        "144": 0.02099854312837124,
                        "145": 0.11683447659015656,
                        "146": 0.12437654286623001,
                        "147": -0.21581801772117615,
                        "148": -0.17935138940811157,
                        "149": 0.1099572703242302,
                        "150": -0.008183126337826252,
                        "151": 0.04802323877811432,
                        "152": 0.0010847923113033175,
                        "153": 0.1270695924758911,
                        "154": 0.05039193481206894,
                        "155": -0.03590727224946022,
                        "156": -0.017972849309444427,
                        "157": 0.023333171382546425,
                        "158": -0.18714690208435059,
                        "159": -0.18348567187786102,
                        "160": -0.05194928124547005,
                        "161": -0.006353990640491247,
                        "162": -0.0977557897567749,
                        "163": -0.14428706467151642,
                        "164": -0.06628132611513138,
                        "165": -0.04556400701403618,
                        "166": -0.027550918981432915,
                        "167": 0.019538432359695435,
                        "168": -0.11910142749547958,
                        "169": -0.05334678664803505,
                        "170": -0.0005288886604830623,
                        "171": 0.06144130975008011,
                        "172": 0.0649452731013298,
                        "173": 0.014026016928255558,
                        "174": 0.020955607295036316,
                        "175": -0.018889667466282845,
                        "176": -0.2761651575565338,
                        "177": 0.14472469687461853,
                        "178": 0.23822838068008423,
                        "179": -0.008042293600738049,
                        "180": 0.09532974660396576,
                        "181": -0.0242704339325428,
                        "182": -0.12178223580121994,
                        "183": 0.1111408919095993,
                        "184": -0.046757858246564865,
                        "185": -0.1853988617658615,
                        "186": 0.10068105161190033,
                        "187": 0.17579643428325653,
                        "188": -0.17025303840637207,
                        "189": 0.023116346448659897,
                        "190": -0.05543896555900574,
                        "191": -0.23509734869003296,
                        "192": -0.08418698608875275,
                        "193": -0.03331921622157097,
                        "194": 0.07863453030586243,
                        "195": 0.1336345225572586,
                        "196": 0.5131475329399109,
                        "197": 0.013387908227741718,
                        "198": -0.00850606057792902,
                        "199": 0.16776452958583832,
                        "200": 0.08632797747850418,
                        "201": -0.17654848098754883,
                        "202": -0.015573614276945591,
                        "203": -0.011525439098477364,
                        "204": 0.05851549282670021,
                        "205": -0.09091013669967651,
                        "206": -0.24292275309562683,
                        "207": 0.08862274885177612,
                        "208": -0.06911730766296387,
                        "209": 0.07186954468488693,
                        "210": -0.14818809926509857,
                        "211": -0.04916622117161751,
                        "212": -0.13384905457496643,
                        "213": -0.09945068508386612,
                        "214": 0.210408017039299,
                        "215": -0.12804248929023743,
                        "216": 0.18194147944450378,
                        "217": 0.04134253412485123,
                        "218": -0.09521537274122238,
                        "219": -0.1723189502954483,
                        "220": 0.05030832812190056,
                        "221": 0.12991583347320557,
                        "222": -0.053020842373371124,
                        "223": 0.027344096451997757,
                        "224": 0.025229958817362785,
                        "225": 0.0944841206073761,
                        "226": -0.1649736762046814,
                        "227": -0.09956206381320953,
                        "228": -0.04748043417930603,
                        "229": -0.03558846935629845,
                        "230": -0.05321246758103371,
                        "231": -0.20852600038051605,
                        "232": 0.1299814134836197,
                        "233": 0.1288299262523651,
                        "234": -0.13348761200904846,
                        "235": 0.1209111213684082,
                        "236": -0.05464873090386391,
                        "237": 0.16586604714393616,
                        "238": -0.06042224168777466,
                        "239": -0.13003003597259521,
                        "240": 0.0015913224779069424,
                        "241": -0.08515135198831558,
                        "242": 0.149477019906044,
                        "243": -0.052605412900447845,
                        "244": 0.02859644964337349,
                        "245": 0.06910447776317596,
                        "246": 0.01802578568458557,
                        "247": -0.1580527424812317,
                        "248": -0.17464321851730347,
                        "249": -0.18119509518146515,
                        "250": 0.06308154761791229,
                        "251": 0.06289296597242355,
                        "252": -0.13064220547676086,
                        "253": 0.0029147465247660875,
                        "254": -0.042603153735399246,
                        "255": -0.09711748361587524
                    }
                },
                "1": {
                    "bias": 0.12760157883167267,
                    "weights": {
                        "0": -0.12120260298252106,
                        "1": -0.06770133972167969,
                        "2": 0.11548590660095215,
                        "3": 0.024485750123858452,
                        "4": -0.21159254014492035,
                        "5": -0.12004213035106659,
                        "6": -0.2721969485282898,
                        "7": -0.05599624291062355,
                        "8": -0.11205563694238663,
                        "9": -0.30260205268859863,
                        "10": -0.21690991520881653,
                        "11": 0.009090173989534378,
                        "12": -0.08044274896383286,
                        "13": -0.1714632213115692,
                        "14": -0.14602838456630707,
                        "15": 0.25385940074920654,
                        "16": 0.12443078309297562,
                        "17": -0.20805718004703522,
                        "18": 0.13973939418792725,
                        "19": -0.010532637126743793,
                        "20": -0.1574907749891281,
                        "21": -0.19667887687683105,
                        "22": 0.019234273582696915,
                        "23": -0.20476679503917694,
                        "24": -0.08007045835256577,
                        "25": -0.1635970026254654,
                        "26": 0.11817227303981781,
                        "27": 0.0398741215467453,
                        "28": 0.16605497896671295,
                        "29": -0.00724923238158226,
                        "30": 0.14808854460716248,
                        "31": -0.16516150534152985,
                        "32": -0.0835520401597023,
                        "33": 0.1498309075832367,
                        "34": 0.04962960630655289,
                        "35": -0.02110128290951252,
                        "36": -0.02953375317156315,
                        "37": -0.06514612585306168,
                        "38": -0.10830917209386826,
                        "39": -0.06741657108068466,
                        "40": -0.01081795059144497,
                        "41": 0.17686398327350616,
                        "42": -0.10092802345752716,
                        "43": 0.05334126204252243,
                        "44": 0.07354547828435898,
                        "45": 0.16996073722839355,
                        "46": 0.04185444116592407,
                        "47": 0.0891467034816742,
                        "48": 0.17352162301540375,
                        "49": 0.024070624262094498,
                        "50": 0.21492373943328857,
                        "51": 0.17434826493263245,
                        "52": 0.16458475589752197,
                        "53": -0.028025012463331223,
                        "54": 0.1847139149904251,
                        "55": -0.16087216138839722,
                        "56": 0.16108831763267517,
                        "57": -0.013850998133420944,
                        "58": 0.06734293699264526,
                        "59": 0.13989637792110443,
                        "60": -0.0869344025850296,
                        "61": -0.14467139542102814,
                        "62": 0.08663110435009003,
                        "63": -0.06427188217639923,
                        "64": -0.13156697154045105,
                        "65": 0.1342272311449051,
                        "66": -0.051229607313871384,
                        "67": -0.003275172086432576,
                        "68": 0.23421457409858704,
                        "69": 0.20800229907035828,
                        "70": -0.05433407425880432,
                        "71": 0.03907519951462746,
                        "72": 0.11898420006036758,
                        "73": -0.022655857726931572,
                        "74": 0.19900736212730408,
                        "75": -0.0919284075498581,
                        "76": 0.009840953163802624,
                        "77": -0.15023192763328552,
                        "78": 0.06460749357938766,
                        "79": 0.0628579705953598,
                        "80": 0.0438944511115551,
                        "81": -0.18173745274543762,
                        "82": -0.06685502082109451,
                        "83": -0.12845630943775177,
                        "84": 0.11067324131727219,
                        "85": -0.1346568912267685,
                        "86": 0.05032653734087944,
                        "87": -0.14442338049411774,
                        "88": 0.012867708690464497,
                        "89": 0.047674767673015594,
                        "90": 0.11448591202497482,
                        "91": 0.1004970595240593,
                        "92": -0.1945924609899521,
                        "93": -0.18813715875148773,
                        "94": 0.11033501476049423,
                        "95": -0.04317867383360863,
                        "96": -0.0783599466085434,
                        "97": -0.16289302706718445,
                        "98": 0.0661453828215599,
                        "99": -0.07129956036806107,
                        "100": -0.014214021153748035,
                        "101": 0.07924706488847733,
                        "102": 0.1492563784122467,
                        "103": -0.11232545971870422,
                        "104": 0.16292820870876312,
                        "105": -0.15773224830627441,
                        "106": -0.1426384150981903,
                        "107": -0.03689155355095863,
                        "108": -0.0916471928358078,
                        "109": -0.21986010670661926,
                        "110": 0.11269558221101761,
                        "111": -0.10237015783786774,
                        "112": 0.07168158888816833,
                        "113": -0.05063217505812645,
                        "114": -0.11873915791511536,
                        "115": 0.162136971950531,
                        "116": 0.16246908903121948,
                        "117": 0.10851412266492844,
                        "118": 0.1678672730922699,
                        "119": 0.14968852698802948,
                        "120": 0.19370026886463165,
                        "121": 0.022848280146718025,
                        "122": 0.10699791461229324,
                        "123": 0.0867885947227478,
                        "124": 0.08884003758430481,
                        "125": -0.016169387847185135,
                        "126": 0.008803136646747589,
                        "127": -0.09647422283887863,
                        "128": -0.14807216823101044,
                        "129": -0.00712942099198699,
                        "130": -0.028338082134723663,
                        "131": -0.24599049985408783,
                        "132": 0.07159240543842316,
                        "133": 0.160767063498497,
                        "134": 0.033751457929611206,
                        "135": 0.008045997470617294,
                        "136": -0.16449610888957977,
                        "137": 0.050138961523771286,
                        "138": 0.0703994631767273,
                        "139": 0.11969015002250671,
                        "140": 0.05765509977936745,
                        "141": 0.01067159790545702,
                        "142": 0.11739113926887512,
                        "143": 0.1780942678451538,
                        "144": -0.17970922589302063,
                        "145": -0.17982007563114166,
                        "146": -0.22164510190486908,
                        "147": -0.0376330129802227,
                        "148": 0.10376289486885071,
                        "149": -0.17764513194561005,
                        "150": 0.21093593537807465,
                        "151": -0.10362400859594345,
                        "152": -0.04941423982381821,
                        "153": -0.1239280253648758,
                        "154": 0.18067701160907745,
                        "155": -0.12445636093616486,
                        "156": 0.08282918483018875,
                        "157": -0.18497751653194427,
                        "158": -0.2020915299654007,
                        "159": -0.1796140819787979,
                        "160": 0.13339734077453613,
                        "161": -0.19684617221355438,
                        "162": 0.04926853999495506,
                        "163": -0.0408363938331604,
                        "164": 0.004370253533124924,
                        "165": 0.1075955405831337,
                        "166": 0.17473585903644562,
                        "167": 0.1570616364479065,
                        "168": -0.11964331567287445,
                        "169": 0.049417633563280106,
                        "170": -0.07137823849916458,
                        "171": 0.12697726488113403,
                        "172": 0.16587334871292114,
                        "173": 0.16766676306724548,
                        "174": -0.1482398360967636,
                        "175": -0.026301899924874306,
                        "176": -0.204862579703331,
                        "177": -0.24640774726867676,
                        "178": -0.06388268619775772,
                        "179": 0.014002734795212746,
                        "180": -0.06749438494443893,
                        "181": 0.10274408757686615,
                        "182": -0.14245232939720154,
                        "183": 0.023500502109527588,
                        "184": 0.09265667200088501,
                        "185": 0.08597645908594131,
                        "186": 0.12773649394512177,
                        "187": -0.11989214271306992,
                        "188": -0.22137366235256195,
                        "189": -0.08785626292228699,
                        "190": 0.015566453337669373,
                        "191": 0.0713953748345375,
                        "192": 0.1441350132226944,
                        "193": -0.18638873100280762,
                        "194": 0.1528308093547821,
                        "195": 0.20883965492248535,
                        "196": 0.025904733687639236,
                        "197": -0.041490908712148666,
                        "198": -0.046108443289995193,
                        "199": 0.15054482221603394,
                        "200": -0.03151198476552963,
                        "201": -0.08418447524309158,
                        "202": -0.03838267922401428,
                        "203": 0.06837787479162216,
                        "204": 0.021796975284814835,
                        "205": 0.08770383149385452,
                        "206": 0.12415366619825363,
                        "207": -0.0032766605727374554,
                        "208": 0.16740846633911133,
                        "209": -0.14848628640174866,
                        "210": -0.1690124273300171,
                        "211": -0.15869896113872528,
                        "212": 0.14975279569625854,
                        "213": 0.163500115275383,
                        "214": -0.0683038979768753,
                        "215": 0.1047828271985054,
                        "216": -0.021988898515701294,
                        "217": 0.1565275937318802,
                        "218": -0.1280267983675003,
                        "219": 0.13299712538719177,
                        "220": 0.046943873167037964,
                        "221": 0.07431238889694214,
                        "222": -0.10176121443510056,
                        "223": 0.13117581605911255,
                        "224": 0.026468651369214058,
                        "225": 0.049805182963609695,
                        "226": 0.0025715141091495752,
                        "227": 0.05381341278553009,
                        "228": -0.09514816850423813,
                        "229": 0.07470089942216873,
                        "230": -0.006834178697317839,
                        "231": 0.012881962582468987,
                        "232": 0.10162466764450073,
                        "233": -0.19482988119125366,
                        "234": -0.08833535015583038,
                        "235": -0.1573655605316162,
                        "236": -0.05030938610434532,
                        "237": -0.010979758575558662,
                        "238": -0.18144074082374573,
                        "239": -0.20670635998249054,
                        "240": -0.14434000849723816,
                        "241": 0.031220147386193275,
                        "242": -0.17326736450195312,
                        "243": -0.232772096991539,
                        "244": -0.11929404735565186,
                        "245": 0.07320211827754974,
                        "246": 0.06148475036025047,
                        "247": 0.004580705426633358,
                        "248": 0.0693148672580719,
                        "249": -0.20915430784225464,
                        "250": 0.05185336247086525,
                        "251": 0.16936103999614716,
                        "252": 0.17349129915237427,
                        "253": 0.03865896165370941,
                        "254": 0.1238638311624527,
                        "255": 0.03077356331050396
                    }
                },
                "2": {
                    "bias": -0.02153484895825386,
                    "weights": {
                        "0": 0.14294956624507904,
                        "1": -0.07244764268398285,
                        "2": 0.16184428334236145,
                        "3": 0.0977100357413292,
                        "4": 0.07036206871271133,
                        "5": 0.02224947139620781,
                        "6": -0.19251267611980438,
                        "7": 0.018633076921105385,
                        "8": -0.07633637636899948,
                        "9": -0.19073060154914856,
                        "10": 0.07856833934783936,
                        "11": 0.05780838057398796,
                        "12": 0.12978196144104004,
                        "13": 0.14395883679389954,
                        "14": -0.03971102088689804,
                        "15": -0.13841049373149872,
                        "16": -0.0842517614364624,
                        "17": -0.11500249058008194,
                        "18": 0.0825062170624733,
                        "19": 0.04007119685411453,
                        "20": -0.05307154729962349,
                        "21": -0.23495712876319885,
                        "22": -0.060536373406648636,
                        "23": -0.23232361674308777,
                        "24": -0.048790641129016876,
                        "25": -0.1636878252029419,
                        "26": -0.1416928917169571,
                        "27": 0.1253761202096939,
                        "28": 0.007054424844682217,
                        "29": -0.09226327389478683,
                        "30": 0.0007941813673824072,
                        "31": -0.0978175699710846,
                        "32": -0.03663584589958191,
                        "33": 0.05112140253186226,
                        "34": 0.017273547127842903,
                        "35": -0.11962904036045074,
                        "36": -0.02925584279000759,
                        "37": 0.16598859429359436,
                        "38": -0.15726317465305328,
                        "39": -0.13160346448421478,
                        "40": -0.11899852007627487,
                        "41": -0.11768593639135361,
                        "42": 0.10544627904891968,
                        "43": 0.006636797450482845,
                        "44": -0.1229199767112732,
                        "45": -0.003751783398911357,
                        "46": -0.12386037409305573,
                        "47": 0.07768870890140533,
                        "48": 0.03290398418903351,
                        "49": -0.1541372537612915,
                        "50": 0.13987773656845093,
                        "51": 0.09448321908712387,
                        "52": -0.05592553690075874,
                        "53": -0.10447589308023453,
                        "54": -0.1257433295249939,
                        "55": 0.01990436390042305,
                        "56": -0.10432961583137512,
                        "57": -0.011256273835897446,
                        "58": 0.008299710229039192,
                        "59": -0.18494144082069397,
                        "60": 0.17627771198749542,
                        "61": -0.06027885898947716,
                        "62": -0.004570943769067526,
                        "63": 0.036099694669246674,
                        "64": -0.12209094315767288,
                        "65": 0.01634470373392105,
                        "66": 0.004292216617614031,
                        "67": 0.024607669562101364,
                        "68": -0.13804614543914795,
                        "69": 0.10553105920553207,
                        "70": 0.21551010012626648,
                        "71": 0.04647031053900719,
                        "72": 0.1423773318529129,
                        "73": 0.18564482033252716,
                        "74": 0.11347474902868271,
                        "75": 0.037249498069286346,
                        "76": 0.07767195999622345,
                        "77": -0.19616998732089996,
                        "78": -0.08441082388162613,
                        "79": 0.10782768577337265,
                        "80": 0.01149442233145237,
                        "81": -0.13628345727920532,
                        "82": -0.08330903202295303,
                        "83": -0.03219669684767723,
                        "84": 0.08373171091079712,
                        "85": 0.14503972232341766,
                        "86": 0.040308114141225815,
                        "87": -0.042752452194690704,
                        "88": -0.14646896719932556,
                        "89": -0.11022017896175385,
                        "90": -0.004668052773922682,
                        "91": -0.11674515157938004,
                        "92": 0.03789786249399185,
                        "93": 0.18209296464920044,
                        "94": 0.1495429277420044,
                        "95": -0.08762353658676147,
                        "96": -0.07872120290994644,
                        "97": 0.10625147074460983,
                        "98": -0.21547003090381622,
                        "99": -0.19528459012508392,
                        "100": 0.18680261075496674,
                        "101": -0.03349827975034714,
                        "102": -0.1453583538532257,
                        "103": 0.12286347150802612,
                        "104": 0.09842433780431747,
                        "105": -0.025691380724310875,
                        "106": 0.13383787870407104,
                        "107": -0.027608763426542282,
                        "108": -0.04012826457619667,
                        "109": -0.051476649940013885,
                        "110": 0.09007997065782547,
                        "111": -0.17764249444007874,
                        "112": 0.014690718613564968,
                        "113": 0.05662146955728531,
                        "114": -0.16945315897464752,
                        "115": -0.05728580057621002,
                        "116": -0.020856205374002457,
                        "117": 0.09093981981277466,
                        "118": 0.12579399347305298,
                        "119": 0.012952789664268494,
                        "120": -0.09710103273391724,
                        "121": -0.08507658541202545,
                        "122": 0.13070930540561676,
                        "123": 0.13308459520339966,
                        "124": 0.15898297727108002,
                        "125": 0.08939997851848602,
                        "126": -0.13303668797016144,
                        "127": -0.1392032355070114,
                        "128": -0.1746762990951538,
                        "129": 0.16159316897392273,
                        "130": -0.09607012569904327,
                        "131": 0.13770094513893127,
                        "132": -0.18505501747131348,
                        "133": -0.18547990918159485,
                        "134": -0.00008992500079330057,
                        "135": -0.08001764118671417,
                        "136": -0.11659795790910721,
                        "137": 0.05765919387340546,
                        "138": 0.11756075918674469,
                        "139": 0.09780637919902802,
                        "140": -0.09650678187608719,
                        "141": 0.10987795889377594,
                        "142": 0.11478479206562042,
                        "143": 0.16269223392009735,
                        "144": 0.13474178314208984,
                        "145": -0.057171955704689026,
                        "146": 0.20136424899101257,
                        "147": -0.18978850543498993,
                        "148": 0.20121784508228302,
                        "149": -0.1489313244819641,
                        "150": -0.06514428555965424,
                        "151": 0.09500904381275177,
                        "152": -0.031736139208078384,
                        "153": 0.14377139508724213,
                        "154": -0.23154999315738678,
                        "155": -0.017314447090029716,
                        "156": 0.06118476763367653,
                        "157": 0.0695786103606224,
                        "158": -0.11155686527490616,
                        "159": 0.1444816291332245,
                        "160": 0.15088365972042084,
                        "161": -0.06744618713855743,
                        "162": 0.00817020796239376,
                        "163": 0.12675841152668,
                        "164": -0.08770563453435898,
                        "165": 0.08753960579633713,
                        "166": 0.0875747874379158,
                        "167": 0.13395839929580688,
                        "168": 0.08948452770709991,
                        "169": 0.06748694181442261,
                        "170": -0.21204128861427307,
                        "171": -0.19157104194164276,
                        "172": -0.24977949261665344,
                        "173": -0.14872653782367706,
                        "174": 0.11136900633573532,
                        "175": 0.005814355798065662,
                        "176": -0.1114785224199295,
                        "177": 0.23934024572372437,
                        "178": 0.03414484113454819,
                        "179": -0.09349007904529572,
                        "180": 0.06489023566246033,
                        "181": -0.12771964073181152,
                        "182": -0.013662767596542835,
                        "183": -0.08101226389408112,
                        "184": -0.11906268447637558,
                        "185": -0.036266762763261795,
                        "186": -0.1742161214351654,
                        "187": 0.06160641834139824,
                        "188": -0.08725962787866592,
                        "189": -0.058794450014829636,
                        "190": 0.09130451083183289,
                        "191": -0.07943279296159744,
                        "192": -0.12963256239891052,
                        "193": 0.2275848686695099,
                        "194": 0.24739012122154236,
                        "195": 0.043773964047431946,
                        "196": -0.15138612687587738,
                        "197": 0.14395789802074432,
                        "198": 0.005090039223432541,
                        "199": 0.08751556277275085,
                        "200": -0.019792746752500534,
                        "201": 0.12653738260269165,
                        "202": -0.04681025817990303,
                        "203": -0.19382615387439728,
                        "204": -0.21897979080677032,
                        "205": 0.030790288001298904,
                        "206": -0.0028197632636874914,
                        "207": 0.10711674392223358,
                        "208": -0.04034408554434776,
                        "209": 0.1699410080909729,
                        "210": 0.048557404428720474,
                        "211": -0.05612659826874733,
                        "212": 0.114473856985569,
                        "213": 0.09633047878742218,
                        "214": -0.04182025045156479,
                        "215": 0.1533990055322647,
                        "216": -0.04055793955922127,
                        "217": -0.13988128304481506,
                        "218": -0.19358128309249878,
                        "219": 0.048403702676296234,
                        "220": -0.19256050884723663,
                        "221": 0.11941006034612656,
                        "222": -0.17134930193424225,
                        "223": 0.058329250663518906,
                        "224": 0.013330677524209023,
                        "225": 0.18114157021045685,
                        "226": -0.050430040806531906,
                        "227": -0.1704489141702652,
                        "228": -0.18287919461727142,
                        "229": -0.12958203256130219,
                        "230": 0.032336458563804626,
                        "231": 0.06444557011127472,
                        "232": 0.04085922613739967,
                        "233": 0.11535026878118515,
                        "234": 0.0827564224600792,
                        "235": 0.043098483234643936,
                        "236": -0.1565956026315689,
                        "237": -0.1287798136472702,
                        "238": 0.0694829449057579,
                        "239": 0.08948590606451035,
                        "240": -0.0958123430609703,
                        "241": 0.02251635678112507,
                        "242": -0.12885816395282745,
                        "243": -0.1803617924451828,
                        "244": 0.06319468468427658,
                        "245": 0.10045900195837021,
                        "246": 0.005381615366786718,
                        "247": -0.19231131672859192,
                        "248": 0.04835473373532295,
                        "249": -0.12079466879367828,
                        "250": 0.11157779395580292,
                        "251": 0.1038629412651062,
                        "252": 0.1505270153284073,
                        "253": -0.18095658719539642,
                        "254": -0.11738105118274689,
                        "255": 0.017806652933359146
                    }
                },
                "3": {
                    "bias": 0.11001842468976974,
                    "weights": {
                        "0": -0.03456499055027962,
                        "1": -0.007952497340738773,
                        "2": -0.030796943232417107,
                        "3": -0.108911894261837,
                        "4": -0.1000179871916771,
                        "5": -0.07567236572504044,
                        "6": -0.06899547576904297,
                        "7": 0.16206848621368408,
                        "8": 0.033130135387182236,
                        "9": -0.07588812708854675,
                        "10": 0.01258210651576519,
                        "11": 0.13816000521183014,
                        "12": -0.07486677914857864,
                        "13": 0.061899952590465546,
                        "14": -0.0026048796717077494,
                        "15": 0.15605846047401428,
                        "16": 0.08246876299381256,
                        "17": -0.026220204308629036,
                        "18": 0.04434899613261223,
                        "19": -0.2715238630771637,
                        "20": -0.20829127728939056,
                        "21": 0.11872845888137817,
                        "22": -0.15496647357940674,
                        "23": -0.15705204010009766,
                        "24": 0.1976272463798523,
                        "25": 0.10113351047039032,
                        "26": -0.018147796392440796,
                        "27": 0.06901869177818298,
                        "28": 0.20318572223186493,
                        "29": 0.13450734317302704,
                        "30": 0.1371413618326187,
                        "31": -0.13465844094753265,
                        "32": 0.05314638093113899,
                        "33": 0.030541930347681046,
                        "34": -0.05144229158759117,
                        "35": -0.11162738502025604,
                        "36": -0.06803425401449203,
                        "37": 0.09813650697469711,
                        "38": -0.11319559812545776,
                        "39": -0.2056087851524353,
                        "40": 0.10775221884250641,
                        "41": 0.1486675888299942,
                        "42": 0.2085304707288742,
                        "43": 0.0028875896241515875,
                        "44": -0.09376958757638931,
                        "45": 0.08631538599729538,
                        "46": -0.12388227880001068,
                        "47": -0.05370224639773369,
                        "48": 0.015797793865203857,
                        "49": -0.27496859431266785,
                        "50": -0.05925791710615158,
                        "51": 0.02720833569765091,
                        "52": -0.21810828149318695,
                        "53": -0.0487801618874073,
                        "54": -0.08251836895942688,
                        "55": -0.16163070499897003,
                        "56": 0.17995969951152802,
                        "57": -0.0193418487906456,
                        "58": 0.06479225307703018,
                        "59": -0.024391764774918556,
                        "60": -0.10855662077665329,
                        "61": -0.19150668382644653,
                        "62": 0.1544855386018753,
                        "63": 0.12118068337440491,
                        "64": -0.03475925698876381,
                        "65": 0.00996201392263174,
                        "66": 0.04105246439576149,
                        "67": -0.2817579507827759,
                        "68": -0.04571150615811348,
                        "69": 0.09504634886980057,
                        "70": 0.13855929672718048,
                        "71": -0.08775828033685684,
                        "72": -0.1081368699669838,
                        "73": 0.08466975390911102,
                        "74": 0.04849688708782196,
                        "75": 0.06698282063007355,
                        "76": -0.20339757204055786,
                        "77": -0.22649112343788147,
                        "78": -0.13077996671199799,
                        "79": 0.006387792062014341,
                        "80": -0.2631100118160248,
                        "81": -0.27231091260910034,
                        "82": -0.29509618878364563,
                        "83": 0.0802229717373848,
                        "84": -0.076152004301548,
                        "85": -0.007000379264354706,
                        "86": -0.11663687974214554,
                        "87": 0.042499374598264694,
                        "88": -0.06923738867044449,
                        "89": 0.05427880212664604,
                        "90": 0.2058042585849762,
                        "91": -0.13763390481472015,
                        "92": -0.19211825728416443,
                        "93": -0.13054713606834412,
                        "94": -0.04293360188603401,
                        "95": -0.12105164676904678,
                        "96": -0.3071511685848236,
                        "97": -0.09865760058164597,
                        "98": -0.2940128445625305,
                        "99": 0.0830778181552887,
                        "100": -0.1360204964876175,
                        "101": -0.19523000717163086,
                        "102": -0.12212755531072617,
                        "103": -0.00609904620796442,
                        "104": 0.15423157811164856,
                        "105": 0.02315654419362545,
                        "106": -0.12234465032815933,
                        "107": -0.06677957624197006,
                        "108": 0.13844509422779083,
                        "109": -0.15565933287143707,
                        "110": 0.1577686369419098,
                        "111": 0.06690086424350739,
                        "112": -0.044708263128995895,
                        "113": -0.08637864142656326,
                        "114": -0.17716379463672638,
                        "115": 0.11283857375383377,
                        "116": -0.10016155987977982,
                        "117": -0.10493382811546326,
                        "118": -0.13845889270305634,
                        "119": 0.1576583832502365,
                        "120": 0.03430487588047981,
                        "121": 0.035158492624759674,
                        "122": 0.16831466555595398,
                        "123": 0.06456596404314041,
                        "124": -0.1461794525384903,
                        "125": -0.1883174180984497,
                        "126": -0.18577510118484497,
                        "127": 0.06284432858228683,
                        "128": 0.13232797384262085,
                        "129": -0.05927668884396553,
                        "130": 0.14058516919612885,
                        "131": 0.04554510489106178,
                        "132": 0.07571163028478622,
                        "133": -0.06448223441839218,
                        "134": 0.13184286653995514,
                        "135": -0.15083079040050507,
                        "136": 0.004264752846211195,
                        "137": -0.1726594865322113,
                        "138": -0.023060079663991928,
                        "139": -0.015040948987007141,
                        "140": 0.09410730749368668,
                        "141": 0.19281059503555298,
                        "142": -0.11891177296638489,
                        "143": -0.003740825690329075,
                        "144": 0.008193190209567547,
                        "145": 0.10749493539333344,
                        "146": -0.12588001787662506,
                        "147": -0.04428538680076599,
                        "148": 0.015144530683755875,
                        "149": 0.14385071396827698,
                        "150": 0.1580822914838791,
                        "151": 0.0796552523970604,
                        "152": 0.10018403083086014,
                        "153": -0.03462044522166252,
                        "154": -0.03205838426947594,
                        "155": -0.03603965416550636,
                        "156": 0.08231710642576218,
                        "157": -0.2064502239227295,
                        "158": -0.07999003678560257,
                        "159": 0.0983012467622757,
                        "160": 0.006574591621756554,
                        "161": 0.03131600841879845,
                        "162": -0.08418060094118118,
                        "163": 0.08322765678167343,
                        "164": -0.11148378998041153,
                        "165": 0.15894955396652222,
                        "166": -0.006797918118536472,
                        "167": 0.14847637712955475,
                        "168": -0.1338181495666504,
                        "169": 0.07385839521884918,
                        "170": 0.12820392847061157,
                        "171": 0.06321310251951218,
                        "172": 0.03496668487787247,
                        "173": 0.037168312817811966,
                        "174": 0.11075117439031601,
                        "175": 0.14018520712852478,
                        "176": 0.22681231796741486,
                        "177": -0.00820330809801817,
                        "178": 0.055513955652713776,
                        "179": 0.005786398891359568,
                        "180": -0.08897288143634796,
                        "181": -0.14135238528251648,
                        "182": -0.19553562998771667,
                        "183": -0.19517508149147034,
                        "184": 0.05600886791944504,
                        "185": 0.12118448317050934,
                        "186": 0.14170438051223755,
                        "187": 0.08503032475709915,
                        "188": -0.0003338587121106684,
                        "189": -0.18263156712055206,
                        "190": -0.15668442845344543,
                        "191": -0.14927132427692413,
                        "192": 0.1918032318353653,
                        "193": 0.0311395563185215,
                        "194": -0.04515467584133148,
                        "195": -0.1474001407623291,
                        "196": 0.0555487796664238,
                        "197": -0.20295900106430054,
                        "198": -0.0715273767709732,
                        "199": 0.11672024428844452,
                        "200": -0.03437506780028343,
                        "201": 0.1704755574464798,
                        "202": 0.11877496540546417,
                        "203": -0.008236016146838665,
                        "204": 0.13885895907878876,
                        "205": -0.07511793822050095,
                        "206": 0.08495403081178665,
                        "207": -0.12542660534381866,
                        "208": 0.0993189588189125,
                        "209": 0.19304734468460083,
                        "210": -0.10656405985355377,
                        "211": -0.08342403173446655,
                        "212": 0.1667434722185135,
                        "213": 0.0354866199195385,
                        "214": -0.10025830566883087,
                        "215": -0.13613805174827576,
                        "216": 0.16873443126678467,
                        "217": -0.14080926775932312,
                        "218": 0.07940074801445007,
                        "219": 0.07864143699407578,
                        "220": -0.17367780208587646,
                        "221": 0.055682841688394547,
                        "222": 0.09089233726263046,
                        "223": -0.2063014656305313,
                        "224": -0.054399412125349045,
                        "225": 0.02164771594107151,
                        "226": -0.038705307990312576,
                        "227": -0.08575861155986786,
                        "228": -0.1446806788444519,
                        "229": -0.10418453812599182,
                        "230": -0.05948493629693985,
                        "231": -0.0442589595913887,
                        "232": 0.1837819367647171,
                        "233": 0.127420574426651,
                        "234": -0.08007069677114487,
                        "235": 0.1340712606906891,
                        "236": -0.05436098948121071,
                        "237": -0.05037451162934303,
                        "238": 0.17696258425712585,
                        "239": 0.13444212079048157,
                        "240": 0.21566884219646454,
                        "241": 0.04826608672738075,
                        "242": 0.13275444507598877,
                        "243": -0.16721424460411072,
                        "244": -0.018308695405721664,
                        "245": -0.07306820154190063,
                        "246": -0.14534030854701996,
                        "247": 0.1029190942645073,
                        "248": -0.04027866572141647,
                        "249": 0.11253537237644196,
                        "250": 0.14385543763637543,
                        "251": -0.1747499704360962,
                        "252": -0.0888521820306778,
                        "253": 0.040851324796676636,
                        "254": -0.19435808062553406,
                        "255": -0.04200417175889015
                    }
                },
                "4": {
                    "bias": -0.16829515993595123,
                    "weights": {
                        "0": -0.05246681720018387,
                        "1": 0.1429377794265747,
                        "2": 0.04437066987156868,
                        "3": -0.1945163458585739,
                        "4": -0.11283129453659058,
                        "5": 0.14054729044437408,
                        "6": -0.07692431658506393,
                        "7": -0.12013507634401321,
                        "8": -0.046005334705114365,
                        "9": 0.049986518919467926,
                        "10": 0.1321640908718109,
                        "11": -0.06996069848537445,
                        "12": -0.11562687158584595,
                        "13": 0.14288204908370972,
                        "14": 0.072899229824543,
                        "15": 0.03080681525170803,
                        "16": -0.07045852392911911,
                        "17": -0.23763202130794525,
                        "18": -0.10372911393642426,
                        "19": -0.10233414173126221,
                        "20": -0.2431078404188156,
                        "21": 0.02948523499071598,
                        "22": 0.03854631260037422,
                        "23": -0.19705462455749512,
                        "24": 0.13055209815502167,
                        "25": 0.07661201804876328,
                        "26": -0.1387697160243988,
                        "27": -0.06541430950164795,
                        "28": -0.02404804900288582,
                        "29": -0.03819368779659271,
                        "30": -0.009113369509577751,
                        "31": -0.21007686853408813,
                        "32": 0.044557489454746246,
                        "33": 0.11440219730138779,
                        "34": -0.16194653511047363,
                        "35": 0.16359096765518188,
                        "36": -0.1750403195619583,
                        "37": -0.06407252699136734,
                        "38": -0.0797487124800682,
                        "39": 0.07653380185365677,
                        "40": -0.1472129374742508,
                        "41": 0.15518654882907867,
                        "42": 0.12058370560407639,
                        "43": -0.20905528962612152,
                        "44": 0.0320066474378109,
                        "45": -0.16008219122886658,
                        "46": -0.015222929418087006,
                        "47": -0.23250539600849152,
                        "48": 0.041403815150260925,
                        "49": -0.2534050941467285,
                        "50": 0.07420903444290161,
                        "51": 0.18645255267620087,
                        "52": 0.14422054588794708,
                        "53": 0.11268920451402664,
                        "54": -0.19652533531188965,
                        "55": -0.0160539448261261,
                        "56": 0.02767644077539444,
                        "57": -0.08647307008504868,
                        "58": 0.08486615866422653,
                        "59": -0.3648015558719635,
                        "60": -0.11416363716125488,
                        "61": -0.28589633107185364,
                        "62": -0.24822594225406647,
                        "63": -0.18996192514896393,
                        "64": -0.14830829203128815,
                        "65": -0.032180171459913254,
                        "66": 0.034405555576086044,
                        "67": -0.0764959454536438,
                        "68": 0.23771557211875916,
                        "69": 0.07473956793546677,
                        "70": 0.05567577853798866,
                        "71": 0.06367410719394684,
                        "72": -0.04160862788558006,
                        "73": -0.07087963819503784,
                        "74": -0.11399409174919128,
                        "75": -0.33647796511650085,
                        "76": -0.26514947414398193,
                        "77": 0.08117262274026871,
                        "78": 0.07621131092309952,
                        "79": 0.016502760350704193,
                        "80": -0.197223961353302,
                        "81": -0.052102841436862946,
                        "82": 0.09327833354473114,
                        "83": -0.14531345665454865,
                        "84": 0.13558751344680786,
                        "85": 0.10107999294996262,
                        "86": -0.14548751711845398,
                        "87": 0.00963524542748928,
                        "88": 0.0712902694940567,
                        "89": 0.08810734748840332,
                        "90": -0.17634941637516022,
                        "91": -0.33655115962028503,
                        "92": -0.26752227544784546,
                        "93": -0.062275778502225876,
                        "94": -0.1531791090965271,
                        "95": -0.20606495440006256,
                        "96": -0.013343066908419132,
                        "97": 0.05368494614958763,
                        "98": 0.14539006352424622,
                        "99": -0.03870546817779541,
                        "100": 0.1976914256811142,
                        "101": 0.09296410530805588,
                        "102": 0.00959404744207859,
                        "103": -0.08435939997434616,
                        "104": 0.15695057809352875,
                        "105": 0.02858104556798935,
                        "106": -0.07921566069126129,
                        "107": 0.0514584556221962,
                        "108": -0.17062318325042725,
                        "109": -0.06916789710521698,
                        "110": 0.1293891966342926,
                        "111": -0.1068483218550682,
                        "112": -0.08205948024988174,
                        "113": 0.006608685478568077,
                        "114": -0.2535666227340698,
                        "115": -0.032082054764032364,
                        "116": 0.15829411149024963,
                        "117": -0.1962750107049942,
                        "118": -0.0866028219461441,
                        "119": -0.16362518072128296,
                        "120": 0.16814352571964264,
                        "121": -0.10223958641290665,
                        "122": 0.16936416923999786,
                        "123": -0.09118596464395523,
                        "124": -0.14559073746204376,
                        "125": 0.02972266636788845,
                        "126": 0.016075532883405685,
                        "127": -0.19085454940795898,
                        "128": 0.018443163484334946,
                        "129": 0.0006107653025537729,
                        "130": -0.040815383195877075,
                        "131": -0.12929707765579224,
                        "132": 0.053672630339860916,
                        "133": 0.017231151461601257,
                        "134": 0.10978271067142487,
                        "135": -0.17813292145729065,
                        "136": -0.11818983405828476,
                        "137": -0.09564587473869324,
                        "138": 0.09102508425712585,
                        "139": 0.17468520998954773,
                        "140": -0.2301045060157776,
                        "141": 0.09453639388084412,
                        "142": 0.022936664521694183,
                        "143": 0.19261522591114044,
                        "144": -0.009289780631661415,
                        "145": -0.04484451562166214,
                        "146": 0.3105793297290802,
                        "147": 0.045874591916799545,
                        "148": 0.05510309338569641,
                        "149": -0.17594876885414124,
                        "150": -0.10926056653261185,
                        "151": -0.00208764779381454,
                        "152": -0.042517855763435364,
                        "153": 0.12079474329948425,
                        "154": -0.1938558667898178,
                        "155": -0.26870855689048767,
                        "156": -0.1370510458946228,
                        "157": 0.047586824744939804,
                        "158": 0.00998943205922842,
                        "159": 0.15234312415122986,
                        "160": 0.12686242163181305,
                        "161": -0.11628027260303497,
                        "162": 0.07818545401096344,
                        "163": 0.2746903598308563,
                        "164": -0.05619867518544197,
                        "165": -0.0276509877294302,
                        "166": 0.17148956656455994,
                        "167": -0.19014322757720947,
                        "168": -0.1643887460231781,
                        "169": -0.14079239964485168,
                        "170": -0.13976027071475983,
                        "171": 0.08941549807786942,
                        "172": -0.06978807598352432,
                        "173": 0.07747214287519455,
                        "174": 0.22049587965011597,
                        "175": -0.08204200863838196,
                        "176": 0.245650514960289,
                        "177": 0.25166264176368713,
                        "178": 0.09140075743198395,
                        "179": -0.0798134058713913,
                        "180": -0.03601134195923805,
                        "181": -0.08066088706254959,
                        "182": 0.01414894126355648,
                        "183": -0.06940991431474686,
                        "184": -0.018679877743124962,
                        "185": -0.19656141102313995,
                        "186": -0.2462916076183319,
                        "187": 0.07251794636249542,
                        "188": -0.2829563021659851,
                        "189": 0.08478172868490219,
                        "190": -0.11778879910707474,
                        "191": 0.07874126732349396,
                        "192": 0.2790919542312622,
                        "193": 0.08161253482103348,
                        "194": 0.2522767186164856,
                        "195": -0.13433480262756348,
                        "196": 0.13678808510303497,
                        "197": -0.1481941193342209,
                        "198": 0.12515564262866974,
                        "199": 0.07125018537044525,
                        "200": 0.1602308601140976,
                        "201": 0.017532818019390106,
                        "202": 0.0004982256214134395,
                        "203": 0.034462910145521164,
                        "204": -0.27281397581100464,
                        "205": 0.055077631026506424,
                        "206": 0.08991758525371552,
                        "207": -0.1446094661951065,
                        "208": 0.247449591755867,
                        "209": 0.13401246070861816,
                        "210": 0.27369222044944763,
                        "211": 0.029051877558231354,
                        "212": 0.12625326216220856,
                        "213": 0.02267417684197426,
                        "214": -0.01608157530426979,
                        "215": -0.13155367970466614,
                        "216": 0.10770253837108612,
                        "217": -0.006909335032105446,
                        "218": 0.03032505139708519,
                        "219": 0.038801971822977066,
                        "220": -0.16139784455299377,
                        "221": 0.10696174204349518,
                        "222": 0.0896410271525383,
                        "223": -0.14591608941555023,
                        "224": -0.17393484711647034,
                        "225": 0.06206192821264267,
                        "226": -0.1593264937400818,
                        "227": 0.08708051592111588,
                        "228": -0.02944004349410534,
                        "229": 0.14253930747509003,
                        "230": -0.10321113467216492,
                        "231": 0.14323097467422485,
                        "232": -0.12858319282531738,
                        "233": 0.015618132427334785,
                        "234": -0.019406385719776154,
                        "235": -0.19615426659584045,
                        "236": -0.09458699822425842,
                        "237": 0.14251096546649933,
                        "238": 0.15041133761405945,
                        "239": 0.0950213074684143,
                        "240": -0.08163725584745407,
                        "241": 0.01839728280901909,
                        "242": -0.1913895308971405,
                        "243": 0.1003301665186882,
                        "244": 0.17090506851673126,
                        "245": 0.24454328417778015,
                        "246": 0.21167878806591034,
                        "247": 0.08142802119255066,
                        "248": 0.19504426419734955,
                        "249": -0.09426847100257874,
                        "250": 0.0818394124507904,
                        "251": -0.17729976773262024,
                        "252": 0.09449004381895065,
                        "253": 0.03319253399968147,
                        "254": -0.19483917951583862,
                        "255": 0.09076842665672302
                    }
                },
                "5": {
                    "bias": 0.15715362131595612,
                    "weights": {
                        "0": -0.031149648129940033,
                        "1": 0.032527439296245575,
                        "2": 0.14801843464374542,
                        "3": 0.1758636236190796,
                        "4": -0.08366405963897705,
                        "5": 0.014101161621510983,
                        "6": -0.04634770378470421,
                        "7": -0.023286230862140656,
                        "8": 0.030545344576239586,
                        "9": 0.00011488349264254794,
                        "10": -0.10142897069454193,
                        "11": 0.16616548597812653,
                        "12": -0.09111537784337997,
                        "13": 0.1418028026819229,
                        "14": 0.12125828862190247,
                        "15": 0.17272022366523743,
                        "16": -0.1541011929512024,
                        "17": -0.11036287248134613,
                        "18": -0.15399637818336487,
                        "19": -0.0703233927488327,
                        "20": -0.14181174337863922,
                        "21": -0.009185213595628738,
                        "22": -0.18770760297775269,
                        "23": 0.06336039304733276,
                        "24": 0.20507070422172546,
                        "25": -0.05181186646223068,
                        "26": -0.04843034967780113,
                        "27": 0.10714379698038101,
                        "28": 0.12335735559463501,
                        "29": -0.2026863694190979,
                        "30": -0.040849339216947556,
                        "31": -0.1036067083477974,
                        "32": -0.1021910235285759,
                        "33": -0.08183379471302032,
                        "34": 0.06594689935445786,
                        "35": -0.2688581049442291,
                        "36": -0.25095462799072266,
                        "37": 0.13602501153945923,
                        "38": -0.16873081028461456,
                        "39": -0.012631642632186413,
                        "40": -0.13946427404880524,
                        "41": -0.18777336180210114,
                        "42": -0.05598927289247513,
                        "43": -0.07138130068778992,
                        "44": 0.008656463585793972,
                        "45": -0.1329507678747177,
                        "46": 0.03204112499952316,
                        "47": -0.0037588109262287617,
                        "48": -0.006340330932289362,
                        "49": -0.24146275222301483,
                        "50": -0.0702056884765625,
                        "51": 0.14631284773349762,
                        "52": 0.05979393050074577,
                        "53": 0.14055895805358887,
                        "54": -0.04120698571205139,
                        "55": -0.030634185299277306,
                        "56": 0.14352582395076752,
                        "57": -0.10689432173967361,
                        "58": -0.0759349912405014,
                        "59": -0.15123534202575684,
                        "60": 0.016235219314694405,
                        "61": -0.07608965784311295,
                        "62": -0.29225581884384155,
                        "63": 0.006112216506153345,
                        "64": -0.14874118566513062,
                        "65": -0.22400864958763123,
                        "66": -0.2569008469581604,
                        "67": -0.2504217326641083,
                        "68": 0.09506717324256897,
                        "69": 0.1470719575881958,
                        "70": -0.1133897602558136,
                        "71": 0.07929880172014236,
                        "72": 0.1772182434797287,
                        "73": -0.03147813305258751,
                        "74": 0.08148672431707382,
                        "75": 0.039400432258844376,
                        "76": -0.30788078904151917,
                        "77": -0.09220723062753677,
                        "78": -0.05553530901670456,
                        "79": 0.02507198601961136,
                        "80": 0.04842298850417137,
                        "81": -0.07506308704614639,
                        "82": -0.2054414004087448,
                        "83": 0.015958139672875404,
                        "84": -0.1642841249704361,
                        "85": 0.023856310173869133,
                        "86": 0.13149090111255646,
                        "87": -0.06842099875211716,
                        "88": 0.13298721611499786,
                        "89": -0.20493297278881073,
                        "90": 0.05211122706532478,
                        "91": -0.20838676393032074,
                        "92": -0.18974021077156067,
                        "93": -0.0905781015753746,
                        "94": -0.2165040671825409,
                        "95": -0.03760799393057823,
                        "96": -0.07435432076454163,
                        "97": -0.0702175423502922,
                        "98": 0.06844709813594818,
                        "99": 0.054257407784461975,
                        "100": -0.042953092604875565,
                        "101": -0.19192227721214294,
                        "102": 0.10243271291255951,
                        "103": 0.05107550695538521,
                        "104": -0.03778231516480446,
                        "105": -0.09960326552391052,
                        "106": 0.07228295505046844,
                        "107": 0.03571312874555588,
                        "108": -0.29401829838752747,
                        "109": -0.21508000791072845,
                        "110": -0.057011932134628296,
                        "111": -0.17027835547924042,
                        "112": -0.27008047699928284,
                        "113": -0.13315634429454803,
                        "114": -0.002221814589574933,
                        "115": 0.07026048004627228,
                        "116": 0.11694493889808655,
                        "117": -0.23781731724739075,
                        "118": 0.010681353509426117,
                        "119": -0.18659135699272156,
                        "120": -0.09224747121334076,
                        "121": -0.2554461658000946,
                        "122": -0.2651376724243164,
                        "123": -0.2521742582321167,
                        "124": -0.017676174640655518,
                        "125": -0.1437450349330902,
                        "126": -0.28721940517425537,
                        "127": -0.21036535501480103,
                        "128": 0.15727952122688293,
                        "129": 0.1204972192645073,
                        "130": 0.11236467957496643,
                        "131": 0.018961580470204353,
                        "132": -0.026897156611084938,
                        "133": 0.09023962914943695,
                        "134": -0.1310846507549286,
                        "135": -0.16685080528259277,
                        "136": 0.1577286422252655,
                        "137": 0.005150396842509508,
                        "138": 0.15920226275920868,
                        "139": 0.12985099852085114,
                        "140": 0.12275832146406174,
                        "141": -0.10462235659360886,
                        "142": 0.15307849645614624,
                        "143": -0.1269240826368332,
                        "144": 0.16783469915390015,
                        "145": 0.08383674919605255,
                        "146": -0.03770491108298302,
                        "147": 0.06470008939504623,
                        "148": -0.1776152104139328,
                        "149": -0.04486113041639328,
                        "150": -0.12942777574062347,
                        "151": 0.15300045907497406,
                        "152": -0.006387300789356232,
                        "153": 0.1458808183670044,
                        "154": 0.1053900197148323,
                        "155": -0.17852938175201416,
                        "156": 0.1948452591896057,
                        "157": -0.020719731226563454,
                        "158": 0.22952210903167725,
                        "159": 0.24537988007068634,
                        "160": 0.18302322924137115,
                        "161": 0.10133931040763855,
                        "162": 0.09865270555019379,
                        "163": -0.013334520161151886,
                        "164": 0.07824181765317917,
                        "165": -0.12662534415721893,
                        "166": 0.14986062049865723,
                        "167": 0.16599541902542114,
                        "168": -0.1420423537492752,
                        "169": -0.0031471976544708014,
                        "170": -0.009879132732748985,
                        "171": 0.1385474056005478,
                        "172": 0.16022974252700806,
                        "173": -0.16342954337596893,
                        "174": 0.20449787378311157,
                        "175": -0.1342722475528717,
                        "176": 0.053192272782325745,
                        "177": 0.12829963862895966,
                        "178": 0.1298447698354721,
                        "179": 0.01518175657838583,
                        "180": -0.15605539083480835,
                        "181": 0.14770705997943878,
                        "182": 0.07615827769041061,
                        "183": -0.14021386206150055,
                        "184": -0.10580528527498245,
                        "185": -0.037760790437459946,
                        "186": -0.11835593730211258,
                        "187": 0.00947081670165062,
                        "188": 0.14406272768974304,
                        "189": 0.22472120821475983,
                        "190": 0.20028527081012726,
                        "191": -0.19028201699256897,
                        "192": -0.156705841422081,
                        "193": -0.0156457107514143,
                        "194": 0.041831355541944504,
                        "195": -0.08992169797420502,
                        "196": 0.06620435416698456,
                        "197": 0.12901540100574493,
                        "198": -0.13284973800182343,
                        "199": 0.13567966222763062,
                        "200": -0.1068408414721489,
                        "201": 0.025903236120939255,
                        "202": 0.029445063322782516,
                        "203": 0.19975546002388,
                        "204": 0.08803165704011917,
                        "205": 0.05464543029665947,
                        "206": 0.22062410414218903,
                        "207": -0.1088920384645462,
                        "208": -0.16464102268218994,
                        "209": 0.12080827355384827,
                        "210": -0.13087742030620575,
                        "211": -0.038527846336364746,
                        "212": 0.05256776511669159,
                        "213": -0.061125747859478,
                        "214": -0.13430120050907135,
                        "215": 0.17460598051548004,
                        "216": -0.009313235059380531,
                        "217": 0.05889503285288811,
                        "218": -0.2001081109046936,
                        "219": 0.16778773069381714,
                        "220": -0.10290882736444473,
                        "221": 0.12616689503192902,
                        "222": -0.004024991299957037,
                        "223": -0.2116827666759491,
                        "224": 0.05914737284183502,
                        "225": 0.028784211724996567,
                        "226": 0.1607295274734497,
                        "227": 0.22035382688045502,
                        "228": 0.05661690980195999,
                        "229": 0.03496049717068672,
                        "230": -0.10881217569112778,
                        "231": -0.05319313704967499,
                        "232": -0.03787272423505783,
                        "233": -0.02590128220617771,
                        "234": -0.009795228019356728,
                        "235": -0.07724379003047943,
                        "236": -0.06867872923612595,
                        "237": 0.010567870922386646,
                        "238": 0.20546698570251465,
                        "239": 0.07956824451684952,
                        "240": 0.251886248588562,
                        "241": 0.03333459421992302,
                        "242": 0.26578086614608765,
                        "243": -0.039780255407094955,
                        "244": 0.1961601823568344,
                        "245": 0.22495777904987335,
                        "246": 0.2563135027885437,
                        "247": 0.24679666757583618,
                        "248": 0.27108290791511536,
                        "249": -0.054723020642995834,
                        "250": 0.06550464779138565,
                        "251": -0.09721529483795166,
                        "252": -0.15072770416736603,
                        "253": -0.1871085911989212,
                        "254": 0.027809353545308113,
                        "255": 0.06930116564035416
                    }
                },
                "6": {
                    "bias": -0.15703940391540527,
                    "weights": {
                        "0": -0.22186318039894104,
                        "1": -0.008976373821496964,
                        "2": 0.05901000276207924,
                        "3": 0.1301252692937851,
                        "4": 0.10429570823907852,
                        "5": -0.10381769388914108,
                        "6": -0.04298299923539162,
                        "7": -0.1887480914592743,
                        "8": 0.11615622788667679,
                        "9": -0.14476101100444794,
                        "10": 0.10584817826747894,
                        "11": -0.02153977006673813,
                        "12": -0.08392223715782166,
                        "13": 0.042212605476379395,
                        "14": -0.14244577288627625,
                        "15": 0.15112873911857605,
                        "16": -0.15164439380168915,
                        "17": -0.08153650909662247,
                        "18": -0.061718326061964035,
                        "19": -0.07677438110113144,
                        "20": 0.04797249287366867,
                        "21": 0.012751584872603416,
                        "22": 0.06769461929798126,
                        "23": 0.14442187547683716,
                        "24": 0.033779874444007874,
                        "25": -0.0901724323630333,
                        "26": -0.17116576433181763,
                        "27": 0.08662810176610947,
                        "28": 0.14781992137432098,
                        "29": -0.13550971448421478,
                        "30": -0.15040090680122375,
                        "31": 0.2110154926776886,
                        "32": 0.16059280931949615,
                        "33": 0.12872794270515442,
                        "34": 0.04755466803908348,
                        "35": -0.13205184042453766,
                        "36": 0.07383270561695099,
                        "37": 0.09140457957983017,
                        "38": 0.01750856265425682,
                        "39": -0.1496676355600357,
                        "40": 0.16043835878372192,
                        "41": -0.1826116293668747,
                        "42": -0.13240747153759003,
                        "43": -0.21271900832653046,
                        "44": -0.16014300286769867,
                        "45": 0.0472387932240963,
                        "46": 0.038537491112947464,
                        "47": 0.07376784831285477,
                        "48": -0.07231873273849487,
                        "49": 0.1018543615937233,
                        "50": 0.18425464630126953,
                        "51": 0.21846356987953186,
                        "52": 0.009557610377669334,
                        "53": -0.23078367114067078,
                        "54": -0.11460556834936142,
                        "55": -0.016210485249757767,
                        "56": -0.08192814886569977,
                        "57": 0.06556364893913269,
                        "58": -0.0926005020737648,
                        "59": -0.18312591314315796,
                        "60": -0.024654977023601532,
                        "61": 0.09703287482261658,
                        "62": -0.13971829414367676,
                        "63": -0.021277498453855515,
                        "64": 0.22968728840351105,
                        "65": -0.05111423879861832,
                        "66": 0.0774669349193573,
                        "67": 0.03737999498844147,
                        "68": -0.15612879395484924,
                        "69": -0.23265615105628967,
                        "70": 0.13765670359134674,
                        "71": 0.10622432827949524,
                        "72": 0.14835062623023987,
                        "73": -0.07640224695205688,
                        "74": 0.0651860311627388,
                        "75": -0.06333561986684799,
                        "76": -0.017507461830973625,
                        "77": 0.09097041189670563,
                        "78": -0.16728883981704712,
                        "79": 0.07829445600509644,
                        "80": -0.02715430222451687,
                        "81": 0.16241788864135742,
                        "82": 0.18186935782432556,
                        "83": 0.1729457527399063,
                        "84": -0.11817193776369095,
                        "85": -0.2131434679031372,
                        "86": 0.09557578712701797,
                        "87": -0.15250550210475922,
                        "88": 0.15823623538017273,
                        "89": -0.13491541147232056,
                        "90": 0.13564808666706085,
                        "91": -0.17458797991275787,
                        "92": -0.15518316626548767,
                        "93": 0.1206248328089714,
                        "94": 0.004900134634226561,
                        "95": -0.0988454520702362,
                        "96": -0.11268465220928192,
                        "97": 0.18708536028862,
                        "98": 0.0796714797616005,
                        "99": -0.17790651321411133,
                        "100": 0.16911844909191132,
                        "101": 0.25293081998825073,
                        "102": -0.07913853228092194,
                        "103": 0.00020054237393196672,
                        "104": -0.06820252537727356,
                        "105": -0.06393445283174515,
                        "106": -0.05878861993551254,
                        "107": 0.04264509677886963,
                        "108": 0.08246851712465286,
                        "109": 0.19635972380638123,
                        "110": 0.10802998393774033,
                        "111": 0.037597279995679855,
                        "112": -0.046819817274808884,
                        "113": -0.00036588346119970083,
                        "114": -0.12678579986095428,
                        "115": 0.23271003365516663,
                        "116": 0.08132753521203995,
                        "117": 0.2893371284008026,
                        "118": -0.013418156653642654,
                        "119": 0.02197783626616001,
                        "120": 0.06760922819375992,
                        "121": 0.27730053663253784,
                        "122": -0.01191029790788889,
                        "123": -0.06282050907611847,
                        "124": 0.23666569590568542,
                        "125": 0.12337756901979446,
                        "126": -0.044204454869031906,
                        "127": 0.04935356602072716,
                        "128": -0.11036787182092667,
                        "129": -0.11727075278759003,
                        "130": 0.1505279541015625,
                        "131": 0.12717989087104797,
                        "132": 0.027635028585791588,
                        "133": 0.2875102460384369,
                        "134": 0.2822604179382324,
                        "135": 0.31568893790245056,
                        "136": 0.2895388603210449,
                        "137": 0.11312051117420197,
                        "138": 0.09807483851909637,
                        "139": 0.2584647238254547,
                        "140": 0.14264506101608276,
                        "141": 0.1267421692609787,
                        "142": 0.0794994980096817,
                        "143": -0.1101008802652359,
                        "144": 0.04286515340209007,
                        "145": 0.07109475135803223,
                        "146": -0.07880929857492447,
                        "147": -0.2205093652009964,
                        "148": 0.04725126177072525,
                        "149": -0.07839584350585938,
                        "150": 0.10699544101953506,
                        "151": 0.0825723335146904,
                        "152": -0.1780804991722107,
                        "153": -0.005385540891438723,
                        "154": -0.23820072412490845,
                        "155": 0.055221397429704666,
                        "156": -0.10673297196626663,
                        "157": 0.1831762045621872,
                        "158": 0.07838297635316849,
                        "159": 0.11213630437850952,
                        "160": 0.07231917977333069,
                        "161": 0.06766771525144577,
                        "162": -0.16180486977100372,
                        "163": 0.17915454506874084,
                        "164": 0.126821830868721,
                        "165": -0.12273747473955154,
                        "166": -0.1914527863264084,
                        "167": -0.055855609476566315,
                        "168": -0.22586891055107117,
                        "169": -0.09837061911821365,
                        "170": -0.1524781584739685,
                        "171": -0.044042352586984634,
                        "172": 0.01697082631289959,
                        "173": 0.12094887346029282,
                        "174": 0.08784259855747223,
                        "175": 0.06993833184242249,
                        "176": -0.1614406555891037,
                        "177": 0.07201490551233292,
                        "178": 0.1231926679611206,
                        "179": 0.051544565707445145,
                        "180": -0.18647733330726624,
                        "181": 0.06497454643249512,
                        "182": 0.1933731585741043,
                        "183": -0.09375129640102386,
                        "184": -0.027909070253372192,
                        "185": -0.15259729325771332,
                        "186": 0.06569229811429977,
                        "187": 0.03911770135164261,
                        "188": -0.10935461521148682,
                        "189": -0.14730657637119293,
                        "190": 0.041772712022066116,
                        "191": 0.04890019819140434,
                        "192": -0.025391176342964172,
                        "193": 0.03100661188364029,
                        "194": -0.05272985249757767,
                        "195": -0.03523930162191391,
                        "196": 0.04453694447875023,
                        "197": -0.17056401073932648,
                        "198": 0.06333594769239426,
                        "199": 0.10672459006309509,
                        "200": -0.0822906419634819,
                        "201": -0.06195744499564171,
                        "202": -0.18745453655719757,
                        "203": 0.011106964200735092,
                        "204": -0.1728733628988266,
                        "205": -0.11205162107944489,
                        "206": 0.13361701369285583,
                        "207": 0.015489024110138416,
                        "208": 0.14423266053199768,
                        "209": 0.08564520627260208,
                        "210": 0.05741138383746147,
                        "211": -0.08317012339830399,
                        "212": -0.08751839399337769,
                        "213": 0.16174645721912384,
                        "214": -0.079243503510952,
                        "215": 0.07943945378065109,
                        "216": -0.23311284184455872,
                        "217": -0.16028650104999542,
                        "218": -0.0365786999464035,
                        "219": -0.07243873178958893,
                        "220": 0.1665697693824768,
