{
    "info": {
        "ai": {
            "config": {
                "hiddenLayers": [
                    128,
                    128
                ],
                "activation": "tanh"
            },
            "training": {
                "iterations": 500,
                "errorThresh": 0.0001,
                "learningRate": 0.3,
                "momentum": 0.1
            }
        },
        "id": "91912f6bdad1e95d35c1f1b4066bd8c2",
        "dimension": [
            16,
            16
        ],
        "channel": "red",
        "colorspace": "b-w",
        "blackWhite": true
    },
    "data": {
        "sizes": [
            256,
            128,
            128,
            10
        ],
        "layers": [
            {
                "0": {},
                "1": {},
                "2": {},
                "3": {},
                "4": {},
                "5": {},
                "6": {},
                "7": {},
                "8": {},
                "9": {},
                "10": {},
                "11": {},
                "12": {},
                "13": {},
                "14": {},
                "15": {},
                "16": {},
                "17": {},
                "18": {},
                "19": {},
                "20": {},
                "21": {},
                "22": {},
                "23": {},
                "24": {},
                "25": {},
                "26": {},
                "27": {},
                "28": {},
                "29": {},
                "30": {},
                "31": {},
                "32": {},
                "33": {},
                "34": {},
                "35": {},
                "36": {},
                "37": {},
                "38": {},
                "39": {},
                "40": {},
                "41": {},
                "42": {},
                "43": {},
                "44": {},
                "45": {},
                "46": {},
                "47": {},
                "48": {},
                "49": {},
                "50": {},
                "51": {},
                "52": {},
                "53": {},
                "54": {},
                "55": {},
                "56": {},
                "57": {},
                "58": {},
                "59": {},
                "60": {},
                "61": {},
                "62": {},
                "63": {},
                "64": {},
                "65": {},
                "66": {},
                "67": {},
                "68": {},
                "69": {},
                "70": {},
                "71": {},
                "72": {},
                "73": {},
                "74": {},
                "75": {},
                "76": {},
                "77": {},
                "78": {},
                "79": {},
                "80": {},
                "81": {},
                "82": {},
                "83": {},
                "84": {},
                "85": {},
                "86": {},
                "87": {},
                "88": {},
                "89": {},
                "90": {},
                "91": {},
                "92": {},
                "93": {},
                "94": {},
                "95": {},
                "96": {},
                "97": {},
                "98": {},
                "99": {},
                "100": {},
                "101": {},
                "102": {},
                "103": {},
                "104": {},
                "105": {},
                "106": {},
                "107": {},
                "108": {},
                "109": {},
                "110": {},
                "111": {},
                "112": {},
                "113": {},
                "114": {},
                "115": {},
                "116": {},
                "117": {},
                "118": {},
                "119": {},
                "120": {},
                "121": {},
                "122": {},
                "123": {},
                "124": {},
                "125": {},
                "126": {},
                "127": {},
                "128": {},
                "129": {},
                "130": {},
                "131": {},
                "132": {},
                "133": {},
                "134": {},
                "135": {},
                "136": {},
                "137": {},
                "138": {},
                "139": {},
                "140": {},
                "141": {},
                "142": {},
                "143": {},
                "144": {},
                "145": {},
                "146": {},
                "147": {},
                "148": {},
                "149": {},
                "150": {},
                "151": {},
                "152": {},
                "153": {},
                "154": {},
                "155": {},
                "156": {},
                "157": {},
                "158": {},
                "159": {},
                "160": {},
                "161": {},
                "162": {},
                "163": {},
                "164": {},
                "165": {},
                "166": {},
                "167": {},
                "168": {},
                "169": {},
                "170": {},
                "171": {},
                "172": {},
                "173": {},
                "174": {},
                "175": {},
                "176": {},
                "177": {},
                "178": {},
                "179": {},
                "180": {},
                "181": {},
                "182": {},
                "183": {},
                "184": {},
                "185": {},
                "186": {},
                "187": {},
                "188": {},
                "189": {},
                "190": {},
                "191": {},
                "192": {},
                "193": {},
                "194": {},
                "195": {},
                "196": {},
                "197": {},
                "198": {},
                "199": {},
                "200": {},
                "201": {},
                "202": {},
                "203": {},
                "204": {},
                "205": {},
                "206": {},
                "207": {},
                "208": {},
                "209": {},
                "210": {},
                "211": {},
                "212": {},
                "213": {},
                "214": {},
                "215": {},
                "216": {},
                "217": {},
                "218": {},
                "219": {},
                "220": {},
                "221": {},
                "222": {},
                "223": {},
                "224": {},
                "225": {},
                "226": {},
                "227": {},
                "228": {},
                "229": {},
                "230": {},
                "231": {},
                "232": {},
                "233": {},
                "234": {},
                "235": {},
                "236": {},
                "237": {},
                "238": {},
                "239": {},
                "240": {},
                "241": {},
                "242": {},
                "243": {},
                "244": {},
                "245": {},
                "246": {},
                "247": {},
                "248": {},
                "249": {},
                "250": {},
                "251": {},
                "252": {},
                "253": {},
                "254": {},
                "255": {}
            },
            {
                "0": {
                    "bias": 0.1879296898841858,
                    "weights": {
                        "0": -0.05832819640636444,
                        "1": -0.06936951726675034,
                        "2": -0.09110407531261444,
                        "3": 0.02105838991701603,
                        "4": -0.19043028354644775,
                        "5": 0.02802301198244095,
                        "6": -0.016658276319503784,
                        "7": -0.22073210775852203,
                        "8": -0.21783024072647095,
                        "9": -0.22925053536891937,
                        "10": -0.05596380680799484,
                        "11": -0.08430995792150497,
                        "12": 0.13180352747440338,
                        "13": 0.06326232850551605,
                        "14": 0.09397096186876297,
                        "15": 0.0393531359732151,
                        "16": 0.15240778028964996,
                        "17": -0.1097528338432312,
                        "18": 0.02651926502585411,
                        "19": -0.05913407355546951,
                        "20": -0.023347174748778343,
                        "21": -0.08698338270187378,
                        "22": 0.11207418888807297,
                        "23": 0.10224757343530655,
                        "24": 0.09519848227500916,
                        "25": 0.07719168812036514,
                        "26": -0.09115458279848099,
                        "27": 0.09698104858398438,
                        "28": 0.09303763508796692,
                        "29": -0.11258725821971893,
                        "30": 0.10450306534767151,
                        "31": -0.14477713406085968,
                        "32": -0.12579584121704102,
                        "33": -0.04569423198699951,
                        "34": -0.24706204235553741,
                        "35": -0.09590107947587967,
                        "36": -0.14674685895442963,
                        "37": 0.034215547144412994,
                        "38": -0.11885470896959305,
                        "39": 0.18916651606559753,
                        "40": 0.24456855654716492,
                        "41": -0.007494681980460882,
                        "42": -0.10504723340272903,
                        "43": 0.20313481986522675,
                        "44": 0.15706714987754822,
                        "45": -0.06546539068222046,
                        "46": -0.10422946512699127,
                        "47": -0.006988472305238247,
                        "48": 0.13907884061336517,
                        "49": -0.11345510929822922,
                        "50": 0.1390925645828247,
                        "51": -0.021770961582660675,
                        "52": -0.031536877155303955,
                        "53": 0.13962577283382416,
                        "54": -0.07939442992210388,
                        "55": 0.004407171159982681,
                        "56": -0.08196199685335159,
                        "57": -0.11064909398555756,
                        "58": 0.1124299168586731,
                        "59": -0.012407253496348858,
                        "60": 0.009320110082626343,
                        "61": -0.136604905128479,
                        "62": -0.16784900426864624,
                        "63": -0.05481019988656044,
                        "64": 0.01658596098423004,
                        "65": 0.13922801613807678,
                        "66": -0.04283915460109711,
                        "67": 0.12276353687047958,
                        "68": -0.1119203194975853,
                        "69": 0.18987365067005157,
                        "70": 0.101659394800663,
                        "71": 0.19876433908939362,
                        "72": -0.07828725874423981,
                        "73": -0.033622920513153076,
                        "74": 0.1063462346792221,
                        "75": 0.06975647807121277,
                        "76": -0.06348472088575363,
                        "77": -0.0003847429761663079,
                        "78": -0.10869541764259338,
                        "79": -0.14767877757549286,
                        "80": -0.0036743103992193937,
                        "81": 0.009834780357778072,
                        "82": 0.10725347697734833,
                        "83": 0.06181437149643898,
                        "84": 0.15398472547531128,
                        "85": -0.01270253211259842,
                        "86": 0.15186554193496704,
                        "87": -0.002252866979688406,
                        "88": -0.057274624705314636,
                        "89": -0.1279219388961792,
                        "90": -0.073301762342453,
                        "91": -0.0001940015790751204,
                        "92": -0.07112536579370499,
                        "93": -0.14613810181617737,
                        "94": 0.15401500463485718,
                        "95": 0.07621867209672928,
                        "96": 0.05125415697693825,
                        "97": -0.07033335417509079,
                        "98": -0.25105154514312744,
                        "99": -0.10666774958372116,
                        "100": -0.13570944964885712,
                        "101": -0.15222851932048798,
                        "102": 0.029186800122261047,
                        "103": 0.1992940604686737,
                        "104": 0.17941489815711975,
                        "105": -0.031778015196323395,
                        "106": -0.07529708743095398,
                        "107": 0.07779959589242935,
                        "108": -0.11961327493190765,
                        "109": -0.07206506282091141,
                        "110": -0.1699557602405548,
                        "111": 0.11873933672904968,
                        "112": -0.03416012227535248,
                        "113": 0.05092925205826759,
                        "114": 0.093084417283535,
                        "115": -0.1538139283657074,
                        "116": 0.13125336170196533,
                        "117": -0.0853227972984314,
                        "118": 0.15601663291454315,
                        "119": -0.011690748855471611,
                        "120": 0.10089807212352753,
                        "121": -0.12292801588773727,
                        "122": 0.17641659080982208,
                        "123": -0.009721660986542702,
                        "124": 0.11477146297693253,
                        "125": 0.17751455307006836,
                        "126": 0.0329536497592926,
                        "127": -0.05324125662446022,
                        "128": -0.054497137665748596,
                        "129": -0.008155664429068565,
                        "130": -0.2168116420507431,
                        "131": 0.01824021153151989,
                        "132": -0.15261685848236084,
                        "133": 0.058223284780979156,
                        "134": -0.22766496241092682,
                        "135": -0.07474672049283981,
                        "136": -0.1504272073507309,
                        "137": 0.04478016495704651,
                        "138": -0.1713087409734726,
                        "139": -0.17356541752815247,
                        "140": -0.12991808354854584,
                        "141": 0.02929115481674671,
                        "142": -0.17036044597625732,
                        "143": -0.004442498553544283,
                        "144": 0.02619788981974125,
                        "145": 0.048349082469940186,
                        "146": -0.20392850041389465,
                        "147": -0.07616984099149704,
                        "148": 0.08658293634653091,
                        "149": 0.04364023730158806,
                        "150": 0.17782969772815704,
                        "151": 0.18245218694210052,
                        "152": -0.03161079064011574,
                        "153": 0.1624717116355896,
                        "154": -0.1662817746400833,
                        "155": -0.1301688253879547,
                        "156": -0.1418025642633438,
                        "157": -0.17823418974876404,
                        "158": -0.10694822669029236,
                        "159": 0.03143909573554993,
                        "160": -0.11244261264801025,
                        "161": -0.035650577396154404,
                        "162": 0.14500926434993744,
                        "163": 0.012761778198182583,
                        "164": 0.001009264960885048,
                        "165": 0.22741098701953888,
                        "166": 0.24344392120838165,
                        "167": 0.24566788971424103,
                        "168": 0.20279894769191742,
                        "169": -0.042156826704740524,
                        "170": 0.11601825803518295,
                        "171": -0.1562657356262207,
                        "172": -0.0792388767004013,
                        "173": -0.12382491677999496,
                        "174": 0.04476865381002426,
                        "175": -0.15863724052906036,
                        "176": 0.048559077084064484,
                        "177": 0.14830923080444336,
                        "178": 0.09164851903915405,
                        "179": -0.04228101670742035,
                        "180": -0.16274425387382507,
                        "181": -0.15030261874198914,
                        "182": -0.06790455430746078,
                        "183": 0.24752168357372284,
                        "184": 0.18501602113246918,
                        "185": 0.12361834943294525,
                        "186": -0.028599312528967857,
                        "187": -0.004134478513151407,
                        "188": -0.11606881022453308,
                        "189": -0.12873750925064087,
                        "190": -0.180280402302742,
                        "191": -0.04318629950284958,
                        "192": -0.06196773052215576,
                        "193": -0.028121819719672203,
                        "194": 0.11310578882694244,
                        "195": -0.10107645392417908,
                        "196": 0.1069139763712883,
                        "197": -0.14304576814174652,
                        "198": 0.17915946245193481,
                        "199": 0.1394973248243332,
                        "200": 0.13611671328544617,
                        "201": -0.09361585229635239,
                        "202": 0.020904837176203728,
                        "203": 0.15875118970870972,
                        "204": 0.09980534017086029,
                        "205": -0.010902688838541508,
                        "206": -0.22022821009159088,
                        "207": 0.014277823269367218,
                        "208": -0.0847727432847023,
                        "209": -0.03543741628527641,
                        "210": 0.053658079355955124,
                        "211": 0.006702554412186146,
                        "212": -0.04476063698530197,
                        "213": 0.20514161884784698,
                        "214": 0.07993289828300476,
                        "215": 0.157647043466568,
                        "216": 0.10653410851955414,
                        "217": -0.06939446926116943,
                        "218": -0.03246278688311577,
                        "219": -0.045742426067590714,
                        "220": -0.24576906859874725,
                        "221": -0.1438494324684143,
                        "222": 0.10052593797445297,
                        "223": 0.192428320646286,
                        "224": 0.18134641647338867,
                        "225": -0.044319119304418564,
                        "226": -0.03909298777580261,
                        "227": 0.08331113308668137,
                        "228": -0.08598371595144272,
                        "229": -0.17628158628940582,
                        "230": 0.09511929005384445,
                        "231": -0.008462665602564812,
                        "232": -0.0715506374835968,
                        "233": -0.04484044015407562,
                        "234": 0.1536288559436798,
                        "235": -0.12396039068698883,
                        "236": 0.0523236021399498,
                        "237": -0.1186341866850853,
                        "238": 0.0042179604060947895,
                        "239": -0.10862339287996292,
                        "240": -0.1633109599351883,
                        "241": -0.04277903586626053,
                        "242": -0.19644324481487274,
                        "243": 0.005039232317358255,
                        "244": 0.03597458079457283,
                        "245": -0.18159358203411102,
                        "246": -0.2014622837305069,
                        "247": -0.03217669576406479,
                        "248": 0.19167962670326233,
                        "249": 0.16177129745483398,
                        "250": 0.14137177169322968,
                        "251": -0.12708036601543427,
                        "252": 0.140083909034729,
                        "253": -0.14314399659633636,
                        "254": -0.09490497410297394,
                        "255": 0.005756990984082222
                    }
                },
                "1": {
                    "bias": 0.06293950974941254,
                    "weights": {
                        "0": 0.10292189568281174,
                        "1": 0.023214921355247498,
                        "2": 0.15312887728214264,
                        "3": 0.06576594710350037,
                        "4": 0.12261977046728134,
                        "5": -0.04222770407795906,
                        "6": -0.15879611670970917,
                        "7": 0.07158558070659637,
                        "8": 0.1441618800163269,
                        "9": 0.15834295749664307,
                        "10": -0.1274036467075348,
                        "11": 0.08825627714395523,
                        "12": 0.00459814490750432,
                        "13": 0.05424991622567177,
                        "14": -0.11929482966661453,
                        "15": 0.01817122846841812,
                        "16": -0.10604482889175415,
                        "17": -0.04284233972430229,
                        "18": 0.04916634410619736,
                        "19": -0.06942310184240341,
                        "20": 0.0663488507270813,
                        "21": 0.20705293118953705,
                        "22": -0.1310589611530304,
                        "23": 0.10468290746212006,
                        "24": -0.052091535180807114,
                        "25": 0.09406085312366486,
                        "26": -0.17248976230621338,
                        "27": 0.03453899919986725,
                        "28": 0.17548494040966034,
                        "29": 0.1450088769197464,
                        "30": -0.13877366483211517,
                        "31": -0.0434684082865715,
                        "32": -0.0821768194437027,
                        "33": -0.07984604686498642,
                        "34": 0.1527555286884308,
                        "35": 0.020280569791793823,
                        "36": 0.02368682250380516,
                        "37": -0.033047061413526535,
                        "38": -0.021875480189919472,
                        "39": -0.10872860997915268,
                        "40": 0.056513696908950806,
                        "41": -0.03740990534424782,
                        "42": -0.10584097355604172,
                        "43": 0.12332730740308762,
                        "44": -0.13957686722278595,
                        "45": 0.15159761905670166,
                        "46": 0.10644318163394928,
                        "47": 0.21280141174793243,
                        "48": -0.08040379732847214,
                        "49": -0.09298344701528549,
                        "50": -0.10592278093099594,
                        "51": -0.021281050518155098,
                        "52": -0.22193382680416107,
                        "53": -0.15680859982967377,
                        "54": -0.18371650576591492,
                        "55": -0.021868862211704254,
                        "56": -0.19350981712341309,
                        "57": -0.06244766339659691,
                        "58": -0.10828779637813568,
                        "59": -0.02803051844239235,
                        "60": -0.09501765668392181,
                        "61": -0.08773641288280487,
                        "62": 0.1780567765235901,
                        "63": -0.013186861760914326,
                        "64": 0.10600437968969345,
                        "65": -0.07312024384737015,
                        "66": 0.03567459061741829,
                        "67": -0.1095288023352623,
                        "68": -0.16876648366451263,
                        "69": -0.18374674022197723,
                        "70": -0.18953776359558105,
                        "71": 0.0961742177605629,
                        "72": -0.08026367425918579,
                        "73": 0.1609763205051422,
                        "74": 0.03895404189825058,
                        "75": -0.10653268545866013,
                        "76": -0.085030697286129,
                        "77": -0.11396683752536774,
                        "78": -0.09116895496845245,
                        "79": -0.06467334926128387,
                        "80": 0.17508023977279663,
                        "81": 0.01948200911283493,
                        "82": 0.06999193876981735,
                        "83": 0.07508881390094757,
                        "84": 0.01264550257474184,
                        "85": -0.09750533103942871,
                        "86": 0.041939061135053635,
                        "87": -0.11867710947990417,
                        "88": 0.01888382062315941,
                        "89": -0.054966844618320465,
                        "90": 0.14797773957252502,
                        "91": -0.09181708842515945,
                        "92": 0.14805762469768524,
                        "93": -0.0475124754011631,
                        "94": -0.02167477086186409,
                        "95": -0.07243506610393524,
                        "96": -0.1636020839214325,
                        "97": 0.004690555389970541,
                        "98": 0.14578396081924438,
                        "99": 0.002795389387756586,
                        "100": -0.13858307898044586,
                        "101": -0.21238766610622406,
                        "102": 0.06303546577692032,
                        "103": -0.0883958488702774,
                        "104": -0.0327494852244854,
                        "105": -0.007322152145206928,
                        "106": -0.17637598514556885,
                        "107": -0.08916416764259338,
                        "108": 0.07453598082065582,
                        "109": 0.1634243130683899,
                        "110": 0.10716143995523453,
                        "111": 0.050950318574905396,
                        "112": 0.12602943181991577,
                        "113": -0.053308986127376556,
                        "114": -0.03187849372625351,
                        "115": -0.12460498511791229,
                        "116": 0.09225040674209595,
                        "117": -0.02629328891634941,
                        "118": -0.06437712907791138,
                        "119": -0.2447601705789566,
                        "120": -0.0754840075969696,
                        "121": 0.1278691440820694,
                        "122": -0.1355767548084259,
                        "123": 0.13236622512340546,
                        "124": -0.134723961353302,
                        "125": -0.1667858511209488,
                        "126": 0.16437089443206787,
                        "127": -0.0028782179579138756,
                        "128": -0.17554588615894318,
                        "129": -0.18468692898750305,
                        "130": -0.23056192696094513,
                        "131": -0.19962811470031738,
                        "132": 0.06338585168123245,
                        "133": -0.17294824123382568,
                        "134": -0.18619386851787567,
                        "135": -0.05772179365158081,
                        "136": 0.11637137830257416,
                        "137": -0.07005218416452408,
                        "138": -0.00022188959701452404,
                        "139": -0.19147972762584686,
                        "140": -0.054815977811813354,
                        "141": 0.11775436997413635,
                        "142": -0.09456728398799896,
                        "143": -0.02746725082397461,
                        "144": 0.17176561057567596,
                        "145": -0.20580847561359406,
                        "146": -0.09332907944917679,
                        "147": -0.11209453642368317,
                        "148": -0.17698906362056732,
                        "149": -0.06787680089473724,
                        "150": -0.22881150245666504,
                        "151": 0.03597945347428322,
                        "152": -0.17456117272377014,
                        "153": 0.13887496292591095,
                        "154": -0.1644810289144516,
                        "155": 0.011429904960095882,
                        "156": -0.09668762236833572,
                        "157": 0.08521028608083725,
                        "158": -0.10521844774484634,
                        "159": -0.16577591001987457,
                        "160": 0.07581105828285217,
                        "161": -0.07520963996648788,
                        "162": -0.2625110447406769,
                        "163": 0.00730411522090435,
                        "164": 0.11714649945497513,
                        "165": -0.13206782937049866,
                        "166": -0.09521924704313278,
                        "167": 0.04318518936634064,
                        "168": 0.19026035070419312,
                        "169": -0.1571771204471588,
                        "170": -0.10902155935764313,
                        "171": -0.12236940115690231,
                        "172": 0.13610510528087616,
                        "173": -0.11598359793424606,
                        "174": -0.13128702342510223,
                        "175": -0.23611260950565338,
                        "176": 0.017646286636590958,
                        "177": -0.08874721825122833,
                        "178": 0.060003262013196945,
                        "179": 0.012218402698636055,
                        "180": -0.16021263599395752,
                        "181": -0.1725713610649109,
                        "182": 0.021201979368925095,
                        "183": 0.0662287175655365,
                        "184": -0.10171805322170258,
                        "185": 0.08042783290147781,
                        "186": -0.12326997518539429,
                        "187": 0.022328419610857964,
                        "188": 0.08912470191717148,
                        "189": -0.028652023524045944,
                        "190": -0.19906269013881683,
                        "191": 0.12032633274793625,
                        "192": 0.07066436111927032,
                        "193": -0.06561573594808578,
                        "194": 0.04606817290186882,
                        "195": -0.18180382251739502,
                        "196": -0.18640364706516266,
                        "197": -0.09741564095020294,
                        "198": 0.1357194483280182,
                        "199": -0.052682116627693176,
                        "200": 0.112755186855793,
                        "201": -0.05785101652145386,
                        "202": -0.04705929383635521,
                        "203": 0.12304152548313141,
                        "204": 0.17785829305648804,
                        "205": 0.06572207808494568,
                        "206": -0.11999225616455078,
                        "207": 0.04319914057850838,
                        "208": -0.24662959575653076,
                        "209": 0.11572752147912979,
                        "210": -0.11826306581497192,
                        "211": -0.06583777815103531,
                        "212": -0.14364230632781982,
                        "213": -0.09534692764282227,
                        "214": -0.1425146460533142,
                        "215": -0.13076914846897125,
                        "216": 0.04486081749200821,
                        "217": 0.20185264945030212,
                        "218": -0.007083351258188486,
                        "219": 0.012871303595602512,
                        "220": 0.030922457575798035,
                        "221": -0.04828745871782303,
                        "222": -0.07799082249403,
                        "223": -0.03403926640748978,
                        "224": -0.08976209908723831,
                        "225": 0.06943827867507935,
                        "226": -0.13013850152492523,
                        "227": -0.08071982115507126,
                        "228": -0.14286503195762634,
                        "229": -0.18373730778694153,
                        "230": -0.0611194483935833,
                        "231": 0.1076689288020134,
                        "232": 0.13708242774009705,
                        "233": -0.1068914383649826,
                        "234": 0.08074391633272171,
                        "235": 0.2223912626504898,
                        "236": -0.07891375571489334,
                        "237": 0.09056136012077332,
                        "238": -0.07161128520965576,
                        "239": 0.03222246840596199,
                        "240": -0.18403495848178864,
                        "241": -0.08843409270048141,
                        "242": -0.02494070492684841,
                        "243": 0.050171852111816406,
                        "244": -0.0438840426504612,
                        "245": 0.06095145642757416,
                        "246": 0.11506376415491104,
                        "247": -0.06953395903110504,
                        "248": 0.05919267237186432,
                        "249": 0.20021885633468628,
                        "250": 0.16396595537662506,
                        "251": 0.15118642151355743,
                        "252": -0.22082120180130005,
                        "253": 0.1649308055639267,
                        "254": 0.1455080360174179,
                        "255": -0.05164025351405144
                    }
                },
                "2": {
                    "bias": -0.07513096928596497,
                    "weights": {
                        "0": -0.18596045672893524,
                        "1": 0.1578454077243805,
                        "2": -0.1632782220840454,
                        "3": 0.031347185373306274,
                        "4": -0.13237570226192474,
                        "5": -0.07281702011823654,
                        "6": 0.05864419415593147,
                        "7": -0.1021907702088356,
                        "8": -0.04138747230172157,
                        "9": -0.14558641612529755,
                        "10": -0.09193558245897293,
                        "11": 0.11727955937385559,
                        "12": -0.001576236099936068,
                        "13": 0.021185357123613358,
                        "14": -0.10746072977781296,
                        "15": 0.24109213054180145,
                        "16": 0.09414563328027725,
                        "17": -0.1699579358100891,
                        "18": 0.0570378340780735,
                        "19": -0.22795234620571136,
                        "20": -0.16249355673789978,
                        "21": -0.015263032168149948,
                        "22": 0.053696393966674805,
                        "23": -0.22508342564105988,
                        "24": 0.1484985649585724,
                        "25": -0.1787676066160202,
                        "26": 0.051151908934116364,
                        "27": 0.02961483970284462,
                        "28": 0.026643062010407448,
                        "29": 0.12407127767801285,
                        "30": -0.17365221679210663,
                        "31": 0.05211320519447327,
                        "32": 0.028714599087834358,
                        "33": -0.12779469788074493,
                        "34": -0.15398909151554108,
                        "35": -0.23856939375400543,
                        "36": -0.11799854040145874,
                        "37": -0.10583344101905823,
                        "38": -0.2073768824338913,
                        "39": 0.16719894111156464,
                        "40": 0.04440988972783089,
                        "41": -0.09956514090299606,
                        "42": 0.041994307190179825,
                        "43": 0.04464791715145111,
                        "44": 0.1101040318608284,
                        "45": -0.20040100812911987,
                        "46": 0.09850864857435226,
                        "47": -0.15163031220436096,
                        "48": 0.06832308322191238,
                        "49": -0.07795988768339157,
                        "50": -0.1149643138051033,
                        "51": 0.06447223573923111,
                        "52": -0.03193548694252968,
                        "53": -0.022519037127494812,
                        "54": 0.28792428970336914,
                        "55": 0.05268938094377518,
                        "56": 0.08109534531831741,
                        "57": -0.0263579823076725,
                        "58": -0.03928440436720848,
                        "59": 0.188261941075325,
                        "60": 0.0185258612036705,
                        "61": 0.19397036731243134,
                        "62": 0.05421368405222893,
                        "63": 0.17061981558799744,
                        "64": 0.1898437738418579,
                        "65": -0.19855517148971558,
                        "66": 0.16611261665821075,
                        "67": -0.13045017421245575,
                        "68": 0.004759105853736401,
                        "69": -0.1467963010072708,
                        "70": -0.0219927616417408,
                        "71": -0.03366187587380409,
                        "72": -0.1043877825140953,
                        "73": -0.04833853617310524,
                        "74": -0.13310223817825317,
                        "75": 0.033895350992679596,
                        "76": -0.16966943442821503,
                        "77": -0.06342713534832001,
                        "78": 0.09085935354232788,
                        "79": 0.20011889934539795,
                        "80": 0.03249504044651985,
                        "81": 0.05569997802376747,
                        "82": -0.05108590051531792,
                        "83": 0.019735530018806458,
                        "84": 0.1701374650001526,
                        "85": 0.2853175699710846,
                        "86": 0.06623482704162598,
                        "87": 0.12740276753902435,
                        "88": 0.0038762050680816174,
                        "89": -0.14878566563129425,
                        "90": 0.1509203463792801,
                        "91": -0.029581459239125252,
                        "92": -0.2001841962337494,
                        "93": 0.12029891461133957,
                        "94": -0.20486612617969513,
                        "95": 0.018036819994449615,
                        "96": 0.2016741931438446,
                        "97": -0.028434596955776215,
                        "98": -0.056984372437000275,
                        "99": -0.046768657863140106,
                        "100": 0.19965699315071106,
                        "101": 0.13948501646518707,
                        "102": 0.06886643171310425,
                        "103": 0.2586681842803955,
                        "104": 0.1014580950140953,
                        "105": -0.14050304889678955,
                        "106": -0.17591872811317444,
                        "107": -0.15185566246509552,
                        "108": 0.0836571753025055,
                        "109": -0.11359203606843948,
                        "110": 0.13133898377418518,
                        "111": 0.19059859216213226,
                        "112": -0.1577465683221817,
                        "113": 0.1952497959136963,
                        "114": 0.19053326547145844,
                        "115": 0.23273396492004395,
                        "116": 0.16270120441913605,
                        "117": 0.2506452202796936,
                        "118": 0.29479384422302246,
                        "119": 0.25918644666671753,
                        "120": 0.29027509689331055,
                        "121": 0.016717230901122093,
                        "122": 0.07371769100427628,
                        "123": 0.22081370651721954,
                        "124": 0.2519252300262451,
                        "125": 0.07969323545694351,
                        "126": -0.09186571836471558,
                        "127": 0.1689184457063675,
                        "128": -0.09115665405988693,
                        "129": 0.10880855470895767,
                        "130": -0.0016961146611720324,
                        "131": 0.06389911472797394,
                        "132": 0.03650081530213356,
                        "133": 0.028895454481244087,
                        "134": -0.06681935489177704,
                        "135": 0.04170821234583855,
                        "136": 0.2768275737762451,
                        "137": 0.05881994962692261,
                        "138": -0.10861385613679886,
                        "139": 0.059166546911001205,
                        "140": 0.0376560278236866,
                        "141": -0.0791419968008995,
                        "142": -0.0853574350476265,
                        "143": 0.153605118393898,
                        "144": 0.11337444186210632,
                        "145": 0.01299224328249693,
                        "146": -0.12645301222801208,
                        "147": -0.13002602756023407,
                        "148": 0.11436687409877777,
                        "149": 0.02372419461607933,
                        "150": 0.036538880318403244,
                        "151": -0.06951742619276047,
                        "152": 0.02427181601524353,
                        "153": -0.12408418953418732,
                        "154": 0.015358024276793003,
                        "155": 0.0616435743868351,
                        "156": 0.1618654727935791,
                        "157": -0.12145554274320602,
                        "158": -0.015467094257473946,
                        "159": 0.11959877610206604,
                        "160": 0.15774160623550415,
                        "161": 0.16082079708576202,
                        "162": 0.1007976233959198,
                        "163": -0.15884090960025787,
                        "164": 0.048751816153526306,
                        "165": 0.09594280272722244,
                        "166": 0.03229844942688942,
                        "167": -0.07594751566648483,
                        "168": 0.22434012591838837,
                        "169": 0.04893862456083298,
                        "170": 0.08321978151798248,
                        "171": -0.1959105283021927,
                        "172": 0.02475658245384693,
                        "173": -0.09427588433027267,
                        "174": 0.21006377041339874,
                        "175": 0.22760117053985596,
                        "176": -0.058662593364715576,
                        "177": -0.11779962480068207,
                        "178": 0.039387695491313934,
                        "179": -0.12681402266025543,
                        "180": 0.027380382642149925,
                        "181": -0.09184566140174866,
                        "182": -0.1050630435347557,
                        "183": 0.040405433624982834,
                        "184": 0.16980503499507904,
                        "185": -0.008653400465846062,
                        "186": -0.10028094798326492,
                        "187": -0.15196925401687622,
                        "188": -0.2313932180404663,
                        "189": -0.1482677012681961,
                        "190": -0.16080372035503387,
                        "191": 0.0565505214035511,
                        "192": -0.08802146464586258,
                        "193": -0.031385548412799835,
                        "194": 0.03026469238102436,
                        "195": -0.009377685375511646,
                        "196": 0.08003976196050644,
                        "197": -0.013840257190167904,
                        "198": 0.21242685616016388,
                        "199": -0.10282181948423386,
                        "200": 0.1659647524356842,
                        "201": -0.178422749042511,
                        "202": 0.08110999315977097,
                        "203": -0.21704532206058502,
                        "204": 0.08527828752994537,
                        "205": 0.07963380962610245,
                        "206": 0.1220710277557373,
                        "207": -0.06611916422843933,
                        "208": 0.1210547685623169,
                        "209": -0.04815107211470604,
                        "210": 0.08870402723550797,
                        "211": -0.10417885333299637,
                        "212": 0.10830993950366974,
                        "213": 0.2497689574956894,
                        "214": -0.04936471953988075,
                        "215": 0.043117593973875046,
                        "216": 0.019419094547629356,
                        "217": -0.17511488497257233,
                        "218": -0.16271591186523438,
                        "219": -0.22162969410419464,
                        "220": 0.09358663111925125,
                        "221": 0.13473398983478546,
                        "222": 0.016926970332860947,
                        "223": 0.06980637460947037,
                        "224": -0.02436157688498497,
                        "225": 0.22549991309642792,
                        "226": -0.07615514099597931,
                        "227": 0.20352333784103394,
                        "228": 0.20312613248825073,
                        "229": 0.1606454700231552,
                        "230": 0.12171600759029388,
                        "231": 0.11873175203800201,
                        "232": -0.08188523352146149,
                        "233": -0.19107995927333832,
                        "234": 0.03973168879747391,
                        "235": 0.11953051388263702,
                        "236": 0.05776279419660568,
                        "237": 0.04652327299118042,
                        "238": -0.01213918998837471,
                        "239": -0.1539703607559204,
                        "240": 0.22474193572998047,
                        "241": 0.07677056640386581,
                        "242": 0.16840462386608124,
                        "243": 0.03242487087845802,
                        "244": -0.1468513309955597,
                        "245": 0.1482471227645874,
                        "246": 0.18590645492076874,
                        "247": -0.06983857601881027,
                        "248": 0.10620150715112686,
                        "249": -0.1968861222267151,
                        "250": -0.06379319727420807,
                        "251": -0.16842332482337952,
                        "252": -0.09799627214670181,
                        "253": 0.16744233667850494,
                        "254": -0.10656949132680893,
                        "255": -0.05858930945396423
                    }
                },
                "3": {
                    "bias": 0.10873129218816757,
                    "weights": {
                        "0": -0.05503161996603012,
                        "1": -0.09409748762845993,
                        "2": 0.08197028934955597,
                        "3": -0.13451258838176727,
                        "4": -0.13493074476718903,
                        "5": -0.23712994158267975,
                        "6": -0.1236831545829773,
                        "7": 0.025156334042549133,
                        "8": -0.11536740511655807,
                        "9": -0.15776216983795166,
                        "10": 0.07439591735601425,
                        "11": 0.0025762205477803946,
                        "12": 0.10290481895208359,
                        "13": 0.10567855089902878,
                        "14": 0.0077260141260921955,
                        "15": 0.15666188299655914,
                        "16": -0.03213413804769516,
                        "17": -0.22863148152828217,
                        "18": -0.026332976296544075,
                        "19": -0.009988410398364067,
                        "20": -0.2558114230632782,
                        "21": -0.10229851305484772,
                        "22": 0.07329440116882324,
                        "23": -0.10294520854949951,
                        "24": -0.11700790375471115,
                        "25": -0.13713984191417694,
                        "26": 0.20059135556221008,
                        "27": -0.07904872298240662,
                        "28": -0.17464646697044373,
                        "29": 0.11671213060617447,
                        "30": 0.08397078514099121,
                        "31": 0.1683025062084198,
                        "32": -0.11908271163702011,
                        "33": 0.11401587724685669,
                        "34": 0.08498001843690872,
                        "35": 0.09551190584897995,
                        "36": -0.08376381546258926,
                        "37": 0.14169836044311523,
                        "38": 0.027656175196170807,
                        "39": 0.11053923517465591,
                        "40": 0.14695759117603302,
                        "41": -0.09102150052785873,
                        "42": -0.047270774841308594,
                        "43": -0.20134972035884857,
                        "44": 0.05486343055963516,
                        "45": 0.09295859187841415,
                        "46": 0.1909141093492508,
                        "47": -0.11003486812114716,
                        "48": -0.18118366599082947,
                        "49": -0.20461779832839966,
                        "50": 0.08547565340995789,
                        "51": 0.10458852350711823,
                        "52": 0.11542926728725433,
                        "53": 0.06674148887395859,
                        "54": 0.0356546975672245,
                        "55": 0.2009667456150055,
                        "56": -0.038372159004211426,
                        "57": 0.11092927306890488,
                        "58": -0.06880159676074982,
                        "59": -0.05244022607803345,
                        "60": -0.061804089695215225,
                        "61": 0.12109162658452988,
                        "62": -0.047730088233947754,
                        "63": 0.0767674595117569,
                        "64": 0.08013880997896194,
                        "65": -0.014286896213889122,
                        "66": 0.05886385962367058,
                        "67": -0.034952811896800995,
                        "68": 0.1098877340555191,
                        "69": 0.13459376990795135,
                        "70": 0.004370774608105421,
                        "71": 0.22524526715278625,
                        "72": -0.10800620168447495,
                        "73": 0.11302737146615982,
                        "74": 0.23305438458919525,
                        "75": -0.05256548896431923,
                        "76": -0.16903436183929443,
                        "77": 0.058127809315919876,
                        "78": -0.02895873785018921,
                        "79": 0.19373129308223724,
                        "80": -0.12029621750116348,
                        "81": -0.000725192716345191,
                        "82": 0.0506477989256382,
                        "83": 0.07496028393507004,
                        "84": 0.05518469586968422,
                        "85": 0.26477840542793274,
                        "86": 0.15890172123908997,
                        "87": 0.01950378343462944,
                        "88": 0.2672158479690552,
                        "89": 0.007224065251648426,
                        "90": 0.20519541203975677,
                        "91": -0.10792659223079681,
                        "92": -0.11519810557365417,
                        "93": -0.08139869570732117,
                        "94": -0.07598170638084412,
                        "95": 0.006132483948022127,
                        "96": 0.07201623916625977,
                        "97": -0.0737171620130539,
                        "98": -0.11676541715860367,
                        "99": -0.14315669238567352,
                        "100": -0.004054931458085775,
                        "101": -0.08945731818675995,
                        "102": 0.25093308091163635,
                        "103": 0.0014416213380172849,
                        "104": 0.24253018200397491,
                        "105": -0.07312978059053421,
                        "106": 0.18935619294643402,
                        "107": -0.11507341265678406,
                        "108": -0.025197191163897514,
                        "109": -0.16557219624519348,
                        "110": 0.09849726408720016,
                        "111": 0.02459191344678402,
                        "112": -0.07347097992897034,
                        "113": -0.02943984419107437,
                        "114": 0.08043041825294495,
                        "115": 0.050674475729465485,
                        "116": -0.06744067370891571,
                        "117": 0.2624441385269165,
                        "118": -0.035443998873233795,
                        "119": -0.13512513041496277,
                        "120": 0.20169475674629211,
                        "121": 0.18353816866874695,
                        "122": -0.1394530087709427,
                        "123": 0.031371667981147766,
                        "124": 0.1281665712594986,
                        "125": -0.0002060186379821971,
                        "126": -0.05920560657978058,
                        "127": 0.17833755910396576,
                        "128": 0.09917918592691422,
                        "129": -0.20658516883850098,
                        "130": -0.013042132370173931,
                        "131": 0.16022942960262299,
                        "132": 0.07574400305747986,
                        "133": -0.08499527722597122,
                        "134": 0.20057646930217743,
                        "135": -0.08006928116083145,
                        "136": -0.1593823879957199,
                        "137": 0.013210843317210674,
                        "138": 0.008636646904051304,
                        "139": 0.0218797754496336,
                        "140": 0.09125890582799911,
                        "141": -0.24338074028491974,
                        "142": -0.04273207485675812,
                        "143": -0.09709107130765915,
                        "144": -0.12505342066287994,
                        "145": -0.18765246868133545,
                        "146": 0.12223072350025177,
                        "147": -0.11437828093767166,
                        "148": 0.14574553072452545,
                        "149": -0.11257614940404892,
                        "150": 0.01579101011157036,
                        "151": 0.13563653826713562,
                        "152": -0.09371400624513626,
                        "153": -0.044831741601228714,
                        "154": -0.06536341458559036,
                        "155": -0.011902510188519955,
                        "156": -0.11943875998258591,
                        "157": 0.053190138190984726,
                        "158": 0.08387982100248337,
                        "159": -0.17289911210536957,
                        "160": 0.14620891213417053,
                        "161": 0.09233421832323074,
                        "162": 0.026320604607462883,
                        "163": 0.16359175741672516,
                        "164": 0.09395300596952438,
                        "165": 0.2631109654903412,
                        "166": 0.11268071830272675,
                        "167": 0.03078402206301689,
                        "168": 0.1825062781572342,
                        "169": -0.054535649716854095,
                        "170": 0.02513216622173786,
                        "171": 0.11230755597352982,
                        "172": -0.173908069729805,
                        "173": -0.039080146700143814,
                        "174": 0.09872172772884369,
                        "175": 0.21509701013565063,
                        "176": 0.12589028477668762,
                        "177": 0.06801193207502365,
                        "178": 0.12082064151763916,
                        "179": -0.0961705818772316,
                        "180": 0.09142505377531052,
                        "181": 0.22766879200935364,
                        "182": 0.03446314111351967,
                        "183": -0.0005653933039866388,
                        "184": 0.23333990573883057,
                        "185": 0.208725243806839,
                        "186": -0.2180933654308319,
                        "187": -0.15188506245613098,
                        "188": -0.26515647768974304,
                        "189": 0.07437662780284882,
                        "190": 0.022023677825927734,
                        "191": -0.11895649135112762,
                        "192": -0.12871089577674866,
                        "193": -0.1134709045290947,
                        "194": 0.214016392827034,
                        "195": 0.04308110103011131,
                        "196": -0.024709979072213173,
                        "197": -0.008345472626388073,
                        "198": 0.012059522792696953,
                        "199": 0.07986786216497421,
                        "200": 0.07346024364233017,
                        "201": 0.05055120959877968,
                        "202": -0.10780792683362961,
                        "203": -0.2096143513917923,
                        "204": 0.007480974309146404,
                        "205": 0.081802137196064,
                        "206": 0.09820211678743362,
                        "207": 0.06457187980413437,
                        "208": 0.1069120243191719,
                        "209": 0.07163432985544205,
                        "210": 0.0422183983027935,
                        "211": 0.0755821168422699,
                        "212": 0.1841919869184494,
                        "213": 0.121167853474617,
                        "214": 0.05271664261817932,
                        "215": 0.1108364537358284,
                        "216": -0.03682735189795494,
                        "217": 0.17506952583789825,
                        "218": -0.17282207310199738,
                        "219": -0.1764134019613266,
                        "220": -0.19104400277137756,
                        "221": 0.11860660463571548,
                        "222": -0.0838998407125473,
                        "223": -0.058258794248104095,
                        "224": -0.04296274483203888,
                        "225": 0.24869897961616516,
                        "226": 0.24091482162475586,
                        "227": -0.061188798397779465,
                        "228": 0.14999821782112122,
                        "229": -0.012584872543811798,
                        "230": 0.09779252856969833,
                        "231": 0.031659673899412155,
                        "232": -0.01928623765707016,
                        "233": -0.03704932704567909,
                        "234": -0.1884673833847046,
                        "235": 0.07338180392980576,
                        "236": 0.0680297389626503,
                        "237": -0.025125885382294655,
                        "238": -0.07714984565973282,
                        "239": 0.005485848523676395,
                        "240": 0.25440239906311035,
                        "241": 0.17576682567596436,
                        "242": 0.22937987744808197,
                        "243": 0.1803782880306244,
                        "244": 0.18848109245300293,
                        "245": -0.1569325476884842,
                        "246": 0.16327716410160065,
                        "247": -0.07747217267751694,
                        "248": 0.016954369843006134,
                        "249": -0.18922339379787445,
                        "250": -0.016933949664235115,
                        "251": -0.11180318146944046,
                        "252": 0.12779276072978973,
                        "253": 0.004705313593149185,
                        "254": 0.20116788148880005,
                        "255": -0.07312635332345963
                    }
                },
                "4": {
                    "bias": -0.054907746613025665,
                    "weights": {
                        "0": 0.10836666077375412,
                        "1": 0.04214594513177872,
                        "2": 0.20215578377246857,
                        "3": -0.0826648697257042,
                        "4": 0.16658075153827667,
                        "5": 0.044547922909259796,
                        "6": -0.08055881410837173,
                        "7": 0.16236919164657593,
                        "8": -0.17156410217285156,
                        "9": 0.11472972482442856,
                        "10": 0.1798664778470993,
                        "11": -0.011406933888792992,
                        "12": -0.08173776417970657,
                        "13": 0.07970971614122391,
                        "14": -0.10091434419155121,
                        "15": -0.049194544553756714,
                        "16": 0.04134068265557289,
                        "17": -0.028272494673728943,
                        "18": 0.004229781683534384,
                        "19": 0.18036174774169922,
                        "20": -0.06608004122972488,
                        "21": 0.08252142369747162,
                        "22": -0.09265479445457458,
                        "23": 0.13556908071041107,
                        "24": -0.017161013558506966,
                        "25": -0.15166795253753662,
                        "26": -0.0016727682668715715,
                        "27": 0.04016241058707237,
                        "28": -0.1456039845943451,
                        "29": 0.038084276020526886,
                        "30": 0.07048806548118591,
                        "31": -0.07844053953886032,
                        "32": -0.05621553584933281,
                        "33": -0.11577961593866348,
                        "34": 0.08839621394872665,
                        "35": 0.06789306551218033,
                        "36": 0.21331176161766052,
                        "37": 0.08478573709726334,
                        "38": -0.15469777584075928,
                        "39": -0.052884433418512344,
                        "40": 0.06752173602581024,
                        "41": 0.023918824270367622,
                        "42": -0.0810350850224495,
                        "43": -0.07035986334085464,
                        "44": -0.12941202521324158,
                        "45": -0.16416673362255096,
                        "46": -0.08587196469306946,
                        "47": 0.1225067749619484,
                        "48": -0.13057713210582733,
                        "49": -0.017593393102288246,
                        "50": -0.103215292096138,
                        "51": 0.011969503946602345,
                        "52": 0.021878613159060478,
                        "53": 0.029236208647489548,
                        "54": -0.15793603658676147,
                        "55": -0.14989793300628662,
                        "56": -0.11058259755373001,
                        "57": -0.03655848279595375,
                        "58": -0.06912314891815186,
                        "59": 0.04564088210463524,
                        "60": -0.03361809626221657,
                        "61": 0.013348765671253204,
                        "62": 0.06683435291051865,
                        "63": 0.14650481939315796,
                        "64": -0.12867164611816406,
                        "65": 0.13745063543319702,
                        "66": 0.10740283131599426,
                        "67": -0.07957980781793594,
                        "68": -0.12136675417423248,
                        "69": 0.01726144552230835,
                        "70": -0.020854901522397995,
                        "71": 0.03728498890995979,
                        "72": 0.034168142825365067,
                        "73": -0.14100603759288788,
                        "74": -0.09321261197328568,
                        "75": 0.015937520191073418,
                        "76": 0.08030286431312561,
                        "77": 0.18607671558856964,
                        "78": -0.0653824433684349,
                        "79": 0.1514982283115387,
                        "80": -0.043544523417949677,
                        "81": 0.034627269953489304,
                        "82": -0.10956477373838425,
                        "83": -0.019965458661317825,
                        "84": 0.01853122189640999,
                        "85": 0.18278783559799194,
                        "86": 0.22025266289710999,
                        "87": -0.032282620668411255,
                        "88": 0.14748625457286835,
                        "89": 0.16540314257144928,
                        "90": -0.10227081924676895,
                        "91": -0.008919446729123592,
                        "92": 0.08052539825439453,
                        "93": -0.057942669838666916,
                        "94": 0.0981706902384758,
                        "95": -0.12507954239845276,
                        "96": 0.20092511177062988,
                        "97": -0.06434620916843414,
                        "98": -0.07617440074682236,
                        "99": -0.015511014498770237,
                        "100": 0.010969658382236958,
                        "101": 0.11358484625816345,
                        "102": 0.19928641617298126,
                        "103": 0.11510153859853745,
                        "104": 0.1145651713013649,
                        "105": 0.12343396991491318,
                        "106": 0.16650575399398804,
                        "107": 0.10970982164144516,
                        "108": -0.0892583429813385,
                        "109": -0.000829740078188479,
                        "110": 0.09270969033241272,
                        "111": 0.04909573122859001,
                        "112": 0.05179877579212189,
                        "113": -0.13895580172538757,
                        "114": 0.2271716594696045,
                        "115": -0.003411749145016074,
                        "116": 0.11094068735837936,
                        "117": -0.010623449459671974,
                        "118": -0.061411432921886444,
                        "119": 0.08269009739160538,
                        "120": -0.07270833849906921,
                        "121": 0.1394524723291397,
                        "122": 0.16068489849567413,
                        "123": -0.038671936839818954,
                        "124": -0.18057718873023987,
                        "125": 0.19606642425060272,
                        "126": 0.052545640617609024,
                        "127": -0.05873476713895798,
                        "128": -0.11470933258533478,
                        "129": 0.016362003982067108,
                        "130": -0.12680169939994812,
                        "131": -0.07977529615163803,
                        "132": -0.021259715780615807,
                        "133": -0.05314348265528679,
                        "134": 0.051390908658504486,
                        "135": -0.017312845215201378,
                        "136": 0.04167803004384041,
                        "137": 0.08777857571840286,
                        "138": 0.14630819857120514,
                        "139": 0.1713063269853592,
                        "140": 0.15352486073970795,
                        "141": 0.2002277821302414,
                        "142": -0.12940442562103271,
                        "143": 0.03184480592608452,
                        "144": 0.024563591927289963,
                        "145": -0.13357388973236084,
                        "146": 0.18621757626533508,
                        "147": -0.029802117496728897,
                        "148": -0.13695333898067474,
                        "149": 0.12497164309024811,
                        "150": 0.1381767839193344,
                        "151": 0.0934520736336708,
                        "152": -0.050698865205049515,
                        "153": 0.125410795211792,
                        "154": -0.17564266920089722,
                        "155": -0.07219314575195312,
                        "156": 0.18575596809387207,
                        "157": -0.0931435227394104,
                        "158": 0.06880851835012436,
                        "159": 0.03986234962940216,
                        "160": 0.08997074514627457,
                        "161": 0.04264985769987106,
                        "162": -0.01863972470164299,
                        "163": 0.03892954811453819,
                        "164": -0.12464027851819992,
                        "165": 0.10550511628389359,
                        "166": 0.21486076712608337,
                        "167": -0.04929614067077637,
                        "168": 0.1525413691997528,
                        "169": 0.13798868656158447,
                        "170": 0.18917477130889893,
                        "171": -0.17085705697536469,
                        "172": 0.029477452859282494,
                        "173": -0.04072358459234238,
                        "174": -0.10873578488826752,
                        "175": 0.027150917798280716,
                        "176": 0.06090859696269035,
                        "177": -0.06284501403570175,
                        "178": 0.019398607313632965,
                        "179": 0.16626648604869843,
                        "180": 0.13052067160606384,
                        "181": 0.10904672741889954,
                        "182": -0.09450017660856247,
                        "183": 0.04448661580681801,
                        "184": 0.15263624489307404,
                        "185": 0.1154719740152359,
                        "186": 0.00303068058565259,
                        "187": 0.18933342397212982,
                        "188": 0.0624837689101696,
                        "189": 0.1575728952884674,
                        "190": 0.142183318734169,
                        "191": 0.024355262517929077,
                        "192": 0.04631789028644562,
                        "193": 0.014197871088981628,
                        "194": 0.15005366504192352,
                        "195": -0.04379606619477272,
                        "196": -0.054817065596580505,
                        "197": 0.08231532573699951,
                        "198": 0.008267915807664394,
                        "199": 0.2060340940952301,
                        "200": 0.0962793305516243,
                        "201": 0.17651395499706268,
                        "202": 0.18001002073287964,
                        "203": 0.10159415751695633,
                        "204": -0.04449448734521866,
                        "205": 0.2158058136701584,
                        "206": -0.10549228638410568,
                        "207": 0.11919830739498138,
                        "208": 0.1149415522813797,
                        "209": -0.1043282151222229,
                        "210": -0.1650625318288803,
                        "211": -0.040419403463602066,
                        "212": -0.06690766662359238,
                        "213": -0.05378381907939911,
                        "214": 0.12542422115802765,
                        "215": 0.043971773236989975,
                        "216": -0.0008399041253142059,
                        "217": 0.09927637130022049,
                        "218": -0.18807347118854523,
                        "219": 0.022218838334083557,
                        "220": -0.1320827454328537,
                        "221": 0.19418665766716003,
                        "222": 0.13874731957912445,
                        "223": -0.031686510890722275,
                        "224": 0.10670742392539978,
                        "225": -0.03977949544787407,
                        "226": -0.04635496065020561,
                        "227": 0.17845460772514343,
                        "228": -0.07126627117395401,
                        "229": -0.1448860466480255,
                        "230": 0.10141361504793167,
                        "231": -0.15332581102848053,
                        "232": -0.1648888885974884,
                        "233": -0.16871367394924164,
                        "234": 0.17187602818012238,
                        "235": -0.08444391191005707,
                        "236": 0.09559103101491928,
                        "237": 0.21206720173358917,
                        "238": 0.1536765843629837,
                        "239": 0.0520060658454895,
                        "240": 0.22611187398433685,
                        "241": 0.2166234403848648,
                        "242": -0.054995082318782806,
                        "243": 0.038142018020153046,
                        "244": 0.053376540541648865,
                        "245": 0.18061794340610504,
                        "246": 0.15606863796710968,
                        "247": 0.11858950555324554,
                        "248": 0.01131059043109417,
                        "249": 0.09717969596385956,
                        "250": 0.01861931011080742,
                        "251": -0.1041712760925293,
                        "252": -0.02649831958115101,
                        "253": 0.16825346648693085,
                        "254": 0.16267722845077515,
                        "255": 0.04666803404688835
                    }
                },
                "5": {
                    "bias": -0.033178556710481644,
                    "weights": {
                        "0": -0.25311166048049927,
                        "1": -0.18663407862186432,
                        "2": 0.13687188923358917,
                        "3": -0.10027863830327988,
                        "4": -0.05949025973677635,
                        "5": -0.12636423110961914,
                        "6": -0.0458771176636219,
                        "7": 0.09961742907762527,
                        "8": 0.004470115527510643,
                        "9": 0.11378592997789383,
                        "10": 0.18688471615314484,
                        "11": -0.17591601610183716,
                        "12": 0.12058882415294647,
                        "13": -0.18551105260849,
                        "14": 0.03724091500043869,
                        "15": -0.10409612208604813,
                        "16": -0.10926633328199387,
                        "17": -0.06587105244398117,
                        "18": -0.15526683628559113,
                        "19": 0.10832773149013519,
                        "20": -0.15047043561935425,
                        "21": -0.14783456921577454,
                        "22": -0.030487587675452232,
                        "23": 0.03494716063141823,
                        "24": 0.10929080843925476,
                        "25": -0.1134638786315918,
                        "26": -0.1819748878479004,
                        "27": 0.07265736162662506,
                        "28": 0.18102730810642242,
                        "29": 0.017080485820770264,
                        "30": -0.13894310593605042,
                        "31": 0.07379346340894699,
                        "32": -0.20131409168243408,
                        "33": 0.13643038272857666,
                        "34": -0.22559082508087158,
                        "35": 0.07340873777866364,
                        "36": -0.022203650325536728,
                        "37": 0.17487023770809174,
                        "38": -0.10978422313928604,
                        "39": 0.07405151426792145,
                        "40": -0.18646904826164246,
                        "41": -0.06833529472351074,
                        "42": 0.09523289650678635,
                        "43": 0.13372839987277985,
                        "44": -0.18046794831752777,
                        "45": -0.02132343128323555,
                        "46": 0.00030698056798428297,
                        "47": -0.21124352514743805,
                        "48": -0.15147556364536285,
                        "49": -0.18551595509052277,
                        "50": 0.14640803635120392,
                        "51": -0.08333095163106918,
                        "52": -0.0680730789899826,
                        "53": 0.06106356903910637,
                        "54": -0.18414752185344696,
                        "55": -0.17417432367801666,
                        "56": -0.2716495096683502,
                        "57": -0.11420802772045135,
                        "58": -0.019321296364068985,
                        "59": 0.12054559588432312,
                        "60": 0.0249886903911829,
                        "61": -0.25427019596099854,
                        "62": 0.06418456137180328,
                        "63": -0.047740109264850616,
                        "64": -0.0062791104428470135,
                        "65": -0.13007201254367828,
                        "66": 0.10306637734174728,
                        "67": -0.12013073265552521,
                        "68": -0.0754421204328537,
                        "69": -0.07285954803228378,
                        "70": -0.10482833534479141,
                        "71": -0.11766047775745392,
                        "72": 0.017691319808363914,
                        "73": 0.133408322930336,
                        "74": 0.14772789180278778,
                        "75": -0.1356848031282425,
                        "76": 0.11788755655288696,
                        "77": 0.09553425014019012,
                        "78": -0.004016262013465166,
                        "79": 0.0042732818983495235,
                        "80": -0.2092929631471634,
                        "81": 0.11556383222341537,
                        "82": -0.09190388768911362,
                        "83": -0.23593318462371826,
                        "84": 0.005394297186285257,
                        "85": -0.255359411239624,
                        "86": 0.008035605773329735,
                        "87": -0.22210107743740082,
                        "88": 0.028780413791537285,
                        "89": -0.21687769889831543,
                        "90": 0.06133880093693733,
                        "91": -0.20889228582382202,
                        "92": 0.07019047439098358,
                        "93": -0.12633217871189117,
                        "94": -0.1408395618200302,
                        "95": 0.006560181267559528,
                        "96": -0.059534866362810135,
                        "97": 0.09905435144901276,
                        "98": -0.12545274198055267,
                        "99": -0.09884648025035858,
                        "100": -0.13222922384738922,
                        "101": 0.08616473525762558,
                        "102": -0.03578794375061989,
                        "103": -0.0764203667640686,
                        "104": -0.06710705906152725,
                        "105": -0.19459713995456696,
                        "106": -0.13986705243587494,
                        "107": -0.10015907138586044,
                        "108": -0.24094612896442413,
                        "109": -0.16956502199172974,
                        "110": -0.19885002076625824,
                        "111": -0.07934390008449554,
                        "112": -0.12009897828102112,
                        "113": 0.05528344586491585,
                        "114": -0.19002048671245575,
                        "115": -0.1895706057548523,
                        "116": -0.05156164616346359,
                        "117": 0.08414909988641739,
                        "118": -0.0030935918912291527,
                        "119": -0.14662425220012665,
                        "120": 0.14093972742557526,
                        "121": -0.08657734841108322,
                        "122": 0.1655346304178238,
                        "123": 0.16225121915340424,
                        "124": -0.014571025036275387,
                        "125": 0.08483566343784332,
                        "126": -0.2561807632446289,
                        "127": -0.16110087931156158,
                        "128": 0.025410674512386322,
                        "129": -0.2151423543691635,
                        "130": -0.07116950303316116,
                        "131": -0.22001808881759644,
                        "132": 0.10807880014181137,
                        "133": 0.13563501834869385,
                        "134": -0.026358524337410927,
                        "135": -0.18987487256526947,
                        "136": -0.03728598356246948,
                        "137": -0.03722900524735451,
                        "138": 0.1399565488100052,
                        "139": 0.14474937319755554,
                        "140": 0.11768674850463867,
                        "141": 0.033156126737594604,
                        "142": -0.16553236544132233,
                        "143": -0.29481950402259827,
                        "144": -0.04634378105401993,
                        "145": -0.12301389127969742,
                        "146": -0.06899166107177734,
                        "147": -0.028617165982723236,
                        "148": 0.024229256436228752,
                        "149": 0.05330003425478935,
                        "150": -0.18322494626045227,
                        "151": -0.01955275423824787,
                        "152": 0.07790831476449966,
                        "153": -0.11686253547668457,
                        "154": 0.03269297629594803,
                        "155": 0.020296277478337288,
                        "156": 0.04996224492788315,
                        "157": 0.16119830310344696,
                        "158": -0.022423777729272842,
                        "159": 0.07450098544359207,
                        "160": 0.05086822807788849,
                        "161": -0.24013714492321014,
                        "162": -0.10279656201601028,
                        "163": 0.04380854591727257,
                        "164": -0.13847090303897858,
                        "165": 0.0009589745895937085,
                        "166": -0.0891074687242508,
                        "167": -0.004406769759953022,
                        "168": -0.15957076847553253,
                        "169": 0.13409636914730072,
                        "170": -0.018572930246591568,
                        "171": 0.11230290681123734,
                        "172": -0.20257051289081573,
                        "173": 0.06849728524684906,
                        "174": 0.0006022211746312678,
                        "175": 0.01783350296318531,
                        "176": -0.12891821563243866,
                        "177": 0.003961412236094475,
                        "178": -0.06427445262670517,
                        "179": 0.09133151173591614,
                        "180": -0.0903865322470665,
                        "181": 0.0069699655286967754,
                        "182": -0.055722493678331375,
                        "183": 0.0031863036565482616,
                        "184": -0.2354191541671753,
                        "185": -0.023446286097168922,
                        "186": 0.1117936372756958,
                        "187": -0.15098826587200165,
                        "188": 0.1893346607685089,
                        "189": -0.18555089831352234,
                        "190": 0.13433809578418732,
                        "191": -0.19094480574131012,
                        "192": -0.12588950991630554,
                        "193": -0.07491069287061691,
                        "194": 0.018240632489323616,
                        "195": -0.12947547435760498,
                        "196": -0.03264297917485237,
                        "197": -0.2643676698207855,
                        "198": -0.11943374574184418,
                        "199": 0.07324565201997757,
                        "200": -0.10534455627202988,
                        "201": -0.014188149012625217,
                        "202": 0.13348212838172913,
                        "203": -0.1394907385110855,
                        "204": 0.007823273539543152,
                        "205": -0.16646425426006317,
                        "206": -0.006597872823476791,
                        "207": -0.21353502571582794,
                        "208": -0.2371997833251953,
                        "209": -0.14347419142723083,
                        "210": -0.17318056523799896,
                        "211": -0.016673514619469643,
                        "212": 0.09318561106920242,
                        "213": -0.1922842115163803,
                        "214": -0.17023931443691254,
                        "215": -0.05282846465706825,
                        "216": 0.10111119598150253,
                        "217": 0.1205223947763443,
                        "218": 0.0837792232632637,
                        "219": -0.20801126956939697,
                        "220": -0.10938163101673126,
                        "221": -0.036125801503658295,
                        "222": -0.08834502846002579,
                        "223": -0.24487735331058502,
                        "224": 0.0816081091761589,
                        "225": -0.2055756002664566,
                        "226": 0.06237378716468811,
                        "227": -0.046105287969112396,
                        "228": -0.044932980090379715,
                        "229": -0.007313529495149851,
                        "230": -0.08225532621145248,
                        "231": 0.11956938356161118,
                        "232": -0.1844191700220108,
                        "233": -0.17368514835834503,
                        "234": -0.1215062066912651,
                        "235": -0.097917839884758,
                        "236": 0.03954802826046944,
                        "237": -0.12149699032306671,
                        "238": 0.1525816023349762,
                        "239": -0.0277286097407341,
                        "240": -0.20505712926387787,
                        "241": -0.15770985186100006,
                        "242": 0.07977957278490067,
                        "243": -0.034662067890167236,
                        "244": -0.21234332025051117,
                        "245": -0.006393782794475555,
                        "246": -0.23950405418872833,
                        "247": -0.23457925021648407,
                        "248": 0.0549422949552536,
                        "249": 0.06573714315891266,
                        "250": -0.1353405863046646,
                        "251": 0.06344001740217209,
                        "252": -0.1881301999092102,
                        "253": -0.19704440236091614,
                        "254": 0.05973707512021065,
                        "255": -0.041961248964071274
                    }
                },
                "6": {
                    "bias": 0.022310297936201096,
                    "weights": {
                        "0": 0.06653150171041489,
                        "1": -0.09433107078075409,
                        "2": -0.05716758221387863,
                        "3": 0.03916574642062187,
                        "4": -0.021906685084104538,
                        "5": -0.19002175331115723,
                        "6": 0.04237208142876625,
                        "7": -0.1164407953619957,
                        "8": -0.06070580706000328,
                        "9": 0.18342888355255127,
                        "10": -0.13244009017944336,
                        "11": -0.13248014450073242,
                        "12": -0.12321694940328598,
                        "13": -0.05572516471147537,
                        "14": -0.15997345745563507,
                        "15": -0.1684817373752594,
                        "16": 0.09369679540395737,
                        "17": 0.1630828082561493,
                        "18": -0.15329569578170776,
                        "19": -0.21254266798496246,
                        "20": -0.18942764401435852,
                        "21": 0.02413961850106716,
                        "22": 0.05981820449233055,
                        "23": -0.18923738598823547,
                        "24": -0.1412981152534485,
                        "25": 0.044677555561065674,
                        "26": 0.004707410931587219,
                        "27": -0.16074568033218384,
                        "28": -0.07406523078680038,
                        "29": -0.1637565940618515,
                        "30": -0.11203350126743317,
                        "31": -0.05291740223765373,
                        "32": -0.017736615613102913,
                        "33": 0.1845759004354477,
                        "34": -0.09465435147285461,
                        "35": 0.155900776386261,
                        "36": -0.13425147533416748,
                        "37": -0.16611409187316895,
                        "38": 0.19053494930267334,
                        "39": 0.16171333193778992,
                        "40": -0.030518487095832825,
                        "41": -0.03698441758751869,
                        "42": -0.11701547354459763,
                        "43": -0.008779184892773628,
                        "44": -0.20403607189655304,
                        "45": 0.12223944813013077,
                        "46": -0.2124999761581421,
                        "47": -0.1248384565114975,
                        "48": 0.035535529255867004,
                        "49": 0.15545116364955902,
                        "50": 0.09197250008583069,
                        "51": 0.12030983716249466,
                        "52": -0.15118925273418427,
                        "53": -0.10561148077249527,
                        "54": 0.08110865950584412,
                        "55": -0.15714766085147858,
                        "56": 0.11702334135770798,
                        "57": -0.04460962116718292,
                        "58": 0.047779977321624756,
                        "59": 0.09289806336164474,
                        "60": -0.12944357097148895,
                        "61": -0.17376349866390228,
                        "62": 0.09053714573383331,
                        "63": 0.13321320712566376,
                        "64": -0.13693486154079437,
                        "65": 0.17657558619976044,
                        "66": -0.06521573662757874,
                        "67": 0.13942570984363556,
                        "68": 0.028726069256663322,
                        "69": -0.07274831086397171,
                        "70": 0.10828875005245209,
                        "71": -0.054405245929956436,
                        "72": 0.12649786472320557,
                        "73": -0.04273306205868721,
                        "74": -0.055435072630643845,
                        "75": 0.13477535545825958,
                        "76": -0.16619277000427246,
                        "77": -0.1524084210395813,
                        "78": 0.006359322462230921,
                        "79": -0.03571850061416626,
                        "80": 0.014881247654557228,
                        "81": -0.06306136399507523,
                        "82": -0.06113867089152336,
                        "83": 0.04093298316001892,
                        "84": 0.02145499177277088,
                        "85": 0.13494397699832916,
                        "86": -0.06381571292877197,
                        "87": 0.16819730401039124,
                        "88": -0.16781742870807648,
                        "89": -0.1566624939441681,
                        "90": 0.06459925323724747,
                        "91": -0.1531173586845398,
                        "92": -0.0921078696846962,
                        "93": -0.06060507521033287,
                        "94": -0.09590225666761398,
                        "95": 0.1042986586689949,
                        "96": -0.10622170567512512,
                        "97": -0.2059609293937683,
                        "98": -0.08879347145557404,
                        "99": 0.08453309535980225,
                        "100": -0.15102846920490265,
                        "101": 0.09640124440193176,
                        "102": -0.17829155921936035,
                        "103": -0.022488553076982498,
                        "104": 0.04701100289821625,
                        "105": -0.13100673258304596,
                        "106": -0.19974052906036377,
                        "107": -0.08294759690761566,
                        "108": -0.14752809703350067,
                        "109": -0.2087429165840149,
                        "110": -0.15875568985939026,
                        "111": 0.018087461590766907,
                        "112": 0.1451721489429474,
                        "113": 0.11248711496591568,
                        "114": 0.19268198311328888,
                        "115": 0.11357556283473969,
                        "116": -0.07440390437841415,
                        "117": -0.18282318115234375,
                        "118": 0.03326648473739624,
                        "119": -0.12713806331157684,
                        "120": 0.18796086311340332,
                        "121": 0.09725917130708694,
                        "122": -0.10608846694231033,
                        "123": 0.2010817676782608,
                        "124": 0.11563047021627426,
                        "125": -0.19643378257751465,
                        "126": -0.21509559452533722,
                        "127": 0.16970044374465942,
                        "128": -0.05557301640510559,
                        "129": 0.11740624159574509,
                        "130": -0.16554273664951324,
                        "131": -0.018646705895662308,
                        "132": -0.17773780226707458,
                        "133": -0.09869661927223206,
                        "134": -0.1767091453075409,
                        "135": -0.10639934986829758,
                        "136": 0.16072534024715424,
                        "137": -0.04968183487653732,
                        "138": -0.04734456539154053,
                        "139": 0.12675011157989502,
                        "140": -0.08006124943494797,
                        "141": 0.1151110827922821,
                        "142": -0.20444506406784058,
                        "143": -0.15613631904125214,
                        "144": -0.21312245726585388,
                        "145": -0.13106992840766907,
                        "146": 0.13479472696781158,
                        "147": -0.22677987813949585,
                        "148": -0.0716882273554802,
                        "149": 0.12692289054393768,
                        "150": -0.04337509348988533,
                        "151": 0.14109234511852264,
                        "152": 0.15118058025836945,
                        "153": 0.039010874927043915,
                        "154": 0.15932439267635345,
                        "155": -0.0169809702783823,
                        "156": -0.031243547797203064,
                        "157": -0.015333643183112144,
                        "158": 0.0955265611410141,
                        "159": 0.09369219094514847,
                        "160": 0.09442979097366333,
                        "161": -0.19283542037010193,
                        "162": -0.06997133046388626,
                        "163": 0.05572042614221573,
                        "164": -0.15039315819740295,
                        "165": -0.11293470859527588,
                        "166": -0.07965812087059021,
                        "167": 0.10653777420520782,
                        "168": 0.11976797133684158,
                        "169": -0.050600603222846985,
                        "170": 0.016993727535009384,
                        "171": 0.024949228391051292,
                        "172": 0.09606573730707169,
                        "173": -0.11975064128637314,
                        "174": -0.07721395045518875,
                        "175": 0.0819290354847908,
                        "176": 0.10919620841741562,
                        "177": -0.05050729587674141,
                        "178": 0.014928163960576057,
                        "179": 0.09675806760787964,
                        "180": 0.16703251004219055,
                        "181": -0.14439700543880463,
                        "182": 0.1286722719669342,
                        "183": 0.14204572141170502,
                        "184": -0.19628727436065674,
                        "185": 0.12307608127593994,
                        "186": 0.06335748732089996,
                        "187": 0.056425899267196655,
                        "188": -0.21146933734416962,
                        "189": 0.06059562414884567,
                        "190": -0.16892430186271667,
                        "191": -0.217434361577034,
                        "192": -0.12035863101482391,
                        "193": -0.024688871577382088,
                        "194": -0.128645122051239,
                        "195": -0.08395332843065262,
                        "196": 0.020149623975157738,
                        "197": 0.11448013037443161,
                        "198": 0.19717980921268463,
                        "199": -0.1836041808128357,
                        "200": -0.015003024600446224,
                        "201": -0.17905762791633606,
                        "202": 0.16457463800907135,
                        "203": 0.0414949432015419,
                        "204": -0.011251738294959068,
                        "205": -0.10201388597488403,
                        "206": -0.026677949354052544,
                        "207": 0.11289770901203156,
                        "208": -0.061437785625457764,
                        "209": -0.07001413404941559,
                        "210": -0.13898399472236633,
                        "211": -0.1242453083395958,
                        "212": -0.06383606046438217,
                        "213": 0.0470043309032917,
                        "214": -0.17459480464458466,
                        "215": 0.05969178304076195,
                        "216": -0.11672747880220413,
                        "217": 0.08149772137403488,
                        "218": 0.17832157015800476,
